
/* Species #1 : (Size 17) (AF 42.5294) (Age 10)  */


/* Organism #0 Fitness: 121 Error: 0 */
genomestart 0
trait 1 0.1 0 0 0 0 0 0 0 
trait 2 0.2 0 0 0 0 0 0 0 
trait 3 0.3 0 0 0 0 0 0 0 
node 1 3 1 1
node 2 3 1 1
node 3 3 1 1
node 4 1 1 1
node 5 2 1 1
node 6 1 1 1
node 7 1 1 3
node 8 2 0 2
gene 1 1 8 0.108863 0 1 0.108863 1
gene 3 2 8 0.227711 0 2 0.227711 1
gene 3 3 8 -0.348606 0 3 -0.348606 1
gene 2 4 8 -0.0674422 0 4 -0.0674422 1
gene 1 5 8 0.533205 0 5 0.533205 1
gene 3 6 8 0.646931 0 6 0.646931 1
gene 2 7 8 -0.164336 0 7 -0.164336 1
genomeend 0

/* Organism #1 Fitness: 33 Error: 0 */
genomestart 1
trait 1 0.1 0.321075 0 0 0 0.256737 0.24943 0 
trait 2 0.2 0 0 0 0 0 0 0 
trait 3 0.3 0 0 0 0 0 0 0 
node 1 3 1 1
node 2 3 1 1
node 3 3 1 1
node 4 1 1 1
node 5 2 1 1
node 6 1 1 1
node 7 1 1 3
node 8 2 0 2
gene 1 1 8 -0.139936 0 1 -0.139936 1
gene 3 2 8 1.81397 0 2 1.81397 1
gene 2 3 8 -2.25656 0 3 -2.25656 0
gene 2 4 8 2.00695 0 4 2.00695 1
gene 3 5 8 6.32834 0 5 6.32834 1
gene 3 6 8 0.385248 0 6 0.385248 1
gene 2 7 8 0.585413 0 7 0.585413 1
genomeend 1

/* Organism #2 Fitness: 5 Error: 0 */
genomestart 2
trait 1 0.1 0 0 0 0 0 0 0 
trait 2 0.2 0 0 0 0 0 0 0 
trait 3 0.3 0 0 0 0 0 0 0 
node 1 3 1 1
node 2 3 1 1
node 3 3 1 1
node 4 1 1 1
node 5 2 1 1
node 6 1 1 1
node 7 1 1 3
node 8 2 0 2
gene 2 1 8 -2.84567 0 1 -2.84567 1
gene 3 2 8 4.67934 0 2 4.67934 1
gene 3 3 8 -1.66203 0 3 -1.66203 0
gene 2 4 8 -2.01081 0 4 -2.01081 1
gene 3 5 8 4.29085 0 5 4.29085 1
gene 3 6 8 -0.66487 0 6 -0.66487 1
gene 1 7 8 -1.69885 0 7 -1.69885 1
genomeend 2

/* Organism #3 Fitness: 72 Error: 0 */
genomestart 3
trait 1 0.1 0 0 0 0 0 0 0 
trait 2 0.2 0 0 0 0 0 0 0 
trait 3 0.3 0 0 0 0 0 0 0 
node 1 2 1 1
node 2 3 1 1
node 3 3 1 1
node 4 3 1 1
node 5 1 1 1
node 6 1 1 1
node 7 3 1 3
node 8 2 0 2
node 11 1 0 0
gene 2 1 8 -2.53048 0 1 -2.53048 1
gene 3 2 8 3.21055 0 2 3.21055 1
gene 2 3 8 -0.408982 0 3 -0.408982 0
gene 2 4 8 1.72013 0 4 1.72013 1
gene 3 5 8 5.49466 0 5 5.49466 1
gene 1 6 8 2.06076 0 6 2.06076 1
gene 2 7 8 -1.95255 0 7 -1.95255 1
gene 2 3 11 -0.830936 0 12 -0.830936 1
gene 3 11 8 0.139049 0 13 0.139049 1
genomeend 3

/* Organism #4 Fitness: 35 Error: 0 */
genomestart 4
trait 1 0.1 0 0 0 0 0 0 0 
trait 2 0.2 0 0 0 0 0 0 0 
trait 3 0.3 0 0 0 0 0 0 0 
node 1 3 1 1
node 2 3 1 1
node 3 3 1 1
node 4 1 1 1
node 5 2 1 1
node 6 1 1 1
node 7 1 1 3
node 8 2 0 2
gene 1 1 8 0.108863 0 1 0.108863 1
gene 3 2 8 3.21055 0 2 3.21055 1
gene 3 3 8 -0.348606 0 3 -0.348606 0
gene 2 4 8 -0.0674422 0 4 -0.0674422 1
gene 3 5 8 5.49466 0 5 5.49466 1
gene 1 6 8 2.06076 0 6 2.06076 1
gene 2 7 8 -0.164336 0 7 -0.164336 1
genomeend 4

/* Organism #5 Fitness: 70 Error: 0 */
genomestart 5
trait 1 0.1 0 0 0 0 0 0 0 
trait 2 0.2 0 0 0 0 0 0 0 
trait 3 0.3 0 0 0 0 0 0 0 
node 1 2 1 1
node 2 3 1 1
node 3 3 1 1
node 4 3 1 1
node 5 1 1 1
node 6 1 1 1
node 7 3 1 3
node 8 2 0 2
gene 1 1 8 1.20248 0 1 1.20248 1
gene 3 2 8 -0.245596 0 2 -0.245596 1
gene 3 3 8 -2.17002 0 3 -2.17002 0
gene 2 4 8 -1.60838 0 4 -1.60838 1
gene 1 5 8 2.0922 0 5 2.0922 1
gene 3 6 8 2.06022 0 6 2.06022 1
gene 2 7 8 -0.44463 0 7 -0.44463 1
genomeend 5

/* Organism #6 Fitness: 54 Error: 0 */
genomestart 6
trait 1 0.1 0 0 0 0 0 0 0 
trait 2 0.2 0 0 0 0 0 0 0 
trait 3 0.3 0 0 0 0 0 0 0 
node 1 3 1 1
node 2 3 1 1
node 3 3 1 1
node 4 1 1 1
node 5 2 1 1
node 6 1 1 1
node 7 1 1 3
node 8 2 0 2
gene 2 1 8 -3.64427 0 1 -3.64427 1
gene 3 2 8 3.26157 0 2 3.26157 1
gene 3 3 8 0.907522 0 3 0.907522 0
gene 2 4 8 -0.608844 0 4 -0.608844 1
gene 1 5 8 3.88624 0 5 3.88624 1
gene 3 6 8 1.77123 0 6 1.77123 1
gene 2 7 8 -2.16493 0 7 -2.16493 1
genomeend 6

/* Organism #7 Fitness: 38 Error: 0 */
genomestart 7
trait 1 0.1 0 0 0 0 0 0 0 
trait 2 0.2 0 0 0 0 0 0 0 
trait 3 0.3 0 0 0 0 0 0 0 
node 1 2 1 1
node 2 3 1 1
node 3 3 1 1
node 4 3 1 1
node 5 1 1 1
node 6 1 1 1
node 7 3 1 3
node 8 2 0 2
gene 1 1 8 0.90249 0 1 0.90249 1
gene 3 2 8 -1.57272 0 2 -1.57272 1
gene 3 3 8 -0.348606 0 3 -0.348606 0
gene 2 4 8 -2.48295 0 4 -2.48295 1
gene 1 5 8 1.59683 0 5 1.59683 1
gene 1 6 8 3.29859 0 6 3.29859 1
gene 2 7 8 -0.84047 0 7 -0.84047 1
genomeend 7

/* Organism #8 Fitness: 5 Error: 0 */
genomestart 8
trait 1 0.1 0 0 0 0 0 0 0 
trait 2 0.2 0 0 0 0 0 0 0 
trait 3 0.3 0 0 0 0 0 0 0 
node 1 2 1 1
node 2 3 1 1
node 3 3 1 1
node 4 3 1 1
node 5 1 1 1
node 6 1 1 1
node 7 3 1 3
node 8 2 0 2
gene 1 1 8 0.72804 0 1 0.72804 1
gene 3 2 8 2.59779 0 2 2.59779 1
gene 2 3 8 1.46668 0 3 1.46668 0
gene 2 4 8 -0.777072 0 4 -0.777072 1
gene 1 5 8 0.123547 0 5 0.123547 1
gene 3 6 8 -0.550204 0 6 -0.550204 1
gene 2 7 8 -2.13474 0 7 -2.13474 1
genomeend 8

/* Organism #9 Fitness: 5 Error: 0 */
genomestart 9
trait 1 0.1 0 0 0 0 0 0 0 
trait 2 0.2 0 0 0 0 0 0 0 
trait 3 0.3 0 0 0 0 0 0 0 
node 1 3 1 1
node 2 3 1 1
node 3 3 1 1
node 4 1 1 1
node 5 2 1 1
node 6 1 1 1
node 7 1 1 3
node 8 2 0 2
gene 1 1 8 -2.27191 0 1 -2.27191 1
gene 3 2 8 2.05541 0 2 2.05541 1
gene 3 3 8 -0.444331 0 3 -0.444331 1
gene 2 4 8 2.22793 0 4 2.22793 1
gene 1 5 8 0.459876 0 5 0.459876 1
gene 3 6 8 -1.82917 0 6 -1.82917 1
gene 2 7 8 -1.36033 0 7 -1.36033 1
genomeend 9

/* Organism #10 Fitness: 16 Error: 0 */
genomestart 10
trait 1 0.1 0 0 0 0 0 0 0 
trait 2 0.2 0 0 0 0 0 0 0 
trait 3 0.3 0 0 0 0 0 0 0 
node 1 3 1 1
node 2 3 1 1
node 3 3 1 1
node 4 1 1 1
node 5 2 1 1
node 6 1 1 1
node 7 1 1 3
node 8 2 0 2
gene 1 1 8 -1.72411 0 1 -1.72411 1
gene 3 2 8 1.70456 0 2 1.70456 1
gene 3 3 8 -1.33093 0 3 -1.33093 1
gene 2 4 8 1.28997 0 4 1.28997 1
gene 1 5 8 -1.95991 0 5 -1.95991 1
gene 3 6 8 2.13662 0 6 2.13662 1
gene 2 7 8 -0.427368 0 7 -0.427368 1
genomeend 10

/* Organism #11 Fitness: 77 Error: 0 */
genomestart 11
trait 1 0.1 0 0 0 0 0 0 0 
trait 2 0.2 0 0 0 0 0 0 0 
trait 3 0.3 0 0 0 0 0 0 0 
node 1 2 1 1
node 2 3 1 1
node 3 3 1 1
node 4 3 1 1
node 5 1 1 1
node 6 1 1 1
node 7 3 1 3
node 8 2 0 2
node 11 1 0 0
gene 2 1 8 -2.53048 0 1 -2.53048 1
gene 3 2 8 3.21055 0 2 3.21055 1
gene 2 3 8 -0.408982 0 3 -0.408982 1
gene 2 4 8 1.72013 0 4 1.72013 1
gene 3 5 8 5.49466 0 5 5.49466 1
gene 1 6 8 2.06076 0 6 2.06076 1
gene 1 7 8 -1.95255 0 7 -1.95255 1
gene 2 3 11 -0.830936 0 12 -0.830936 1
gene 3 11 8 0.139049 0 13 0.139049 1
genomeend 11

/* Organism #12 Fitness: 25 Error: 0 */
genomestart 12
trait 1 0.1 0 0 0 0 0 0 0 
trait 2 0.2 0 0 0 0 0 0 0 
trait 3 0.3 0 0 0 0 0 0 0 
node 1 3 1 1
node 2 3 1 1
node 3 3 1 1
node 4 1 1 1
node 5 2 1 1
node 6 1 1 1
node 7 1 1 3
node 8 2 0 2
gene 1 1 8 -0.498934 0 1 -0.498934 1
gene 3 2 8 -1.27386 0 2 -1.27386 1
gene 3 3 8 1.12083 0 3 1.12083 1
gene 1 4 8 0.458035 0 4 0.458035 1
gene 1 5 8 -1.0973 0 5 -1.0973 1
gene 3 6 8 2.22721 0 6 2.22721 1
gene 2 7 8 -0.164336 0 7 -0.164336 1
genomeend 12

/* Organism #13 Fitness: 42 Error: 0 */
genomestart 13
trait 1 0.1 0 0 0 0 0 0 0 
trait 2 0.2 0 0 0 0 0 0 0 
trait 3 0.3 0 0 0 0 0 0 0 
node 1 2 1 1
node 2 3 1 1
node 3 3 1 1
node 4 3 1 1
node 5 1 1 1
node 6 1 1 1
node 7 3 1 3
node 8 2 0 2
node 11 1 0 0
gene 2 1 8 -1.64659 0 1 -1.64659 1
gene 2 2 8 4.11032 0 2 4.11032 1
gene 2 3 8 -0.663716 0 3 -0.663716 0
gene 2 4 8 -0.290125 0 4 -0.290125 1
gene 3 5 8 3.97885 0 5 3.97885 1
gene 1 6 8 3.58478 0 6 3.58478 1
gene 1 7 8 0.357439 0 7 0.357439 1
gene 2 3 11 1.58872 0 12 1.58872 1
gene 3 11 8 1.05766 0 13 1.05766 1
genomeend 13

/* Organism #14 Fitness: 65 Error: 0 */
genomestart 14
trait 1 0.1 0 0 0 0 0 0 0 
trait 2 0.2 0 0 0 0 0 0 0 
trait 3 0.3 0 0 0 0 0 0 0 
node 1 2 1 1
node 2 3 1 1
node 3 3 1 1
node 4 3 1 1
node 5 1 1 1
node 6 1 1 1
node 7 3 1 3
node 8 2 0 2
node 11 2 0 0
gene 2 1 8 -1.08905 0 1 -1.08905 1
gene 3 2 8 6.43293 0 2 6.43293 1
gene 2 3 8 1.31626 0 3 1.31626 0
gene 2 4 8 1.86928 0 4 1.86928 1
gene 3 5 8 3.01974 0 5 3.01974 1
gene 1 6 8 1.70629 0 6 1.70629 1
gene 1 7 8 -2.06494 0 7 -2.06494 1
gene 2 3 11 -1.86582 0 12 -1.86582 1
gene 3 11 8 0.0179902 0 13 0.0179902 1
genomeend 14

/* Organism #15 Fitness: 21 Error: 0 */
genomestart 15
trait 1 0.1 0 0 0 0 0 0 0 
trait 2 0.2 0 0.388163 0.926369 0 0 0 0 
trait 3 0.3 0 0 0 0 0 0 0 
node 1 2 1 1
node 2 3 1 1
node 3 3 1 1
node 4 3 1 1
node 5 1 1 1
node 6 1 1 1
node 7 3 1 3
node 8 2 0 2
node 11 1 0 0
gene 2 1 8 -4.72085 0 1 -4.72085 1
gene 3 2 8 -2.95504 0 2 -2.95504 1
gene 2 3 8 -2.65429 0 3 -2.65429 0
gene 2 4 8 3.23595 0 4 3.23595 1
gene 3 5 8 0.959441 0 5 0.959441 1
gene 1 6 8 0.205224 0 6 0.205224 1
gene 2 7 8 1.17643 0 7 1.17643 1
gene 2 3 11 0.541799 0 12 0.541799 1
gene 3 11 8 -2.03369 0 13 -2.03369 1
genomeend 15

/* Organism #16 Fitness: 39 Error: 0 */
genomestart 16
trait 1 0.1 0 0 0 0 0 0 0 
trait 2 0.2 0 0 0 0 0 0 0 
trait 3 0.3 0 0 0 0 0 0 0 
node 1 2 1 1
node 2 3 1 1
node 3 3 1 1
node 4 3 1 1
node 5 1 1 1
node 6 1 1 1
node 7 3 1 3
node 8 2 0 2
node 11 1 0 0
gene 2 1 8 -2.28696 0 1 -2.28696 1
gene 3 2 8 3.45296 0 2 3.45296 1
gene 2 3 8 -2.32119 0 3 -2.32119 0
gene 2 4 8 3.2759 0 4 3.2759 1
gene 3 5 8 2.82878 0 5 2.82878 1
gene 1 6 8 1.73148 0 6 1.73148 1
gene 2 7 8 -1.12481 0 7 -1.12481 1
gene 2 3 11 0.216786 0 12 0.216786 1
gene 3 11 8 -1.24954 0 13 -1.24954 1
genomeend 16

/* Species #2 : (Size 17) (AF 59.5882) (Age 8)  */


/* Organism #17 Fitness: 110 Error: 0 */
genomestart 17
trait 1 0.1 0 0 0 0 0 0 0 
trait 2 0.2 0 0 0 0 0 0 0 
trait 3 0.3 0 0 0 0 0 0 0 
node 1 3 1 1
node 2 3 1 1
node 3 3 1 1
node 4 3 1 1
node 5 1 1 1
node 6 1 1 1
node 7 3 1 3
node 8 3 0 2
node 11 1 0 0
node 15 1 0 0
gene 2 1 8 3.81568 0 1 3.81568 1
gene 3 2 8 -1.37586 0 2 -1.37586 1
gene 2 3 8 3.0814 0 3 3.0814 0
gene 1 4 8 -2.58742 0 4 -2.58742 1
gene 1 5 8 2.81013 0 5 2.81013 1
gene 1 6 8 0.403469 0 6 0.403469 1
gene 1 7 8 0.110476 0 7 0.110476 1
gene 3 3 11 -0.607565 0 12 -0.607565 1
gene 3 11 8 -0.409129 0 13 -0.409129 0
gene 3 11 15 -0.284719 0 20 -0.284719 1
gene 3 15 8 -1.01347 0 21 -1.01347 1
genomeend 17

/* Organism #18 Fitness: 62 Error: 0 */
genomestart 18
trait 1 0.1 0 0 0 0 0 0 0 
trait 2 0.2 0 0 0 0 0 0 0 
trait 3 0.3 0 0 0 0 0 0 0 
node 1 3 1 1
node 2 3 1 1
node 3 3 1 1
node 4 3 1 1
node 5 1 1 1
node 6 1 1 1
node 7 3 1 3
node 8 3 0 2
node 11 1 0 0
node 15 1 0 0
gene 2 1 8 3.81568 0 1 3.81568 1
gene 3 2 8 2.4563 0 2 2.4563 1
gene 2 3 8 0.616446 0 3 0.616446 0
gene 1 4 8 -1.36345 0 4 -1.36345 1
gene 1 5 8 3.90146 0 5 3.90146 1
gene 1 6 8 1.78382 0 6 1.78382 1
gene 1 7 8 0.128845 0 7 0.128845 1
gene 3 3 11 -0.461752 0 12 -0.461752 1
gene 3 11 8 -2.83134 0 13 -2.83134 0
gene 3 11 15 0.404994 0 20 0.404994 1
gene 3 15 8 -0.84689 0 21 -0.84689 1
genomeend 18

/* Organism #19 Fitness: 72 Error: 0 */
genomestart 19
trait 1 0.1 0 0 0 0 0 0 0 
trait 2 0.2 0 0 0 0 0 0 0 
trait 3 0.3 0 0 0 0 0 0 0 
node 1 3 1 1
node 2 3 1 1
node 3 3 1 1
node 4 3 1 1
node 5 1 1 1
node 6 1 1 1
node 7 3 1 3
node 8 3 0 2
node 11 1 0 0
node 15 1 0 0
gene 2 1 8 1.47293 0 1 1.47293 1
gene 3 2 8 1.20572 0 2 1.20572 1
gene 2 3 8 6.39732 0 3 6.39732 0
gene 1 4 8 -2.17886 0 4 -2.17886 1
gene 1 5 8 2.6366 0 5 2.6366 1
gene 1 6 8 3.08515 0 6 3.08515 1
gene 1 7 8 0.283597 0 7 0.283597 1
gene 3 3 11 -0.962916 0 12 -0.962916 1
gene 3 11 8 -1.10418 0 13 -1.10418 0
gene 3 11 15 -1.65818 0 20 -1.65818 1
gene 3 15 8 -1.86458 0 21 -1.86458 1
genomeend 19

/* Organism #20 Fitness: 67 Error: 0 */
genomestart 20
trait 1 0.1 0 0 0 0 0 0 0 
trait 2 0.2 0 0 0 0 0 0 0 
trait 3 0.3 0 0 0 0 0 0 0 
node 1 3 1 1
node 2 3 1 1
node 3 3 1 1
node 4 3 1 1
node 5 1 1 1
node 6 1 1 1
node 7 3 1 3
node 8 3 0 2
node 11 1 0 0
node 15 1 0 0
gene 2 1 8 1.62617 0 1 1.62617 1
gene 3 2 8 2.4563 0 2 2.4563 1
gene 2 3 8 4.11651 0 3 4.11651 0
gene 1 4 8 -1.36345 0 4 -1.36345 1
gene 1 5 8 3.90146 0 5 3.90146 1
gene 1 6 8 1.78382 0 6 1.78382 1
gene 1 7 8 -1.21988 0 7 -1.21988 1
gene 3 3 11 -0.461752 0 12 -0.461752 1
gene 3 11 8 -2.83134 0 13 -2.83134 0
gene 3 11 15 -0.284719 0 20 -0.284719 1
gene 3 15 8 -0.84689 0 21 -0.84689 1
genomeend 20

/* Organism #21 Fitness: 63 Error: 0 */
genomestart 21
trait 1 0.1 0 0 0 0 0 0 0 
trait 2 0.2 0 0 0 0 0 0 0 
trait 3 0.3 0 0 0 0 0 0 0 
node 1 3 1 1
node 2 3 1 1
node 3 3 1 1
node 4 3 1 1
node 5 1 1 1
node 6 1 1 1
node 7 3 1 3
node 8 3 0 2
node 11 1 0 0
node 15 1 0 0
gene 2 1 8 3.81568 0 1 3.81568 1
gene 3 2 8 -1.37586 0 2 -1.37586 1
gene 2 3 8 3.0814 0 3 3.0814 0
gene 1 4 8 -2.58742 0 4 -2.58742 1
gene 1 5 8 2.81013 0 5 2.81013 1
gene 1 6 8 0.403469 0 6 0.403469 1
gene 1 7 8 0.128845 0 7 0.128845 1
gene 3 3 11 -0.461752 0 12 -0.461752 1
gene 3 11 8 -0.409129 0 13 -0.409129 0
gene 3 11 15 0.404994 0 20 0.404994 1
gene 3 15 8 -0.84689 0 21 -0.84689 1
genomeend 21

/* Organism #22 Fitness: 56 Error: 0 */
genomestart 22
trait 1 0.1 0 0 0 0 0 0 0 
trait 2 0.2 0 0 0 0 0 0 0 
trait 3 0.3 0 0 0 0 0 0 0 
node 1 3 1 1
node 2 3 1 1
node 3 3 1 1
node 4 3 1 1
node 5 1 1 1
node 6 1 1 1
node 7 3 1 3
node 8 3 0 2
node 11 1 0 0
node 15 1 0 0
gene 2 1 8 1.73992 0 1 1.73992 1
gene 3 2 8 -0.0559564 0 2 -0.0559564 1
gene 2 3 8 4.42563 0 3 4.42563 0
gene 1 4 8 -2.69213 0 4 -2.69213 1
gene 1 5 8 5.06569 0 5 5.06569 1
gene 1 6 8 0.961201 0 6 0.961201 1
gene 1 7 8 1.71642 0 7 1.71642 1
gene 3 3 11 -2.00272 0 12 -2.00272 1
gene 3 11 8 -1.27284 0 13 -1.27284 0
gene 3 11 15 1.3225 0 20 1.3225 1
gene 3 15 8 -3.0938 0 21 -3.0938 1
genomeend 22

/* Organism #23 Fitness: 5 Error: 0 */
genomestart 23
trait 1 0.1 0 0 0 0 0 0 0 
trait 2 0.2 0 0 0 0 0 0 0 
trait 3 0.480557 0 0 0 0 0 0.804481 0.563068 
node 1 3 1 1
node 2 3 1 1
node 3 3 1 1
node 4 3 1 1
node 5 1 1 1
node 6 1 1 1
node 7 3 1 3
node 8 3 0 2
node 11 1 0 0
node 15 1 0 0
gene 2 1 8 0.488095 0 1 0.488095 1
gene 3 2 8 0.499207 0 2 0.499207 1
gene 2 3 8 3.83382 0 3 3.83382 0
gene 1 4 8 -1.2506 0 4 -1.2506 1
gene 1 5 8 3.45318 0 5 3.45318 1
gene 1 6 8 -0.288797 0 6 -0.288797 1
gene 1 7 8 -0.962515 0 7 -0.962515 1
gene 3 3 11 0.17617 0 12 0.17617 1
gene 3 11 8 -1.16694 0 13 -1.16694 0
gene 3 11 15 -1.98607 0 20 -1.98607 1
gene 3 15 8 -1.24345 0 21 -1.24345 1
gene 2 6 15 -1.29792 0 84 -1.29792 1
genomeend 23

/* Organism #24 Fitness: 110 Error: 0 */
genomestart 24
trait 1 0.1 0 0 0 0 0 0 0 
trait 2 0.2 0 0 0 0 0 0 0 
trait 3 0.3 0 0 0 0 0 0 0 
node 1 3 1 1
node 2 3 1 1
node 3 3 1 1
node 4 3 1 1
node 5 1 1 1
node 6 1 1 1
node 7 3 1 3
node 8 3 0 2
node 11 1 0 0
node 15 1 0 0
gene 2 1 8 3.81568 0 1 3.81568 1
gene 3 2 8 -1.37586 0 2 -1.37586 1
gene 2 3 8 3.0814 0 3 3.0814 0
gene 1 4 8 -2.58742 0 4 -2.58742 1
gene 1 5 8 2.81013 0 5 2.81013 1
gene 1 6 8 0.403469 0 6 0.403469 1
gene 1 7 8 0.110476 0 7 0.110476 1
gene 3 3 11 -0.607565 0 12 -0.607565 1
gene 3 11 8 -0.409129 0 13 -0.409129 0
gene 3 11 15 -0.284719 0 20 -0.284719 1
gene 3 15 8 -1.01347 0 21 -1.01347 1
genomeend 24

/* Organism #25 Fitness: 92 Error: 0 */
genomestart 25
trait 1 0.1 0 0 0 0 0 0 0 
trait 2 0.2 0 0 0 0 0 0 0 
trait 3 0.3 0 0 0 0 0 0 0 
node 1 3 1 1
node 2 3 1 1
node 3 3 1 1
node 4 3 1 1
node 5 1 1 1
node 6 1 1 1
node 7 3 1 3
node 8 3 0 2
node 11 1 0 0
node 15 1 0 0
gene 2 1 8 3.81568 0 1 3.81568 1
gene 3 2 8 -1.47562 0 2 -1.47562 1
gene 2 3 8 1.84892 0 3 1.84892 0
gene 1 4 8 -1.97544 0 4 -1.97544 1
gene 1 5 8 3.3558 0 5 3.3558 1
gene 1 6 8 0.466083 0 6 0.466083 1
gene 1 7 8 0.11966 0 7 0.11966 1
gene 3 3 11 -0.534659 0 12 -0.534659 1
gene 3 11 8 -0.409129 0 13 -0.409129 0
gene 3 11 15 0.0601374 0 20 0.0601374 1
gene 3 15 8 -0.930179 0 21 -0.930179 1
genomeend 25

/* Organism #26 Fitness: 28 Error: 0 */
genomestart 26
trait 1 0.1 0 0 0 0 0 0 0 
trait 2 0.2 0 0 0 0 0 0 0 
trait 3 0.3 0 0 0 0 0 0 0 
node 1 3 1 1
node 2 3 1 1
node 3 3 1 1
node 4 3 1 1
node 5 1 1 1
node 6 1 1 1
node 7 3 1 3
node 8 3 0 2
node 11 1 0 0
node 15 1 0 0
gene 2 1 8 1.62617 0 1 1.62617 1
gene 3 2 8 2.4563 0 2 2.4563 1
gene 2 3 8 4.11651 0 3 4.11651 0
gene 1 4 8 -2.14968 0 4 -2.14968 1
gene 1 5 8 3.01618 0 5 3.01618 1
gene 1 6 8 0.403469 0 6 0.403469 1
gene 1 7 8 0.110476 0 7 0.110476 1
gene 3 3 11 -0.607565 0 12 -0.607565 1
gene 3 11 8 -0.409129 0 13 -0.409129 0
gene 3 11 15 -0.284719 0 20 -0.284719 1
gene 3 15 8 0.501637 0 21 0.501637 1
genomeend 26

/* Organism #27 Fitness: 59 Error: 0 */
genomestart 27
trait 1 0.1 0 0 0 0 0 0 0 
trait 2 0.2 0 0 0 0 0 0 0 
trait 3 0.3 0 0 0 0 0 0 0 
node 1 3 1 1
node 2 3 1 1
node 3 3 1 1
node 4 3 1 1
node 5 1 1 1
node 6 1 1 1
node 7 3 1 3
node 8 3 0 2
node 11 1 0 0
node 15 1 0 0
gene 2 1 8 1.62617 0 1 1.62617 1
gene 3 2 8 -1.37586 0 2 -1.37586 1
gene 2 3 8 4.11651 0 3 4.11651 0
gene 1 4 8 -2.14968 0 4 -2.14968 1
gene 1 5 8 2.81013 0 5 2.81013 1
gene 1 6 8 1.78382 0 6 1.78382 1
gene 1 7 8 0.110476 0 7 0.110476 1
gene 3 3 11 -0.607565 0 12 -0.607565 1
gene 3 11 8 -0.409129 0 13 -0.409129 0
gene 3 11 15 -0.284719 0 20 -0.284719 1
gene 3 15 8 -1.01347 0 21 -1.01347 1
genomeend 27

/* Organism #28 Fitness: 64 Error: 0 */
genomestart 28
trait 1 0.1 0 0 0 0 0 0 0 
trait 2 0.2 0 0 0 0 0 0 0 
trait 3 0.3 0 0 0 0 0 0 0 
node 1 3 1 1
node 2 3 1 1
node 3 3 1 1
node 4 3 1 1
node 5 1 1 1
node 6 1 1 1
node 7 3 1 3
node 8 3 0 2
node 11 1 0 0
node 15 1 0 0
gene 2 1 8 5.76997 0 1 5.76997 1
gene 3 2 8 3.51022 0 2 3.51022 1
gene 2 3 8 3.4935 0 3 3.4935 0
gene 1 4 8 -2.9542 0 4 -2.9542 1
gene 1 5 8 4.36893 0 5 4.36893 1
gene 1 6 8 3.47467 0 6 3.47467 1
gene 1 7 8 -0.44307 0 7 -0.44307 1
gene 3 3 11 -0.969501 0 12 -0.969501 1
gene 3 11 8 -2.38457 0 13 -2.38457 0
gene 3 11 15 0.120701 0 20 0.120701 1
gene 3 15 8 -1.07949 0 21 -1.07949 1
genomeend 28

/* Organism #29 Fitness: 70 Error: 0 */
genomestart 29
trait 1 0.1 0 0 0 0 0 0 0 
trait 2 0.2 0 0 0 0 0 0 0 
trait 3 0.3 0 0 0 0 0 0 0 
node 1 3 1 1
node 2 3 1 1
node 3 3 1 1
node 4 3 1 1
node 5 1 1 1
node 6 1 1 1
node 7 3 1 3
node 8 3 0 2
node 11 1 0 0
node 15 1 0 0
gene 2 1 8 2.59616 0 1 2.59616 1
gene 3 2 8 -1.91847 0 2 -1.91847 1
gene 2 3 8 4.84652 0 3 4.84652 0
gene 1 4 8 -4.48335 0 4 -4.48335 1
gene 1 5 8 2.58719 0 5 2.58719 1
gene 1 6 8 2.29174 0 6 2.29174 1
gene 1 7 8 0.478738 0 7 0.478738 1
gene 3 3 11 -2.52553 0 12 -2.52553 1
gene 3 11 8 -0.351372 0 13 -0.351372 0
gene 3 11 15 -0.284719 0 20 -0.284719 1
gene 3 15 8 -1.01347 0 21 -1.01347 1
genomeend 29

/* Organism #30 Fitness: 25 Error: 0 */
genomestart 30
trait 1 0.1 0 0 0 0 0 0 0 
trait 2 0.2 0 0 0 0 0 0 0 
trait 3 0.3 0 0 0 0 0 0 0 
node 1 3 1 1
node 2 3 1 1
node 3 3 1 1
node 4 3 1 1
node 5 1 1 1
node 6 1 1 1
node 7 3 1 3
node 8 3 0 2
node 11 1 0 0
node 15 1 0 0
gene 2 1 8 3.46195 0 1 3.46195 1
gene 3 2 8 4.66739 0 2 4.66739 1
gene 2 3 8 4.78533 0 3 4.78533 0
gene 1 4 8 -0.598253 0 4 -0.598253 1
gene 1 5 8 0.608455 0 5 0.608455 1
gene 1 6 8 1.14227 0 6 1.14227 1
gene 1 7 8 1.15392 0 7 1.15392 1
gene 3 3 11 -1.10212 0 12 -1.10212 1
gene 3 11 8 -1.5877 0 13 -1.5877 0
gene 3 11 15 -0.72897 0 20 -0.72897 1
gene 3 15 8 1.60202 0 21 1.60202 1
gene 2 6 15 0.945473 0 84 0.945473 1
genomeend 30

/* Organism #31 Fitness: 43 Error: 0 */
genomestart 31
trait 1 0.1 0 0 0 0 0 0 0 
trait 2 0.2 0 0 0 0 0 0 0 
trait 3 0.3 0 0 0 0 0 0 0 
node 1 3 1 1
node 2 3 1 1
node 3 3 1 1
node 4 3 1 1
node 5 1 1 1
node 6 1 1 1
node 7 3 1 3
node 8 3 0 2
node 11 1 0 0
node 15 1 0 0
gene 2 1 8 1.57949 0 1 1.57949 1
gene 3 2 8 2.10884 0 2 2.10884 1
gene 2 3 8 1.31402 0 3 1.31402 0
gene 1 4 8 2.18396 0 4 2.18396 1
gene 1 5 8 5.18794 0 5 5.18794 1
gene 1 6 8 0.403469 0 6 0.403469 1
gene 1 7 8 0.0954972 0 7 0.0954972 1
gene 3 3 11 1.72417 0 12 1.72417 1
gene 3 11 8 -1.92748 0 13 -1.92748 0
gene 3 11 15 0.11792 0 20 0.11792 1
gene 3 15 8 -1.01347 0 21 -1.01347 1
genomeend 31

/* Organism #32 Fitness: 53 Error: 0 */
genomestart 32
trait 1 0.1 0 0 0 0 0 0 0 
trait 2 0.2 0 0 0 0 0 0 0 
trait 3 0.3 0 0 0 0 0 0 0 
node 1 3 1 1
node 2 3 1 1
node 3 3 1 1
node 4 3 1 1
node 5 1 1 1
node 6 1 1 1
node 7 3 1 3
node 8 3 0 2
node 11 1 0 0
node 15 1 0 0
gene 2 1 8 0.372782 0 1 0.372782 1
gene 3 2 8 0.152663 0 2 0.152663 1
gene 2 3 8 5.62027 0 3 5.62027 0
gene 1 4 8 -2.72262 0 4 -2.72262 1
gene 1 5 8 6.21208 0 5 6.21208 1
gene 1 6 8 3.44009 0 6 3.44009 1
gene 1 7 8 1.88226 0 7 1.88226 1
gene 3 3 11 2.01617 0 12 2.01617 1
gene 3 11 8 -2.83134 0 13 -2.83134 0
gene 3 11 15 0.404994 0 20 0.404994 1
gene 3 15 8 -1.54973 0 21 -1.54973 1
genomeend 32

/* Organism #33 Fitness: 34 Error: 0 */
genomestart 33
trait 1 0.1 0 0 0 0 0 0 0 
trait 2 0.2 0 0 0 0 0 0 0 
trait 3 0.3 0 0 0 0 0 0 0 
node 1 3 1 1
node 2 3 1 1
node 3 1 1 1
node 4 3 1 1
node 5 1 1 1
node 6 1 1 1
node 7 3 1 3
node 8 3 0 2
node 11 1 0 0
node 15 1 0 0
gene 2 1 8 1.50259 0 1 1.50259 1
gene 3 2 8 0.355734 0 2 0.355734 1
gene 2 3 8 -0.938072 0 3 -0.938072 0
gene 1 4 8 -2.04557 0 4 -2.04557 1
gene 1 5 8 2.84717 0 5 2.84717 1
gene 1 6 8 0.705039 0 6 0.705039 1
gene 1 7 8 -3.49567 0 7 -3.49567 1
gene 3 3 11 -0.876725 0 12 -0.876725 1
gene 3 11 8 -0.187334 0 13 -0.187334 0
gene 3 11 15 -0.577948 0 20 -0.577948 1
gene 3 15 8 -0.312565 0 21 -0.312565 1
genomeend 33

/* Species #3 : (Size 20) (AF 50.6) (Age 6)  */


/* Organism #34 Fitness: 37 Error: 0 */
genomestart 34
trait 1 0.1 0 0 0 0 0 0 0 
trait 2 0.2 0 0 0 0 0 0 0 
trait 3 0.3 0 0 0 0 0 0 0 
node 1 2 1 1
node 2 3 1 1
node 3 3 1 1
node 4 3 1 1
node 5 1 1 1
node 6 1 1 1
node 7 3 1 3
node 8 2 0 2
node 11 1 0 0
gene 2 1 8 -1.51296 0 1 -1.51296 1
gene 3 2 8 4.81399 0 2 4.81399 1
gene 2 3 8 -1.16332 0 3 -1.16332 0
gene 2 4 8 2.79099 0 4 2.79099 1
gene 3 5 8 3.50418 0 5 3.50418 1
gene 1 6 8 3.95112 0 6 3.95112 1
gene 1 7 8 -2.30479 0 7 -2.30479 1
gene 2 3 11 -0.0375935 0 12 -0.0375935 1
gene 3 11 8 -2.01134 0 13 -2.01134 1
genomeend 34

/* Organism #35 Fitness: 33 Error: 0 */
genomestart 35
trait 1 0.1 0 0 0 0 0 0 0 
trait 2 0.2 0 0 0 0 0 0 0 
trait 3 0.3 0 0 0 0 0 0 0 
node 1 2 1 1
node 2 3 1 1
node 3 3 1 1
node 4 3 1 1
node 5 1 1 1
node 6 1 1 1
node 7 3 1 3
node 8 2 0 2
node 11 1 0 0
gene 2 1 8 -2.68079 0 1 -2.68079 1
gene 3 2 8 -2.09736 0 2 -2.09736 1
gene 2 3 8 -2.643 0 3 -2.643 0
gene 2 4 8 3.59367 0 4 3.59367 1
gene 3 5 8 6.48258 0 5 6.48258 1
gene 1 6 8 0.283243 0 6 0.283243 1
gene 2 7 8 0.507398 0 7 0.507398 1
gene 2 3 11 -0.467256 0 12 -0.467256 1
gene 3 11 8 -0.46405 0 13 -0.46405 1
genomeend 35

/* Organism #36 Fitness: 41 Error: 0 */
genomestart 36
trait 1 0.1 0 0 0 0 0 0 0 
trait 2 0.2 0 0 0 0 0 0 0 
trait 3 0.3 0 0 0 0 0 0 0 
node 1 2 1 1
node 2 3 1 1
node 3 3 1 1
node 4 3 1 1
node 5 1 1 1
node 6 1 1 1
node 7 3 1 3
node 8 2 0 2
node 11 1 0 0
gene 2 1 8 -4.13843 0 1 -4.13843 1
gene 3 2 8 1.35286 0 2 1.35286 1
gene 2 3 8 1.55913 0 3 1.55913 0
gene 2 4 8 1.69538 0 4 1.69538 1
gene 3 5 8 7.64967 0 5 7.64967 1
gene 1 6 8 4.21657 0 6 4.21657 1
gene 2 7 8 -4.26645 0 7 -4.26645 1
gene 2 3 11 -2.43163 0 12 -2.43163 1
gene 3 11 8 -1.97437 0 13 -1.97437 1
genomeend 36

/* Organism #37 Fitness: 62 Error: 0 */
genomestart 37
trait 1 0.1 0 0 0 0 0 0 0 
trait 2 0.2 0 0 0 0 0 0 0 
trait 3 0.3 0 0 0 0 0 0 0 
node 1 2 1 1
node 2 3 1 1
node 3 3 1 1
node 4 3 1 1
node 5 1 1 1
node 6 1 1 1
node 7 3 1 3
node 8 2 0 2
node 11 1 0 0
gene 2 1 8 -2.53048 0 1 -2.53048 1
gene 3 2 8 3.21055 0 2 3.21055 1
gene 2 3 8 -0.408982 0 3 -0.408982 1
gene 2 4 8 1.72013 0 4 1.72013 1
gene 3 5 8 5.49466 0 5 5.49466 1
gene 1 6 8 2.06076 0 6 2.06076 1
gene 2 7 8 -1.95255 0 7 -1.95255 1
gene 2 3 11 -0.830936 0 12 -0.830936 1
gene 3 11 8 0.139049 0 13 0.139049 1
gene 1 7 11 -0.908499 0 99 -0.908499 1
genomeend 37

/* Organism #38 Fitness: 168 Error: 0 */
genomestart 38
trait 1 0.05 0.376477 0 0 0.34363 0 0.496848 0 
trait 2 0.2 0 0 0 0 0 0 0 
trait 3 0.3 0 0 0 0 0 0 0 
node 1 2 1 1
node 2 3 1 1
node 3 3 1 1
node 4 3 1 1
node 5 1 1 1
node 6 1 1 1
node 7 3 1 3
node 8 2 0 2
node 11 1 0 0
gene 2 1 8 -1.887 0 1 -1.887 1
gene 3 2 8 2.26463 0 2 2.26463 1
gene 3 3 8 1.97054 0 3 1.97054 0
gene 2 4 8 -4.99692 0 4 -4.99692 1
gene 1 5 8 3.28812 0 5 3.28812 1
gene 1 6 8 2.30211 0 6 2.30211 1
gene 2 7 8 -2.40218 0 7 -2.40218 1
gene 2 3 11 -2.1685 0 12 -2.1685 1
gene 3 11 8 1.92317 0 13 1.92317 1
gene 3 4 11 -0.302006 0 37 -0.302006 1
genomeend 38

/* Organism #39 Fitness: 40 Error: 0 */
genomestart 39
trait 1 0.0625 0.282358 0 0 0.257722 0 0.372636 0 
trait 2 0.2 0 0 0 0 0 0 0 
trait 3 0.355103 0.0571689 0.100147 0 0 0.00610276 0.0679594 0 
node 1 2 1 1
node 2 3 1 1
node 3 3 1 1
node 4 3 1 1
node 5 1 1 1
node 6 1 1 1
node 7 3 1 3
node 8 2 0 2
node 11 1 0 0
gene 2 1 8 -1.41479 0 1 -1.41479 1
gene 3 2 8 0.175465 0 2 0.175465 1
gene 3 3 8 0.145609 0 3 0.145609 1
gene 2 4 8 -1.45895 0 4 -1.45895 1
gene 3 5 8 4.08996 0 5 4.08996 1
gene 1 6 8 0.945289 0 6 0.945289 1
gene 1 7 8 0.268846 0 7 0.268846 1
gene 3 3 11 0.847531 0 12 0.847531 1
gene 3 11 8 -0.184677 0 13 -0.184677 1
gene 3 4 11 -2.00796 0 37 -2.00796 1
gene 3 6 11 -0.962325 0 85 -0.962325 1
genomeend 39

/* Organism #40 Fitness: 34 Error: 0 */
genomestart 40
trait 1 0.0625 0.282358 0 0 0.257722 0 0.372636 0 
trait 2 0.2 0 0 0 0 0 0 0 
trait 3 0.355103 0.0571689 0.100147 0 0 0.00610276 0.0679594 0 
node 1 2 1 1
node 2 3 1 1
node 3 3 1 1
node 4 3 1 1
node 5 1 1 1
node 6 1 1 1
node 7 3 1 3
node 8 2 0 2
node 11 1 0 0
gene 2 1 8 -0.765149 0 1 -0.765149 1
gene 3 2 8 0.417047 0 2 0.417047 1
gene 3 3 8 0.671874 0 3 0.671874 1
gene 2 4 8 -2.67965 0 4 -2.67965 1
gene 1 5 8 3.55024 0 5 3.55024 1
gene 1 6 8 1.58777 0 6 1.58777 1
gene 1 7 8 1.0188 0 7 1.0188 1
gene 3 3 11 0.751813 0 12 0.751813 1
gene 3 11 8 -0.682988 0 13 -0.682988 1
gene 3 4 11 1.68502 0 37 1.68502 1
gene 3 6 11 1.46127 0 85 1.46127 1
genomeend 40

/* Organism #41 Fitness: 8 Error: 0 */
genomestart 41
trait 1 0.0875 0.0941193 0 0 0.0859075 0 0.124212 0 
trait 2 0.2 0 0 0 0 0 0 0 
trait 3 0.3 0 0 0 0 0 0 0 
node 1 2 1 1
node 2 3 1 1
node 3 3 1 1
node 4 3 1 1
node 5 1 1 1
node 6 1 1 1
node 7 3 1 3
node 8 2 0 2
node 11 1 0 0
gene 2 1 8 -2.49574 0 1 -2.49574 1
gene 3 2 8 -3.67971 0 2 -3.67971 1
gene 2 3 8 -0.351215 0 3 -0.351215 0
gene 2 4 8 3.28858 0 4 3.28858 1
gene 1 5 8 4.37357 0 5 4.37357 1
gene 1 6 8 -0.671277 0 6 -0.671277 1
gene 2 7 8 -1.98767 0 7 -1.98767 1
gene 2 3 11 1.25154 0 12 1.25154 1
gene 3 11 8 3.37429 0 13 3.37429 1
gene 3 4 11 -2.17655 0 37 -2.17655 1
genomeend 41

/* Organism #42 Fitness: 28 Error: 0 */
genomestart 42
trait 1 0.075 0.188239 0 0 0.171815 0 0.248424 0 
trait 2 0.2 0 0 0 0 0 0 0 
trait 3 0.3 0 0 0 0 0 0 0 
node 1 2 1 1
node 2 3 1 1
node 3 3 1 1
node 4 3 1 1
node 5 1 1 1
node 6 1 1 1
node 7 3 1 3
node 8 2 0 2
node 11 1 0 0
gene 2 1 8 -0.290198 0 1 -0.290198 1
gene 3 2 8 -1.68606 0 2 -1.68606 1
gene 2 3 8 1.2415 0 3 1.2415 0
gene 2 4 8 -1.06196 0 4 -1.06196 1
gene 1 5 8 2.83841 0 5 2.83841 1
gene 1 6 8 3.32667 0 6 3.32667 1
gene 2 7 8 0.646343 0 7 0.646343 1
gene 2 3 11 -1.48715 0 12 -1.48715 1
gene 3 11 8 3.67535 0 13 3.67535 1
gene 3 4 11 0.631151 0 37 0.631151 1
genomeend 42

/* Organism #43 Fitness: 20 Error: 0 */
genomestart 43
trait 1 0.1 0 0 0 0 0 0 0 
trait 2 0.2 0 0 0 0 0 0 0 
trait 3 0.3 0 0 0 0 0 0 0 
node 1 2 1 1
node 2 3 1 1
node 3 3 1 1
node 4 3 1 1
node 5 1 1 1
node 6 1 1 1
node 7 3 1 3
node 8 2 0 2
node 11 1 0 0
gene 2 1 8 -1.75852 0 1 -1.75852 1
gene 3 2 8 5.03203 0 2 5.03203 1
gene 2 3 8 0.892057 0 3 0.892057 1
gene 2 4 8 2.25556 0 4 2.25556 1
gene 3 5 8 3.25239 0 5 3.25239 1
gene 1 6 8 4.20849 0 6 4.20849 1
gene 1 7 8 -3.25893 0 7 -3.25893 1
gene 2 3 11 0.826146 0 12 0.826146 1
gene 3 11 8 -3.09587 0 13 -3.09587 1
genomeend 43

/* Organism #44 Fitness: 84 Error: 0 */
genomestart 44
trait 1 0.0625 0.282358 0 0 0.257722 0 0.372636 0 
trait 2 0.2 0 0 0 0 0 0 0 
trait 3 0.3 0 0 0 0 0 0 0 
node 1 2 1 1
node 2 3 1 1
node 3 3 1 1
node 4 3 1 1
node 5 1 1 1
node 6 1 1 1
node 7 3 1 3
node 8 2 0 2
node 11 1 0 0
gene 2 1 8 -1.887 0 1 -1.887 1
gene 3 2 8 2.26463 0 2 2.26463 1
gene 3 3 8 0.780781 0 3 0.780781 1
gene 2 4 8 -4.99692 0 4 -4.99692 1
gene 1 5 8 4.39139 0 5 4.39139 1
gene 1 6 8 2.30211 0 6 2.30211 1
gene 2 7 8 -2.40218 0 7 -2.40218 1
gene 2 3 11 -2.1685 0 12 -2.1685 1
gene 3 11 8 1.03111 0 13 1.03111 1
gene 3 4 11 -0.302006 0 37 -0.302006 1
genomeend 44

/* Organism #45 Fitness: 5 Error: 0 */
genomestart 45
trait 1 0.025 0.564716 0 0 0.515445 0 0.745272 0 
trait 2 0.2 0 0 0 0 0 0 0 
trait 3 0.116178 0.780374 0.200294 0 0 0.0122055 0.135919 0.816543 
node 1 2 1 1
node 2 3 1 1
node 3 3 1 1
node 4 3 1 1
node 5 1 1 1
node 6 1 1 1
node 7 3 1 3
node 8 2 0 2
node 11 1 0 0
gene 2 1 8 -0.992181 0 1 -0.992181 1
gene 3 2 8 1.87917 0 2 1.87917 1
gene 3 3 8 0.253179 0 3 0.253179 0
gene 2 4 8 -1.90711 0 4 -1.90711 1
gene 1 5 8 1.64136 0 5 1.64136 1
gene 1 6 8 -1.23582 0 6 -1.23582 1
gene 1 7 8 -2.51802 0 7 -2.51802 1
gene 3 3 11 2.38371 0 12 2.38371 1
gene 3 11 8 -0.205681 0 13 -0.205681 1
gene 3 4 11 -2.02982 0 37 -2.02982 1
gene 3 6 11 -0.859187 0 85 -0.859187 1
genomeend 45

/* Organism #46 Fitness: 38 Error: 0 */
genomestart 46
trait 1 0.0875 0.0941193 0 0 0.0859075 0 0.124212 0 
trait 2 0.2 0 0 0 0 0 0 0 
trait 3 0.3 0 0 0 0 0 0 0 
node 1 2 1 1
node 2 3 1 1
node 3 3 1 1
node 4 3 1 1
node 5 1 1 1
node 6 1 1 1
node 7 3 1 3
node 8 2 0 2
node 11 1 0 0
gene 2 1 8 -0.790435 0 1 -0.790435 1
gene 3 2 8 3.77563 0 2 3.77563 1
gene 2 3 8 -2.22486 0 3 -2.22486 0
gene 2 4 8 0.98729 0 4 0.98729 1
gene 3 5 8 7.86087 0 5 7.86087 1
gene 1 6 8 4.03145 0 6 4.03145 1
gene 2 7 8 -0.534908 0 7 -0.534908 1
gene 2 3 11 -1.81807 0 12 -1.81807 1
gene 3 11 8 0.657617 0 13 0.657617 1
gene 3 4 11 0.388347 0 37 0.388347 1
genomeend 46

/* Organism #47 Fitness: 5 Error: 0 */
genomestart 47
trait 1 0.0875 0.0941193 0 0 0.0859075 0 0.124212 0 
trait 2 0.2 0 0 0 0 0 0 0 
trait 3 0.3 0 0 0 0 0 0 0 
node 1 2 1 1
node 2 3 1 1
node 3 3 1 1
node 4 3 1 1
node 5 1 1 1
node 6 1 1 1
node 7 3 1 3
node 8 2 0 2
node 11 1 0 0
gene 2 1 8 -1.60678 0 1 -1.60678 1
gene 3 2 8 0.897598 0 2 0.897598 1
gene 2 3 8 -2.68807 0 3 -2.68807 0
gene 2 4 8 3.39407 0 4 3.39407 1
gene 3 5 8 3.66467 0 5 3.66467 1
gene 1 6 8 -0.773827 0 6 -0.773827 1
gene 2 7 8 -0.701569 0 7 -0.701569 1
gene 2 3 11 -4.1419 0 12 -4.1419 1
gene 3 11 8 -3.45842 0 13 -3.45842 1
gene 3 4 11 0.788539 0 37 0.788539 1
genomeend 47

/* Organism #48 Fitness: 36 Error: 0 */
genomestart 48
trait 1 0.0875 0.0941193 0 0 0.0859075 0 0.124212 0 
trait 2 0.2 0 0 0 0 0 0 0 
trait 3 0.3 0 0 0 0 0 0 0 
node 1 2 1 1
node 2 3 1 1
node 3 3 1 1
node 4 3 1 1
node 5 1 1 1
node 6 1 1 1
node 7 3 1 3
node 8 2 0 2
node 11 1 0 0
gene 2 1 8 -2.59364 0 1 -2.59364 1
gene 3 2 8 -1.15297 0 2 -1.15297 1
gene 2 3 8 -2.7859 0 3 -2.7859 0
gene 2 4 8 -0.412418 0 4 -0.412418 1
gene 1 5 8 3.53045 0 5 3.53045 1
gene 1 6 8 4.92417 0 6 4.92417 1
gene 2 7 8 -2.40697 0 7 -2.40697 1
gene 2 3 11 -0.768608 0 12 -0.768608 1
gene 3 11 8 3.99832 0 13 3.99832 1
gene 3 4 11 -2.25536 0 37 -2.25536 1
genomeend 48

/* Organism #49 Fitness: 49 Error: 0 */
genomestart 49
trait 1 0.0375 0.470597 0 0 0.429537 0 0.62106 0 
trait 2 0.2 0 0 0 0 0 0 0 
trait 3 0.355103 0 0.100147 0 0 0.622091 0.806401 0 
node 1 2 1 1
node 2 3 1 1
node 3 3 1 1
node 4 3 1 1
node 5 1 1 1
node 6 1 1 1
node 7 3 1 3
node 8 2 0 2
node 11 1 0 0
gene 2 1 8 1.32456 0 1 1.32456 1
gene 3 2 8 3.39361 0 2 3.39361 1
gene 3 3 8 1.72192 0 3 1.72192 0
gene 2 4 8 -4.91425 0 4 -4.91425 1
gene 1 5 8 4.04959 0 5 4.04959 1
gene 1 6 8 1.55077 0 6 1.55077 1
gene 2 7 8 0.466475 0 7 0.466475 1
gene 3 3 11 1.22304 0 12 1.22304 1
gene 3 11 8 -0.36172 0 13 -0.36172 1
gene 3 4 11 1.11967 0 37 1.11967 1
genomeend 49

/* Organism #50 Fitness: 96 Error: 0 */
genomestart 50
trait 1 0.0625 0.282358 0 0 0.257722 0 0.372636 0 
trait 2 0.2 0 0 0 0 0 0 0 
trait 3 0.3 0 0 0 0 0 0 0 
node 1 2 1 1
node 2 3 1 1
node 3 3 1 1
node 4 3 1 1
node 5 1 1 1
node 6 1 1 1
node 7 3 1 3
node 8 2 0 2
node 11 1 0 0
gene 2 1 8 -3.30784 0 1 -3.30784 1
gene 3 2 8 0.704956 0 2 0.704956 1
gene 3 3 8 0.332034 0 3 0.332034 0
gene 2 4 8 -5.95735 0 4 -5.95735 1
gene 1 5 8 5.5697 0 5 5.5697 1
gene 1 6 8 2.31867 0 6 2.31867 1
gene 2 7 8 -1.60197 0 7 -1.60197 1
gene 2 3 11 -3.68842 0 12 -3.68842 1
gene 3 11 8 4.61608 0 13 4.61608 1
gene 3 4 11 -0.614485 0 37 -0.614485 1
genomeend 50

/* Organism #51 Fitness: 126 Error: 0 */
genomestart 51
trait 1 0.05 0.376477 0 0 0.34363 0 0.496848 0 
trait 2 0.2 0 0 0 0 0 0 0 
trait 3 0.355103 0.0571689 0.100147 0 0 0.00610276 0.0679594 0 
node 1 2 1 1
node 2 3 1 1
node 3 3 1 1
node 4 3 1 1
node 5 1 1 1
node 6 1 1 1
node 7 3 1 3
node 8 2 0 2
node 11 1 0 0
gene 2 1 8 -1.887 0 1 -1.887 1
gene 3 2 8 0.277189 0 2 0.277189 1
gene 2 3 8 -0.408982 0 3 -0.408982 0
gene 2 4 8 -4.99692 0 4 -4.99692 1
gene 1 5 8 2.64088 0 5 2.64088 1
gene 1 6 8 1.32365 0 6 1.32365 1
gene 1 7 8 -0.371641 0 7 -0.371641 1
gene 3 3 11 -0.0217423 0 12 -0.0217423 1
gene 3 11 8 -0.379983 0 13 -0.379983 1
gene 3 4 11 -0.302006 0 37 -0.302006 1
genomeend 51

/* Organism #52 Fitness: 69 Error: 0 */
genomestart 52
trait 1 0.1 0 0 0 0 0 0 0 
trait 2 0.2 0 0 0 0 0 0 0 
trait 3 0.3 0 0 0 0 0 0 0 
node 1 2 1 1
node 2 3 1 1
node 3 3 1 1
node 4 3 1 1
node 5 1 1 1
node 6 1 1 1
node 7 3 1 3
node 8 2 0 2
node 11 1 0 0
gene 2 1 8 -1.51296 0 1 -1.51296 1
gene 3 2 8 4.81399 0 2 4.81399 1
gene 2 3 8 1.55913 0 3 1.55913 0
gene 2 4 8 1.69538 0 4 1.69538 1
gene 3 5 8 7.64967 0 5 7.64967 1
gene 1 6 8 3.95112 0 6 3.95112 1
gene 1 7 8 -2.30479 0 7 -2.30479 1
gene 2 3 11 -2.43163 0 12 -2.43163 1
gene 3 11 8 -1.97437 0 13 -1.97437 1
genomeend 52

/* Organism #53 Fitness: 33 Error: 0 */
genomestart 53
trait 1 0.1 0 0 0 0 0 0 0 
trait 2 0.2 0 0 0 0 0 0 0 
trait 3 0.3 0 0 0 0 0 0 0 
node 1 2 1 1
node 2 3 1 1
node 3 3 1 1
node 4 3 1 1
node 5 1 1 1
node 6 1 1 1
node 7 3 1 3
node 8 2 0 2
node 11 1 0 0
gene 2 1 8 -1.70394 0 1 -1.70394 1
gene 3 2 8 -3.38561 0 2 -3.38561 1
gene 2 3 8 -2.05438 0 3 -2.05438 0
gene 2 4 8 -2.58417 0 4 -2.58417 1
gene 3 5 8 4.99597 0 5 4.99597 1
gene 1 6 8 2.58999 0 6 2.58999 1
gene 2 7 8 0.471339 0 7 0.471339 1
gene 2 3 11 -0.850275 0 12 -0.850275 1
gene 3 11 8 0.216321 0 13 0.216321 1
gene 2 6 11 -0.429841 0 72 -0.429841 1
genomeend 53

/* Species #4 : (Size 11) (AF 35.1818) (Age 5)  */


/* Organism #54 Fitness: 75 Error: 0 */
genomestart 54
trait 1 0.1 0 0 0 0 0 0 0 
trait 2 0.2 0 0 0 0 0 0 0 
trait 3 0.3 0 0 0 0 0 0 0 
node 1 2 1 1
node 2 3 1 1
node 3 3 1 1
node 4 3 1 1
node 5 1 1 1
node 6 1 1 1
node 7 3 1 3
node 8 2 0 2
node 11 1 0 0
node 23 1 0 0
gene 2 1 8 -1.31317 0 1 -1.31317 1
gene 1 2 8 0.14155 0 2 0.14155 1
gene 3 3 8 1.69233 0 3 1.69233 0
gene 2 4 8 2.01686 0 4 2.01686 0
gene 1 5 8 4.35569 0 5 4.35569 1
gene 2 6 8 0.258825 0 6 0.258825 1
gene 1 7 8 -0.0490528 0 7 -0.0490528 1
gene 3 3 11 0.222824 0 12 0.222824 1
gene 3 11 8 -0.36559 0 13 -0.36559 1
gene 2 4 23 1.78327 0 41 1.78327 1
gene 2 23 8 -0.745193 0 42 -0.745193 1
gene 2 6 11 -0.405709 0 45 -0.405709 1
genomeend 54

/* Organism #55 Fitness: 32 Error: 0 */
genomestart 55
trait 1 0.1 0 0 0 0 0 0 0 
trait 2 0.2 0 0 0 0 0 0 0 
trait 3 0.3 0 0 0 0 0 0 0 
node 1 2 1 1
node 2 3 1 1
node 3 3 1 1
node 4 3 1 1
node 5 1 1 1
node 6 1 1 1
node 7 1 1 3
node 8 2 0 2
node 11 1 0 0
node 23 1 0 0
gene 2 1 8 -0.594309 0 1 -0.594309 1
gene 1 2 8 -2.39605 0 2 -2.39605 1
gene 3 3 8 0.714488 0 3 0.714488 0
gene 2 4 8 1.82753 0 4 1.82753 0
gene 1 5 8 5.66806 0 5 5.66806 1
gene 2 6 8 2.28902 0 6 2.28902 1
gene 1 7 8 -2.4011 0 7 -2.4011 1
gene 3 3 11 -0.220362 0 12 -0.220362 1
gene 3 11 8 -1.38222 0 13 -1.38222 1
gene 2 4 23 0.0629021 0 41 0.0629021 1
gene 2 23 8 -0.905898 0 42 -0.905898 1
gene 2 6 11 1.16191 0 45 1.16191 1
genomeend 55

/* Organism #56 Fitness: 19 Error: 0 */
genomestart 56
trait 1 0.1 0 0 0 0 0 0 0 
trait 2 0.2 0 0 0 0 0 0 0 
trait 3 0.3 0 0 0 0 0 0 0 
node 1 2 1 1
node 2 3 1 1
node 3 3 1 1
node 4 3 1 1
node 5 1 1 1
node 6 1 1 1
node 7 1 1 3
node 8 2 0 2
node 11 1 0 0
node 23 1 0 0
gene 2 1 8 1.01354 0 1 1.01354 1
gene 1 2 8 2.36831 0 2 2.36831 1
gene 3 3 8 2.8325 0 3 2.8325 0
gene 2 4 8 2.6633 0 4 2.6633 0
gene 1 5 8 4.42422 0 5 4.42422 1
gene 2 6 8 0.137182 0 6 0.137182 1
gene 1 7 8 -2.80299 0 7 -2.80299 1
gene 3 3 11 -1.27519 0 12 -1.27519 1
gene 3 11 8 1.07476 0 13 1.07476 1
gene 2 4 23 2.37991 0 41 2.37991 1
gene 2 23 8 1.60005 0 42 1.60005 1
gene 2 6 11 -1.54341 0 45 -1.54341 1
genomeend 56

/* Organism #57 Fitness: 20 Error: 0 */
genomestart 57
trait 1 0.1 0 0 0 0 0 0 0 
trait 2 0.2 0 0 0 0 0 0 0 
trait 3 0.3 0 0 0 0 0 0 0 
node 1 2 1 1
node 2 3 1 1
node 3 3 1 1
node 4 3 1 1
node 5 1 1 1
node 6 1 1 1
node 7 3 1 3
node 8 3 0 2
node 11 1 0 0
node 23 1 0 0
gene 2 1 8 -1.5433 0 1 -1.5433 1
gene 1 2 8 0.609722 0 2 0.609722 1
gene 3 3 8 -0.775014 0 3 -0.775014 1
gene 2 4 8 -0.322324 0 4 -0.322324 0
gene 1 5 8 3.93847 0 5 3.93847 1
gene 2 6 8 2.52426 0 6 2.52426 1
gene 1 7 8 -2.81359 0 7 -2.81359 1
gene 3 3 11 3.29509 0 12 3.29509 1
gene 3 11 8 -2.20732 0 13 -2.20732 1
gene 2 4 23 -1.16478 0 41 -1.16478 1
gene 2 23 8 -2.02386 0 42 -2.02386 1
gene 2 6 11 -0.974561 0 45 -0.974561 1
genomeend 57

/* Organism #58 Fitness: 58 Error: 0 */
genomestart 58
trait 1 0.1 0 0 0 0 0 0 0 
trait 2 0.2 0 0 0 0 0 0 0 
trait 3 0.3 0 0 0 0 0 0 0 
node 1 2 1 1
node 2 3 1 1
node 3 3 1 1
node 4 3 1 1
node 5 1 1 1
node 6 1 1 1
node 7 3 1 3
node 8 2 0 2
node 11 1 0 0
node 23 1 0 0
gene 2 1 8 -1.31317 0 1 -1.31317 1
gene 1 2 8 0.826478 0 2 0.826478 1
gene 3 3 8 1.31184 0 3 1.31184 1
gene 2 4 8 3.89341 0 4 3.89341 0
gene 1 5 8 4.95698 0 5 4.95698 1
gene 2 6 8 1.51085 0 6 1.51085 1
gene 1 7 8 -1.36724 0 7 -1.36724 1
gene 3 3 11 -1.6384 0 12 -1.6384 1
gene 3 11 8 0.0682931 0 13 0.0682931 1
gene 2 4 23 0.597515 0 41 0.597515 1
gene 2 23 8 -0.761205 0 42 -0.761205 1
gene 2 6 11 -2.4138 0 45 -2.4138 1
genomeend 58

/* Organism #59 Fitness: 5 Error: 0 */
genomestart 59
trait 1 0.1 0 0 0 0 0 0 0 
trait 2 0.2 0 0 0 0 0 0 0 
trait 3 0.3 0 0 0 0 0 0 0 
node 1 2 1 1
node 2 3 1 1
node 3 3 1 1
node 4 3 1 1
node 5 1 1 1
node 6 1 1 1
node 7 3 1 3
node 8 2 0 2
node 11 1 0 0
node 23 1 0 0
gene 2 1 8 -0.247883 0 1 -0.247883 1
gene 1 2 8 1.17562 0 2 1.17562 1
gene 3 3 8 -2.26323 0 3 -2.26323 0
gene 2 4 8 2.69656 0 4 2.69656 0
gene 1 5 8 -0.901749 0 5 -0.901749 1
gene 2 6 8 -1.80023 0 6 -1.80023 1
gene 1 7 8 -0.42024 0 7 -0.42024 1
gene 3 3 11 2.54534 0 12 2.54534 1
gene 3 11 8 0.805195 0 13 0.805195 1
gene 2 4 23 1.59741 0 41 1.59741 1
gene 2 23 8 -0.677627 0 42 -0.677627 1
gene 2 6 11 2.01788 0 45 2.01788 1
genomeend 59

/* Organism #60 Fitness: 29 Error: 0 */
genomestart 60
trait 1 0 0 0 0 0.254745 0 0 0 
trait 2 0.2 0 0 0 0 0 0 0 
trait 3 0.3 0 0 0 0 0 0 0 
node 1 2 1 1
node 2 3 1 1
node 3 3 1 1
node 4 3 1 1
node 5 1 1 1
node 6 1 1 1
node 7 3 1 3
node 8 2 0 2
node 11 1 0 0
node 23 1 0 0
gene 2 1 8 1.21419 0 1 1.21419 1
gene 1 2 8 -2.23274 0 2 -2.23274 1
gene 3 3 8 1.09563 0 3 1.09563 0
gene 2 4 8 0.890934 0 4 0.890934 0
gene 1 5 8 3.12052 0 5 3.12052 1
gene 2 6 8 3.10186 0 6 3.10186 1
gene 1 7 8 0.654682 0 7 0.654682 1
gene 3 3 11 1.02035 0 12 1.02035 1
gene 3 11 8 -0.507325 0 13 -0.507325 1
gene 2 4 23 1.79888 0 41 1.79888 1
gene 2 23 8 0.8427 0 42 0.8427 1
gene 2 6 11 -0.405709 0 45 -0.405709 1
genomeend 60

/* Organism #61 Fitness: 56 Error: 0 */
genomestart 61
trait 1 0.1 0 0 0 0 0 0 0 
trait 2 0.2 0 0 0 0 0 0 0 
trait 3 0.3 0 0 0 0 0 0 0 
node 1 2 1 1
node 2 3 1 1
node 3 3 1 1
node 4 3 1 1
node 5 1 1 1
node 6 1 1 1
node 7 1 1 3
node 8 2 0 2
node 11 1 0 0
node 23 1 0 0
gene 2 1 8 -1.47025 0 1 -1.47025 1
gene 1 2 8 3.73164 0 2 3.73164 1
gene 3 3 8 1.08238 0 3 1.08238 0
gene 2 4 8 3.42576 0 4 3.42576 0
gene 1 5 8 3.41616 0 5 3.41616 1
gene 2 6 8 2.29749 0 6 2.29749 1
gene 1 7 8 -0.749578 0 7 -0.749578 1
gene 3 3 11 -0.118901 0 12 -0.118901 1
gene 3 11 8 0.208442 0 13 0.208442 1
gene 2 4 23 0.530943 0 41 0.530943 1
gene 2 23 8 -0.252147 0 42 -0.252147 1
gene 2 6 11 -1.54341 0 45 -1.54341 1
gene 3 1 23 -0.39075 0 100 -0.39075 1
genomeend 61

/* Organism #62 Fitness: 60 Error: 0 */
genomestart 62
trait 1 0.1 0 0 0 0 0 0 0 
trait 2 0.2 0 0 0 0 0 0 0 
trait 3 0.3 0 0 0 0 0 0 0 
node 1 2 1 1
node 2 3 1 1
node 3 3 1 1
node 4 3 1 1
node 5 1 1 1
node 6 1 1 1
node 7 3 1 3
node 8 2 0 2
node 11 1 0 0
node 23 1 0 0
gene 2 1 8 1.15964 0 1 1.15964 1
gene 1 2 8 0.258268 0 2 0.258268 1
gene 3 3 8 3.93195 0 3 3.93195 0
gene 2 4 8 4.3772 0 4 4.3772 0
gene 1 5 8 5.90285 0 5 5.90285 1
gene 2 6 8 1.81229 0 6 1.81229 1
gene 1 7 8 -0.719925 0 7 -0.719925 1
gene 3 3 11 -0.789434 0 12 -0.789434 1
gene 3 11 8 -1.34418 0 13 -1.34418 1
gene 2 4 23 3.1744 0 41 3.1744 1
gene 2 23 8 -0.745193 0 42 -0.745193 1
gene 2 6 11 -0.405709 0 45 -0.405709 1
genomeend 62

/* Organism #63 Fitness: 5 Error: 0 */
genomestart 63
trait 1 0.1 0 0 0 0 0 0 0 
trait 2 0.2 0 0 0 0 0 0 0 
trait 3 0.3 0 0 0 0 0 0 0 
node 1 2 1 1
node 2 3 1 1
node 3 3 1 1
node 4 3 1 1
node 5 1 1 1
node 6 1 1 1
node 7 3 1 3
node 8 2 0 2
node 11 1 0 0
node 23 1 0 0
gene 2 1 8 0.771306 0 1 0.771306 1
gene 1 2 8 -2.3245 0 2 -2.3245 1
gene 3 3 8 0.498929 0 3 0.498929 0
gene 2 4 8 1.65175 0 4 1.65175 0
gene 1 5 8 4.36854 0 5 4.36854 1
gene 2 6 8 -0.745058 0 6 -0.745058 1
gene 3 7 8 -0.672807 0 7 -0.672807 1
gene 3 3 11 3.25783 0 12 3.25783 1
gene 3 11 8 -2.82682 0 13 -2.82682 1
gene 2 4 23 3.17446 0 41 3.17446 1
gene 2 23 8 -1.01795 0 42 -1.01795 1
gene 2 6 11 -0.0758008 0 45 -0.0758008 1
genomeend 63

/* Organism #64 Fitness: 28 Error: 0 */
genomestart 64
trait 1 0.1 0 0 0 0 0 0 0 
trait 2 0.2 0 0 0 0 0 0 0 
trait 3 0.3 0 0 0 0 0 0 0 
node 1 2 1 1
node 2 3 1 1
node 3 3 1 1
node 4 3 1 1
node 5 1 1 1
node 6 1 1 1
node 7 3 1 3
node 8 2 0 2
node 11 1 0 0
node 23 1 0 0
gene 2 1 8 -1.66993 0 1 -1.66993 1
gene 1 2 8 1.59932 0 2 1.59932 1
gene 3 3 8 -1.75132 0 3 -1.75132 0
gene 2 4 8 2.63052 0 4 2.63052 0
gene 1 5 8 0.946958 0 5 0.946958 1
gene 2 6 8 1.27401 0 6 1.27401 1
gene 1 7 8 -0.198297 0 7 -0.198297 1
gene 3 3 11 -0.660951 0 12 -0.660951 1
gene 3 11 8 -1.92437 0 13 -1.92437 1
gene 2 4 23 1 0 41 1 1
gene 2 23 8 0.380232 0 42 0.380232 1
gene 2 6 11 1.53171 0 45 1.53171 1
genomeend 64

/* Species #5 : (Size 13) (AF 32.0769) (Age 5)  */


/* Organism #65 Fitness: 108 Error: 0 */
genomestart 65
trait 1 0.1 0 0 0 0 0 0 0 
trait 2 0.2 0 0 0 0 0 0 0 
trait 3 0.3 0 0 0 0 0 0 0 
node 1 2 1 1
node 2 3 1 1
node 3 3 1 1
node 4 3 1 1
node 5 1 1 1
node 6 1 1 1
node 7 3 1 3
node 8 2 0 2
node 11 1 0 0
node 24 1 0 0
gene 2 1 8 2.51838 0 1 2.51838 1
gene 3 2 8 2.96839 0 2 2.96839 1
gene 3 3 8 -1.73698 0 3 -1.73698 0
gene 2 4 8 1.50626 0 4 1.50626 1
gene 1 5 8 2.8737 0 5 2.8737 1
gene 1 6 8 1.68566 0 6 1.68566 1
gene 1 7 8 0.44442 0 7 0.44442 1
gene 3 3 11 3.91722 0 12 3.91722 1
gene 3 11 8 -1.09439 0 13 -1.09439 0
gene 3 11 24 1 0 43 0 1
gene 3 24 8 -1.09439 0 44 0 1
genomeend 65

/* Organism #66 Fitness: 28 Error: 0 */
genomestart 66
trait 1 0.1 0.485928 0 0 0 0 0.0791709 0 
trait 2 0.2 0 0 0 0 0 0 0 
trait 3 0.3 0 0 0 0 0 0 0 
node 1 2 1 1
node 2 3 1 1
node 3 3 1 1
node 4 3 1 1
node 5 1 1 1
node 6 1 1 1
node 7 3 1 3
node 8 2 0 2
node 11 1 0 0
node 24 1 0 0
gene 2 1 8 3.10035 0 1 3.10035 1
gene 3 2 8 3.19465 0 2 3.19465 1
gene 3 3 8 -1.95346 0 3 -1.95346 1
gene 2 4 8 2.37958 0 4 2.37958 1
gene 1 5 8 2.43675 0 5 2.43675 1
gene 1 6 8 1.05617 0 6 1.05617 1
gene 1 7 8 1.10231 0 7 1.10231 1
gene 3 3 11 4.57276 0 12 4.57276 1
gene 3 11 8 -1.60562 0 13 -1.60562 1
gene 3 11 24 0.80102 0 43 0.30102 1
gene 3 24 8 -1.57244 0 44 -1.02525 1
genomeend 66

/* Organism #67 Fitness: 24 Error: 0 */
genomestart 67
trait 1 0.1 0.485928 0 0 0 0 0.0791709 0 
trait 2 0.2 0 0 0 0 0 0 0 
trait 3 0.3 0 0 0 0 0 0 0 
node 1 2 1 1
node 2 3 1 1
node 3 3 1 1
node 4 3 1 1
node 5 1 1 1
node 6 1 1 1
node 7 3 1 3
node 8 2 0 2
node 11 1 0 0
node 24 1 0 0
gene 2 1 8 2.67827 0 1 2.67827 1
gene 3 2 8 4.64739 0 2 4.64739 1
gene 3 3 8 -1.95346 0 3 -1.95346 0
gene 2 4 8 4.7186 0 4 4.7186 1
gene 1 5 8 4.50433 0 5 4.50433 1
gene 1 6 8 1.77042 0 6 1.77042 1
gene 2 7 8 3.17861 0 7 3.17861 1
gene 3 3 11 2.87259 0 12 2.87259 1
gene 3 11 8 -1.21891 0 13 -1.21891 0
gene 3 11 24 -1.52197 0 43 -1.52197 1
gene 3 24 8 -1.26931 0 44 -1.26931 1
genomeend 67

/* Organism #68 Fitness: 5 Error: 0 */
genomestart 68
trait 1 0.1 0.485928 0 0 0 0 0.0791709 0 
trait 2 0.2 0 0 0 0 0 0 0 
trait 3 0.3 0 0 0 0 0 0 0 
node 1 2 1 1
node 2 3 1 1
node 3 3 1 1
node 4 3 1 1
node 5 1 1 1
node 6 1 1 1
node 7 3 1 3
node 8 2 0 2
node 11 1 0 0
node 24 1 0 0
gene 2 1 8 1.20911 0 1 1.20911 1
gene 3 2 8 4.44159 0 2 4.44159 1
gene 3 3 8 2.47535 0 3 2.47535 0
gene 2 4 8 4.65518 0 4 4.65518 1
gene 1 5 8 2.16908 0 5 2.16908 1
gene 1 6 8 -0.628755 0 6 -0.628755 1
gene 2 7 8 0.718909 0 7 0.718909 1
gene 3 3 11 6.27778 0 12 6.27778 1
gene 3 11 8 -0.878093 0 13 -0.878093 0
gene 3 11 24 -0.627059 0 43 -0.627059 1
gene 3 24 8 0.133097 0 44 0.133097 1
genomeend 68

/* Organism #69 Fitness: 37 Error: 0 */
genomestart 69
trait 1 0.1 0 0 0 0 0 0 0 
trait 2 0.2 0 0 0 0 0 0 0 
trait 3 0.3 0 0 0 0 0 0 0 
node 1 2 1 1
node 2 3 1 1
node 3 3 1 1
node 4 3 1 1
node 5 1 1 1
node 6 1 1 1
node 7 3 1 3
node 8 2 0 2
node 11 1 0 0
node 24 1 0 0
gene 2 1 8 2.7734 0 1 2.7734 1
gene 3 2 8 2.83131 0 2 2.83131 1
gene 3 3 8 -2.43845 0 3 -2.43845 0
gene 2 4 8 1.85722 0 4 1.85722 1
gene 1 5 8 7.24211 0 5 7.24211 1
gene 1 6 8 1.56657 0 6 1.56657 1
gene 1 7 8 -2.39621 0 7 -2.39621 1
gene 3 3 11 4.28101 0 12 4.28101 1
gene 3 11 8 0.0950227 0 13 0.0950227 0
gene 3 11 24 3.06137 0 43 3.06137 1
gene 3 24 8 1.09061 0 44 1.09061 1
genomeend 69

/* Organism #70 Fitness: 55 Error: 0 */
genomestart 70
trait 1 0.186578 0 0 0 0 0 0 0 
trait 2 0.2 0 0 0 0 0 0 0 
trait 3 0.3 0 0 0 0 0 0 0 
node 1 2 1 1
node 2 3 1 1
node 3 3 1 1
node 4 3 1 1
node 5 1 1 1
node 6 1 1 1
node 7 3 1 3
node 8 2 0 2
node 11 1 0 0
node 24 1 0 0
gene 2 1 8 2.85049 0 1 2.85049 1
gene 3 2 8 4.03077 0 2 4.03077 1
gene 3 3 8 0.201442 0 3 0.201442 0
gene 2 4 8 1.68174 0 4 1.68174 1
gene 1 5 8 0.259594 0 5 0.259594 1
gene 1 6 8 4.20855 0 6 4.20855 1
gene 1 7 8 -0.404625 0 7 -0.404625 1
gene 3 3 11 4.91241 0 12 4.91241 1
gene 3 11 8 -0.581812 0 13 -0.581812 1
gene 3 11 24 3.43468 0 43 3.43468 1
gene 3 24 8 0.86737 0 44 0.86737 1
genomeend 70

/* Organism #71 Fitness: 49 Error: 0 */
genomestart 71
trait 1 0.1 0.971857 0 0 0 0 0.158342 0 
trait 2 0.2 0 0 0 0 0 0 0 
trait 3 0.3 0 0 0 0 0 0 0 
node 1 2 1 1
node 2 3 1 1
node 3 3 1 1
node 4 3 1 1
node 5 1 1 1
node 6 1 1 1
node 7 3 1 3
node 8 2 0 2
node 11 1 0 0
node 24 1 0 0
gene 2 1 8 3.68231 0 1 3.68231 1
gene 3 2 8 3.4209 0 2 3.4209 1
gene 3 3 8 -2.16993 0 3 -2.16993 0
gene 2 4 8 3.2529 0 4 3.2529 1
gene 1 5 8 1.9998 0 5 1.9998 1
gene 1 6 8 0.426686 0 6 0.426686 1
gene 2 7 8 1.76019 0 7 1.76019 1
gene 3 3 11 5.22831 0 12 5.22831 1
gene 3 11 8 -2.11684 0 13 -2.11684 0
gene 3 11 24 0.602039 0 43 0.602039 1
gene 3 24 8 -2.05049 0 44 -2.05049 1
genomeend 71

/* Organism #72 Fitness: 5 Error: 0 */
genomestart 72
trait 1 0.1 0.971857 0 0 0 0 0.158342 0 
trait 2 0.2 0 0 0 0 0 0 0 
trait 3 0.3 0 0 0 0 0 0 0 
node 1 2 1 1
node 2 3 1 1
node 3 3 1 1
node 4 3 1 1
node 5 1 1 1
node 6 1 1 1
node 7 3 1 3
node 8 2 0 2
node 11 1 0 0
node 24 1 0 0
gene 2 1 8 4.43869 0 1 4.43869 1
gene 3 2 8 0.930289 0 2 0.930289 1
gene 3 3 8 -3.40571 0 3 -3.40571 0
gene 2 4 8 1.91457 0 4 1.91457 1
gene 1 5 8 0.0837749 0 5 0.0837749 1
gene 1 6 8 -1.44499 0 6 -1.44499 1
gene 2 7 8 3.88807 0 7 3.88807 1
gene 3 3 11 4.12648 0 12 4.12648 1
gene 3 11 8 0.370681 0 13 0.370681 0
gene 3 11 24 -1.20208 0 43 -1.20208 1
gene 3 24 8 -2.07693 0 44 -2.07693 1
genomeend 72

/* Organism #73 Fitness: 38 Error: 0 */
genomestart 73
trait 1 0.1 0 0 0 0 0 0 0 
trait 2 0.2 0 0 0 0 0 0 0 
trait 3 0.3 0 0 0 0 0 0 0 
node 1 2 1 1
node 2 3 1 1
node 3 3 1 1
node 4 3 1 1
node 5 1 1 1
node 6 1 1 1
node 7 3 1 3
node 8 2 0 2
node 11 1 0 0
node 24 1 0 0
gene 2 1 8 1.4222 0 1 1.4222 1
gene 3 2 8 0.54367 0 2 0.54367 1
gene 3 3 8 -0.0563744 0 3 -0.0563744 1
gene 2 4 8 1.50626 0 4 1.50626 1
gene 1 5 8 2.8737 0 5 2.8737 1
gene 1 6 8 3.1591 0 6 3.1591 1
gene 1 7 8 -1.1171 0 7 -1.1171 1
gene 3 3 11 5.60237 0 12 5.60237 1
gene 3 11 8 -2.11003 0 13 -2.11003 1
gene 3 11 24 2.98652 0 43 2.98652 1
gene 3 24 8 1.38146 0 44 1.38146 1
genomeend 73

/* Organism #74 Fitness: 41 Error: 0 */
genomestart 74
trait 1 0.1 0 0 0 0 0 0 0 
trait 2 0.2 0 0 0 0 0 0 0 
trait 3 0.3 0 0 0 0 0 0 0 
node 1 2 1 1
node 2 3 1 1
node 3 3 1 1
node 4 3 1 1
node 5 1 1 1
node 6 1 1 1
node 7 3 1 3
node 8 2 0 2
node 11 1 0 0
node 24 1 0 0
gene 2 1 8 0.757819 0 1 0.757819 1
gene 3 2 8 5.81596 0 2 5.81596 1
gene 3 3 8 -3.637 0 3 -3.637 0
gene 2 4 8 -0.252915 0 4 -0.252915 1
gene 1 5 8 2.66685 0 5 2.66685 1
gene 1 6 8 1.79866 0 6 1.79866 1
gene 1 7 8 0.511868 0 7 0.511868 1
gene 3 3 11 0.702567 0 12 0.702567 1
gene 3 11 8 -2.48499 0 13 -2.48499 1
gene 3 11 24 1.46649 0 43 1.46649 1
gene 3 24 8 1.1491 0 44 1.1491 1
genomeend 74

/* Organism #75 Fitness: 5 Error: 0 */
genomestart 75
trait 1 0.1 0.485928 0 0 0 0 0.0791709 0 
trait 2 0.2 0 0 0 0 0 0 0 
trait 3 0.3 0 0 0 0 0 0 0 
node 1 2 1 1
node 2 3 1 1
node 3 3 1 1
node 4 3 1 1
node 5 1 1 1
node 6 1 1 1
node 7 3 1 3
node 8 2 0 2
node 11 1 0 0
node 24 1 0 0
gene 2 1 8 3.11233 0 1 3.11233 1
gene 3 2 8 2.2437 0 2 2.2437 1
gene 3 3 8 0.939831 0 3 0.939831 0
gene 2 4 8 1.50626 0 4 1.50626 1
gene 1 5 8 0.318737 0 5 0.318737 1
gene 1 6 8 -0.783343 0 6 -0.783343 1
gene 1 7 8 1.99933 0 7 1.99933 1
gene 3 3 11 6.22006 0 12 6.22006 1
gene 3 11 8 -0.818182 0 13 -0.818182 0
gene 3 11 24 0.602039 0 43 0.602039 1
gene 3 24 8 -0.761023 0 44 -0.761023 1
genomeend 75

/* Organism #76 Fitness: 5 Error: 0 */
genomestart 76
trait 1 0.1 0.971857 0 0 0 0 0.158342 0 
trait 2 0.2 0 0 0 0 0 0 0 
trait 3 0.3 0 0 0 0 0 0 0 
node 1 2 1 1
node 2 3 1 1
node 3 3 1 1
node 4 3 1 1
node 5 1 1 1
node 6 1 1 1
node 7 3 1 3
node 8 2 0 2
node 11 1 0 0
node 24 1 0 0
gene 2 1 8 5.37377 0 1 5.37377 1
gene 3 2 8 3.77247 0 2 3.77247 1
gene 3 3 8 -1.67227 0 3 -1.67227 0
gene 2 4 8 1.88154 0 4 1.88154 1
gene 1 5 8 0.0187323 0 5 0.0187323 1
gene 1 6 8 -1.75217 0 6 -1.75217 1
gene 3 7 8 2.03635 0 7 2.03635 1
gene 3 3 11 3.29564 0 12 3.29564 1
gene 3 11 8 -0.442904 0 13 -0.442904 0
gene 3 11 24 0.602039 0 43 0.602039 1
gene 3 24 8 -2.05049 0 44 -2.05049 1
genomeend 76

/* Organism #77 Fitness: 17 Error: 0 */
genomestart 77
trait 1 0.1 0.971857 0 0 0 0 0.158342 0 
trait 2 0.2 0 0 0 0 0 0 0 
trait 3 0.3 0 0 0 0 0 0 0 
node 1 2 1 1
node 2 3 1 1
node 3 3 1 1
node 4 3 1 1
node 5 1 1 1
node 6 1 1 1
node 7 3 1 3
node 8 2 0 2
node 11 1 0 0
node 24 1 0 0
gene 2 1 8 3.24715 0 1 3.24715 1
gene 3 2 8 3.4209 0 2 3.4209 1
gene 3 3 8 0.542944 0 3 0.542944 0
gene 2 4 8 3.92888 0 4 3.92888 1
gene 1 5 8 1.97742 0 5 1.97742 1
gene 1 6 8 1.00008 0 6 1.00008 1
gene 2 7 8 3.73167 0 7 3.73167 1
gene 3 3 11 0.826621 0 12 0.826621 1
gene 3 11 8 1.00139 0 13 1.00139 0
gene 3 11 24 -0.354201 0 43 -0.354201 1
gene 3 24 8 -2.31821 0 44 -2.31821 1
genomeend 77

/* Species #6 : (Size 11) (AF 33.3636) (Age 5)  */


/* Organism #78 Fitness: 64 Error: 0 */
genomestart 78
trait 1 0.1 0 0 0 0 0 0 0 
trait 2 0.2 0 0 0 0 0 0 0 
trait 3 0.3 0 0 0 0 0 0 0 
node 1 2 1 1
node 2 3 1 1
node 3 3 1 1
node 4 3 1 1
node 5 1 1 1
node 6 1 1 1
node 7 3 1 3
node 8 3 0 2
node 11 1 0 0
node 15 1 0 0
node 22 1 0 0
node 26 1 0 0
gene 2 1 8 3.81533 0 1 3.81533 1
gene 3 2 8 2.198 0 2 2.198 0
gene 2 3 8 0.142379 0 3 0.142379 0
gene 1 4 8 0.0389438 0 4 0.0389438 1
gene 1 5 8 2.61929 0 5 2.61929 1
gene 1 6 8 0.890946 0 6 0.890946 1
gene 1 7 8 0.393306 0 7 0.393306 1
gene 3 3 11 2.7472 0 12 2.7472 1
gene 3 11 8 -2.22893 0 13 -2.22893 0
gene 3 11 15 2.45698 0 20 2.45698 1
gene 3 15 8 -0.281289 0 21 -0.281289 1
gene 3 2 22 -1.32575 0 38 -1.32575 0
gene 3 22 8 -1.8122 0 39 -1.8122 1
gene 3 2 26 1 0 48 1 1
gene 3 26 22 -0.305105 0 49 -0.305105 1
genomeend 78

/* Organism #79 Fitness: 42 Error: 0 */
genomestart 79
trait 1 0.1 0 0 0 0 0 0 0 
trait 2 0.2 0 0 0 0 0 0 0 
trait 3 0.3 0 0 0 0 0 0 0 
node 1 2 1 1
node 2 2 1 1
node 3 3 1 1
node 4 3 1 1
node 5 1 1 1
node 6 1 1 1
node 7 3 1 3
node 8 3 0 2
node 11 1 0 0
node 15 1 0 0
node 22 1 0 0
node 26 1 0 0
node 41 1 0 0
gene 2 1 8 -1.56568 0 1 -1.56568 1
gene 3 2 8 -0.349578 0 2 -0.349578 0
gene 2 3 8 3.51224 0 3 3.51224 0
gene 1 4 8 1.79152 0 4 1.79152 1
gene 1 5 8 4.79791 0 5 4.79791 1
gene 1 6 8 7.97853 0 6 7.97853 1
gene 1 7 8 1.61534 0 7 1.61534 1
gene 3 3 11 1.64334 0 12 1.64334 1
gene 3 11 8 0.768568 0 13 0.768568 0
gene 3 11 15 3.22447 0 20 3.22447 1
gene 3 15 8 -0.59319 0 21 -0.59319 1
gene 3 2 22 -3.87362 0 38 -3.87362 0
gene 3 22 8 -0.00198873 0 39 -0.00198873 1
gene 3 2 26 -0.30287 0 48 -0.30287 1
gene 3 26 22 1 0 49 1 0
gene 3 26 41 1 0 88 1 1
gene 3 41 22 1.58413 0 89 1.58413 1
genomeend 79

/* Organism #80 Fitness: 6 Error: 0 */
genomestart 80
trait 1 0.1 0 0 0 0 0 0 0 
trait 2 0.2 0 0 0 0 0 0 0 
trait 3 0.3 0 0 0 0 0 0 0 
node 1 2 1 1
node 2 2 1 1
node 3 3 1 1
node 4 3 1 1
node 5 1 1 1
node 6 1 1 1
node 7 3 1 3
node 8 3 0 2
node 11 1 0 0
node 15 1 0 0
node 22 1 0 0
node 26 1 0 0
gene 2 1 8 0.754714 0 1 0.754714 1
gene 3 2 8 -0.854975 0 2 -0.854975 0
gene 2 3 8 -1.17366 0 3 -1.17366 0
gene 1 4 8 -1.46144 0 4 -1.46144 1
gene 1 5 8 -1.89924 0 5 -1.89924 1
gene 1 6 8 0.719495 0 6 0.719495 1
gene 1 7 8 -2.93793 0 7 -2.93793 1
gene 3 3 11 3.78797 0 12 3.78797 1
gene 3 11 8 2.44726 0 13 2.44726 0
gene 3 11 15 -1.12746 0 20 -1.12746 1
gene 3 15 8 1.609 0 21 1.609 1
gene 3 2 22 1.67077 0 38 1.67077 0
gene 3 22 8 -2.55993 0 39 -2.55993 1
gene 3 2 26 1.23278 0 48 1.23278 1
gene 3 26 22 1 0 49 1 0
genomeend 80

/* Organism #81 Fitness: 30 Error: 0 */
genomestart 81
trait 1 0.1 0 0 0 0 0 0 0 
trait 2 0.2 0 0 0 0 0 0 0 
trait 3 0.3 0 0 0 0 0 0 0 
node 1 2 1 1
node 2 2 1 1
node 3 3 1 1
node 4 3 1 1
node 5 1 1 1
node 6 1 1 1
node 7 3 1 3
node 8 3 0 2
node 11 1 0 0
node 15 1 0 0
node 22 1 0 0
node 26 1 0 0
node 41 1 0 0
gene 2 1 8 0.028807 0 1 0.028807 1
gene 3 2 8 0.529952 0 2 0.529952 0
gene 2 3 8 -0.413049 0 3 -0.413049 1
gene 1 4 8 -1.48865 0 4 -1.48865 1
gene 1 5 8 3.56714 0 5 3.56714 1
gene 1 6 8 7.12785 0 6 7.12785 1
gene 1 7 8 1.09431 0 7 1.09431 1
gene 3 3 11 3.91026 0 12 3.91026 1
gene 3 11 8 0.788335 0 13 0.788335 0
gene 3 11 15 -0.817978 0 20 -0.817978 1
gene 3 15 8 -0.906791 0 21 -0.906791 1
gene 3 2 22 -1.67239 0 38 -1.67239 0
gene 1 22 8 -0.0198015 0 39 -0.0198015 1
gene 3 2 26 1.10593 0 48 1.10593 1
gene 3 26 22 -1.57382 0 49 -1.57382 0
gene 3 26 41 -1.37454 0 88 -1.37454 1
gene 3 41 22 0.695076 0 89 0.695076 1
genomeend 81

/* Organism #82 Fitness: 38 Error: 0 */
genomestart 82
trait 1 0.1 0 0 0 0 0 0 0 
trait 2 0.2 0 0 0 0 0 0 0 
trait 3 0.3 0 0 0 0 0 0 0 
node 1 2 1 1
node 2 2 1 1
node 3 3 1 1
node 4 3 1 1
node 5 1 1 1
node 6 1 1 1
node 7 3 1 3
node 8 3 0 2
node 11 1 0 0
node 15 1 0 0
node 22 1 0 0
node 26 1 0 0
gene 2 1 8 1.33853 0 1 1.33853 1
gene 3 2 8 0.389251 0 2 0.389251 0
gene 2 3 8 -0.00433572 0 3 -0.00433572 0
gene 1 4 8 1.35764 0 4 1.35764 1
gene 1 5 8 4.49221 0 5 4.49221 1
gene 1 6 8 7.87671 0 6 7.87671 1
gene 1 7 8 2.1412 0 7 2.1412 1
gene 3 3 11 1.16638 0 12 1.16638 1
gene 3 11 8 -0.126003 0 13 -0.126003 0
gene 3 11 15 3.72492 0 20 3.72492 1
gene 3 15 8 -0.247581 0 21 -0.247581 1
gene 3 2 22 0.165149 0 38 0.165149 1
gene 3 22 8 -0.500139 0 39 -0.500139 1
gene 3 2 26 5.22135 0 48 5.22135 1
gene 3 26 22 0.101488 0 49 0.101488 1
gene 1 4 15 -1.47113 0 90 -1.47113 1
genomeend 82

/* Organism #83 Fitness: 24 Error: 0 */
genomestart 83
trait 1 0.1 0 0 0 0 0 0 0 
trait 2 0.2 0 0 0 0 0 0 0 
trait 3 0.3 0 0 0 0 0 0 0 
node 1 2 1 1
node 2 2 1 1
node 3 3 1 1
node 4 3 1 1
node 5 1 1 1
node 6 1 1 1
node 7 3 1 3
node 8 3 0 2
node 11 1 0 0
node 15 1 0 0
node 22 1 0 0
node 26 1 0 0
node 41 1 0 0
gene 2 1 8 2.21247 0 1 2.21247 1
gene 3 2 8 2.31799 0 2 2.31799 0
gene 2 3 8 -0.520232 0 3 -0.520232 0
gene 1 4 8 0.120798 0 4 0.120798 1
gene 1 5 8 2.22849 0 5 2.22849 1
gene 1 6 8 7.46311 0 6 7.46311 1
gene 1 7 8 -0.724774 0 7 -0.724774 1
gene 3 3 11 0.472475 0 12 0.472475 1
gene 3 11 8 1.56116 0 13 1.56116 0
gene 3 11 15 1.39666 0 20 1.39666 1
gene 3 15 8 -0.829936 0 21 -0.829936 1
gene 3 2 22 -2.88052 0 38 -2.88052 0
gene 3 22 8 -1.72248 0 39 -1.72248 1
gene 3 2 26 2.87527 0 48 2.87527 1
gene 3 26 22 -0.167473 0 49 -0.167473 0
gene 3 26 41 1.84071 0 88 1.84071 1
gene 3 41 22 0.874624 0 89 0.874624 1
genomeend 83

/* Organism #84 Fitness: 49 Error: 0 */
genomestart 84
trait 1 0.1 0 0 0 0 0 0 0 
trait 2 0.2 0 0 0 0 0 0 0 
trait 3 0.3 0 0 0 0 0 0 0 
node 1 2 1 1
node 2 2 1 1
node 3 3 1 1
node 4 3 1 1
node 5 1 1 1
node 6 1 1 1
node 7 3 1 3
node 8 3 0 2
node 11 1 0 0
node 15 1 0 0
node 22 1 0 0
node 26 1 0 0
node 41 1 0 0
gene 2 1 8 0.754714 0 1 0.754714 1
gene 3 2 8 1.28926 0 2 1.28926 0
gene 2 3 8 0.787409 0 3 0.787409 0
gene 1 4 8 0.193902 0 4 0.193902 1
gene 1 5 8 4.08606 0 5 4.08606 1
gene 1 6 8 0.680998 0 6 0.680998 1
gene 1 7 8 0.442907 0 7 0.442907 1
gene 3 3 11 -0.147735 0 12 -0.147735 1
gene 3 11 8 0.0880568 0 13 0.0880568 0
gene 3 11 15 1.22923 0 20 1.22923 1
gene 3 15 8 -0.743828 0 21 -0.743828 1
gene 3 2 22 -0.897687 0 38 -0.897687 0
gene 3 22 8 -0.756198 0 39 -0.756198 1
gene 3 2 26 0.323983 0 48 0.323983 1
gene 3 26 22 1.37424 0 49 1.37424 0
gene 3 26 41 2.76589 0 88 2.76589 1
gene 3 41 22 0.663141 0 89 0.663141 1
genomeend 84

/* Organism #85 Fitness: 24 Error: 0 */
genomestart 85
trait 1 0.1 0 0 0 0 0 0 0 
trait 2 0.2 0 0 0 0 0 0 0 
trait 3 0.3 0 0 0 0 0 0 0 
node 1 2 1 1
node 2 2 1 1
node 3 3 1 1
node 4 3 1 1
node 5 1 1 1
node 6 1 1 1
node 7 3 1 3
node 8 3 0 2
node 11 1 0 0
node 15 1 0 0
node 22 1 0 0
node 26 1 0 0
gene 2 1 8 2.46912 0 1 2.46912 1
gene 3 2 8 -1.68218 0 2 -1.68218 0
gene 2 3 8 -0.674086 0 3 -0.674086 0
gene 1 4 8 -2.18056 0 4 -2.18056 1
gene 1 5 8 0.963643 0 5 0.963643 1
gene 1 6 8 4.1918 0 6 4.1918 1
gene 1 7 8 2.01177 0 7 2.01177 1
gene 3 3 11 4.19691 0 12 4.19691 1
gene 3 11 8 -1.52419 0 13 -1.52419 0
gene 3 11 15 4.89819 0 20 4.89819 1
gene 3 15 8 1.90726 0 21 1.90726 1
gene 3 2 22 -4.82042 0 38 -4.82042 0
gene 3 22 8 -0.437775 0 39 -0.437775 1
gene 3 2 26 3.38274 0 48 3.38274 1
gene 3 26 22 1 0 49 1 1
gene 1 4 15 -0.701312 0 90 -0.701312 1
genomeend 85

/* Organism #86 Fitness: 27 Error: 0 */
genomestart 86
trait 1 0.1 0 0 0 0 0 0 0 
trait 2 0.2 0 0 0 0 0 0 0 
trait 3 0.3 0 0 0 0 0 0 0 
node 1 2 1 1
node 2 2 1 1
node 3 3 1 1
node 4 3 1 1
node 5 1 1 1
node 6 1 1 1
node 7 3 1 3
node 8 3 0 2
node 11 1 0 0
node 15 1 0 0
node 22 1 0 0
node 26 1 0 0
node 41 1 0 0
gene 2 1 8 -0.578221 0 1 -0.578221 1
gene 3 2 8 -0.117959 0 2 -0.117959 0
gene 2 3 8 1.45309 0 3 1.45309 0
gene 1 4 8 0.823698 0 4 0.823698 1
gene 1 5 8 5.17464 0 5 5.17464 1
gene 1 6 8 4.70958 0 6 4.70958 1
gene 1 7 8 -2.70337 0 7 -2.70337 1
gene 3 3 11 0.551151 0 12 0.551151 1
gene 3 11 8 0.113199 0 13 0.113199 0
gene 3 11 15 -0.818642 0 20 -0.818642 1
gene 3 15 8 1.92966 0 21 1.92966 1
gene 3 2 22 -3.16233 0 38 -3.16233 0
gene 3 22 8 -2.13167 0 39 -2.13167 1
gene 3 2 26 -0.56457 0 48 -0.56457 1
gene 3 26 22 2.35548 0 49 2.35548 0
gene 3 26 41 2.47407 0 88 2.47407 1
gene 3 41 22 1.64043 0 89 1.64043 1
genomeend 86

/* Organism #87 Fitness: 5 Error: 0 */
genomestart 87
trait 1 0.1 0 0 0 0 0 0 0 
trait 2 0.2 0 0 0 0 0 0 0 
trait 3 0.3 0 0 0 0 0 0 0 
node 1 2 1 1
node 2 3 1 1
node 3 3 1 1
node 4 3 1 1
node 5 1 1 1
node 6 1 1 1
node 7 3 1 3
node 8 3 0 2
node 11 1 0 0
node 15 1 0 0
node 22 1 0 0
node 26 1 0 0
gene 2 1 8 3.81533 0 1 3.81533 1
gene 3 2 8 2.456 0 2 2.456 0
gene 2 3 8 0.764507 0 3 0.764507 0
gene 1 4 8 -1.82009 0 4 -1.82009 1
gene 1 5 8 1.33581 0 5 1.33581 1
gene 1 6 8 -1.35111 0 6 -1.35111 1
gene 1 7 8 0.809312 0 7 0.809312 1
gene 3 3 11 1.67981 0 12 1.67981 1
gene 3 11 8 -4.38196 0 13 -4.38196 0
gene 3 11 15 -1.69233 0 20 -1.69233 1
gene 3 15 8 1.01515 0 21 1.01515 1
gene 3 2 22 -1.15041 0 38 -1.15041 0
gene 3 22 8 -0.660025 0 39 -0.660025 1
gene 3 2 26 -0.620157 0 48 -0.620157 1
gene 3 26 22 1.65769 0 49 1.65769 1
genomeend 87

/* Organism #88 Fitness: 58 Error: 0 */
genomestart 88
trait 1 0.1 0 0 0 0 0 0 0 
trait 2 0.2 0 0 0 0 0 0 0 
trait 3 0.3 0 0 0 0 0 0 0 
node 1 2 1 1
node 2 2 1 1
node 3 3 1 1
node 4 3 1 1
node 5 1 1 1
node 6 1 1 1
node 7 3 1 3
node 8 3 0 2
node 11 1 0 0
node 15 1 0 0
node 22 1 0 0
node 26 1 0 0
node 41 1 0 0
gene 2 1 8 0.754714 0 1 0.754714 1
gene 3 2 8 0.365994 0 2 0.365994 0
gene 2 3 8 1.76448 0 3 1.76448 0
gene 1 4 8 0.193902 0 4 0.193902 1
gene 1 5 8 3.49902 0 5 3.49902 1
gene 1 6 8 5.55986 0 6 5.55986 1
gene 1 7 8 -0.446284 0 7 -0.446284 1
gene 3 3 11 1.83681 0 12 1.83681 1
gene 3 11 8 0.947474 0 13 0.947474 0
gene 3 11 15 1.32851 0 20 1.32851 1
gene 3 15 8 1.02713 0 21 1.02713 1
gene 3 2 22 -2.32608 0 38 -2.32608 0
gene 3 22 8 -1.48051 0 39 -1.48051 1
gene 3 2 26 1.31056 0 48 1.31056 1
gene 3 26 22 1 0 49 1 0
gene 3 26 41 1 0 88 0 1
gene 3 41 22 1 0 89 0 1
genomeend 88

/* Species #7 : (Size 14) (AF 52.2857) (Age 5)  */


/* Organism #89 Fitness: 137 Error: 0 */
genomestart 89
trait 1 0.1 0 0 0 0 0 0 0 
trait 2 0.2 0 0 0 0 0 0 0 
trait 3 0.3 0 0 0 0 0 0 0 
node 1 2 1 1
node 2 3 1 1
node 3 3 1 1
node 4 3 1 1
node 5 1 1 1
node 6 1 1 1
node 7 3 1 3
node 8 2 0 2
node 11 1 0 0
gene 2 1 8 -0.560734 0 1 -0.560734 1
gene 1 2 8 1.32357 0 2 1.32357 1
gene 3 3 8 0.862934 0 3 0.862934 0
gene 2 4 8 -0.252147 0 4 -0.252147 1
gene 1 5 8 2.23548 0 5 2.23548 1
gene 2 6 8 1.37339 0 6 1.37339 1
gene 1 7 8 -1.81433 0 7 -1.81433 1
gene 3 3 11 -0.186422 0 12 -0.186422 1
gene 3 11 8 1.81347 0 13 1.81347 1
gene 2 6 11 -0.405709 0 45 -0.405709 1
gene 1 4 11 -0.93692 0 56 -0.93692 1
genomeend 89

/* Organism #90 Fitness: 146 Error: 0 */
genomestart 90
trait 1 0.1 0 0 0 0 0 0 0 
trait 2 0.2 0 0 0 0 0 0 0 
trait 3 0.3 0 0 0 0 0 0 0 
node 1 2 1 1
node 2 3 1 1
node 3 3 1 1
node 4 3 1 1
node 5 1 1 1
node 6 1 1 1
node 7 3 1 3
node 8 2 0 2
node 11 1 0 0
gene 2 1 8 -0.444378 0 1 -0.444378 1
gene 1 2 8 1.08188 0 2 1.08188 1
gene 3 3 8 0.680931 0 3 0.680931 0
gene 2 4 8 -0.854527 0 4 -0.854527 1
gene 1 5 8 2.10759 0 5 2.10759 1
gene 2 6 8 1.37339 0 6 1.37339 1
gene 1 7 8 -1.81433 0 7 -1.81433 1
gene 3 3 11 -0.186422 0 12 -0.186422 1
gene 3 11 8 1.81347 0 13 1.81347 1
gene 2 6 11 -0.405709 0 45 -0.405709 1
gene 1 4 11 -0.93692 0 56 -0.93692 1
genomeend 90

/* Organism #91 Fitness: 32 Error: 0 */
genomestart 91
trait 1 0.1 0 0 0 0 0 0 0 
trait 2 0.2 0 0 0 0 0 0 0 
trait 3 0.3 0 0 0 0 0 0 0 
node 1 2 1 1
node 2 3 1 1
node 3 3 1 1
node 4 3 1 1
node 5 1 1 1
node 6 1 1 1
node 7 3 1 3
node 8 2 0 2
node 11 1 0 0
gene 2 1 8 1.03437 0 1 1.03437 1
gene 1 2 8 4.38903 0 2 4.38903 1
gene 3 3 8 0.910781 0 3 0.910781 0
gene 2 4 8 -0.172914 0 4 -0.172914 1
gene 1 5 8 2.20243 0 5 2.20243 1
gene 2 6 8 3.1501 0 6 3.1501 1
gene 1 7 8 0.51785 0 7 0.51785 1
gene 3 3 11 -1.73159 0 12 -1.73159 1
gene 3 11 8 -0.101863 0 13 -0.101863 1
gene 2 6 11 0.992549 0 45 0.992549 1
gene 1 4 11 -0.140082 0 56 -0.140082 1
genomeend 91

/* Organism #92 Fitness: 51 Error: 0 */
genomestart 92
trait 1 0.1 0 0 0 0 0 0 0 
trait 2 0.2 0 0 0 0 0 0 0 
trait 3 0.3 0 0 0 0 0 0 0 
node 1 2 1 1
node 2 3 1 1
node 3 3 1 1
node 4 3 1 1
node 5 1 1 1
node 6 1 1 1
node 7 3 1 3
node 8 2 0 2
node 11 1 0 0
gene 2 1 8 1.06993 0 1 1.06993 1
gene 1 2 8 3.13934 0 2 3.13934 1
gene 3 3 8 0.680931 0 3 0.680931 1
gene 2 4 8 0.0985914 0 4 0.0985914 1
gene 1 5 8 2.10759 0 5 2.10759 1
gene 2 6 8 2.38891 0 6 2.38891 1
gene 1 7 8 -2.81655 0 7 -2.81655 1
gene 3 3 11 -1.92705 0 12 -1.92705 1
gene 3 11 8 2.60972 0 13 2.60972 1
gene 2 6 11 1.29863 0 45 1.29863 1
gene 1 4 11 -2.83699 0 56 -2.83699 1
genomeend 92

/* Organism #93 Fitness: 17 Error: 0 */
genomestart 93
trait 1 0.1 0 0 0 0 0 0 0 
trait 2 0.2 0 0 0 0 0 0 0 
trait 3 0.3 0 0 0 0 0 0 0 
node 1 2 1 1
node 2 3 1 1
node 3 3 1 1
node 4 3 1 1
node 5 1 1 1
node 6 1 1 1
node 7 3 1 3
node 8 2 0 2
node 11 1 0 0
gene 2 1 8 -0.444378 0 1 -0.444378 1
gene 1 2 8 1.08188 0 2 1.08188 1
gene 3 3 8 0.680931 0 3 0.680931 1
gene 2 4 8 -1.95555 0 4 -1.95555 1
gene 1 5 8 4.23342 0 5 4.23342 1
gene 2 6 8 -0.176769 0 6 -0.176769 1
gene 1 7 8 -2.55653 0 7 -2.55653 1
gene 3 3 11 -0.726143 0 12 -0.726143 1
gene 3 11 8 1.56414 0 13 1.56414 1
gene 2 6 11 1.16498 0 45 1.16498 1
gene 1 4 11 0.696897 0 56 0.696897 1
gene 1 5 11 1.70571 0 91 1.70571 1
genomeend 93

/* Organism #94 Fitness: 23 Error: 0 */
genomestart 94
trait 1 0.1 0 0 0 0 0 0 0 
trait 2 0.2 0 0 0 0 0 0 0 
trait 3 0.3 0 0 0 0 0 0 0 
node 1 2 1 1
node 2 3 1 1
node 3 3 1 1
node 4 3 1 1
node 5 1 1 1
node 6 1 1 1
node 7 3 1 3
node 8 2 0 2
node 11 1 0 0
gene 2 1 8 -0.46935 0 1 -0.46935 1
gene 1 2 8 0.237708 0 2 0.237708 1
gene 3 3 8 0.445101 0 3 0.445101 0
gene 2 4 8 -1.53324 0 4 -1.53324 1
gene 1 5 8 0.253105 0 5 0.253105 1
gene 2 6 8 3.47275 0 6 3.47275 1
gene 1 7 8 -2.03428 0 7 -2.03428 1
gene 3 3 11 -0.940645 0 12 -0.940645 1
gene 3 11 8 -0.704617 0 13 -0.704617 1
gene 2 6 11 -2.00249 0 45 -2.00249 1
gene 1 4 11 -2.56651 0 56 -2.56651 1
genomeend 94

/* Organism #95 Fitness: 58 Error: 0 */
genomestart 95
trait 1 0.1 0 0 0 0 0 0 0 
trait 2 0.2 0 0 0 0 0 0 0 
trait 3 0.3 0 0 0 0 0 0 0 
node 1 2 1 1
node 2 3 1 1
node 3 3 1 1
node 4 3 1 1
node 5 1 1 1
node 6 1 1 1
node 7 3 1 3
node 8 2 0 2
node 11 1 0 0
gene 2 1 8 -0.774125 0 1 -0.774125 1
gene 1 2 8 0.387734 0 2 0.387734 1
gene 3 3 8 -1.72253 0 3 -1.72253 0
gene 2 4 8 1.25573 0 4 1.25573 1
gene 1 5 8 1.50903 0 5 1.50903 1
gene 2 6 8 2.52096 0 6 2.52096 1
gene 1 7 8 0.138129 0 7 0.138129 1
gene 3 3 11 -0.667071 0 12 -0.667071 1
gene 3 11 8 -0.734993 0 13 -0.734993 1
gene 2 6 11 -2.7615 0 45 -2.7615 1
gene 1 4 11 -0.5942 0 56 -0.5942 1
gene 1 5 11 0.174339 0 91 0.174339 1
genomeend 95

/* Organism #96 Fitness: 67 Error: 0 */
genomestart 96
trait 1 0.1 0 0 0 0 0 0 0 
trait 2 0.2 0 0 0 0 0 0 0 
trait 3 0.3 0 0 0 0 0 0 0 
node 1 2 1 1
node 2 3 1 1
node 3 3 1 1
node 4 3 1 1
node 5 1 1 1
node 6 1 1 1
node 7 3 1 3
node 8 2 0 2
node 11 1 0 0
gene 2 1 8 -0.502556 0 1 -0.502556 1
gene 1 2 8 1.20273 0 2 1.20273 1
gene 3 3 8 0.771932 0 3 0.771932 1
gene 2 4 8 -0.553337 0 4 -0.553337 1
gene 1 5 8 2.17154 0 5 2.17154 1
gene 2 6 8 1.27782 0 6 1.27782 1
gene 1 7 8 -1.5276 0 7 -1.5276 1
gene 2 3 11 0.314653 0 12 0.314653 1
gene 3 11 8 1.31758 0 13 1.31758 1
gene 2 6 11 -0.405709 0 45 -0.405709 1
gene 1 4 11 -1.17751 0 56 -1.17751 1
genomeend 96

/* Organism #97 Fitness: 7 Error: 0 */
genomestart 97
trait 1 0.1 0 0 0 0 0 0 0 
trait 2 0.2 0 0 0 0 0 0 0 
trait 3 0.3 0 0 0 0 0 0 0 
node 1 2 1 1
node 2 3 1 1
node 3 3 1 1
node 4 3 1 1
node 5 1 1 1
node 6 1 1 1
node 7 3 1 3
node 8 2 0 2
node 11 1 0 0
gene 2 1 8 1.3266 0 1 1.3266 1
gene 1 2 8 2.70478 0 2 2.70478 1
gene 3 3 8 0.200741 0 3 0.200741 0
gene 2 4 8 1.63683 0 4 1.63683 1
gene 1 5 8 1.87873 0 5 1.87873 1
gene 2 6 8 -0.397567 0 6 -0.397567 1
gene 1 7 8 -3.2455 0 7 -3.2455 1
gene 3 3 11 -2.36438 0 12 -2.36438 1
gene 3 11 8 3.00467 0 13 3.00467 1
gene 2 6 11 0.35706 0 45 0.35706 1
gene 1 4 11 0.0395989 0 56 0.0395989 1
genomeend 97

/* Organism #98 Fitness: 44 Error: 0 */
genomestart 98
trait 1 0.1 0 0 0 0 0 0 0 
trait 2 0.2 0 0 0 0 0 0 0 
trait 3 0.3 0 0 0 0 0 0 0 
node 1 2 1 1
node 2 3 1 1
node 3 3 1 1
node 4 3 1 1
node 5 1 1 1
node 6 1 1 1
node 7 3 1 3
node 8 2 0 2
node 11 1 0 0
gene 2 1 8 -0.672053 0 1 -0.672053 1
gene 1 2 8 1.32357 0 2 1.32357 1
gene 3 3 8 -0.751491 0 3 -0.751491 0
gene 2 4 8 -0.526292 0 4 -0.526292 1
gene 1 5 8 0.471717 0 5 0.471717 1
gene 2 6 8 3.19386 0 6 3.19386 1
gene 1 7 8 0.384407 0 7 0.384407 1
gene 3 3 11 -0.186422 0 12 -0.186422 1
gene 3 11 8 1.81347 0 13 1.81347 1
gene 2 6 11 -2.00249 0 45 -2.00249 1
gene 1 4 11 -0.93692 0 56 -0.93692 1
genomeend 98

/* Organism #99 Fitness: 25 Error: 0 */
genomestart 99
trait 1 0.1 0 0 0 0 0 0 0 
trait 2 0.2 0 0 0 0 0 0 0 
trait 3 0.3 0 0 0 0 0 0 0 
node 1 2 1 1
node 2 3 1 1
node 3 3 1 1
node 4 3 1 1
node 5 1 1 1
node 6 1 1 1
node 7 3 1 3
node 8 2 0 2
node 11 1 0 0
gene 2 1 8 -0.560734 0 1 -0.560734 1
gene 1 2 8 2.55695 0 2 2.55695 1
gene 3 3 8 0.498929 0 3 0.498929 0
gene 2 4 8 -0.526292 0 4 -0.526292 1
gene 1 5 8 2.23548 0 5 2.23548 1
gene 2 6 8 1.37339 0 6 1.37339 1
gene 1 7 8 0.384407 0 7 0.384407 1
gene 3 3 11 0.00554943 0 12 0.00554943 1
gene 3 11 8 1.81347 0 13 1.81347 1
gene 2 6 11 -2.00249 0 45 -2.00249 1
gene 1 4 11 -0.93692 0 56 -0.93692 1
genomeend 99

/* Organism #100 Fitness: 31 Error: 0 */
genomestart 100
trait 1 0.1 0 0 0 0 0 0 0 
trait 2 0.2 0 0 0 0 0 0 0 
trait 3 0.3 0 0 0 0 0 0 0 
node 1 2 1 1
node 2 3 1 1
node 3 3 1 1
node 4 3 1 1
node 5 1 1 1
node 6 1 1 1
node 7 3 1 3
node 8 2 0 2
node 11 1 0 0
gene 2 1 8 -1.94351 0 1 -1.94351 1
gene 1 2 8 1.89644 0 2 1.89644 1
gene 3 3 8 -0.890866 0 3 -0.890866 0
gene 2 4 8 0.198515 0 4 0.198515 1
gene 1 5 8 1.61018 0 5 1.61018 1
gene 2 6 8 3.43181 0 6 3.43181 1
gene 1 7 8 0.536716 0 7 0.536716 1
gene 3 3 11 0.493707 0 12 0.493707 1
gene 3 11 8 -0.379209 0 13 -0.379209 1
gene 2 6 11 -0.405709 0 45 -0.405709 1
gene 1 4 11 -0.93692 0 56 -0.93692 1
genomeend 100

/* Organism #101 Fitness: 60 Error: 0 */
genomestart 101
trait 1 0.1 0 0 0 0 0 0 0 
trait 2 0.2 0 0 0 0 0 0 0 
trait 3 0.480951 0 0 0 0.866757 0.615953 0 0.402963 
node 1 2 1 1
node 2 3 1 1
node 3 2 1 1
node 4 3 1 1
node 5 1 1 1
node 6 1 1 1
node 7 3 1 3
node 8 2 0 2
node 11 1 0 0
gene 2 1 8 -0.227235 0 1 -0.227235 1
gene 1 2 8 0.472544 0 2 0.472544 1
gene 3 3 8 0.204946 0 3 0.204946 0
gene 2 4 8 -0.873587 0 4 -0.873587 1
gene 1 5 8 4.36427 0 5 4.36427 1
gene 2 6 8 2.33189 0 6 2.33189 1
gene 1 7 8 -3.69994 0 7 -3.69994 1
gene 3 3 11 -2.6037 0 12 -2.6037 1
gene 3 11 8 2.02329 0 13 2.02329 1
gene 2 6 11 1.05076 0 45 1.05076 1
gene 1 4 11 1.40519 0 56 1.40519 1
genomeend 101

/* Organism #102 Fitness: 34 Error: 0 */
genomestart 102
trait 1 0.1 0 0 0 0 0 0 0 
trait 2 0.2 0 0 0 0 0 0 0 
trait 3 0.3 0 0 0 0 0 0 0 
node 1 2 1 1
node 2 3 1 1
node 3 3 1 1
node 4 3 1 1
node 5 1 1 1
node 6 1 1 1
node 7 3 1 3
node 8 2 0 2
node 11 1 0 0
gene 2 1 8 1.36102 0 1 1.36102 1
gene 1 2 8 -1.49629 0 2 -1.49629 1
gene 3 3 8 1.09431 0 3 1.09431 0
gene 2 4 8 -1.74711 0 4 -1.74711 1
gene 1 5 8 0.856068 0 5 0.856068 1
gene 2 6 8 1.79199 0 6 1.79199 1
gene 1 7 8 -1.28208 0 7 -1.28208 1
gene 3 3 11 -2.54506 0 12 -2.54506 1
gene 3 11 8 0.0266699 0 13 0.0266699 1
gene 2 6 11 -1.70314 0 45 -1.70314 1
gene 1 4 11 -0.623759 0 56 -0.623759 1
genomeend 102

/* Species #8 : (Size 13) (AF 42.3846) (Age 5)  */


/* Organism #103 Fitness: 64 Error: 0 */
genomestart 103
trait 1 0.1 0 0 0 0 0 0 0 
trait 2 0.2 0 0 0 0 0 0 0 
trait 3 0.3 0 0 0 0 0 0 0 
node 1 2 1 1
node 2 3 1 1
node 3 3 1 1
node 4 3 1 1
node 5 3 1 1
node 6 1 1 1
node 7 3 1 3
node 8 2 0 2
node 11 1 0 0
node 27 1 0 0
gene 2 1 8 1.56322 0 1 1.56322 1
gene 1 2 8 2.78715 0 2 2.78715 0
gene 3 3 8 -1.24035 0 3 -1.24035 0
gene 2 4 8 -1.53397 0 4 -1.53397 1
gene 1 5 8 2.91932 0 5 2.91932 1
gene 2 6 8 2.91382 0 6 2.91382 1
gene 1 7 8 -3.05343 0 7 -3.05343 1
gene 3 3 11 3.06313 0 12 3.06313 1
gene 3 11 8 -0.0551262 0 13 -0.0551262 1
gene 2 6 11 -1.18993 0 45 -1.18993 1
gene 1 2 27 -0.946099 0 51 -0.946099 1
gene 1 27 8 2.31966 0 52 2.31966 1
genomeend 103

/* Organism #104 Fitness: 59 Error: 0 */
genomestart 104
trait 1 0.1 0 0 0 0 0 0 0 
trait 2 0.2 0 0 0 0 0 0 0 
trait 3 0.3 0 0 0 0 0 0 0 
node 1 1 1 1
node 2 3 1 1
node 3 3 1 1
node 4 3 1 1
node 5 3 1 1
node 6 1 1 1
node 7 3 1 3
node 8 2 0 2
node 11 1 0 0
node 27 1 0 0
gene 2 1 8 1.83382 0 1 1.83382 1
gene 1 2 8 2.16227 0 2 2.16227 0
gene 3 3 8 -0.533841 0 3 -0.533841 1
gene 2 4 8 -2.01248 0 4 -2.01248 1
gene 1 5 8 2.28601 0 5 2.28601 1
gene 2 6 8 1.97527 0 6 1.97527 1
gene 1 7 8 -2.28843 0 7 -2.28843 1
gene 3 3 11 4.81614 0 12 4.81614 1
gene 3 11 8 -1.52552 0 13 -1.52552 1
gene 2 6 11 -3.59817 0 45 -3.59817 1
gene 1 2 27 0.113683 0 51 0.113683 1
gene 1 27 8 2.31966 0 52 2.31966 1
genomeend 104

/* Organism #105 Fitness: 64 Error: 0 */
genomestart 105
trait 1 0.1 0 0 0 0 0 0 0 
trait 2 0.2 0 0 0 0 0 0 0 
trait 3 0.3 0 0 0 0 0 0 0 
node 1 2 1 1
node 2 3 1 1
node 3 3 1 1
node 4 3 1 1
node 5 3 1 1
node 6 1 1 1
node 7 3 1 3
node 8 2 0 2
node 11 1 0 0
node 27 1 0 0
gene 2 1 8 1.56322 0 1 1.56322 1
gene 1 2 8 2.78715 0 2 2.78715 0
gene 3 3 8 -1.24035 0 3 -1.24035 0
gene 2 4 8 -1.53397 0 4 -1.53397 1
gene 1 5 8 2.91932 0 5 2.91932 1
gene 2 6 8 2.91382 0 6 2.91382 1
gene 1 7 8 -3.05343 0 7 -3.05343 1
gene 3 3 11 3.06313 0 12 3.06313 1
gene 3 11 8 -0.0551262 0 13 -0.0551262 1
gene 2 6 11 -1.18993 0 45 -1.18993 1
gene 1 2 27 -0.946099 0 51 -0.946099 1
gene 1 27 8 2.31966 0 52 2.31966 1
genomeend 105

/* Organism #106 Fitness: 69 Error: 0 */
genomestart 106
trait 1 0.1 0 0 0 0 0 0 0 
trait 2 0.2 0 0 0 0 0 0 0 
trait 3 0.3 0 0 0 0 0 0 0 
node 1 2 1 1
node 2 3 1 1
node 3 3 1 1
node 4 3 1 1
node 5 3 1 1
node 6 1 1 1
node 7 3 1 3
node 8 2 0 2
node 11 1 0 0
node 27 1 0 0
node 45 1 0 0
gene 2 1 8 1.56322 0 1 1.56322 1
gene 1 2 8 2.78715 0 2 2.78715 0
gene 3 3 8 -1.24035 0 3 -1.24035 0
gene 2 4 8 -1.53397 0 4 -1.53397 1
gene 1 5 8 2.91932 0 5 2.91932 1
gene 2 6 8 2.91382 0 6 2.91382 1
gene 1 7 8 -3.05343 0 7 -3.05343 1
gene 3 3 11 3.06313 0 12 3.06313 0
gene 3 11 8 -0.0551262 0 13 -0.0551262 1
gene 2 6 11 -1.18993 0 45 -1.18993 1
gene 1 2 27 -0.946099 0 51 -0.946099 1
gene 1 27 8 2.31966 0 52 2.31966 1
gene 3 3 45 1 0 103 0 1
gene 3 45 11 3.06313 0 104 0 1
genomeend 106

/* Organism #107 Fitness: 64 Error: 0 */
genomestart 107
trait 1 0.1 0 0 0 0 0 0 0 
trait 2 0.2 0 0 0 0 0 0 0 
trait 3 0.3 0 0 0 0 0 0 0 
node 1 2 1 1
node 2 3 1 1
node 3 3 1 1
node 4 3 1 1
node 5 3 1 1
node 6 1 1 1
node 7 3 1 3
node 8 2 0 2
node 11 1 0 0
node 27 1 0 0
gene 2 1 8 1.56322 0 1 1.56322 1
gene 1 2 8 2.78715 0 2 2.78715 0
gene 3 3 8 -1.24035 0 3 -1.24035 0
gene 2 4 8 -1.53397 0 4 -1.53397 1
gene 1 5 8 2.91932 0 5 2.91932 1
gene 2 6 8 2.91382 0 6 2.91382 1
gene 1 7 8 -3.05343 0 7 -3.05343 1
gene 3 3 11 3.06313 0 12 3.06313 1
gene 3 11 8 -0.0551262 0 13 -0.0551262 1
gene 2 6 11 -1.18993 0 45 -1.18993 1
gene 1 2 27 -0.946099 0 51 -0.946099 1
gene 1 27 8 2.31966 0 52 2.31966 1
genomeend 107

/* Organism #108 Fitness: 5 Error: 0 */
genomestart 108
trait 1 0.1 0 0 0 0 0 0 0 
trait 2 0.2 0 0 0 0 0 0 0 
trait 3 0.3 0 0 0 0 0 0 0 
node 1 2 1 1
node 2 3 1 1
node 3 3 1 1
node 4 3 1 1
node 5 3 1 1
node 6 1 1 1
node 7 3 1 3
node 8 2 0 2
node 11 1 0 0
node 27 1 0 0
gene 2 1 8 2.18164 0 1 2.18164 1
gene 1 2 8 3.42987 0 2 3.42987 1
gene 3 3 8 0.751338 0 3 0.751338 0
gene 2 4 8 -0.566263 0 4 -0.566263 1
gene 1 5 8 2.26869 0 5 2.26869 1
gene 2 6 8 -0.860395 0 6 -0.860395 1
gene 1 7 8 -1.15567 0 7 -1.15567 1
gene 3 3 11 -0.0910734 0 12 -0.0910734 1
gene 3 11 8 0.731134 0 13 0.731134 1
gene 2 6 11 -0.770587 0 45 -0.770587 1
gene 1 2 27 -2.49621 0 51 -2.49621 1
gene 1 27 8 2.11655 0 52 2.11655 1
gene 2 3 27 1.02802 0 95 1.02802 1
genomeend 108

/* Organism #109 Fitness: 9 Error: 0 */
genomestart 109
trait 1 0.1 0 0 0 0 0 0 0 
trait 2 0.2 0 0 0 0 0 0 0 
trait 3 0.3 0 0 0 0 0 0 0 
node 1 2 1 1
node 2 3 1 1
node 3 3 1 1
node 4 3 1 1
node 5 3 1 1
node 6 1 1 1
node 7 3 1 3
node 8 2 0 2
node 11 1 0 0
node 27 1 0 0
gene 2 1 8 0.855898 0 1 0.855898 1
gene 1 2 8 3.43971 0 2 3.43971 1
gene 3 3 8 -2.8607 0 3 -2.8607 1
gene 2 4 8 -0.893257 0 4 -0.893257 1
gene 1 5 8 1.17501 0 5 1.17501 1
gene 2 6 8 1.0597 0 6 1.0597 1
gene 1 7 8 -4.18415 0 7 -4.18415 1
gene 3 3 11 2.92089 0 12 2.92089 1
gene 3 11 8 -0.00631219 0 13 -0.00631219 1
gene 2 6 11 -0.123697 0 45 -0.123697 1
gene 1 2 27 1.29994 0 51 1.29994 1
gene 1 27 8 1.86395 0 52 1.86395 1
gene 2 3 27 -0.902282 0 95 -0.902282 1
genomeend 109

/* Organism #110 Fitness: 42 Error: 0 */
genomestart 110
trait 1 0.1 0 0 0 0 0 0 0 
trait 2 0.2 0 0 0 0 0 0 0 
trait 3 0.3 0 0 0 0 0 0 0 
node 1 2 1 1
node 2 3 1 1
node 3 3 1 1
node 4 3 1 1
node 5 3 1 1
node 6 1 1 1
node 7 3 1 3
node 8 2 0 2
node 11 1 0 0
node 27 1 0 0
gene 2 1 8 -0.147022 0 1 -0.147022 1
gene 1 2 8 0.661073 0 2 0.661073 1
gene 3 3 8 -1.84626 0 3 -1.84626 0
gene 2 4 8 -1.67688 0 4 -1.67688 1
gene 1 5 8 2.19786 0 5 2.19786 1
gene 2 6 8 3.19295 0 6 3.19295 1
gene 1 7 8 -1.61883 0 7 -1.61883 1
gene 3 3 11 1.47525 0 12 1.47525 1
gene 3 11 8 0.180922 0 13 0.180922 1
gene 2 6 11 0.115112 0 45 0.115112 1
gene 1 2 27 -0.0374778 0 51 -0.0374778 1
gene 1 27 8 -0.169772 0 52 -0.169772 1
gene 2 3 27 -0.977791 0 95 -0.977791 1
genomeend 110

/* Organism #111 Fitness: 37 Error: 0 */
genomestart 111
trait 1 0.1 0 0 0 0 0 0 0 
trait 2 0.2 0 0 0 0 0 0 0 
trait 3 0.3 0 0 0 0 0 0 0 
node 1 2 1 1
node 2 3 1 1
node 3 3 1 1
node 4 3 1 1
node 5 3 1 1
node 6 1 1 1
node 7 3 1 3
node 8 2 0 2
node 11 1 0 0
node 27 1 0 0
gene 2 1 8 4.06137 0 1 4.06137 1
gene 1 2 8 5.09097 0 2 5.09097 0
gene 3 3 8 -2.11643 0 3 -2.11643 0
gene 2 4 8 -2.61471 0 4 -2.61471 1
gene 1 5 8 3.62912 0 5 3.62912 1
gene 2 6 8 3.29941 0 6 3.29941 1
gene 1 7 8 -4.12269 0 7 -4.12269 1
gene 3 3 11 3.35997 0 12 3.35997 1
gene 3 11 8 0.237587 0 13 0.237587 1
gene 2 6 11 -0.470409 0 45 -0.470409 1
gene 1 2 27 -0.946099 0 51 -0.946099 1
gene 1 27 8 3.65936 0 52 3.65936 1
genomeend 111

/* Organism #112 Fitness: 59 Error: 0 */
genomestart 112
trait 1 0.1 0 0 0 0 0 0 0 
trait 2 0.2 0 0 0 0 0 0 0 
trait 3 0.3 0 0 0 0 0 0 0 
node 1 2 1 1
node 2 3 1 1
node 3 3 1 1
node 4 3 1 1
node 5 3 1 1
node 6 1 1 1
node 7 3 1 3
node 8 2 0 2
node 11 1 0 0
node 27 1 0 0
gene 2 1 8 2.45516 0 1 2.45516 1
gene 1 2 8 4.13037 0 2 4.13037 0
gene 3 3 8 0.687226 0 3 0.687226 0
gene 2 4 8 0.0263539 0 4 0.0263539 1
gene 1 5 8 3.18718 0 5 3.18718 1
gene 2 6 8 1.93023 0 6 1.93023 1
gene 1 7 8 -3.47189 0 7 -3.47189 1
gene 3 3 11 1.1732 0 12 1.1732 1
gene 3 11 8 0.56618 0 13 0.56618 1
gene 2 6 11 -2.72368 0 45 -2.72368 1
gene 1 2 27 0.411933 0 51 0.411933 1
gene 1 27 8 2.28028 0 52 2.28028 1
genomeend 112

/* Organism #113 Fitness: 27 Error: 0 */
genomestart 113
trait 1 0.1 0 0 0 0 0 0 0 
trait 2 0.2 0 0 0 0 0 0 0 
trait 3 0.3 0 0 0 0 0 0 0 
node 1 2 1 1
node 2 3 1 1
node 3 3 1 1
node 4 3 1 1
node 5 3 1 1
node 6 1 1 1
node 7 3 1 3
node 8 2 0 2
node 11 1 0 0
node 27 1 0 0
gene 3 1 8 3.6974 0 1 3.6974 1
gene 1 2 8 3.15845 0 2 3.15845 1
gene 3 3 8 -0.056378 0 3 -0.056378 0
gene 2 4 8 -2.57878 0 4 -2.57878 1
gene 1 5 8 3.26268 0 5 3.26268 1
gene 2 6 8 1.89551 0 6 1.89551 1
gene 1 7 8 -2.38962 0 7 -2.38962 1
gene 3 3 11 4.50896 0 12 4.50896 1
gene 3 11 8 1.05684 0 13 1.05684 1
gene 2 6 11 -2.59949 0 45 -2.59949 1
gene 1 2 27 -2.7605 0 51 -2.7605 1
gene 1 27 8 4.77097 0 52 4.77097 1
genomeend 113

/* Organism #114 Fitness: 19 Error: 0 */
genomestart 114
trait 1 0.0647103 0 0 0 0 0 0 0.774111 
trait 2 0.2 0 0 0 0 0 0 0 
trait 3 0.3 0 0 0 0 0 0 0 
node 1 2 1 1
node 2 3 1 1
node 3 3 1 1
node 4 3 1 1
node 5 3 1 1
node 6 1 1 1
node 7 3 1 3
node 8 2 0 2
node 11 1 0 0
node 27 1 0 0
gene 2 1 8 -0.499535 0 1 -0.499535 1
gene 1 2 8 -0.287567 0 2 -0.287567 1
gene 3 3 8 -0.632534 0 3 -0.632534 0
gene 2 4 8 2.47654 0 4 2.47654 1
gene 1 5 8 4.85873 0 5 4.85873 1
gene 2 6 8 0.903972 0 6 0.903972 1
gene 1 7 8 -5.35259 0 7 -5.35259 1
gene 3 3 11 0.560405 0 12 0.560405 1
gene 3 11 8 -1.25568 0 13 -1.25568 1
gene 2 6 11 -1.37549 0 45 -1.37549 1
gene 1 2 27 -1.01525 0 51 -1.01525 1
gene 1 27 8 0.656546 0 52 0.656546 1
gene 2 3 27 1.16008 0 95 1.16008 1
genomeend 114

/* Organism #115 Fitness: 33 Error: 0 */
genomestart 115
trait 1 0.1 0 0 0 0 0 0 0 
trait 2 0.2 0 0 0 0 0 0 0 
trait 3 0.3 0 0 0 0 0 0 0 
node 1 2 1 1
node 2 3 1 1
node 3 3 1 1
node 4 3 1 1
node 5 3 1 1
node 6 1 1 1
node 7 3 1 3
node 8 2 0 2
node 11 1 0 0
node 27 1 0 0
gene 2 1 8 -0.666757 0 1 -0.666757 1
gene 1 2 8 1.57967 0 2 1.57967 0
gene 3 3 8 -3.06622 0 3 -3.06622 0
gene 2 4 8 0.681098 0 4 0.681098 1
gene 1 5 8 3.7721 0 5 3.7721 1
gene 2 6 8 2.43402 0 6 2.43402 1
gene 1 7 8 -3.06893 0 7 -3.06893 1
gene 3 3 11 2.28891 0 12 2.28891 1
gene 3 11 8 -0.0478829 0 13 -0.0478829 1
gene 2 6 11 1.04775 0 45 1.04775 1
gene 1 2 27 -0.982681 0 51 -0.982681 1
gene 1 27 8 4.29574 0 52 4.29574 1
genomeend 115

/* Species #9 : (Size 14) (AF 46.1429) (Age 3)  */


/* Organism #116 Fitness: 57 Error: 0 */
genomestart 116
trait 1 0.1 0 0 0 0 0 0 0 
trait 2 0.2 0 0 0 0 0 0 0 
trait 3 0.3 0 0 0 0 0 0 0 
node 1 2 1 1
node 2 3 1 1
node 3 3 1 1
node 4 3 1 1
node 5 1 1 1
node 6 1 1 1
node 7 3 1 3
node 8 2 0 2
node 11 1 0 0
node 36 1 0 0
gene 2 1 8 -4.86097 0 1 -4.86097 1
gene 3 2 8 2.85296 0 2 2.85296 0
gene 2 3 8 -0.752253 0 3 -0.752253 0
gene 2 4 8 3.31884 0 4 3.31884 1
gene 3 5 8 4.24808 0 5 4.24808 1
gene 1 6 8 5.13316 0 6 5.13316 1
gene 2 7 8 -0.765211 0 7 -0.765211 1
gene 2 3 11 -2.84805 0 12 -2.84805 1
gene 3 11 8 3.37946 0 13 3.37946 1
gene 3 2 36 1.48074 0 76 1.48074 1
gene 3 36 8 -0.514988 0 77 -0.514988 1
genomeend 116

/* Organism #117 Fitness: 29 Error: 0 */
genomestart 117
trait 1 0.1 0 0 0 0 0 0 0 
trait 2 0.2 0 0 0 0 0 0 0 
trait 3 0.3 0 0 0 0.856032 0 0 0 
node 1 2 1 1
node 2 3 1 1
node 3 3 1 1
node 4 3 1 1
node 5 1 1 1
node 6 1 1 1
node 7 3 1 3
node 8 2 0 2
node 11 1 0 0
node 36 1 0 0
gene 2 1 8 -2.20196 0 1 -2.20196 1
gene 3 2 8 1.70631 0 2 1.70631 1
gene 2 3 8 0.451901 0 3 0.451901 0
gene 2 4 8 2.31754 0 4 2.31754 1
gene 3 5 8 5.13728 0 5 5.13728 1
gene 1 6 8 4.89285 0 6 4.89285 1
gene 2 7 8 -0.0994836 0 7 -0.0994836 1
gene 2 3 11 -0.015645 0 12 -0.015645 1
gene 3 11 8 3.5536 0 13 3.5536 1
gene 3 2 36 -1.84525 0 76 -1.84525 1
gene 3 36 8 -1.10909 0 77 -1.10909 1
genomeend 117

/* Organism #118 Fitness: 40 Error: 0 */
genomestart 118
trait 1 0.1 0 0 0 0 0 0 0 
trait 2 0.2 0 0 0 0 0 0 0 
trait 3 0.3 0 0 0 0 0 0 0 
node 1 2 1 1
node 2 3 1 1
node 3 3 1 1
node 4 3 1 1
node 5 3 1 1
node 6 1 1 1
node 7 3 1 3
node 8 2 0 2
node 11 1 0 0
node 36 1 0 0
gene 2 1 8 -2.99139 0 1 -2.99139 1
gene 3 2 8 -1.37953 0 2 -1.37953 0
gene 2 3 8 3.31645 0 3 3.31645 0
gene 2 4 8 3.40121 0 4 3.40121 1
gene 3 5 8 4.16651 0 5 4.16651 1
gene 1 6 8 5.25264 0 6 5.25264 1
gene 2 7 8 -0.519631 0 7 -0.519631 1
gene 2 3 11 -0.497146 0 12 -0.497146 1
gene 3 11 8 3.4755 0 13 3.4755 1
gene 3 2 36 2.32763 0 76 2.32763 1
gene 3 36 8 -2.44879 0 77 -2.44879 1
genomeend 118

/* Organism #119 Fitness: 64 Error: 0 */
genomestart 119
trait 1 0.1 0 0 0 0 0 0 0 
trait 2 0.2 0 0 0 0 0 0 0 
trait 3 0.3 0 0 0 0 0 0 0 
node 1 2 1 1
node 2 3 1 1
node 3 3 1 1
node 4 3 1 1
node 5 1 1 1
node 6 1 1 1
node 7 3 1 3
node 8 2 0 2
node 11 1 0 0
node 36 1 0 0
gene 2 1 8 -2.92927 0 1 -2.92927 1
gene 3 2 8 4.88226 0 2 4.88226 0
gene 2 3 8 -1.16238 0 3 -1.16238 0
gene 2 4 8 3.74113 0 4 3.74113 1
gene 3 5 8 5.64447 0 5 5.64447 1
gene 1 6 8 2.75492 0 6 2.75492 1
gene 2 7 8 -3.95521 0 7 -3.95521 1
gene 1 3 11 0.2184 0 12 0.2184 1
gene 3 11 8 2.3064 0 13 2.3064 1
gene 3 2 36 1.03739 0 76 1.03739 1
gene 3 36 8 0.242135 0 77 0.242135 1
genomeend 119

/* Organism #120 Fitness: 70 Error: 0 */
genomestart 120
trait 1 0.1 0 0 0 0 0 0 0 
trait 2 0.2 0 0 0 0 0 0 0 
trait 3 0.3 0 0 0 0 0 0 0 
node 1 2 1 1
node 2 3 1 1
node 3 3 1 1
node 4 3 1 1
node 5 1 1 1
node 6 1 1 1
node 7 3 1 3
node 8 2 0 2
node 11 1 0 0
node 36 1 0 0
gene 2 1 8 -3.32151 0 1 -3.32151 1
gene 3 2 8 5.52778 0 2 5.52778 0
gene 2 3 8 1.14605 0 3 1.14605 0
gene 2 4 8 4.06354 0 4 4.06354 1
gene 3 5 8 6.36588 0 5 6.36588 1
gene 1 6 8 0.990533 0 6 0.990533 1
gene 2 7 8 -3.07717 0 7 -3.07717 1
gene 2 3 11 -0.228487 0 12 -0.228487 1
gene 3 11 8 1.43 0 13 1.43 1
gene 3 2 36 -0.339265 0 76 -0.339265 1
gene 3 36 8 -0.0664184 0 77 -0.0664184 1
genomeend 120

/* Organism #121 Fitness: 60 Error: 0 */
genomestart 121
trait 1 0.1 0 0 0 0 0 0 0 
trait 2 0.2 0 0 0 0 0 0 0 
trait 3 0.3 0 0 0 0 0 0 0 
node 1 2 1 1
node 2 3 1 1
node 3 3 1 1
node 4 3 1 1
node 5 1 1 1
node 6 1 1 1
node 7 3 1 3
node 8 2 0 2
node 11 1 0 0
node 36 1 0 0
gene 2 1 8 -4.86097 0 1 -4.86097 1
gene 3 2 8 3.10736 0 2 3.10736 0
gene 2 3 8 -0.752253 0 3 -0.752253 0
gene 2 4 8 4.06354 0 4 4.06354 1
gene 3 5 8 6.39006 0 5 6.39006 1
gene 1 6 8 3.19958 0 6 3.19958 1
gene 2 7 8 -2.85019 0 7 -2.85019 1
gene 2 3 11 -2.84805 0 12 -2.84805 1
gene 3 11 8 3.37946 0 13 3.37946 1
gene 3 2 36 1 0 76 1 1
gene 3 36 8 -0.514988 0 77 -0.514988 1
genomeend 121

/* Organism #122 Fitness: 49 Error: 0 */
genomestart 122
trait 1 0.1 0 0 0 0 0 0 0 
trait 2 0.2 0 0 0 0 0 0 0 
trait 3 0.3 0 0 0 0 0 0 0 
node 1 2 1 1
node 2 3 1 1
node 3 3 1 1
node 4 3 1 1
node 5 1 1 1
node 6 1 1 1
node 7 3 1 3
node 8 2 0 2
node 11 1 0 0
node 36 1 0 0
gene 2 1 8 -2.34609 0 1 -2.34609 1
gene 3 2 8 5.23956 0 2 5.23956 0
gene 2 3 8 -1.48811 0 3 -1.48811 0
gene 2 4 8 -0.313743 0 4 -0.313743 1
gene 3 5 8 -0.458466 0 5 -0.458466 1
gene 1 6 8 5.25264 0 6 5.25264 1
gene 2 7 8 0.312037 0 7 0.312037 1
gene 2 3 11 0.34827 0 12 0.34827 1
gene 3 11 8 1.24666 0 13 1.24666 1
gene 3 2 36 -0.969415 0 76 -0.969415 1
gene 3 36 8 2.05192 0 77 2.05192 1
genomeend 122

/* Organism #123 Fitness: 29 Error: 0 */
genomestart 123
trait 1 0.1 0 0 0 0 0 0 0 
trait 2 0.2 0 0 0 0 0 0 0 
trait 3 0.3 0 0 0 0 0 0 0 
node 1 2 1 1
node 2 3 1 1
node 3 3 1 1
node 4 3 1 1
node 5 1 1 1
node 6 1 1 1
node 7 3 1 3
node 8 2 0 2
node 11 1 0 0
node 36 1 0 0
gene 2 1 8 -1.09726 0 1 -1.09726 1
gene 3 2 8 1.59147 0 2 1.59147 0
gene 2 3 8 3.24277 0 3 3.24277 0
gene 2 4 8 1.99339 0 4 1.99339 1
gene 3 5 8 4.37018 0 5 4.37018 1
gene 1 6 8 2.91398 0 6 2.91398 1
gene 2 7 8 -0.136119 0 7 -0.136119 1
gene 2 3 11 -0.274721 0 12 -0.274721 1
gene 3 11 8 2.27255 0 13 2.27255 1
gene 3 2 36 2.20267 0 76 2.20267 1
gene 3 36 8 0.541154 0 77 0.541154 1
genomeend 123

/* Organism #124 Fitness: 34 Error: 0 */
genomestart 124
trait 1 0.1 0 0 0 0 0 0 0 
trait 2 0.2 0 0 0 0 0 0 0 
trait 3 0.3 0 0 0 0 0 0 0 
node 1 2 1 1
node 2 3 1 1
node 3 3 1 1
node 4 3 1 1
node 5 1 1 1
node 6 1 1 1
node 7 3 1 3
node 8 2 0 2
node 11 1 0 0
node 36 1 0 0
gene 2 1 8 -0.593714 0 1 -0.593714 1
gene 3 2 8 5.1637 0 2 5.1637 0
gene 2 3 8 4.2764 0 3 4.2764 0
gene 2 4 8 -1.14812 0 4 -1.14812 1
gene 3 5 8 2.73516 0 5 2.73516 1
gene 1 6 8 3.59948 0 6 3.59948 1
gene 2 7 8 0.287751 0 7 0.287751 1
gene 2 3 11 -0.15061 0 12 -0.15061 1
gene 3 11 8 1.62397 0 13 1.62397 1
gene 3 2 36 -0.64461 0 76 -0.64461 1
gene 3 36 8 0.767455 0 77 0.767455 1
genomeend 124

/* Organism #125 Fitness: 61 Error: 0 */
genomestart 125
trait 1 0.1 0 0 0 0 0 0 0 
trait 2 0.2 0 0 0 0 0 0 0 
trait 3 0.3 0 0 0 0 0 0 0 
node 1 2 1 1
node 2 3 1 1
node 3 3 1 1
node 4 2 1 1
node 5 1 1 1
node 6 1 1 1
node 7 3 1 3
node 8 2 0 2
node 11 1 0 0
node 36 1 0 0
gene 2 1 8 0.859352 0 1 0.859352 1
gene 3 2 8 0.921672 0 2 0.921672 0
gene 2 3 8 2.15132 0 3 2.15132 0
gene 2 4 8 -1.56766 0 4 -1.56766 1
gene 3 5 8 1.64265 0 5 1.64265 1
gene 1 6 8 7.41543 0 6 7.41543 1
gene 2 7 8 -0.557713 0 7 -0.557713 1
gene 2 3 11 -3.06435 0 12 -3.06435 1
gene 3 11 8 1.88308 0 13 1.88308 1
gene 3 2 36 -0.988274 0 76 -0.988274 1
gene 3 36 8 0.81175 0 77 0.81175 1
genomeend 125

/* Organism #126 Fitness: 33 Error: 0 */
genomestart 126
trait 1 0.1 0 0 0 0 0 0 0 
trait 2 0.2 0 0 0 0 0 0 0 
trait 3 0.3 0 0 0 0 0 0 0 
node 1 2 1 1
node 2 3 1 1
node 3 3 1 1
node 4 3 1 1
node 5 1 1 1
node 6 1 1 1
node 7 3 1 3
node 8 2 0 2
node 11 1 0 0
node 36 1 0 0
gene 2 1 8 -0.430211 0 1 -0.430211 1
gene 3 2 8 2.85296 0 2 2.85296 0
gene 2 3 8 -1.18804 0 3 -1.18804 1
gene 1 4 8 2.55408 0 4 2.55408 1
gene 3 5 8 2.43078 0 5 2.43078 1
gene 1 6 8 5.13316 0 6 5.13316 1
gene 2 7 8 0.76292 0 7 0.76292 1
gene 2 3 11 -2.91449 0 12 -2.91449 1
gene 3 11 8 0.167521 0 13 0.167521 1
gene 3 2 36 -0.768703 0 76 -0.768703 1
gene 3 36 8 -1.48959 0 77 -1.48959 1
genomeend 126

/* Organism #127 Fitness: 30 Error: 0 */
genomestart 127
trait 1 0.1 0 0 0 0 0 0 0 
trait 2 0.2 0 0 0 0 0 0 0 
trait 3 0.3 0 0 0 0 0 0 0 
node 1 2 1 1
node 2 3 1 1
node 3 3 1 1
node 4 3 1 1
node 5 1 1 1
node 6 1 1 1
node 7 3 1 3
node 8 2 0 2
node 11 1 0 0
node 36 1 0 0
gene 2 1 8 -6.65634 0 1 -6.65634 1
gene 3 2 8 1.32035 0 2 1.32035 0
gene 2 3 8 -1.66039 0 3 -1.66039 0
gene 2 4 8 1.83803 0 4 1.83803 1
gene 3 5 8 1.87712 0 5 1.87712 1
gene 1 6 8 2.71349 0 6 2.71349 1
gene 2 7 8 -0.0938188 0 7 -0.0938188 1
gene 2 3 11 -1.14153 0 12 -1.14153 1
gene 3 11 8 3.53392 0 13 3.53392 1
gene 3 2 36 0.884892 0 76 0.884892 1
gene 3 36 8 -2.33984 0 77 -2.33984 1
genomeend 127

/* Organism #128 Fitness: 67 Error: 0 */
genomestart 128
trait 1 0.1 0 0 0 0 0 0 0 
trait 2 0.2 0 0 0 0 0 0 0 
trait 3 0.3 0 0 0 0 0 0 0 
node 1 2 1 1
node 2 3 1 1
node 3 3 1 1
node 4 3 1 1
node 5 1 1 1
node 6 1 1 1
node 7 3 1 3
node 8 2 0 2
node 11 1 0 0
node 36 1 0 0
gene 2 1 8 -1.6847 0 1 -1.6847 1
gene 3 2 8 2.59818 0 2 2.59818 0
gene 2 3 8 3.19663 0 3 3.19663 0
gene 2 4 8 -2.60768 0 4 -2.60768 1
gene 3 5 8 6.96287 0 5 6.96287 1
gene 1 6 8 7.73542 0 6 7.73542 1
gene 2 7 8 -0.681471 0 7 -0.681471 1
gene 2 3 11 0.99292 0 12 0.99292 1
gene 3 11 8 -0.298003 0 13 -0.298003 1
gene 3 2 36 1.21767 0 76 1.21767 1
gene 3 36 8 -0.760267 0 77 -0.760267 1
genomeend 128

/* Organism #129 Fitness: 23 Error: 0 */
genomestart 129
trait 1 0.1 0 0 0 0 0 0 0 
trait 2 0.2 0 0 0 0 0 0 0 
trait 3 0.3 0 0 0 0 0 0 0 
node 1 2 1 1
node 2 3 1 1
node 3 3 1 1
node 4 3 1 1
node 5 1 1 1
node 6 1 1 1
node 7 3 1 3
node 8 2 0 2
node 11 1 0 0
node 36 1 0 0
gene 2 1 8 -4.70981 0 1 -4.70981 1
gene 3 2 8 3.10736 0 2 3.10736 0
gene 2 3 8 2.05969 0 3 2.05969 0
gene 2 4 8 5.40908 0 4 5.40908 1
gene 3 5 8 5.51514 0 5 5.51514 1
gene 1 6 8 1.17946 0 6 1.17946 1
gene 1 7 8 -3.91337 0 7 -3.91337 1
gene 2 3 11 0.673702 0 12 0.673702 1
gene 3 11 8 -0.271649 0 13 -0.271649 1
gene 3 2 36 0.311688 0 76 0.311688 1
gene 3 36 8 -0.500335 0 77 -0.500335 1
genomeend 129

/* Species #10 : (Size 6) (AF 30.6667) (Age 3)  */


/* Organism #130 Fitness: 55 Error: 0 */
genomestart 130
trait 1 0.1 0 0 0 0 0 0 0 
trait 2 0.2 0 0 0 0 0 0 0 
trait 3 0.3 0 0 0 0 0 0 0 
node 1 2 1 1
node 2 3 1 1
node 3 3 1 1
node 4 3 1 1
node 5 1 1 1
node 6 1 1 1
node 7 3 1 3
node 8 2 0 2
node 11 1 0 0
node 37 1 0 0
gene 2 1 8 -1.36756 0 1 -1.36756 1
gene 1 2 8 0.618212 0 2 0.618212 1
gene 3 3 8 -0.25846 0 3 -0.25846 0
gene 2 4 8 -0.895497 0 4 -0.895497 1
gene 1 5 8 3.86948 0 5 3.86948 1
gene 1 6 8 0.561531 0 6 0.561531 0
gene 1 7 8 -0.667405 0 7 -0.667405 1
gene 1 3 11 1.98041 0 12 1.98041 1
gene 3 11 8 -0.797774 0 13 -0.797774 1
gene 2 6 11 -2.71789 0 45 -2.71789 1
gene 1 6 37 1 0 78 0 1
gene 1 37 8 0.561531 0 79 0 1
gene 1 3 37 0.846589 0 96 0.846589 1
genomeend 130

/* Organism #131 Fitness: 5 Error: 0 */
genomestart 131
trait 1 0.1 0 0 0 0 0 0 0 
trait 2 0.2 0 0 0 0 0 0 0 
trait 3 0.3 0 0 0 0 0 0 0 
node 1 2 1 1
node 2 3 1 1
node 3 3 1 1
node 4 3 1 1
node 5 1 1 1
node 6 1 1 1
node 7 3 1 3
node 8 2 0 2
node 11 1 0 0
node 37 1 0 0
gene 2 1 8 -2.71229 0 1 -2.71229 1
gene 1 2 8 2.11727 0 2 2.11727 1
gene 3 3 8 -2.0213 0 3 -2.0213 0
gene 2 4 8 1.35469 0 4 1.35469 1
gene 1 5 8 3.93121 0 5 3.93121 1
gene 1 6 8 -1.48357 0 6 -1.48357 0
gene 1 7 8 -4.96096 0 7 -4.96096 1
gene 1 3 11 3.38803 0 12 3.38803 1
gene 3 11 8 1.43001 0 13 1.43001 1
gene 2 6 11 -4.14961 0 45 -4.14961 1
gene 1 6 37 2.71365 0 78 2.71365 1
gene 1 37 8 0.561531 0 79 0.561531 1
genomeend 131

/* Organism #132 Fitness: 37 Error: 0 */
genomestart 132
trait 1 0.1 0 0 0 0 0 0 0 
trait 2 0.2 0 0 0 0 0 0 0 
trait 3 0.3 0 0 0 0 0 0 0 
node 1 2 1 1
node 2 3 1 1
node 3 3 1 1
node 4 3 1 1
node 5 1 1 1
node 6 1 1 1
node 7 3 1 3
node 8 2 0 2
node 11 1 0 0
node 37 1 0 0
gene 2 1 8 -1.36756 0 1 -1.36756 1
gene 1 2 8 0.618212 0 2 0.618212 1
gene 3 3 8 -0.25846 0 3 -0.25846 1
gene 2 4 8 -0.895497 0 4 -0.895497 1
gene 1 5 8 3.86948 0 5 3.86948 1
gene 1 6 8 0.561531 0 6 0.561531 0
gene 1 7 8 -0.667405 0 7 -0.667405 1
gene 1 3 11 1.98041 0 12 1.98041 1
gene 3 11 8 -0.797774 0 13 -0.797774 1
gene 2 6 11 -2.71789 0 45 -2.71789 1
gene 1 6 37 1 0 78 0 1
gene 1 37 8 0.561531 0 79 0 1
gene 1 3 37 0.846589 0 96 0.846589 1
genomeend 132

/* Organism #133 Fitness: 27 Error: 0 */
genomestart 133
trait 1 0.1 0 0 0 0 0 0 0 
trait 2 0.2 0 0 0 0 0 0 0 
trait 3 0.3 0 0 0 0 0 0 0 
node 1 2 1 1
node 2 3 1 1
node 3 3 1 1
node 4 3 1 1
node 5 1 1 1
node 6 1 1 1
node 7 3 1 3
node 8 2 0 2
node 11 1 0 0
node 37 1 0 0
gene 2 1 8 -3.47771 0 1 -3.47771 1
gene 1 2 8 0.370142 0 2 0.370142 1
gene 3 3 8 0.309238 0 3 0.309238 0
gene 2 4 8 0.629773 0 4 0.629773 1
gene 1 5 8 5.20689 0 5 5.20689 1
gene 2 6 8 3.05061 0 6 3.05061 0
gene 1 7 8 -2.68754 0 7 -2.68754 1
gene 1 3 11 2.08956 0 12 2.08956 1
gene 3 11 8 -2.69516 0 13 -2.69516 1
gene 2 6 11 -5.09926 0 45 -5.09926 1
gene 1 6 37 2.55736 0 78 2.55736 1
gene 1 37 8 0.561531 0 79 0.561531 1
genomeend 133

/* Organism #134 Fitness: 5 Error: 0 */
genomestart 134
trait 1 0.1 0 0 0 0 0 0 0 
trait 2 0.2 0 0 0 0 0 0 0 
trait 3 0.3 0 0 0 0 0 0 0 
node 1 2 1 1
node 2 3 1 1
node 3 3 1 1
node 4 3 1 1
node 5 1 1 1
node 6 1 1 1
node 7 3 1 3
node 8 2 0 2
node 11 1 0 0
node 37 1 0 0
gene 2 1 8 -3.03875 0 1 -3.03875 1
gene 1 2 8 2.8842 0 2 2.8842 1
gene 3 3 8 -0.25846 0 3 -0.25846 0
gene 2 4 8 -2.40185 0 4 -2.40185 1
gene 1 5 8 2.83555 0 5 2.83555 1
gene 1 6 8 0.10103 0 6 0.10103 0
gene 1 7 8 -0.908399 0 7 -0.908399 1
gene 1 3 11 1.09033 0 12 1.09033 1
gene 3 11 8 -2.72594 0 13 -2.72594 1
gene 2 6 11 -3.15429 0 45 -3.15429 1
gene 1 6 37 1 0 78 1 1
gene 1 37 8 -2.19092 0 79 -2.19092 1
gene 1 3 37 0.846589 0 96 0.846589 1
genomeend 134

/* Organism #135 Fitness: 55 Error: 0 */
genomestart 135
trait 1 0.1 0 0 0 0 0 0 0 
trait 2 0.2 0 0 0 0 0 0 0 
trait 3 0.3 0 0 0 0 0.0292721 0.353549 0 
node 1 2 1 1
node 2 3 1 1
node 3 3 1 1
node 4 3 1 1
node 5 1 1 1
node 6 1 1 1
node 7 3 1 3
node 8 2 0 2
node 11 1 0 0
node 37 1 0 0
gene 2 1 8 -1.36756 0 1 -1.36756 1
gene 1 2 8 0.618212 0 2 0.618212 1
gene 3 3 8 -0.25846 0 3 -0.25846 0
gene 2 4 8 -0.895497 0 4 -0.895497 1
gene 1 5 8 3.86948 0 5 3.86948 1
gene 1 6 8 0.561531 0 6 0.561531 0
gene 1 7 8 -0.667405 0 7 -0.667405 1
gene 1 3 11 1.98041 0 12 1.98041 1
gene 3 11 8 -0.797774 0 13 -0.797774 1
gene 2 6 11 -2.71789 0 45 -2.71789 1
gene 1 6 37 1 0 78 0 1
gene 1 37 8 0.561531 0 79 0 1
gene 1 3 37 0.846589 0 96 0.846589 1
genomeend 135

/* Species #11 : (Size 12) (AF 41.8333) (Age 3)  */


/* Organism #136 Fitness: 84 Error: 0 */
genomestart 136
trait 1 0.1 0 0 0 0 0 0 0 
trait 2 0.2 0 0 0 0 0 0 0 
trait 3 0.3 0 0 0 0 0 0 0 
node 1 2 1 1
node 2 3 1 1
node 3 3 1 1
node 4 3 1 1
node 5 1 1 1
node 6 1 1 1
node 7 3 1 3
node 8 2 0 2
node 11 1 0 0
gene 2 1 8 0.581349 0 1 0.581349 1
gene 3 2 8 4.95697 0 2 4.95697 1
gene 2 3 8 -3.05337 0 3 -3.05337 0
gene 2 4 8 1.72331 0 4 1.72331 1
gene 3 5 8 6.00433 0 5 6.00433 1
gene 1 6 8 2.03845 0 6 2.03845 1
gene 2 7 8 -3.09985 0 7 -3.09985 1
gene 2 3 11 -1.23682 0 12 -1.23682 1
gene 3 11 8 0.57591 0 13 0.57591 1
gene 2 6 11 0.363085 0 72 0.363085 1
genomeend 136

/* Organism #137 Fitness: 28 Error: 0 */
genomestart 137
trait 1 0.1 0 0 0 0 0 0 0 
trait 2 0.2 0 0 0 0 0 0 0 
trait 3 0.3 0 0 0 0 0 0 0 
node 1 2 1 1
node 2 3 1 1
node 3 3 1 1
node 4 3 1 1
node 5 1 1 1
node 6 1 1 1
node 7 3 1 3
node 8 2 0 2
node 11 1 0 0
gene 2 1 8 -1.33699 0 1 -1.33699 1
gene 3 2 8 -1.22689 0 2 -1.22689 1
gene 2 3 8 -2.77782 0 3 -2.77782 0
gene 2 4 8 1.3935 0 4 1.3935 1
gene 3 5 8 6.48386 0 5 6.48386 1
gene 1 6 8 2.01348 0 6 2.01348 1
gene 2 7 8 0.458035 0 7 0.458035 1
gene 2 3 11 -1.23682 0 12 -1.23682 1
gene 3 11 8 2.43161 0 13 2.43161 1
gene 2 6 11 1.88988 0 72 1.88988 1
genomeend 137

/* Organism #138 Fitness: 44 Error: 0 */
genomestart 138
trait 1 0.1 0 0 0 0 0 0 0 
trait 2 0.2 0 0 0 0 0 0 0 
trait 3 0.3 0 0 0 0 0 0 0 
node 1 2 1 1
node 2 3 1 1
node 3 3 1 1
node 4 3 1 1
node 5 1 1 1
node 6 1 1 1
node 7 3 1 3
node 8 2 0 2
node 11 1 0 0
gene 2 1 8 0.151779 0 1 0.151779 1
gene 3 2 8 -1.30647 0 2 -1.30647 1
gene 2 3 8 -3.82735 0 3 -3.82735 0
gene 2 4 8 -2.14536 0 4 -2.14536 1
gene 3 5 8 7.37231 0 5 7.37231 1
gene 1 6 8 3.10897 0 6 3.10897 1
gene 2 7 8 -3.56766 0 7 -3.56766 1
gene 2 3 11 1.22923 0 12 1.22923 1
gene 3 11 8 -0.314641 0 13 -0.314641 1
gene 2 6 11 1.99832 0 72 1.99832 1
genomeend 138

/* Organism #139 Fitness: 65 Error: 0 */
genomestart 139
trait 1 0.1 0 0 0 0 0 0 0 
trait 2 0.2 0 0 0 0 0 0 0 
trait 3 0.3 0 0 0 0 0 0 0 
node 1 2 1 1
node 2 3 1 1
node 3 3 1 1
node 4 3 1 1
node 5 1 1 1
node 6 1 1 1
node 7 3 1 3
node 8 2 0 2
node 11 1 0 0
gene 2 1 8 0.223033 0 1 0.223033 1
gene 3 2 8 -0.0990624 0 2 -0.0990624 1
gene 2 3 8 -4.52776 0 3 -4.52776 1
gene 2 4 8 -1.04197 0 4 -1.04197 1
gene 3 5 8 8 0 5 8 1
gene 1 6 8 2.68181 0 6 2.68181 1
gene 2 7 8 -3.63911 0 7 -3.63911 1
gene 2 3 11 -0.463594 0 12 -0.463594 1
gene 3 11 8 2.19596 0 13 2.19596 1
gene 2 6 11 0.393208 0 72 0.393208 1
genomeend 139

/* Organism #140 Fitness: 53 Error: 0 */
genomestart 140
trait 1 0.1 0 0 0 0 0 0 0 
trait 2 0.2 0 0 0 0 0 0 0 
trait 3 0.3 0 0 0 0 0 0 0 
node 1 2 1 1
node 2 3 1 1
node 3 3 1 1
node 4 3 1 1
node 5 1 1 1
node 6 1 1 1
node 7 3 1 3
node 8 2 0 2
node 11 1 0 0
gene 2 1 8 0.581349 0 1 0.581349 1
gene 3 2 8 -1.30647 0 2 -1.30647 1
gene 2 3 8 -3.05337 0 3 -3.05337 0
gene 2 4 8 1.72331 0 4 1.72331 1
gene 3 5 8 6.00433 0 5 6.00433 1
gene 1 6 8 2.03845 0 6 2.03845 1
gene 2 7 8 -3.09985 0 7 -3.09985 1
gene 2 3 11 0.244757 0 12 0.244757 1
gene 3 11 8 0.57591 0 13 0.57591 1
gene 2 6 11 0.363085 0 72 0.363085 1
genomeend 140

/* Organism #141 Fitness: 7 Error: 0 */
genomestart 141
trait 1 0.1 0 0 0 0 0 0 0 
trait 2 0.2 0 0 0 0 0 0 0 
trait 3 0.3 0 0 0 0 0 0 0 
node 1 2 1 1
node 2 3 1 1
node 3 3 1 1
node 4 3 1 1
node 5 1 1 1
node 6 1 1 1
node 7 3 1 3
node 8 2 0 2
node 11 1 0 0
gene 2 1 8 0.769717 0 1 0.769717 1
gene 3 2 8 1.16064 0 2 1.16064 1
gene 2 3 8 1.79185 0 3 1.79185 0
gene 2 4 8 3.32524 0 4 3.32524 1
gene 3 5 8 -0.99931 0 5 -0.99931 1
gene 1 6 8 -1.40242 0 6 -1.40242 1
gene 2 7 8 -0.160751 0 7 -0.160751 1
gene 2 3 11 1.6561 0 12 1.6561 1
gene 3 11 8 0.737127 0 13 0.737127 1
gene 2 6 11 -0.452828 0 72 -0.452828 1
genomeend 141

/* Organism #142 Fitness: 33 Error: 0 */
genomestart 142
trait 1 0.1 0 0 0 0 0 0 0 
trait 2 0.2 0 0 0 0 0 0 0 
trait 3 0.3 0 0 0 0 0 0 0 
node 1 2 1 1
node 2 3 1 1
node 3 3 1 1
node 4 3 1 1
node 5 1 1 1
node 6 1 1 1
node 7 3 1 3
node 8 2 0 2
node 11 1 0 0
gene 2 1 8 -1.97454 0 1 -1.97454 1
gene 3 2 8 2.13735 0 2 2.13735 1
gene 2 3 8 -4.06061 0 3 -4.06061 0
gene 2 4 8 3.9082 0 4 3.9082 1
gene 3 5 8 5.32291 0 5 5.32291 1
gene 1 6 8 0.695626 0 6 0.695626 1
gene 2 7 8 -1.1879 0 7 -1.1879 1
gene 2 3 11 -0.784667 0 12 -0.784667 1
gene 3 11 8 3.52736 0 13 3.52736 1
gene 2 6 11 0.398245 0 72 0.398245 1
genomeend 142

/* Organism #143 Fitness: 53 Error: 0 */
genomestart 143
trait 1 0.1 0 0 0 0 0 0 0 
trait 2 0.2 0 0 0 0 0 0 0 
trait 3 0.3 0 0 0 0 0 0 0 
node 1 2 1 1
node 2 3 1 1
node 3 3 1 1
node 4 3 1 1
node 5 1 1 1
node 6 1 1 1
node 7 3 1 3
node 8 2 0 2
node 11 1 0 0
gene 2 1 8 0.581349 0 1 0.581349 1
gene 3 2 8 4.95697 0 2 4.95697 1
gene 2 3 8 -2.97419 0 3 -2.97419 0
gene 2 4 8 -1.96632 0 4 -1.96632 1
gene 3 5 8 7.48546 0 5 7.48546 1
gene 1 6 8 2.03845 0 6 2.03845 1
gene 2 7 8 -1.27193 0 7 -1.27193 1
gene 2 3 11 0.244757 0 12 0.244757 1
gene 3 11 8 -0.723847 0 13 -0.723847 1
gene 2 6 11 -1.25266 0 72 -1.25266 1
genomeend 143

/* Organism #144 Fitness: 5 Error: 0 */
genomestart 144
trait 1 0.1 0 0 0 0 0 0 0 
trait 2 0.2 0 0 0 0 0 0 0 
trait 3 0.3 0 0 0 0 0 0 0 
node 1 2 1 1
node 2 3 1 1
node 3 3 1 1
node 4 3 1 1
node 5 1 1 1
node 6 1 1 1
node 7 3 1 3
node 8 2 0 2
node 11 1 0 0
gene 2 1 8 -3.93423 0 1 -3.93423 1
gene 3 2 8 3.11323 0 2 3.11323 1
gene 2 3 8 -4.3686 0 3 -4.3686 0
gene 2 4 8 5.07302 0 4 5.07302 1
gene 3 5 8 5.37997 0 5 5.37997 1
gene 1 6 8 -1.81513 0 6 -1.81513 1
gene 2 7 8 -4.49737 0 7 -4.49737 1
gene 2 3 11 -1.02984 0 12 -1.02984 1
gene 3 11 8 -0.893158 0 13 -0.893158 1
gene 2 6 11 -1.25266 0 72 -1.25266 1
genomeend 144

/* Organism #145 Fitness: 56 Error: 0 */
genomestart 145
trait 1 0.1 0 0 0 0 0 0 0 
trait 2 0.2 0 0 0 0 0 0 0 
trait 3 0.3 0 0 0 0 0 0 0 
node 1 2 1 1
node 2 3 1 1
node 3 3 1 1
node 4 3 1 1
node 5 1 1 1
node 6 1 1 1
node 7 3 1 3
node 8 2 0 2
node 11 1 0 0
gene 2 1 8 2.27231 0 1 2.27231 1
gene 3 2 8 -1.30647 0 2 -1.30647 1
gene 2 3 8 -3.05337 0 3 -3.05337 0
gene 2 4 8 1.72331 0 4 1.72331 1
gene 3 5 8 7.48546 0 5 7.48546 1
gene 1 6 8 1.14738 0 6 1.14738 1
gene 2 7 8 -1.27193 0 7 -1.27193 1
gene 2 3 11 0.244757 0 12 0.244757 1
gene 3 11 8 -0.723847 0 13 -0.723847 1
gene 2 6 11 -1.25266 0 72 -1.25266 1
gene 2 5 11 -0.669951 0 105 -0.669951 1
genomeend 145

/* Organism #146 Fitness: 31 Error: 0 */
genomestart 146
trait 1 0.1 0 0 0 0 0 0 0 
trait 2 0.2 0 0 0 0 0 0 0 
trait 3 0.3 0 0 0 0 0 0 0 
node 1 2 1 1
node 2 3 1 1
node 3 3 1 1
node 4 3 1 1
node 5 1 1 1
node 6 1 1 1
node 7 3 1 3
node 8 2 0 2
node 11 1 0 0
gene 2 1 8 0.970706 0 1 0.970706 1
gene 3 2 8 5.54403 0 2 5.54403 1
gene 2 3 8 -0.490783 0 3 -0.490783 0
gene 2 4 8 2.10916 0 4 2.10916 1
gene 3 5 8 8 0 5 8 1
gene 1 6 8 2.66649 0 6 2.66649 1
gene 2 7 8 -0.447767 0 7 -0.447767 1
gene 2 3 11 0.874895 0 12 0.874895 1
gene 3 11 8 2.75933 0 13 2.75933 1
gene 2 6 11 1.93228 0 72 1.93228 1
genomeend 146

/* Organism #147 Fitness: 43 Error: 0 */
genomestart 147
trait 1 0.1 0 0 0 0 0 0 0 
trait 2 0.2 0 0 0 0 0 0 0 
trait 3 0.3 0 0 0 0 0 0 0 
node 1 2 1 1
node 2 3 1 1
node 3 3 1 1
node 4 3 1 1
node 5 1 1 1
node 6 1 1 1
node 7 3 1 3
node 8 2 0 2
node 11 1 0 0
gene 2 1 8 -2.30288 0 1 -2.30288 1
gene 3 2 8 4.95697 0 2 4.95697 1
gene 2 3 8 -3.05337 0 3 -3.05337 0
gene 2 4 8 3.69622 0 4 3.69622 1
gene 3 5 8 6.00433 0 5 6.00433 1
gene 1 6 8 0.579473 0 6 0.579473 1
gene 2 7 8 -1.99862 0 7 -1.99862 1
gene 2 3 11 -1.23682 0 12 -1.23682 1
