
/* Species #1 : (Size 11) (AF 66.7273) (Age 15)  */


/* Organism #0 Fitness: 121 Error: 0 */
genomestart 0
trait 1 0.1 0 0 0 0 0 0 0 
trait 2 0.2 0 0 0 0 0 0 0 
trait 3 0.3 0 0 0 0 0 0 0 
node 1 3 1 1
node 2 3 1 1
node 3 3 1 1
node 4 1 1 1
node 5 2 1 1
node 6 1 1 1
node 7 1 1 3
node 8 2 0 2
gene 1 1 8 0.108863 0 1 0.108863 1
gene 3 2 8 0.227711 0 2 0.227711 1
gene 3 3 8 -0.348606 0 3 -0.348606 1
gene 2 4 8 -0.0674422 0 4 -0.0674422 1
gene 1 5 8 0.533205 0 5 0.533205 1
gene 3 6 8 0.646931 0 6 0.646931 1
gene 2 7 8 -0.164336 0 7 -0.164336 1
genomeend 0

/* Organism #1 Fitness: 121 Error: 0 */
genomestart 1
trait 1 0.1 0 0 0 0 0 0 0 
trait 2 0.2 0 0 0 0 0 0 0 
trait 3 0.3 0 0 0 0 0 0 0 
node 1 3 1 1
node 2 3 1 1
node 3 3 1 1
node 4 1 1 1
node 5 2 1 1
node 6 1 1 1
node 7 1 1 3
node 8 2 0 2
gene 1 1 8 0.108863 0 1 0.108863 1
gene 3 2 8 0.227711 0 2 0.227711 1
gene 3 3 8 -0.348606 0 3 -0.348606 1
gene 2 4 8 -0.0674422 0 4 -0.0674422 1
gene 1 5 8 0.533205 0 5 0.533205 1
gene 3 6 8 0.646931 0 6 0.646931 1
gene 2 7 8 -0.164336 0 7 -0.164336 1
genomeend 1

/* Organism #2 Fitness: 10 Error: 0 */
genomestart 2
trait 1 0.1 0 0 0 0 0 0 0 
trait 2 0.2 0 0 0 0 0 0 0 
trait 3 0.3 0 0 0 0 0 0 0 
node 1 3 1 1
node 2 3 1 1
node 3 3 1 1
node 4 1 1 1
node 5 2 1 1
node 6 1 1 1
node 7 1 1 3
node 8 2 0 2
gene 1 1 8 0.583457 0 1 0.583457 1
gene 3 2 8 -1.50266 0 2 -1.50266 1
gene 3 3 8 -1.73549 0 3 -1.73549 1
gene 2 4 8 -1.31491 0 4 -1.31491 1
gene 1 5 8 -0.0861165 0 5 -0.0861165 1
gene 3 6 8 0.339889 0 6 0.339889 1
gene 2 7 8 -0.069768 0 7 -0.069768 1
genomeend 2

/* Organism #3 Fitness: 5 Error: 0 */
genomestart 3
trait 1 0.075 0 0.135051 0 0 0.25 0 0.142843 
trait 2 0.2 0 0 0 0 0 0 0 
trait 3 0.3 0 0 0 0 0 0 0 
node 1 3 1 1
node 2 3 1 1
node 3 3 1 1
node 4 1 1 1
node 5 2 1 1
node 6 1 1 1
node 7 1 1 3
node 8 2 0 2
gene 1 1 8 1.24248 0 1 1.24248 1
gene 3 2 8 -0.420172 0 2 -0.420172 1
gene 3 3 8 0.834471 0 3 0.834471 0
gene 2 4 8 0.896881 0 4 0.896881 1
gene 1 5 8 -0.0324028 0 5 -0.0324028 1
gene 3 6 8 -0.109984 0 6 -0.109984 1
gene 2 7 8 1.11734 0 7 1.11734 1
genomeend 3

/* Organism #4 Fitness: 43 Error: 0 */
genomestart 4
trait 1 0.05 0 0.270101 0 0 0.5 0 0.285687 
trait 2 0.2 0 0 0 0 0 0 0 
trait 3 0.3 0 0 0 0 0 0 0 
node 1 2 1 1
node 2 3 1 1
node 3 3 1 1
node 4 3 1 1
node 5 1 1 1
node 6 1 1 1
node 7 3 1 3
node 8 2 0 2
gene 1 1 8 0.865201 0 1 0.865201 1
gene 3 2 8 0.00835881 0 2 0.00835881 1
gene 3 3 8 0.593964 0 3 0.593964 0
gene 2 4 8 -1.73859 0 4 -1.73859 1
gene 1 5 8 4.76622 0 5 4.76622 1
gene 3 6 8 1.18772 0 6 1.18772 1
gene 2 7 8 -0.0244066 0 7 -0.0244066 1
genomeend 4

/* Organism #5 Fitness: 61 Error: 0 */
genomestart 5
trait 1 0.075 0 0.135051 0 0 0.25 0 0.142843 
trait 2 0.2 0 0 0 0 0 0 0 
trait 3 0.3 0 0 0 0 0 0 0 
node 1 2 1 1
node 2 3 1 1
node 3 3 1 1
node 4 3 1 1
node 5 1 1 1
node 6 1 1 1
node 7 3 1 3
node 8 2 0 2
gene 1 1 8 0.108863 0 1 0.108863 1
gene 3 2 8 0.227711 0 2 0.227711 1
gene 3 3 8 -0.348606 0 3 -0.348606 0
gene 2 4 8 -1.73859 0 4 -1.73859 1
gene 1 5 8 0.533205 0 5 0.533205 1
gene 3 6 8 0.646931 0 6 0.646931 1
gene 2 7 8 -0.659072 0 7 -0.659072 1
genomeend 5

/* Organism #6 Fitness: 66 Error: 0 */
genomestart 6
trait 1 0.075 0.923193 0.135051 0 0 0 0 0.0264666 
trait 2 0.2 0 0 0 0 0 0 0 
trait 3 0.3 0 0 0 0 0 0 0 
node 1 3 1 1
node 2 3 1 1
node 3 3 1 1
node 4 1 1 1
node 5 2 1 1
node 6 1 1 1
node 7 1 1 3
node 8 2 0 2
gene 1 1 8 -1.11714 0 1 -1.11714 1
gene 3 2 8 -0.892829 0 2 -0.892829 1
gene 3 3 8 0.0265104 0 3 0.0265104 0
gene 2 4 8 -4.06431 0 4 -4.06431 1
gene 1 5 8 1.26118 0 5 1.26118 1
gene 3 6 8 2.38785 0 6 2.38785 1
gene 2 7 8 0.0899566 0 7 0.0899566 1
genomeend 6

/* Organism #7 Fitness: 27 Error: 0 */
genomestart 7
trait 1 0.05 0 0.270101 0 0 0.5 0 0.285687 
trait 2 0.2 0 0 0 0 0 0 0 
trait 3 0.3 0 0 0 0 0 0 0 
node 1 2 1 1
node 2 3 1 1
node 3 3 1 1
node 4 3 1 1
node 5 1 1 1
node 6 1 1 1
node 7 3 1 3
node 8 2 0 2
gene 1 1 8 -2.4508 0 1 -2.4508 1
gene 3 2 8 0.993726 0 2 0.993726 1
gene 3 3 8 1.78645 0 3 1.78645 0
gene 2 4 8 -4.23836 0 4 -4.23836 1
gene 1 5 8 -1.55949 0 5 -1.55949 1
gene 3 6 8 1.59036 0 6 1.59036 1
gene 2 7 8 -0.937473 0 7 -0.937473 1
genomeend 7

/* Organism #8 Fitness: 121 Error: 0 */
genomestart 8
trait 1 0.0922588 0 0.875795 0 0 0.092035 0.730425 0 
trait 2 0.2 0 0 0 0 0 0 0 
trait 3 0.3 0 0 0 0 0 0 0 
node 1 3 1 1
node 2 3 1 1
node 3 3 1 1
node 4 1 1 1
node 5 2 1 1
node 6 1 1 1
node 7 1 1 3
node 8 2 0 2
gene 1 1 8 0.108863 0 1 0.108863 1
gene 3 2 8 0.227711 0 2 0.227711 1
gene 3 3 8 -0.348606 0 3 -0.348606 1
gene 2 4 8 -0.0674422 0 4 -0.0674422 1
gene 1 5 8 0.533205 0 5 0.533205 1
gene 3 6 8 0.646931 0 6 0.646931 1
gene 2 7 8 -0.164336 0 7 -0.164336 1
genomeend 8

/* Organism #9 Fitness: 38 Error: 0 */
genomestart 9
trait 1 0.05 0 0.270101 0 0 0.5 0 0.285687 
trait 2 0.2 0 0 0 0 0 0 0 
trait 3 0.3 0 0 0 0 0 0 0 
node 1 2 1 1
node 2 3 1 1
node 3 3 1 1
node 4 3 1 1
node 5 1 1 1
node 6 1 1 1
node 7 3 1 3
node 8 2 0 2
node 58 1 0 0
gene 1 1 8 0.108863 0 1 0.108863 1
gene 3 2 8 0.227711 0 2 0.227711 1
gene 3 3 8 -0.348606 0 3 -0.348606 0
gene 2 4 8 -1.73859 0 4 -1.73859 0
gene 1 5 8 2.46817 0 5 2.46817 1
gene 3 6 8 0.646931 0 6 0.646931 1
gene 2 7 8 -0.659072 0 7 -0.659072 1
gene 2 4 58 1 0 150 0 1
gene 2 58 8 -1.73859 0 151 0 1
genomeend 9

/* Organism #10 Fitness: 121 Error: 0 */
genomestart 10
trait 1 0.1 0 0 0 0 0 0 0 
trait 2 0.2 0 0 0 0 0 0 0 
trait 3 0.3 0 0 0 0 0 0 0 
node 1 3 1 1
node 2 3 1 1
node 3 3 1 1
node 4 1 1 1
node 5 2 1 1
node 6 1 1 1
node 7 1 1 3
node 8 2 0 2
gene 1 1 8 0.108863 0 1 0.108863 1
gene 3 2 8 0.227711 0 2 0.227711 1
gene 3 3 8 -0.348606 0 3 -0.348606 1
gene 2 4 8 -0.0674422 0 4 -0.0674422 1
gene 1 5 8 0.533205 0 5 0.533205 1
gene 3 6 8 0.646931 0 6 0.646931 1
gene 2 7 8 -0.164336 0 7 -0.164336 1
genomeend 10

/* Species #2 : (Size 7) (AF 27.2857) (Age 13)  */


/* Organism #11 Fitness: 110 Error: 0 */
genomestart 11
trait 1 0.1 0 0 0 0 0 0 0 
trait 2 0.2 0 0 0 0 0 0 0 
trait 3 0.3 0 0 0 0 0 0 0 
node 1 3 1 1
node 2 3 1 1
node 3 3 1 1
node 4 3 1 1
node 5 1 1 1
node 6 1 1 1
node 7 3 1 3
node 8 3 0 2
node 11 1 0 0
node 15 1 0 0
gene 2 1 8 3.81568 0 1 3.81568 1
gene 3 2 8 -1.37586 0 2 -1.37586 1
gene 2 3 8 3.0814 0 3 3.0814 0
gene 1 4 8 -2.58742 0 4 -2.58742 1
gene 1 5 8 2.81013 0 5 2.81013 1
gene 1 6 8 0.403469 0 6 0.403469 1
gene 1 7 8 0.110476 0 7 0.110476 1
gene 3 3 11 -0.607565 0 12 -0.607565 1
gene 3 11 8 -0.409129 0 13 -0.409129 0
gene 3 11 15 -0.284719 0 20 -0.284719 1
gene 3 15 8 -1.01347 0 21 -1.01347 1
genomeend 11

/* Organism #12 Fitness: 5 Error: 0 */
genomestart 12
trait 1 0.1 0 0 0 0 0 0 0 
trait 2 0.2 0.052923 0 0 0 0.892715 0 0.36656 
trait 3 0.3 0 0 0 0 0 0 0 
node 1 3 1 1
node 2 3 1 1
node 3 3 1 1
node 4 3 1 1
node 5 1 1 1
node 6 1 1 1
node 7 3 1 3
node 8 3 0 2
node 11 1 0 0
node 15 1 0 0
gene 2 1 8 1.95971 0 1 1.95971 1
gene 3 2 8 -0.556171 0 2 -0.556171 1
gene 2 3 8 3.0814 0 3 3.0814 0
gene 1 4 8 2.11209 0 4 2.11209 1
gene 1 5 8 4.39572 0 5 4.39572 1
gene 1 6 8 -0.896414 0 6 -0.896414 1
gene 1 7 8 2.06408 0 7 2.06408 1
gene 3 3 11 0.661219 0 12 0.661219 1
gene 3 11 8 -0.443455 0 13 -0.443455 0
gene 3 11 15 0.183359 0 20 0.183359 1
gene 3 15 8 -0.475389 0 21 -0.475389 1
genomeend 12

/* Organism #13 Fitness: 5 Error: 0 */
genomestart 13
trait 1 0.1 0 0 0 0 0 0 0 
trait 2 0.2 0.0264615 0 0 0 0.446358 0 0.18328 
trait 3 0.3 0 0 0 0 0 0 0 
node 1 3 1 1
node 2 3 1 1
node 3 3 1 1
node 4 3 1 1
node 5 1 1 1
node 6 1 1 1
node 7 3 1 3
node 8 3 0 2
node 11 1 0 0
node 15 1 0 0
gene 2 1 8 3.08715 0 1 3.08715 1
gene 3 2 8 -2.15732 0 2 -2.15732 1
gene 2 3 8 0.879879 0 3 0.879879 0
gene 1 4 8 -3.46985 0 4 -3.46985 1
gene 1 5 8 2.12783 0 5 2.12783 1
gene 1 6 8 -1.0887 0 6 -1.0887 1
gene 1 7 8 -2.11696 0 7 -2.11696 1
gene 3 3 11 2.16908 0 12 2.16908 1
gene 3 11 8 0.0858544 0 13 0.0858544 0
gene 3 11 15 -2.2922 0 20 -2.2922 1
gene 3 15 8 -1.86683 0 21 -1.86683 1
genomeend 13

/* Organism #14 Fitness: 29 Error: 0 */
genomestart 14
trait 1 0.1 0 0 0 0 0 0 0 
trait 2 0.2 0.0264615 0 0 0 0.446358 0 0.18328 
trait 3 0.3 0 0 0 0 0 0 0 
node 1 3 1 1
node 2 3 1 1
node 3 3 1 1
node 4 3 1 1
node 5 1 1 1
node 6 1 1 1
node 7 3 1 3
node 8 3 0 2
node 11 1 0 0
node 15 1 0 0
gene 2 1 8 2.67309 0 1 2.67309 1
gene 3 2 8 -3.58273 0 2 -3.58273 1
gene 2 3 8 5.39232 0 3 5.39232 0
gene 1 4 8 -0.132571 0 4 -0.132571 1
gene 1 5 8 4.50054 0 5 4.50054 1
gene 1 6 8 2.85031 0 6 2.85031 1
gene 1 7 8 0.888069 0 7 0.888069 1
gene 3 3 11 0.836358 0 12 0.836358 1
gene 3 11 8 -0.151581 0 13 -0.151581 0
gene 3 11 15 -0.284719 0 20 -0.284719 1
gene 3 15 8 0.861282 0 21 0.861282 1
genomeend 14

/* Organism #15 Fitness: 5 Error: 0 */
genomestart 15
trait 1 0.1 0 0 0 0 0 0 0 
trait 2 0.2 0.052923 0 0 0 0.892715 0 0.36656 
trait 3 0.3 0 0 0 0 0 0 0 
node 1 3 1 1
node 2 3 1 1
node 3 3 1 1
node 4 3 1 1
node 5 1 1 1
node 6 1 1 1
node 7 3 1 3
node 8 3 0 2
node 11 1 0 0
node 15 1 0 0
gene 2 1 8 -1.81104 0 1 -1.81104 1
gene 3 2 8 -1.84004 0 2 -1.84004 1
gene 2 3 8 4.31457 0 3 4.31457 0
gene 1 4 8 1.46683 0 4 1.46683 1
gene 1 5 8 2.81013 0 5 2.81013 1
gene 1 6 8 -1.64231 0 6 -1.64231 1
gene 1 7 8 2.14705 0 7 2.14705 1
gene 3 3 11 -1.03411 0 12 -1.03411 1
gene 3 11 8 -2.23284 0 13 -2.23284 0
gene 3 11 15 0.287413 0 20 0.287413 1
gene 3 15 8 1.20151 0 21 1.20151 1
genomeend 15

/* Organism #16 Fitness: 5 Error: 0 */
genomestart 16
trait 1 0.1 0 0 0 0 0 0 0 
trait 2 0.2 0 0 0 0 0 0 0 
trait 3 0.3 0 0 0 0 0 0 0 
node 1 1 1 1
node 2 3 1 1
node 3 3 1 1
node 4 3 1 1
node 5 1 1 1
node 6 1 1 1
node 7 3 1 3
node 8 3 0 2
node 11 1 0 0
node 15 1 0 0
gene 2 1 8 4.84686 0 1 4.84686 1
gene 3 2 8 -0.531881 0 2 -0.531881 1
gene 2 3 8 2.84385 0 3 2.84385 0
gene 1 4 8 -4.5566 0 4 -4.5566 1
gene 1 5 8 1.36445 0 5 1.36445 1
gene 1 6 8 -0.580556 0 6 -0.580556 1
gene 1 7 8 1.5446 0 7 1.5446 1
gene 3 3 11 -1.49731 0 12 -1.49731 1
gene 3 11 8 1.0193 0 13 1.0193 0
gene 3 11 15 0.103252 0 20 0.103252 1
gene 3 15 8 2.18965 0 21 2.18965 1
genomeend 16

/* Organism #17 Fitness: 32 Error: 0 */
genomestart 17
trait 1 0.34521 0 0 0 0 0 0 0 
trait 2 0.2 0 0 0 0 0 0 0 
trait 3 0.3 0 0 0 0 0 0 0 
node 1 3 1 1
node 2 3 1 1
node 3 3 1 1
node 4 3 1 1
node 5 1 1 1
node 6 1 1 1
node 7 3 1 3
node 8 3 0 2
node 11 1 0 0
node 15 1 0 0
gene 2 1 8 -1.23519 0 1 -1.23519 1
gene 3 2 8 -1.70826 0 2 -1.70826 1
gene 2 3 8 6.14185 0 3 6.14185 0
gene 1 4 8 -5.35254 0 4 -5.35254 1
gene 1 5 8 0.434981 0 5 0.434981 1
gene 1 6 8 2.35644 0 6 2.35644 1
gene 1 7 8 -3.66946 0 7 -3.66946 1
gene 3 3 11 -1.35513 0 12 -1.35513 1
gene 3 11 8 1.92088 0 13 1.92088 0
gene 3 11 15 0.201955 0 20 0.201955 1
gene 3 15 8 1.21514 0 21 1.21514 1
genomeend 17

/* Species #3 : (Size 15) (AF 69.3333) (Age 11)  */


/* Organism #18 Fitness: 168 Error: 0 */
genomestart 18
trait 1 0.05 0.376477 0 0 0.34363 0 0.496848 0 
trait 2 0.2 0 0 0 0 0 0 0 
trait 3 0.3 0 0 0 0 0 0 0 
node 1 2 1 1
node 2 3 1 1
node 3 3 1 1
node 4 3 1 1
node 5 1 1 1
node 6 1 1 1
node 7 3 1 3
node 8 2 0 2
node 11 1 0 0
gene 2 1 8 -1.887 0 1 -1.887 1
gene 3 2 8 2.26463 0 2 2.26463 1
gene 3 3 8 1.97054 0 3 1.97054 0
gene 2 4 8 -4.99692 0 4 -4.99692 1
gene 1 5 8 3.28812 0 5 3.28812 1
gene 1 6 8 2.30211 0 6 2.30211 1
gene 2 7 8 -2.40218 0 7 -2.40218 1
gene 2 3 11 -2.1685 0 12 -2.1685 1
gene 3 11 8 1.92317 0 13 1.92317 1
gene 3 4 11 -0.302006 0 37 -0.302006 1
genomeend 18

/* Organism #19 Fitness: 45 Error: 0 */
genomestart 19
trait 1 0.0554687 0.3353 0.251488 0 0.171815 0 0.442505 0 
trait 2 0.2 0 0 0 0 0 0 0 
trait 3 0.3 0 0 0 0 0 0 0 
node 1 2 1 1
node 2 3 1 1
node 3 3 1 1
node 4 3 1 1
node 5 1 1 1
node 6 1 1 1
node 7 3 1 3
node 8 2 0 2
node 11 1 0 0
gene 2 1 8 -1.36899 0 1 -1.36899 1
gene 3 2 8 -0.595618 0 2 -0.595618 1
gene 3 3 8 2.63262 0 3 2.63262 0
gene 2 4 8 -5.72454 0 4 -5.72454 1
gene 3 5 8 3.93072 0 5 3.93072 1
gene 1 6 8 3.14856 0 6 3.14856 1
gene 2 7 8 -3.75014 0 7 -3.75014 1
gene 2 3 11 -1.92588 0 12 -1.92588 1
gene 3 11 8 2.33381 0 13 2.33381 1
gene 3 4 11 1.3507 0 37 1.3507 1
genomeend 19

/* Organism #20 Fitness: 31 Error: 0 */
genomestart 20
trait 1 0.0609375 0.294123 0.502976 0 0 0 0.388163 0 
trait 2 0.2 0 0 0 0 0 0 0 
trait 3 0.3 0 0 0 0 0 0 0 
node 1 2 1 1
node 2 3 1 1
node 3 3 1 1
node 4 3 1 1
node 5 1 1 1
node 6 1 1 1
node 7 3 1 3
node 8 2 0 2
node 11 1 0 0
gene 2 1 8 -0.637629 0 1 -0.637629 1
gene 3 2 8 -0.936371 0 2 -0.936371 1
gene 3 3 8 -1.60934 0 3 -1.60934 0
gene 2 4 8 -3.41952 0 4 -3.41952 1
gene 3 5 8 -1.02906 0 5 -1.02906 1
gene 1 6 8 3.66002 0 6 3.66002 1
gene 2 7 8 -0.290564 0 7 -0.290564 1
gene 2 3 11 0.573306 0 12 0.573306 1
gene 3 11 8 1.10144 0 13 1.10144 1
gene 3 4 11 0.00746322 0 37 0.00746322 1
genomeend 20

/* Organism #21 Fitness: 133 Error: 0 */
genomestart 21
trait 1 0.0554687 0.3353 0.251488 0 0.171815 0 0.442505 0 
trait 2 0.2 0 0 0 0 0 0 0 
trait 3 0.3 0 0 0 0 0 0 0 
node 1 2 1 1
node 2 3 1 1
node 3 3 1 1
node 4 3 1 1
node 5 1 1 1
node 6 1 1 1
node 7 3 1 3
node 8 2 0 2
node 11 1 0 0
gene 2 1 8 -1.887 0 1 -1.887 1
gene 3 2 8 1.48479 0 2 1.48479 1
gene 3 3 8 0.574807 0 3 0.574807 0
gene 2 4 8 -4.99692 0 4 -4.99692 1
gene 1 5 8 3.28812 0 5 3.28812 1
gene 1 6 8 2.30211 0 6 2.30211 1
gene 2 7 8 -2.40218 0 7 -2.40218 1
gene 2 3 11 -2.92846 0 12 -2.92846 1
gene 3 11 8 1.92317 0 13 1.92317 1
gene 3 4 11 -0.458246 0 37 -0.458246 1
genomeend 21

/* Organism #22 Fitness: 72 Error: 0 */
genomestart 22
trait 1 0.0375 0.355889 0 0 0.324838 0.137625 0.469677 0 
trait 2 0.2 0 0 0 0 0 0 0 
trait 3 0.3 0 0 0 0 0 0 0 
node 1 2 1 1
node 2 3 1 1
node 3 3 1 1
node 4 3 1 1
node 5 1 1 1
node 6 1 1 1
node 7 3 1 3
node 8 2 0 2
node 11 1 0 0
node 59 1 0 0
gene 2 1 8 -1.74312 0 1 -1.74312 0
gene 3 2 8 1.62472 0 2 1.62472 1
gene 3 3 8 1.62161 0 3 1.62161 1
gene 2 4 8 -5.64059 0 4 -5.64059 1
gene 1 5 8 3.06079 0 5 3.06079 1
gene 1 6 8 2.47881 0 6 2.47881 1
gene 2 7 8 -1.86231 0 7 -1.86231 1
gene 2 3 11 -2.35616 0 12 -2.35616 1
gene 3 11 8 2.09549 0 13 2.09549 1
gene 3 4 11 -0.351307 0 37 -0.351307 1
gene 2 1 59 1 0 152 0 1
gene 2 59 8 -1.74312 0 153 0 1
genomeend 22

/* Organism #23 Fitness: 5 Error: 0 */
genomestart 23
trait 1 0.05 0.376477 0 0 0.34363 0 0.496848 0 
trait 2 0.2 0 0 0 0 0 0 0 
trait 3 0.3 0 0 0 0 0 0 0 
node 1 2 1 1
node 2 3 1 1
node 3 3 1 1
node 4 3 1 1
node 5 1 1 1
node 6 1 1 1
node 7 3 1 3
node 8 2 0 2
node 11 1 0 0
gene 2 1 8 -1.34946 0 1 -1.34946 1
gene 3 2 8 4.27759 0 2 4.27759 1
gene 3 3 8 -0.0726786 0 3 -0.0726786 0
gene 2 4 8 -5.64444 0 4 -5.64444 1
gene 1 5 8 2.01736 0 5 2.01736 1
gene 1 6 8 0.424746 0 6 0.424746 1
gene 2 7 8 -3.9618 0 7 -3.9618 1
gene 2 3 11 -3.70721 0 12 -3.70721 1
gene 3 11 8 4.11856 0 13 4.11856 1
gene 3 4 11 1.49633 0 37 1.49633 1
genomeend 23

/* Organism #24 Fitness: 5 Error: 0 */
genomestart 24
trait 1 0.0429688 0.314712 0.251488 0 0.153023 0.137625 0.415334 0 
trait 2 0.2 0 0 0 0 0 0 0 
trait 3 0.3 0 0 0 0 0 0 0 
node 1 2 1 1
node 2 3 1 1
node 3 3 1 1
node 4 3 1 1
node 5 1 1 1
node 6 1 1 1
node 7 3 1 3
node 8 2 0 2
node 11 1 0 0
gene 2 1 8 -3.18962 0 1 -3.18962 1
gene 3 2 8 2.13121 0 2 2.13121 1
gene 3 3 8 -1.67478 0 3 -1.67478 0
gene 2 4 8 -6.40043 0 4 -6.40043 1
gene 1 5 8 0.621677 0 5 0.621677 1
gene 1 6 8 0.596411 0 6 0.596411 1
gene 2 7 8 -1.69042 0 7 -1.69042 1
gene 2 3 11 -2.19347 0 12 -2.19347 1
gene 3 11 8 -2.06375 0 13 -2.06375 1
gene 3 4 11 1.66466 0 37 1.66466 1
genomeend 24

/* Organism #25 Fitness: 5 Error: 0 */
genomestart 25
trait 1 0.05 0.376477 0 0 0.34363 0 0.496848 0 
trait 2 0.2 0 0 0 0 0 0 0 
trait 3 0.3 0 0 0 0 0 0 0 
node 1 2 1 1
node 2 3 1 1
node 3 3 1 1
node 4 3 1 1
node 5 1 1 1
node 6 1 1 1
node 7 3 1 3
node 8 2 0 2
node 11 1 0 0
gene 2 1 8 -0.325832 0 1 -0.325832 1
gene 3 2 8 -0.238162 0 2 -0.238162 1
gene 3 3 8 2.53308 0 3 2.53308 0
gene 2 4 8 -5.87681 0 4 -5.87681 1
gene 1 5 8 2.31808 0 5 2.31808 1
gene 1 6 8 -1.49362 0 6 -1.49362 1
gene 2 7 8 -4.09265 0 7 -4.09265 1
gene 2 3 11 -1.65455 0 12 -1.65455 1
gene 3 11 8 1.92317 0 13 1.92317 1
gene 3 4 11 1.55404 0 37 1.55404 1
genomeend 25

/* Organism #26 Fitness: 47 Error: 0 */
genomestart 26
trait 1 0.725807 0.294123 0.307829 0.255477 0 0 0.388163 0.0734759 
trait 2 0.2 0 0 0 0 0 0 0 
trait 3 0.3 0 0 0 0 0 0 0 
node 1 2 1 1
node 2 3 1 1
node 3 3 1 1
node 4 3 1 1
node 5 1 1 1
node 6 1 1 1
node 7 3 1 3
node 8 2 0 2
node 11 1 0 0
gene 2 1 8 -3.37334 0 1 -3.37334 1
gene 3 2 8 0.747324 0 2 0.747324 1
gene 3 3 8 -1.38107 0 3 -1.38107 0
gene 2 4 8 -5.90666 0 4 -5.90666 1
gene 3 5 8 3.96446 0 5 3.96446 1
gene 1 6 8 1.53203 0 6 1.53203 1
gene 2 7 8 -0.374534 0 7 -0.374534 1
gene 2 3 11 -1.2051 0 12 -1.2051 1
gene 3 11 8 3.60835 0 13 3.60835 1
gene 3 4 11 -0.458246 0 37 -0.458246 1
genomeend 26

/* Organism #27 Fitness: 36 Error: 0 */
genomestart 27
trait 1 0.05 0.376477 0 0 0.34363 0 0.496848 0 
trait 2 0.2 0 0 0 0 0 0 0 
trait 3 0.3 0 0 0 0 0 0 0 
node 1 2 1 1
node 2 3 1 1
node 3 3 1 1
node 4 3 1 1
node 5 1 1 1
node 6 1 1 1
node 7 3 1 3
node 8 2 0 2
node 11 1 0 0
gene 2 1 8 -3.38563 0 1 -3.38563 1
gene 3 2 8 0.837478 0 2 0.837478 1
gene 3 3 8 2.32574 0 3 2.32574 0
gene 2 4 8 0.612419 0 4 0.612419 1
gene 1 5 8 1.76354 0 5 1.76354 1
gene 1 6 8 0.429835 0 6 0.429835 1
gene 2 7 8 -2.21213 0 7 -2.21213 1
gene 2 3 11 -2.1685 0 12 -2.1685 1
gene 3 11 8 2.01052 0 13 2.01052 1
gene 3 4 11 1.69694 0 37 1.69694 1
genomeend 27

/* Organism #28 Fitness: 105 Error: 0 */
genomestart 28
trait 1 0.0609375 0.294123 0.502976 0 0 0 0.388163 0 
trait 2 0.2 0 0 0 0 0 0 0 
trait 3 0.3 0 0 0 0 0 0 0 
node 1 2 1 1
node 2 3 1 1
node 3 3 1 1
node 4 3 1 1
node 5 1 1 1
node 6 1 1 1
node 7 3 1 3
node 8 2 0 2
node 11 1 0 0
gene 2 1 8 -1.82994 0 1 -1.82994 1
gene 3 2 8 1.48479 0 2 1.48479 1
gene 3 3 8 0.574807 0 3 0.574807 0
gene 2 4 8 -5.47713 0 4 -5.47713 1
gene 3 5 8 4.41015 0 5 4.41015 1
gene 1 6 8 1.73731 0 6 1.73731 1
gene 2 7 8 -2.55251 0 7 -2.55251 1
gene 2 3 11 -2.92846 0 12 -2.92846 1
gene 3 11 8 1.71596 0 13 1.71596 1
gene 3 4 11 -0.458246 0 37 -0.458246 1
gene 2 7 11 -0.33852 0 154 -0.33852 1
genomeend 28

/* Organism #29 Fitness: 157 Error: 0 */
genomestart 29
trait 1 0.0554687 0.3353 0.251488 0 0.171815 0 0.442505 0 
trait 2 0.2 0 0 0 0 0 0 0 
trait 3 0.3 0 0 0 0 0 0 0 
node 1 2 1 1
node 2 3 1 1
node 3 3 1 1
node 4 3 1 1
node 5 1 1 1
node 6 1 1 1
node 7 3 1 3
node 8 2 0 2
node 11 1 0 0
gene 2 1 8 -1.85847 0 1 -1.85847 1
gene 3 2 8 1.87471 0 2 1.87471 1
gene 3 3 8 1.27268 0 3 1.27268 0
gene 2 4 8 -5.23702 0 4 -5.23702 1
gene 3 5 8 3.84914 0 5 3.84914 1
gene 1 6 8 2.01971 0 6 2.01971 1
gene 2 7 8 -2.47734 0 7 -2.47734 1
gene 2 3 11 -2.54848 0 12 -2.54848 1
gene 3 11 8 1.81957 0 13 1.81957 1
gene 3 4 11 -0.380126 0 37 -0.380126 1
genomeend 29

/* Organism #30 Fitness: 117 Error: 0 */
genomestart 30
trait 1 0.025 0.3353 0 0 0.306045 0.27525 0.442505 0 
trait 2 0.2 0 0 0 0 0 0 0 
trait 3 0.3 0 0 0 0 0 0 0 
node 1 2 1 1
node 2 3 1 1
node 3 3 1 1
node 4 3 1 1
node 5 1 1 1
node 6 1 1 1
node 7 3 1 3
node 8 2 0 2
node 11 1 0 0
gene 2 1 8 -1.59923 0 1 -1.59923 1
gene 3 2 8 0.984822 0 2 0.984822 1
gene 3 3 8 1.27268 0 3 1.27268 1
gene 2 4 8 -6.28427 0 4 -6.28427 1
gene 1 5 8 2.83347 0 5 2.83347 1
gene 1 6 8 2.65552 0 6 2.65552 1
gene 2 7 8 -1.32243 0 7 -1.32243 1
gene 2 3 11 -2.54381 0 12 -2.54381 1
gene 3 11 8 2.26781 0 13 2.26781 1
gene 3 4 11 -0.400608 0 37 -0.400608 1
genomeend 30

/* Organism #31 Fitness: 66 Error: 0 */
genomestart 31
trait 1 0.025 0.3353 0 0 0.306045 0.27525 0.442505 0 
trait 2 0.2 0 0 0 0 0 0 0 
trait 3 0.3 0 0 0 0 0 0 0 
node 1 2 1 1
node 2 3 1 1
node 3 3 1 1
node 4 3 1 1
node 5 1 1 1
node 6 2 1 1
node 7 3 1 3
node 8 2 0 2
node 11 1 0 0
gene 2 1 8 -2.97674 0 1 -2.97674 1
gene 3 2 8 1.81518 0 2 1.81518 1
gene 3 3 8 2.6436 0 3 2.6436 1
gene 2 4 8 -4.35219 0 4 -4.35219 1
gene 1 5 8 3.13042 0 5 3.13042 1
gene 1 6 8 4.90803 0 6 4.90803 1
gene 2 7 8 -1.1684 0 7 -1.1684 1
gene 2 3 11 -1.54355 0 12 -1.54355 1
gene 3 11 8 4.61339 0 13 4.61339 1
gene 3 4 11 -0.400608 0 37 -0.400608 1
genomeend 31

/* Organism #32 Fitness: 48 Error: 0 */
genomestart 32
trait 1 0.1 0 0 0 0 0 0 0 
trait 2 0.2 0 0 0 0 0 0 0 
trait 3 1 0.899661 0.280831 0.449257 0.649154 0 0.936488 0.231415 
node 1 2 1 1
node 2 3 1 1
node 3 3 1 1
node 4 3 1 1
node 5 1 1 1
node 6 1 1 1
node 7 3 1 3
node 8 2 0 2
node 11 1 0 0
gene 2 1 8 0.653904 0 1 0.653904 1
gene 3 2 8 -0.784637 0 2 -0.784637 1
gene 2 3 8 -1.91968 0 3 -1.91968 0
gene 2 4 8 -0.200545 0 4 -0.200545 1
gene 3 5 8 5.96525 0 5 5.96525 1
gene 1 6 8 3.682 0 6 3.682 1
gene 2 7 8 -1.00793 0 7 -1.00793 1
gene 2 3 11 -1.09199 0 12 -1.09199 1
gene 3 11 8 0.682554 0 13 0.682554 1
gene 2 6 11 1.08675 0 72 1.08675 1
genomeend 32

/* Species #4 : (Size 10) (AF 34.1) (Age 10)  */


/* Organism #33 Fitness: 111 Error: 0 */
genomestart 33
trait 1 0.1 0 0 0 0 0 0 0 
trait 2 0.2 0 0 0 0 0 0 0 
trait 3 0.3 0 0 0 0 0 0 0 
node 1 2 1 1
node 2 3 1 1
node 3 3 1 1
node 4 3 1 1
node 5 1 1 1
node 6 1 1 1
node 7 3 1 3
node 8 2 0 2
node 11 1 0 0
node 23 1 0 0
gene 2 1 8 -0.738309 0 1 -0.738309 1
gene 1 2 8 -0.294996 0 2 -0.294996 1
gene 3 3 8 1.69233 0 3 1.69233 0
gene 2 4 8 1.01804 0 4 1.01804 0
gene 1 5 8 4.35569 0 5 4.35569 1
gene 2 6 8 0.229895 0 6 0.229895 1
gene 1 7 8 -0.0490528 0 7 -0.0490528 1
gene 3 3 11 0.222824 0 12 0.222824 1
gene 3 11 8 -0.36559 0 13 -0.36559 1
gene 2 4 23 2.61094 0 41 2.61094 1
gene 2 23 8 -0.745193 0 42 -0.745193 1
gene 2 6 11 -0.405709 0 45 -0.405709 1
genomeend 33

/* Organism #34 Fitness: 26 Error: 0 */
genomestart 34
trait 1 0.1 0 0 0 0 0 0 0 
trait 2 0.2 0 0 0 0 0 0 0 
trait 3 0.3 0 0 0 0 0 0 0 
node 1 2 1 1
node 2 3 1 1
node 3 3 1 1
node 4 3 1 1
node 5 1 1 1
node 6 1 1 1
node 7 3 1 3
node 8 2 0 2
node 11 1 0 0
node 23 1 0 0
gene 2 1 8 -1.95843 0 1 -1.95843 1
gene 1 2 8 -0.0388601 0 2 -0.0388601 1
gene 3 3 8 4.24669 0 3 4.24669 1
gene 2 4 8 2.79237 0 4 2.79237 0
gene 1 5 8 2.8661 0 5 2.8661 1
gene 2 6 8 1.72941 0 6 1.72941 1
gene 1 7 8 -0.639328 0 7 -0.639328 1
gene 3 3 11 2.58131 0 12 2.58131 1
gene 3 11 8 -3.63322 0 13 -3.63322 1
gene 2 4 23 3.60087 0 41 3.60087 1
gene 2 23 8 -1.43502 0 42 -1.43502 1
gene 2 6 11 -2.04886 0 45 -2.04886 1
genomeend 34

/* Organism #35 Fitness: 5 Error: 0 */
genomestart 35
trait 1 0.1 0 0 0 0 0 0 0 
trait 2 0.2 0 0 0 0 0 0 0 
trait 3 0.3 0 0 0 0 0 0 0 
node 1 2 1 1
node 2 3 1 1
node 3 3 1 1
node 4 3 1 1
node 5 1 1 1
node 6 1 1 1
node 7 3 1 3
node 8 2 0 2
node 11 1 0 0
node 23 1 0 0
gene 2 1 8 0.774749 0 1 0.774749 1
gene 1 2 8 1.85897 0 2 1.85897 1
gene 3 3 8 4.00993 0 3 4.00993 0
gene 2 4 8 -0.20031 0 4 -0.20031 1
gene 1 5 8 4.83365 0 5 4.83365 1
gene 2 6 8 -0.848714 0 6 -0.848714 1
gene 1 7 8 2.58679 0 7 2.58679 1
gene 3 3 11 -1.57733 0 12 -1.57733 1
gene 3 11 8 -1.46852 0 13 -1.46852 1
gene 2 4 23 1.27706 0 41 1.27706 1
gene 2 23 8 0.397648 0 42 0.397648 1
gene 2 6 11 -0.405709 0 45 -0.405709 1
genomeend 35

/* Organism #36 Fitness: 67 Error: 0 */
genomestart 36
trait 1 0.1 0 0 0 0 0 0 0 
trait 2 0.2 0 0 0 0 0 0 0 
trait 3 0.3 0 0 0 0 0 0 0 
node 1 2 1 1
node 2 3 1 1
node 3 3 1 1
node 4 3 1 1
node 5 1 1 1
node 6 1 1 1
node 7 3 1 3
node 8 2 0 2
node 11 1 0 0
node 23 1 0 0
gene 2 1 8 1.13947 0 1 1.13947 1
gene 1 2 8 -0.135552 0 2 -0.135552 1
gene 3 3 8 0.251328 0 3 0.251328 1
gene 2 4 8 0.11425 0 4 0.11425 0
gene 1 5 8 6.24716 0 5 6.24716 1
gene 3 6 8 0.367676 0 6 0.367676 1
gene 1 7 8 -1.41993 0 7 -1.41993 1
gene 3 3 11 0.948088 0 12 0.948088 1
gene 3 11 8 0.0558077 0 13 0.0558077 1
gene 2 4 23 4.28896 0 41 4.28896 1
gene 2 23 8 -0.745193 0 42 -0.745193 1
gene 2 6 11 -1.59744 0 45 -1.59744 1
genomeend 36

/* Organism #37 Fitness: 45 Error: 0 */
genomestart 37
trait 1 0.1 0 0 0 0 0 0 0 
trait 2 0.2 0 0 0 0 0 0 0 
trait 3 0.3 0 0 0 0 0 0 0 
node 1 2 1 1
node 2 3 1 1
node 3 3 1 1
node 4 3 1 1
node 5 1 1 1
node 6 1 1 1
node 7 3 1 3
node 8 2 0 2
node 11 1 0 0
node 23 1 0 0
gene 2 1 8 -0.644261 0 1 -0.644261 1
gene 1 2 8 1.82176 0 2 1.82176 1
gene 3 3 8 3.43541 0 3 3.43541 0
gene 2 4 8 2.28224 0 4 2.28224 0
gene 1 5 8 6.75812 0 5 6.75812 1
gene 2 6 8 2.61339 0 6 2.61339 1
gene 1 7 8 -0.969737 0 7 -0.969737 1
gene 3 3 11 -1.45299 0 12 -1.45299 1
gene 3 11 8 -1.85975 0 13 -1.85975 1
gene 2 4 23 1.75423 0 41 1.75423 1
gene 2 23 8 1.27777 0 42 1.27777 1
gene 2 6 11 -2.04846 0 45 -2.04846 1
genomeend 37

/* Organism #38 Fitness: 6 Error: 0 */
genomestart 38
trait 1 0.1 0 0 0 0 0 0 0 
trait 2 0.2 0 0 0 0 0 0 0 
trait 3 0.3 0 0 0 0 0 0 0 
node 1 2 1 1
node 2 3 1 1
node 3 3 1 1
node 4 3 1 1
node 5 1 1 1
node 6 1 1 1
node 7 3 1 3
node 8 2 0 2
node 11 1 0 0
node 23 1 0 0
gene 2 1 8 -1.32495 0 1 -1.32495 1
gene 1 2 8 0.796759 0 2 0.796759 1
gene 3 3 8 1.88856 0 3 1.88856 0
gene 2 4 8 4.05578 0 4 4.05578 1
gene 1 5 8 2.97858 0 5 2.97858 1
gene 2 6 8 -0.914978 0 6 -0.914978 1
gene 1 7 8 0.534547 0 7 0.534547 1
gene 3 3 11 0.458454 0 12 0.458454 1
gene 3 11 8 -0.71252 0 13 -0.71252 1
gene 2 4 23 2.56705 0 41 2.56705 1
gene 2 23 8 -0.607324 0 42 -0.607324 1
gene 2 6 11 1.06415 0 45 1.06415 1
genomeend 38

/* Organism #39 Fitness: 5 Error: 0 */
genomestart 39
trait 1 0.1 0 0 0 0 0 0 0 
trait 2 0.2 0 0 0 0 0 0 0 
trait 3 0.3 0 0 0 0 0 0 0 
node 1 2 1 1
node 2 3 1 1
node 3 3 1 1
node 4 3 1 1
node 5 1 1 1
node 6 1 1 1
node 7 3 1 3
node 8 2 0 2
node 11 1 0 0
node 23 1 0 0
gene 2 1 8 -1.19766 0 1 -1.19766 1
gene 1 2 8 1.72065 0 2 1.72065 1
gene 3 3 8 1.14289 0 3 1.14289 0
gene 2 4 8 4.1802 0 4 4.1802 0
gene 1 5 8 4.37679 0 5 4.37679 1
gene 2 6 8 -1.96771 0 6 -1.96771 1
gene 1 7 8 -2.01673 0 7 -2.01673 1
gene 3 3 11 3.04215 0 12 3.04215 1
gene 3 11 8 -0.80653 0 13 -0.80653 1
gene 2 4 23 3.84333 0 41 3.84333 1
gene 2 23 8 -0.745193 0 42 -0.745193 1
gene 2 6 11 0.0361882 0 45 0.0361882 1
genomeend 39

/* Organism #40 Fitness: 65 Error: 0 */
genomestart 40
trait 1 0.1 0 0 0 0 0 0 0 
trait 2 0.2 0 0 0 0 0 0 0 
trait 3 0.3 0 0 0 0 0 0 0 
node 1 2 1 1
node 2 3 1 1
node 3 3 1 1
node 4 3 1 1
node 5 1 1 1
node 6 1 1 1
node 7 3 1 3
node 8 2 0 2
node 11 1 0 0
node 23 1 0 0
node 60 1 0 0
gene 2 1 8 -1.31317 0 1 -1.31317 1
gene 1 2 8 0.14155 0 2 0.14155 1
gene 3 3 8 1.69233 0 3 1.69233 0
gene 2 4 8 2.01686 0 4 2.01686 0
gene 1 5 8 4.35569 0 5 4.35569 1
gene 2 6 8 0.258825 0 6 0.258825 1
gene 1 7 8 -0.0490528 0 7 -0.0490528 1
gene 3 3 11 0.222824 0 12 0.222824 1
gene 3 11 8 -0.36559 0 13 -0.36559 1
gene 2 4 23 1.78327 0 41 1.78327 1
gene 2 23 8 -0.745193 0 42 -0.745193 1
gene 2 6 11 -0.405709 0 45 -0.405709 0
gene 2 6 60 1 0 155 0 1
gene 2 60 11 -0.405709 0 156 0 1
genomeend 40

/* Organism #41 Fitness: 5 Error: 0 */
genomestart 41
trait 1 0.1 0 0 0 0 0 0 0 
trait 2 0.2 0 0 0 0 0 0 0 
trait 3 0.3 0 0 0 0 0 0 0 
node 1 2 1 1
node 2 3 1 1
node 3 3 1 1
node 4 3 1 1
node 5 1 1 1
node 6 1 1 1
node 7 3 1 3
node 8 2 0 2
node 11 1 0 0
node 23 1 0 0
gene 2 1 8 0.54624 0 1 0.54624 1
gene 1 2 8 -1.82897 0 2 -1.82897 1
gene 3 3 8 3.86976 0 3 3.86976 0
gene 2 4 8 3.77046 0 4 3.77046 0
gene 1 5 8 5.04872 0 5 5.04872 1
gene 2 6 8 -0.545141 0 6 -0.545141 1
gene 1 7 8 -1.69428 0 7 -1.69428 1
gene 3 3 11 -1.82016 0 12 -1.82016 1
gene 3 11 8 2.11184 0 13 2.11184 1
gene 2 4 23 0.780469 0 41 0.780469 1
gene 2 23 8 -0.745193 0 42 -0.745193 1
gene 2 6 11 -0.405709 0 45 -0.405709 1
genomeend 41

/* Organism #42 Fitness: 6 Error: 0 */
genomestart 42
trait 1 0.1 0 0 0 0 0 0 0 
trait 2 0.2 0 0 0 0 0 0 0 
trait 3 0.3 0 0 0 0 0 0 0 
node 1 1 1 1
node 2 3 1 1
node 3 3 1 1
node 4 3 1 1
node 5 1 1 1
node 6 1 1 1
node 7 3 1 3
node 8 2 0 2
node 11 1 0 0
node 23 1 0 0
gene 2 1 8 0.773359 0 1 0.773359 1
gene 1 2 8 -0.99612 0 2 -0.99612 1
gene 3 3 8 0.883449 0 3 0.883449 0
gene 2 4 8 1.48185 0 4 1.48185 0
gene 1 5 8 -1.73977 0 5 -1.73977 1
gene 2 6 8 -1.59871 0 6 -1.59871 1
gene 1 7 8 -0.0490528 0 7 -0.0490528 1
gene 3 3 11 -1.64504 0 12 -1.64504 1
gene 3 11 8 0.816207 0 13 0.816207 1
gene 2 4 23 1.3169 0 41 1.3169 1
gene 2 23 8 -0.745193 0 42 -0.745193 1
gene 2 6 11 1.96648 0 45 1.96648 1
genomeend 42

/* Species #5 : (Size 5) (AF 30.8) (Age 10)  */


/* Organism #43 Fitness: 44 Error: 0 */
genomestart 43
trait 1 0.1 0 0 0 0 0 0 0 
trait 2 0.2 0 0 0 0 0 0 0 
trait 3 0.3 0 0 0 0 0 0 0 
node 1 2 1 1
node 2 3 1 1
node 3 3 1 1
node 4 3 1 1
node 5 1 1 1
node 6 1 1 1
node 7 3 1 3
node 8 2 0 2
node 11 1 0 0
node 24 1 0 0
gene 2 1 8 1.00316 0 1 1.00316 1
gene 3 2 8 2.86196 0 2 2.86196 1
gene 3 3 8 -1.73698 0 3 -1.73698 0
gene 2 4 8 1.50626 0 4 1.50626 1
gene 1 5 8 2.8737 0 5 2.8737 1
gene 1 6 8 1.68566 0 6 1.68566 1
gene 1 7 8 1.06813 0 7 1.06813 1
gene 3 3 11 3.91722 0 12 3.91722 1
gene 3 11 8 -1.09439 0 13 -1.09439 1
gene 3 11 24 1 0 43 0 1
gene 3 24 8 -1.09439 0 44 -1.09439 1
gene 2 7 24 -0.0449457 0 125 -0.0449457 1
gene 3 5 11 -0.373075 0 145 -0.373075 1
genomeend 43

/* Organism #44 Fitness: 5 Error: 0 */
genomestart 44
trait 1 0.1 0 0 0 0 0 0 0 
trait 2 0.2 0 0 0 0 0 0 0 
trait 3 0.3 0 0 0 0 0 0 0 
node 1 2 1 1
node 2 3 1 1
node 3 3 1 1
node 4 3 1 1
node 5 1 1 1
node 6 1 1 1
node 7 3 1 3
node 8 2 0 2
node 11 1 0 0
node 24 1 0 0
gene 2 1 8 4.72517 0 1 4.72517 1
gene 3 2 8 5.39502 0 2 5.39502 1
gene 3 3 8 -2.98019 0 3 -2.98019 0
gene 2 4 8 1.15772 0 4 1.15772 1
gene 1 5 8 2.98149 0 5 2.98149 1
gene 1 6 8 -0.608686 0 6 -0.608686 1
gene 1 7 8 -1.04092 0 7 -1.04092 1
gene 3 3 11 3.76798 0 12 3.76798 1
gene 3 11 8 -3.33439 0 13 -3.33439 1
gene 3 11 24 -0.588814 0 43 -0.588814 1
gene 3 24 8 -1.66796 0 44 -1.66796 1
gene 2 7 24 1.63465 0 125 1.63465 1
gene 3 5 11 -0.373075 0 145 -0.373075 1
genomeend 44

/* Organism #45 Fitness: 73 Error: 0 */
genomestart 45
trait 1 0.1 0 0 0 0 0 0 0 
trait 2 0.2 0 0 0 0 0 0 0 
trait 3 0.3 0 0 0 0 0 0 0 
node 1 2 1 1
node 2 3 1 1
node 3 3 1 1
node 4 3 1 1
node 5 1 1 1
node 6 1 1 1
node 7 3 1 3
node 8 2 0 2
node 11 1 0 0
node 24 1 0 0
gene 2 1 8 2.37842 0 1 2.37842 1
gene 3 2 8 4.02631 0 2 4.02631 1
gene 3 3 8 -2.95499 0 3 -2.95499 0
gene 2 4 8 2.28027 0 4 2.28027 1
gene 1 5 8 3.78143 0 5 3.78143 1
gene 1 6 8 4.61401 0 6 4.61401 1
gene 1 7 8 -0.494638 0 7 -0.494638 1
gene 3 3 11 -0.407865 0 12 -0.407865 1
gene 3 11 8 1.3897 0 13 1.3897 0
gene 3 11 24 0.054609 0 43 0.054609 1
gene 3 24 8 -1.58133 0 44 -1.58133 1
gene 2 7 24 -0.473903 0 125 -0.473903 1
genomeend 45

/* Organism #46 Fitness: 5 Error: 0 */
genomestart 46
trait 1 0.1 0 0 0 0 0 0 0 
trait 2 0.2 0 0 0 0 0 0 0 
trait 3 0.3 0 0 0 0 0 0 0 
node 1 2 1 1
node 2 3 1 1
node 3 3 1 1
node 4 3 1 1
node 5 1 1 1
node 6 1 1 1
node 7 3 1 3
node 8 2 0 2
node 11 1 0 0
node 24 1 0 0
gene 2 1 8 1.75586 0 1 1.75586 1
gene 3 2 8 -2.33744 0 2 -2.33744 1
gene 3 3 8 -0.439216 0 3 -0.439216 0
gene 2 4 8 -0.534484 0 4 -0.534484 1
gene 1 5 8 1.13755 0 5 1.13755 1
gene 1 6 8 -1.8616 0 6 -1.8616 1
gene 1 7 8 -1.75236 0 7 -1.75236 1
gene 3 3 11 6.0614 0 12 6.0614 1
gene 3 11 8 -0.624415 0 13 -0.624415 0
gene 3 11 24 1.08487 0 43 1.08487 1
gene 3 24 8 -0.536148 0 44 -0.536148 1
gene 2 7 24 -2.51116 0 125 -2.51116 1
genomeend 46

/* Organism #47 Fitness: 27 Error: 0 */
genomestart 47
trait 1 0.1 0 0 0 0 0 0 0 
trait 2 0.2 0 0 0 0 0 0 0 
trait 3 0.3 0 0 0 0 0 0 0 
node 1 2 1 1
node 2 3 1 1
node 3 3 1 1
node 4 3 1 1
node 5 1 1 1
node 6 1 1 1
node 7 3 1 3
node 8 2 0 2
node 11 1 0 0
node 24 1 0 0
gene 2 1 8 2.21621 0 1 2.21621 1
gene 3 2 8 4.76442 0 2 4.76442 1
gene 3 3 8 -0.942812 0 3 -0.942812 0
gene 2 4 8 3.87337 0 4 3.87337 1
gene 1 5 8 3.59977 0 5 3.59977 1
gene 1 6 8 2.80116 0 6 2.80116 1
gene 1 7 8 1.06813 0 7 1.06813 1
gene 3 3 11 2.12668 0 12 2.12668 1
gene 3 11 8 2.8089 0 13 2.8089 1
gene 3 11 24 1.5065 0 43 1.5065 1
gene 3 24 8 -1.89044 0 44 -1.89044 1
gene 2 7 24 -1.20094 0 125 -1.20094 1
genomeend 47

/* Species #6 : (Size 12) (AF 36.9167) (Age 10)  */


/* Organism #48 Fitness: 83 Error: 0 */
genomestart 48
trait 1 0.1 0 0 0 0 0 0 0 
trait 2 0.2 0 0 0 0 0 0 0 
trait 3 0.3 0 0 0 0 0 0 0 
node 1 2 1 1
node 2 3 1 1
node 3 3 1 1
node 4 3 1 1
node 5 1 1 1
node 6 1 1 1
node 7 3 1 3
node 8 3 0 2
node 11 1 0 0
node 15 1 0 0
node 22 1 0 0
node 26 1 0 0
gene 2 1 8 5.59252 0 1 5.59252 1
gene 3 2 8 3.35986 0 2 3.35986 0
gene 2 3 8 1.55377 0 3 1.55377 0
gene 1 4 8 -1.97874 0 4 -1.97874 1
gene 1 5 8 0.768507 0 5 0.768507 1
gene 1 6 8 1.68979 0 6 1.68979 1
gene 1 7 8 -1.63198 0 7 -1.63198 1
gene 3 3 11 5.12118 0 12 5.12118 1
gene 3 11 8 -1.39677 0 13 -1.39677 0
gene 3 11 15 3.08675 0 20 3.08675 1
gene 3 15 8 0.831664 0 21 0.831664 1
gene 3 2 22 -3.22519 0 38 -3.22519 0
gene 3 22 8 -0.333828 0 39 -0.333828 1
gene 3 2 26 1 0 48 1 1
gene 3 26 22 -1.47017 0 49 -1.47017 1
gene 3 5 22 0.231769 0 146 0.231769 1
genomeend 48

/* Organism #49 Fitness: 29 Error: 0 */
genomestart 49
trait 1 0.1 0 0 0 0 0 0 0 
trait 2 0.2 0 0 0 0 0 0 0 
trait 3 0.3 0 0 0 0 0 0 0 
node 1 2 1 1
node 2 3 1 1
node 3 3 1 1
node 4 3 1 1
node 5 1 1 1
node 6 1 1 1
node 7 3 1 3
node 8 3 0 2
node 11 1 0 0
node 15 1 0 0
node 22 1 0 0
node 26 1 0 0
gene 2 1 8 7.11025 0 1 7.11025 1
gene 3 2 8 1.89255 0 2 1.89255 0
gene 2 3 8 0.153539 0 3 0.153539 0
gene 1 4 8 -0.900563 0 4 -0.900563 1
gene 1 5 8 1.72846 0 5 1.72846 1
gene 1 6 8 1.68979 0 6 1.68979 1
gene 1 7 8 -2.08594 0 7 -2.08594 1
gene 3 3 11 5.12118 0 12 5.12118 1
gene 3 11 8 -0.249223 0 13 -0.249223 0
gene 3 11 15 1.80841 0 20 1.80841 1
gene 3 15 8 -0.786605 0 21 -0.786605 1
gene 3 2 22 -1.01266 0 38 -1.01266 0
gene 3 22 8 -1.52582 0 39 -1.52582 1
gene 3 2 26 -1.47181 0 48 -1.47181 1
gene 3 26 22 -3.64968 0 49 -3.64968 1
gene 3 5 22 -0.6038 0 146 -0.6038 1
genomeend 49

/* Organism #50 Fitness: 9 Error: 0 */
genomestart 50
trait 1 0.1 0 0 0 0 0 0 0 
trait 2 0.2 0 0 0 0 0 0 0 
trait 3 0.3 0 0 0 0 0 0 0 
node 1 2 1 1
node 2 3 1 1
node 3 3 1 1
node 4 3 1 1
node 5 1 1 1
node 6 1 1 1
node 7 3 1 3
node 8 3 0 2
node 11 1 0 0
node 15 1 0 0
node 22 1 0 0
node 26 1 0 0
gene 2 1 8 -0.809825 0 1 -0.809825 1
gene 3 2 8 -1.76343 0 2 -1.76343 0
gene 2 3 8 3.53594 0 3 3.53594 0
gene 1 4 8 -0.298825 0 4 -0.298825 1
gene 1 5 8 -0.283388 0 5 -0.283388 1
gene 1 6 8 0.629373 0 6 0.629373 1
gene 1 7 8 -2.0395 0 7 -2.0395 1
gene 3 3 11 6.95042 0 12 6.95042 1
gene 3 11 8 0.0696714 0 13 0.0696714 0
gene 3 11 15 1.34174 0 20 1.34174 1
gene 3 15 8 0.410131 0 21 0.410131 1
gene 3 2 22 -1.87904 0 38 -1.87904 0
gene 3 22 8 -2.71086 0 39 -2.71086 1
gene 3 2 26 -0.788351 0 48 -0.788351 1
gene 3 26 22 -0.848761 0 49 -0.848761 1
genomeend 50

/* Organism #51 Fitness: 7 Error: 0 */
genomestart 51
trait 1 0.1 0 0 0 0 0 0 0 
trait 2 0.2 0 0 0 0 0 0 0 
trait 3 0.3 0 0 0 0 0 0 0 
node 1 2 1 1
node 2 3 1 1
node 3 3 1 1
node 4 3 1 1
node 5 1 1 1
node 6 1 1 1
node 7 3 1 3
node 8 3 0 2
node 11 1 0 0
node 15 1 0 0
node 22 1 0 0
node 26 1 0 0
gene 2 1 8 4.11227 0 1 4.11227 1
gene 3 2 8 2.05624 0 2 2.05624 0
gene 2 3 8 4.19972 0 3 4.19972 0
gene 1 4 8 -2.14526 0 4 -2.14526 1
gene 1 5 8 2.92532 0 5 2.92532 1
gene 1 6 8 -0.330441 0 6 -0.330441 1
gene 1 7 8 -0.645466 0 7 -0.645466 1
gene 3 3 11 2.76653 0 12 2.76653 1
gene 3 11 8 -1.11036 0 13 -1.11036 0
gene 3 11 15 0.898267 0 20 0.898267 1
gene 3 15 8 2.5146 0 21 2.5146 1
gene 3 2 22 -2.46555 0 38 -2.46555 1
gene 3 22 8 1.73623 0 39 1.73623 1
gene 3 2 26 3.10473 0 48 3.10473 1
gene 3 26 22 -0.897153 0 49 -0.897153 1
genomeend 51

/* Organism #52 Fitness: 34 Error: 0 */
genomestart 52
trait 1 0.1 0 0 0 0 0 0 0 
trait 2 0.2 0 0 0 0 0 0 0 
trait 3 0.3 0 0 0 0 0 0 0 
node 1 2 1 1
node 2 3 1 1
node 3 3 1 1
node 4 3 1 1
node 5 1 1 1
node 6 1 1 1
node 7 3 1 3
node 8 3 0 2
node 11 1 0 0
node 15 1 0 0
node 22 1 0 0
node 26 1 0 0
gene 2 1 8 3.11252 0 1 3.11252 1
gene 3 2 8 3.83047 0 2 3.83047 1
gene 2 3 8 1.89236 0 3 1.89236 0
gene 1 4 8 -1.8181 0 4 -1.8181 1
gene 1 5 8 -0.732768 0 5 -0.732768 1
gene 1 6 8 1.60003 0 6 1.60003 1
gene 1 7 8 -0.83501 0 7 -0.83501 1
gene 3 3 11 5.23582 0 12 5.23582 1
gene 3 11 8 -0.969083 0 13 -0.969083 0
gene 3 11 15 5.25794 0 20 5.25794 1
gene 3 15 8 0.831664 0 21 0.831664 1
gene 3 2 22 -1.39869 0 38 -1.39869 0
gene 3 22 8 -0.732572 0 39 -0.732572 1
gene 3 2 26 2.49111 0 48 2.49111 1
gene 3 26 22 -1.47017 0 49 -1.47017 1
gene 3 5 22 -1.66304 0 146 -1.66304 1
genomeend 52

/* Organism #53 Fitness: 5 Error: 0 */
genomestart 53
trait 1 0.1 0 0 0 0 0 0 0 
trait 2 0.2 0 0 0 0 0 0 0 
trait 3 0.3 0 0 0 0 0 0 0 
node 1 2 1 1
node 2 3 1 1
node 3 3 1 1
node 4 3 1 1
node 5 1 1 1
node 6 1 1 1
node 7 3 1 3
node 8 3 0 2
node 11 1 0 0
node 15 1 0 0
node 22 1 0 0
node 26 1 0 0
gene 2 1 8 6.95747 0 1 6.95747 1
gene 3 2 8 -0.140031 0 2 -0.140031 0
gene 2 3 8 2.26286 0 3 2.26286 1
gene 1 4 8 -3.77396 0 4 -3.77396 1
gene 1 5 8 0.768507 0 5 0.768507 1
gene 1 6 8 -1.54967 0 6 -1.54967 1
gene 1 7 8 -1.3526 0 7 -1.3526 1
gene 3 3 11 2.95415 0 12 2.95415 1
gene 3 11 8 -1.31662 0 13 -1.31662 0
gene 3 11 15 -2.02492 0 20 -2.02492 1
gene 3 15 8 -0.683441 0 21 -0.683441 1
gene 3 2 22 -0.808584 0 38 -0.808584 0
gene 3 22 8 2.1524 0 39 2.1524 1
gene 3 2 26 0.0913063 0 48 0.0913063 1
gene 3 26 22 -2.60487 0 49 -2.60487 1
gene 3 5 22 -2.35157 0 146 -2.35157 1
genomeend 53

/* Organism #54 Fitness: 32 Error: 0 */
genomestart 54
trait 1 0.1 0 0 0 0 0 0 0 
trait 2 0.2 0 0 0 0 0 0 0 
trait 3 0.3 0 0 0 0 0 0 0 
node 1 2 1 1
node 2 3 1 1
node 3 3 1 1
node 4 3 1 1
node 5 1 1 1
node 6 1 1 1
node 7 3 1 3
node 8 3 0 2
node 11 1 0 0
node 15 1 0 0
node 22 1 0 0
node 26 1 0 0
gene 2 1 8 4.4979 0 1 4.4979 1
gene 3 2 8 -1.9715 0 2 -1.9715 0
gene 2 3 8 2.44777 0 3 2.44777 0
gene 1 4 8 -1.84623 0 4 -1.84623 1
gene 1 5 8 2.52825 0 5 2.52825 1
gene 1 6 8 2.57521 0 6 2.57521 1
gene 1 7 8 -1.63594 0 7 -1.63594 1
gene 3 3 11 3.37576 0 12 3.37576 1
gene 3 11 8 0.0130922 0 13 0.0130922 0
gene 3 11 15 0.727701 0 20 0.727701 1
gene 3 15 8 1.68244 0 21 1.68244 1
gene 3 2 22 -2.62396 0 38 -2.62396 0
gene 3 22 8 -0.0707481 0 39 -0.0707481 1
gene 3 2 26 1.69162 0 48 1.69162 1
gene 3 26 22 -1.47017 0 49 -1.47017 1
genomeend 54

/* Organism #55 Fitness: 25 Error: 0 */
genomestart 55
trait 1 0.1 0 0 0 0 0 0 0 
trait 2 0.2 0 0 0 0 0 0 0 
trait 3 0.3 0 0 0 0 0 0 0 
node 1 2 1 1
node 2 3 1 1
node 3 3 1 1
node 4 3 1 1
node 5 1 1 1
node 6 1 1 1
node 7 3 1 3
node 8 3 0 2
node 11 1 0 0
node 15 1 0 0
node 22 1 0 0
node 26 1 0 0
gene 2 1 8 7.7103 0 1 7.7103 1
gene 3 2 8 2.57351 0 2 2.57351 0
gene 2 3 8 1.75202 0 3 1.75202 0
gene 1 4 8 -1.37261 0 4 -1.37261 1
gene 1 5 8 -0.700475 0 5 -0.700475 1
gene 1 6 8 1.68979 0 6 1.68979 1
gene 1 7 8 -3.14063 0 7 -3.14063 1
gene 3 3 11 5.03066 0 12 5.03066 1
gene 3 11 8 -2.8933 0 13 -2.8933 0
gene 3 11 15 3.08675 0 20 3.08675 1
gene 3 15 8 2.7344 0 21 2.7344 1
gene 3 2 22 -1.15941 0 38 -1.15941 0
gene 3 22 8 -1.93129 0 39 -1.93129 1
gene 3 2 26 1 0 48 1 1
gene 3 26 22 -0.29006 0 49 -0.29006 1
gene 3 5 22 1.79035 0 146 1.79035 1
genomeend 55

/* Organism #56 Fitness: 47 Error: 0 */
genomestart 56
trait 1 0.1 0 0 0 0 0 0 0 
trait 2 0.2 0 0 0 0 0 0 0 
trait 3 0.3 0 0 0 0 0 0 0 
node 1 2 1 1
node 2 3 1 1
node 3 3 1 1
node 4 3 1 1
node 5 1 1 1
node 6 1 1 1
node 7 3 1 3
node 8 3 0 2
node 11 1 0 0
node 15 1 0 0
node 22 1 0 0
node 26 1 0 0
gene 2 1 8 5.59252 0 1 5.59252 1
gene 3 2 8 0.51293 0 2 0.51293 0
gene 2 3 8 1.55377 0 3 1.55377 0
gene 1 4 8 -1.97874 0 4 -1.97874 1
gene 1 5 8 0.768507 0 5 0.768507 1
gene 1 6 8 1.68979 0 6 1.68979 1
gene 1 7 8 -1.63198 0 7 -1.63198 1
gene 3 3 11 5.12118 0 12 5.12118 1
gene 3 11 8 -1.39677 0 13 -1.39677 0
gene 3 11 15 3.08675 0 20 3.08675 1
gene 3 15 8 0.831664 0 21 0.831664 1
gene 3 2 22 -3.22519 0 38 -3.22519 0
gene 3 22 8 -0.333828 0 39 -0.333828 1
gene 3 2 26 1 0 48 1 1
gene 3 26 22 -1.47017 0 49 -1.47017 1
gene 3 5 22 0.231769 0 146 0.231769 1
gene 2 26 8 -0.40341 0 157 -0.40341 1
genomeend 56

/* Organism #57 Fitness: 82 Error: 0 */
genomestart 57
trait 1 0.1 0 0 0 0 0 0 0 
trait 2 0.2 0 0 0 0 0 0 0 
trait 3 0.3 0 0 0 0 0 0 0 
node 1 2 1 1
node 2 3 1 1
node 3 3 1 1
node 4 3 1 1
node 5 1 1 1
node 6 1 1 1
node 7 3 1 3
node 8 3 0 2
node 11 1 0 0
node 15 1 0 0
node 22 1 0 0
node 26 1 0 0
gene 2 1 8 5.59252 0 1 5.59252 1
gene 3 2 8 0.51293 0 2 0.51293 0
gene 2 3 8 2.1031 0 3 2.1031 0
gene 1 4 8 -1.97874 0 4 -1.97874 1
gene 1 5 8 0.768507 0 5 0.768507 1
gene 1 6 8 1.68979 0 6 1.68979 1
gene 1 7 8 -1.63198 0 7 -1.63198 1
gene 3 3 11 5.12118 0 12 5.12118 1
gene 3 11 8 -1.23646 0 13 -1.23646 0
gene 3 11 15 3.08675 0 20 3.08675 1
gene 3 15 8 0.831664 0 21 0.831664 1
gene 3 2 22 -3.22519 0 38 -3.22519 0
gene 3 22 8 -0.333828 0 39 -0.333828 1
gene 3 2 26 1 0 48 1 1
gene 3 26 22 -1.47017 0 49 -1.47017 1
genomeend 57

/* Organism #58 Fitness: 83 Error: 0 */
genomestart 58
trait 1 0.1 0 0 0 0 0 0 0 
trait 2 0.2 0 0 0 0 0 0 0 
trait 3 0.3 0 0 0 0 0 0 0 
node 1 2 1 1
node 2 3 1 1
node 3 3 1 1
node 4 3 1 1
node 5 1 1 1
node 6 1 1 1
node 7 3 1 3
node 8 3 0 2
node 11 1 0 0
node 15 1 0 0
node 22 1 0 0
node 26 1 0 0
gene 2 1 8 5.59252 0 1 5.59252 1
gene 3 2 8 0.51293 0 2 0.51293 0
gene 2 3 8 1.55377 0 3 1.55377 0
gene 1 4 8 -1.97874 0 4 -1.97874 1
gene 1 5 8 0.768507 0 5 0.768507 1
gene 1 6 8 1.68979 0 6 1.68979 1
gene 1 7 8 -1.63198 0 7 -1.63198 1
gene 3 3 11 5.12118 0 12 5.12118 1
gene 3 11 8 -1.39677 0 13 -1.39677 0
gene 3 11 15 3.08675 0 20 3.08675 1
gene 3 15 8 0.831664 0 21 0.831664 1
gene 3 2 22 -3.22519 0 38 -3.22519 0
gene 3 22 8 -0.333828 0 39 -0.333828 1
gene 3 2 26 1 0 48 1 1
gene 3 26 22 -1.47017 0 49 -1.47017 1
gene 3 5 22 0.231769 0 146 0.231769 1
genomeend 58

/* Organism #59 Fitness: 7 Error: 0 */
genomestart 59
trait 1 0.1 0 0 0 0 0 0 0 
trait 2 0.2 0 0 0 0 0 0 0 
trait 3 0.3 0 0 0 0 0 0 0 
node 1 2 1 1
node 2 3 1 1
node 3 3 1 1
node 4 3 1 1
node 5 1 1 1
node 6 1 1 1
node 7 3 1 3
node 8 3 0 2
node 11 1 0 0
node 15 1 0 0
node 22 1 0 0
node 26 1 0 0
gene 2 1 8 4.23848 0 1 4.23848 1
gene 3 2 8 2.71428 0 2 2.71428 0
gene 2 3 8 2.97819 0 3 2.97819 0
gene 1 4 8 -2.92841 0 4 -2.92841 1
gene 1 5 8 -0.570595 0 5 -0.570595 1
gene 1 6 8 1.4917 0 6 1.4917 1
gene 1 7 8 -3.6304 0 7 -3.6304 1
gene 3 3 11 5.68272 0 12 5.68272 1
gene 3 11 8 0.518147 0 13 0.518147 0
gene 3 11 15 1.71651 0 20 1.71651 1
gene 3 15 8 -1.57827 0 21 -1.57827 1
gene 3 2 22 -5.10158 0 38 -5.10158 0
gene 3 22 8 1.21486 0 39 1.21486 1
gene 1 2 26 1.03325 0 48 1.03325 1
gene 3 26 22 -1.47017 0 49 -1.47017 1
gene 3 5 22 1.47168 0 146 1.47168 1
genomeend 59

/* Species #7 : (Size 20) (AF 60.4) (Age 10)  */


/* Organism #60 Fitness: 186 Error: 0 */
genomestart 60
trait 1 0.1 0 0 0 0 0 0 0 
trait 2 0.2 0 0 0 0 0 0 0 
trait 3 0.3 0 0 0 0 0 0 0 
node 1 2 1 1
node 2 3 1 1
node 3 3 1 1
node 4 3 1 1
node 5 1 1 1
node 6 1 1 1
node 7 3 1 3
node 8 2 0 2
node 11 1 0 0
gene 2 1 8 -0.444378 0 1 -0.444378 1
gene 1 2 8 1.08188 0 2 1.08188 1
gene 3 3 8 0.771932 0 3 0.771932 0
gene 2 4 8 -0.553337 0 4 -0.553337 1
gene 1 5 8 2.10759 0 5 2.10759 1
gene 2 6 8 1.37339 0 6 1.37339 1
gene 1 7 8 -1.81433 0 7 -1.81433 1
gene 3 3 11 -0.186422 0 12 -0.186422 1
gene 3 11 8 1.81347 0 13 1.81347 1
gene 2 6 11 -0.405709 0 45 -0.405709 1
gene 1 4 11 -0.93692 0 56 -0.93692 1
genomeend 60

/* Organism #61 Fitness: 36 Error: 0 */
genomestart 61
trait 1 0.1 0 0 0 0 0 0 0 
trait 2 0.2 0 0 0 0 0 0 0 
trait 3 0.3 0 0 0 0 0 0 0 
node 1 2 1 1
node 2 3 1 1
node 3 3 1 1
node 4 3 1 1
node 5 1 1 1
node 6 1 1 1
node 7 3 1 3
node 8 2 0 2
node 11 1 0 0
gene 2 1 8 -1.43487 0 1 -1.43487 1
gene 1 2 8 1.86925 0 2 1.86925 1
gene 3 3 8 -0.755217 0 3 -0.755217 0
gene 2 4 8 0.551027 0 4 0.551027 1
gene 1 5 8 1.64919 0 5 1.64919 1
gene 2 6 8 3.79196 0 6 3.79196 1
gene 1 7 8 -1.50677 0 7 -1.50677 1
gene 3 3 11 -0.186422 0 12 -0.186422 1
gene 3 11 8 2.72376 0 13 2.72376 1
gene 2 6 11 -2.14575 0 45 -2.14575 1
gene 1 4 11 -0.296166 0 56 -0.296166 1
genomeend 61

/* Organism #62 Fitness: 32 Error: 0 */
genomestart 62
trait 1 0.1 0 0 0 0 0 0 0 
trait 2 0.2 0 0 0 0 0 0 0 
trait 3 0.3 0 0 0 0 0 0 0 
node 1 2 1 1
node 2 3 1 1
node 3 3 1 1
node 4 3 1 1
node 5 1 1 1
node 6 1 1 1
node 7 3 1 3
node 8 2 0 2
node 11 1 0 0
gene 2 1 8 0.227568 0 1 0.227568 1
gene 1 2 8 2.81518 0 2 2.81518 1
gene 3 3 8 2.07789 0 3 2.07789 0
gene 2 4 8 -0.948669 0 4 -0.948669 1
gene 1 5 8 -0.153228 0 5 -0.153228 1
gene 2 6 8 3.7914 0 6 3.7914 1
gene 1 7 8 -3.51999 0 7 -3.51999 1
gene 3 3 11 0.572576 0 12 0.572576 1
gene 3 11 8 0.363011 0 13 0.363011 1
gene 2 6 11 1.06048 0 45 1.06048 1
gene 1 4 11 -0.93692 0 56 -0.93692 1
genomeend 62

/* Organism #63 Fitness: 41 Error: 0 */
genomestart 63
trait 1 0.1 0 0 0 0 0 0 0 
trait 2 0.2 0 0 0 0 0 0 0 
trait 3 0.3 0 0 0 0 0 0 0 
node 1 2 1 1
node 2 3 1 1
node 3 3 1 1
node 4 3 1 1
node 5 1 1 1
node 6 1 1 1
node 7 3 1 3
node 8 2 0 2
node 11 1 0 0
gene 2 1 8 1.01031 0 1 1.01031 1
gene 1 2 8 0.134518 0 2 0.134518 1
gene 3 3 8 1.73998 0 3 1.73998 0
gene 2 4 8 -0.787341 0 4 -0.787341 1
gene 1 5 8 1.3673 0 5 1.3673 1
gene 2 6 8 2.79745 0 6 2.79745 1
gene 2 7 8 -0.914962 0 7 -0.914962 1
gene 3 3 11 1.35542 0 12 1.35542 1
gene 3 11 8 1.81347 0 13 1.81347 1
gene 2 6 11 -2.33922 0 45 -2.33922 1
gene 1 4 11 0.724498 0 56 0.724498 1
genomeend 63

/* Organism #64 Fitness: 133 Error: 0 */
genomestart 64
trait 1 0.1 0 0 0 0 0 0 0 
trait 2 0.2 0 0 0 0 0 0 0 
trait 3 0.3 0 0 0 0 0 0 0 
node 1 2 1 1
node 2 3 1 1
node 3 3 1 1
node 4 3 1 1
node 5 1 1 1
node 6 1 1 1
node 7 3 1 3
node 8 2 0 2
node 11 1 0 0
gene 2 1 8 0.332259 0 1 0.332259 1
gene 1 2 8 1.75286 0 2 1.75286 1
gene 3 3 8 -1.34049 0 3 -1.34049 0
gene 2 4 8 -1.18756 0 4 -1.18756 1
gene 1 5 8 2.35664 0 5 2.35664 1
gene 2 6 8 2.57016 0 6 2.57016 1
gene 1 7 8 -0.961143 0 7 -0.961143 1
gene 3 3 11 -0.0325302 0 12 -0.0325302 1
gene 3 11 8 1.2742 0 13 1.2742 1
gene 2 6 11 0.214195 0 45 0.214195 1
gene 1 4 11 -2.943 0 56 -2.943 1
gene 3 1 11 -0.564685 0 147 -0.564685 1
genomeend 64

/* Organism #65 Fitness: 5 Error: 0 */
genomestart 65
trait 1 0.1 0 0 0 0 0 0 0 
trait 2 0.2 0 0 0 0 0 0 0 
trait 3 0.3 0 0 0 0 0 0 0 
node 1 2 1 1
node 2 3 1 1
node 3 3 1 1
node 4 3 1 1
node 5 1 1 1
node 6 1 1 1
node 7 3 1 3
node 8 2 0 2
node 11 1 0 0
gene 2 1 8 0.258845 0 1 0.258845 1
gene 1 2 8 1.08188 0 2 1.08188 1
gene 3 3 8 1.59775 0 3 1.59775 0
gene 2 4 8 -1.15197 0 4 -1.15197 1
gene 1 5 8 0.255013 0 5 0.255013 1
gene 2 6 8 -0.990732 0 6 -0.990732 1
gene 1 7 8 -2.0987 0 7 -2.0987 1
gene 3 3 11 0.377402 0 12 0.377402 1
gene 3 11 8 4.10931 0 13 4.10931 1
gene 2 6 11 1.73873 0 45 1.73873 1
gene 1 4 11 -0.93692 0 56 -0.93692 1
genomeend 65

/* Organism #66 Fitness: 5 Error: 0 */
genomestart 66
trait 1 0.1 0 0 0 0 0 0 0 
trait 2 0.2 0 0 0 0 0 0 0 
trait 3 0.3 0 0 0 0 0 0 0 
node 1 2 1 1
node 2 3 1 1
node 3 3 1 1
node 4 3 1 1
node 5 1 1 1
node 6 1 1 1
node 7 3 1 3
node 8 2 0 2
node 11 1 0 0
gene 2 1 8 1.56631 0 1 1.56631 1
gene 1 2 8 2.28652 0 2 2.28652 1
gene 3 3 8 1.25068 0 3 1.25068 0
gene 2 4 8 0.0288764 0 4 0.0288764 1
gene 1 5 8 1.45396 0 5 1.45396 1
gene 2 6 8 -0.662507 0 6 -0.662507 1
gene 1 7 8 -4.18472 0 7 -4.18472 1
gene 3 3 11 0.655498 0 12 0.655498 1
gene 3 11 8 2.71758 0 13 2.71758 1
gene 2 6 11 -2.23143 0 45 -2.23143 1
gene 1 4 11 -1.56315 0 56 -1.56315 1
genomeend 66

/* Organism #67 Fitness: 33 Error: 0 */
genomestart 67
trait 1 0.1 0 0 0 0 0 0 0 
trait 2 0.2 0 0 0 0 0 0 0 
trait 3 0.3 0 0 0 0 0 0 0 
node 1 2 1 1
node 2 3 1 1
node 3 3 1 1
node 4 3 1 1
node 5 1 1 1
node 6 1 1 1
node 7 3 1 3
node 8 2 0 2
node 11 1 0 0
gene 2 1 8 -2.66544 0 1 -2.66544 1
gene 1 2 8 2.79495 0 2 2.79495 1
gene 3 3 8 2.0909 0 3 2.0909 0
gene 2 4 8 -1.64352 0 4 -1.64352 1
gene 1 5 8 1.33784 0 5 1.33784 1
gene 2 6 8 0.856948 0 6 0.856948 1
gene 1 7 8 -2.68507 0 7 -2.68507 1
gene 3 3 11 -1.03023 0 12 -1.03023 1
gene 3 11 8 -0.388188 0 13 -0.388188 1
gene 2 6 11 1.80377 0 45 1.80377 1
gene 1 4 11 0.282328 0 56 0.282328 1
genomeend 67

/* Organism #68 Fitness: 64 Error: 0 */
genomestart 68
trait 1 0.1 0 0 0 0 0 0 0 
trait 2 0.2 0 0 0 0 0 0 0 
trait 3 0.3 0 0 0 0 0 0 0 
node 1 2 1 1
node 2 3 1 1
node 3 3 1 1
node 4 3 1 1
node 5 1 1 1
node 6 1 1 1
node 7 3 1 3
node 8 2 0 2
node 11 1 0 0
gene 2 1 8 -0.444378 0 1 -0.444378 1
gene 1 2 8 1.08188 0 2 1.08188 1
gene 3 3 8 0.771932 0 3 0.771932 0
gene 2 4 8 -0.553337 0 4 -0.553337 1
gene 1 5 8 2.10759 0 5 2.10759 1
gene 2 6 8 1.37339 0 6 1.37339 1
gene 1 7 8 -1.81433 0 7 -1.81433 1
gene 3 3 11 -0.186422 0 12 -0.186422 1
gene 3 11 8 1.81347 0 13 1.81347 1
gene 2 6 11 -0.405709 0 45 -0.405709 1
gene 1 4 11 -0.93692 0 56 -0.93692 1
gene 2 5 11 0.856236 0 158 0.856236 1
genomeend 68

/* Organism #69 Fitness: 74 Error: 0 */
genomestart 69
trait 1 0.1 0 0 0 0 0 0 0 
trait 2 0.2 0 0 0 0 0 0 0 
trait 3 0.3 0 0 0 0 0 0 0 
node 1 2 1 1
node 2 3 1 1
node 3 3 1 1
node 4 3 1 1
node 5 1 1 1
node 6 1 1 1
node 7 3 1 3
node 8 2 0 2
node 11 1 0 0
gene 2 1 8 -2.49276 0 1 -2.49276 1
gene 1 2 8 -1.22139 0 2 -1.22139 1
gene 3 3 8 1.68184 0 3 1.68184 0
gene 2 4 8 -0.326183 0 4 -0.326183 1
gene 1 5 8 4.12096 0 5 4.12096 1
gene 2 6 8 2.72538 0 6 2.72538 1
gene 1 7 8 0.0779436 0 7 0.0779436 1
gene 3 3 11 1.10409 0 12 1.10409 1
gene 3 11 8 -0.622876 0 13 -0.622876 1
gene 2 6 11 -0.405709 0 45 -0.405709 1
gene 2 4 11 -1.40827 0 56 -1.40827 1
genomeend 69

/* Organism #70 Fitness: 130 Error: 0 */
genomestart 70
trait 1 0.1 0 0 0 0 0 0 0 
trait 2 0.2 0 0 0 0 0 0 0 
trait 3 0.3 0 0 0 0 0 0 0 
node 1 2 1 1
node 2 3 1 1
node 3 3 1 1
node 4 3 1 1
node 5 1 1 1
node 6 1 1 1
node 7 3 1 3
node 8 2 0 2
node 11 1 0 0
gene 2 1 8 -0.473467 0 1 -0.473467 1
gene 1 2 8 1.14231 0 2 1.14231 1
gene 3 3 8 0.726432 0 3 0.726432 0
gene 2 4 8 -0.703932 0 4 -0.703932 1
gene 1 5 8 2.13957 0 5 2.13957 1
gene 2 6 8 1.37339 0 6 1.37339 1
gene 1 7 8 -1.81433 0 7 -1.81433 1
gene 3 3 11 -0.186422 0 12 -0.186422 1
gene 3 11 8 1.81347 0 13 1.81347 1
gene 2 6 11 -0.405709 0 45 -0.405709 1
gene 2 4 11 -0.93692 0 56 -0.93692 1
gene 3 1 11 -0.686942 0 159 -0.686942 1
genomeend 70

/* Organism #71 Fitness: 188 Error: 0 */
genomestart 71
trait 1 0.1 0 0 0 0 0 0 0 
trait 2 0.2 0 0 0 0 0 0 0 
trait 3 0.3 0 0 0 0 0 0 0 
node 1 2 1 1
node 2 3 1 1
node 3 3 1 1
node 4 3 1 1
node 5 1 1 1
node 6 1 1 1
node 7 3 1 3
node 8 2 0 2
node 11 1 0 0
gene 2 1 8 -0.473467 0 1 -0.473467 1
gene 1 2 8 1.08188 0 2 1.08188 1
gene 3 3 8 0.726432 0 3 0.726432 0
gene 2 4 8 -0.703932 0 4 -0.703932 1
gene 1 5 8 2.10759 0 5 2.10759 1
gene 2 6 8 1.37339 0 6 1.37339 1
gene 1 7 8 -1.81433 0 7 -1.81433 1
gene 3 3 11 -0.186422 0 12 -0.186422 1
gene 3 11 8 1.81347 0 13 1.81347 1
gene 2 6 11 -0.405709 0 45 -0.405709 1
gene 1 4 11 -0.93692 0 56 -0.93692 1
genomeend 71

/* Organism #72 Fitness: 5 Error: 0 */
genomestart 72
trait 1 0.1 0 0 0 0 0 0 0 
trait 2 0.2 0 0 0 0 0 0 0 
trait 3 0.3 0 0 0 0 0 0 0 
node 1 2 1 1
node 2 3 1 1
node 3 3 1 1
node 4 3 1 1
node 5 1 1 1
node 6 1 1 1
node 7 3 1 3
node 8 2 0 2
node 11 1 0 0
gene 2 1 8 -0.976262 0 1 -0.976262 1
gene 1 2 8 -0.0385882 0 2 -0.0385882 1
gene 3 3 8 -0.84176 0 3 -0.84176 0
gene 2 4 8 -2.2354 0 4 -2.2354 1
gene 1 5 8 2.10759 0 5 2.10759 1
gene 2 6 8 -0.467701 0 6 -0.467701 1
gene 1 7 8 -1.11081 0 7 -1.11081 1
gene 3 3 11 -2.22411 0 12 -2.22411 1
gene 3 11 8 -1.86147 0 13 -1.86147 1
gene 2 6 11 -0.218681 0 45 -0.218681 1
gene 1 4 11 1.44801 0 56 1.44801 1
genomeend 72

/* Organism #73 Fitness: 10 Error: 0 */
genomestart 73
trait 1 0.1 0 0 0 0 0 0 0 
trait 2 0.2 0 0 0 0 0 0 0 
trait 3 0.3 0 0 0 0 0 0 0 
node 1 2 1 1
node 2 3 1 1
node 3 3 1 1
node 4 3 1 1
node 5 1 1 1
node 6 1 1 1
node 7 3 1 3
node 8 2 0 2
node 11 1 0 0
gene 2 1 8 -2.26217 0 1 -2.26217 1
gene 1 2 8 2.08274 0 2 2.08274 1
gene 3 3 8 -0.559707 0 3 -0.559707 0
gene 2 4 8 0.0937027 0 4 0.0937027 1
gene 1 5 8 2.41223 0 5 2.41223 1
gene 2 6 8 -0.28537 0 6 -0.28537 1
gene 1 7 8 -3.33184 0 7 -3.33184 1
gene 3 3 11 1.68932 0 12 1.68932 1
gene 3 11 8 4.17665 0 13 4.17665 1
gene 2 6 11 -0.405709 0 45 -0.405709 1
gene 2 4 11 -0.93692 0 56 -0.93692 1
genomeend 73

/* Organism #74 Fitness: 5 Error: 0 */
genomestart 74
trait 1 0.1 0 0 0 0 0 0 0 
trait 2 0.2 0 0 0 0 0 0 0 
trait 3 0.3 0 0 0 0 0 0 0 
node 1 2 1 1
node 2 3 1 1
node 3 3 1 1
node 4 3 1 1
node 5 1 1 1
node 6 1 1 1
node 7 3 1 3
node 8 2 0 2
node 11 1 0 0
gene 2 1 8 -0.225148 0 1 -0.225148 1
gene 1 2 8 2.09658 0 2 2.09658 1
gene 3 3 8 -0.304296 0 3 -0.304296 0
gene 2 4 8 -0.576612 0 4 -0.576612 1
gene 1 5 8 -0.00430993 0 5 -0.00430993 1
gene 2 6 8 -1.02153 0 6 -1.02153 1
gene 1 7 8 -3.94924 0 7 -3.94924 1
gene 3 3 11 0.257169 0 12 0.257169 1
gene 3 11 8 1.3906 0 13 1.3906 1
gene 2 6 11 -1.0084 0 45 -1.0084 1
gene 1 4 11 -0.93692 0 56 -0.93692 1
gene 3 1 11 -0.0438343 0 147 -0.0438343 1
genomeend 74

/* Organism #75 Fitness: 38 Error: 0 */
genomestart 75
trait 1 0.1 0 0 0 0 0 0 0 
trait 2 0.989143 0 0 0 0 0.432085 0 0.300771 
trait 3 0.3 0 0 0 0 0 0 0 
node 1 2 1 1
node 2 3 1 1
node 3 3 1 1
node 4 3 1 1
node 5 1 1 1
node 6 1 1 1
node 7 3 1 3
node 8 2 0 2
node 11 1 0 0
gene 2 1 8 1.8514 0 1 1.8514 1
gene 1 2 8 0.451647 0 2 0.451647 1
gene 3 3 8 -1.17126 0 3 -1.17126 0
gene 2 4 8 0.930387 0 4 0.930387 1
gene 3 5 8 4.36872 0 5 4.36872 1
gene 2 6 8 2.30639 0 6 2.30639 1
gene 1 7 8 -2.05296 0 7 -2.05296 1
gene 3 3 11 1.34365 0 12 1.34365 1
gene 3 11 8 2.53546 0 13 2.53546 1
gene 2 6 11 -0.405709 0 45 -0.405709 1
gene 1 4 11 -2.70191 0 56 -2.70191 1
genomeend 75

/* Organism #76 Fitness: 26 Error: 0 */
genomestart 76
trait 1 0.1 0 0 0 0 0 0 0 
trait 2 0.2 0 0 0 0 0 0 0 
trait 3 0.3 0 0 0 0 0 0 0 
node 1 2 1 1
node 2 3 1 1
node 3 3 1 1
node 4 3 1 1
node 5 1 1 1
node 6 1 1 1
node 7 3 1 3
node 8 2 0 2
node 11 1 0 0
node 61 1 0 0
gene 2 1 8 -0.458922 0 1 -0.458922 1
gene 1 2 8 1.08188 0 2 1.08188 1
gene 3 3 8 0.749182 0 3 0.749182 1
gene 2 4 8 -0.628634 0 4 -0.628634 1
gene 1 5 8 2.10759 0 5 2.10759 0
gene 2 6 8 1.37339 0 6 1.37339 1
gene 1 7 8 -1.81433 0 7 -1.81433 1
gene 3 3 11 -0.186422 0 12 -0.186422 1
gene 3 11 8 1.81347 0 13 1.81347 1
gene 2 6 11 -0.405709 0 45 -0.405709 1
gene 1 4 11 -0.93692 0 56 -0.93692 1
gene 1 5 61 1 0 160 0 1
gene 1 61 8 2.10759 0 161 0 1
genomeend 76

/* Organism #77 Fitness: 5 Error: 0 */
genomestart 77
trait 1 0.1 0 0 0 0 0 0 0 
trait 2 0.2 0 0 0 0 0 0 0 
trait 3 0.3 0 0 0 0 0 0 0 
node 1 2 1 1
node 2 3 1 1
node 3 3 1 1
node 4 3 1 1
node 5 1 1 1
node 6 1 1 1
node 7 3 1 3
node 8 2 0 2
node 11 1 0 0
gene 2 1 8 1.00717 0 1 1.00717 1
gene 1 2 8 2.57271 0 2 2.57271 1
gene 3 3 8 3.20122 0 3 3.20122 0
gene 2 4 8 -0.33651 0 4 -0.33651 1
gene 1 5 8 0.144008 0 5 0.144008 1
gene 2 6 8 -0.898798 0 6 -0.898798 1
gene 1 7 8 -1.08425 0 7 -1.08425 1
gene 3 3 11 -0.955571 0 12 -0.955571 1
gene 3 11 8 2.51723 0 13 2.51723 1
gene 2 6 11 1.29384 0 45 1.29384 1
gene 1 4 11 -1.3578 0 56 -1.3578 1
gene 3 1 11 1.18509 0 147 1.18509 1
genomeend 77

/* Organism #78 Fitness: 131 Error: 0 */
genomestart 78
trait 1 0.1 0 0 0 0 0 0 0 
trait 2 0.2 0 0 0 0 0 0 0 
trait 3 0.3 0 0 0 0 0 0 0 
node 1 2 1 1
node 2 3 1 1
node 3 3 1 1
node 4 3 1 1
node 5 1 1 1
node 6 1 1 1
node 7 3 1 3
node 8 2 0 2
node 11 1 0 0
gene 2 1 8 -0.444378 0 1 -0.444378 1
gene 1 2 8 1.08188 0 2 1.08188 1
gene 3 3 8 0.771932 0 3 0.771932 0
gene 2 4 8 -0.553337 0 4 -0.553337 1
gene 1 5 8 2.13957 0 5 2.13957 1
gene 2 6 8 1.37339 0 6 1.37339 1
gene 1 7 8 -1.81433 0 7 -1.81433 1
gene 3 3 11 -0.186422 0 12 -0.186422 1
gene 3 11 8 1.81347 0 13 1.81347 1
gene 2 6 11 -0.405709 0 45 -0.405709 1
gene 2 4 11 -0.93692 0 56 -0.93692 1
genomeend 78

/* Organism #79 Fitness: 61 Error: 0 */
genomestart 79
trait 1 0.1 0 0 0 0 0 0 0 
trait 2 0.2 0 0 0 0 0 0 0 
trait 3 0.3 0 0 0 0.453278 0 0 0 
node 1 2 1 1
node 2 3 1 1
node 3 3 1 1
node 4 3 1 1
node 5 1 1 1
node 6 1 1 1
node 7 3 1 3
node 8 2 0 2
node 11 1 0 0
gene 2 1 8 0.121444 0 1 0.121444 1
gene 1 2 8 3.59207 0 2 3.59207 1
gene 3 3 8 2.63938 0 3 2.63938 0
gene 2 4 8 -0.405933 0 4 -0.405933 1
gene 1 5 8 0.0510964 0 5 0.0510964 1
gene 2 6 8 1.68511 0 6 1.68511 1
gene 1 7 8 -3.3684 0 7 -3.3684 1
gene 3 3 11 -0.697478 0 12 -0.697478 1
gene 3 11 8 1.95802 0 13 1.95802 1
gene 2 6 11 0.635212 0 45 0.635212 1
gene 2 4 11 -0.93692 0 56 -0.93692 1
genomeend 79

/* Species #8 : (Size 8) (AF 32.25) (Age 10)  */


/* Organism #80 Fitness: 69 Error: 0 */
genomestart 80
trait 1 0.1 0 0 0 0 0 0 0 
trait 2 0.2 0 0 0 0 0 0 0 
trait 3 0.3 0 0 0 0 0 0 0 
node 1 2 1 1
node 2 3 1 1
node 3 3 1 1
node 4 3 1 1
node 5 3 1 1
node 6 1 1 1
node 7 3 1 3
node 8 2 0 2
node 11 1 0 0
node 27 1 0 0
node 45 1 0 0
gene 2 1 8 1.56322 0 1 1.56322 1
gene 1 2 8 2.78715 0 2 2.78715 0
gene 3 3 8 -1.24035 0 3 -1.24035 0
gene 2 4 8 -1.53397 0 4 -1.53397 1
gene 1 5 8 2.91932 0 5 2.91932 1
gene 2 6 8 2.91382 0 6 2.91382 1
gene 1 7 8 -3.05343 0 7 -3.05343 1
gene 3 3 11 3.06313 0 12 3.06313 0
gene 3 11 8 -0.0551262 0 13 -0.0551262 1
gene 2 6 11 -1.18993 0 45 -1.18993 1
gene 1 2 27 -0.946099 0 51 -0.946099 1
gene 1 27 8 2.31966 0 52 2.31966 1
gene 3 3 45 1 0 103 0 1
gene 3 45 11 3.06313 0 104 0 1
genomeend 80

/* Organism #81 Fitness: 34 Error: 0 */
genomestart 81
trait 1 0.1 0 0 0 0 0 0 0 
trait 2 0.2 0 0 0 0 0 0 0 
trait 3 0.3 0 0 0 0 0 0 0 
node 1 2 1 1
node 2 3 1 1
node 3 3 1 1
node 4 3 1 1
node 5 3 1 1
node 6 1 1 1
node 7 3 1 3
node 8 2 0 2
node 11 1 0 0
node 27 1 0 0
node 45 1 0 0
gene 2 1 8 1.73353 0 1 1.73353 1
gene 1 2 8 1.28337 0 2 1.28337 0
gene 3 3 8 -1.39737 0 3 -1.39737 0
gene 2 4 8 -0.656703 0 4 -0.656703 1
gene 1 5 8 5.35967 0 5 5.35967 1
gene 2 6 8 5.32263 0 6 5.32263 1
gene 1 7 8 -1.47126 0 7 -1.47126 1
gene 3 3 11 0.854838 0 12 0.854838 0
gene 3 11 8 1.11235 0 13 1.11235 1
gene 2 6 11 -0.430948 0 45 -0.430948 1
gene 1 2 27 -0.946099 0 51 -0.946099 1
gene 1 27 8 0.883078 0 52 0.883078 1
gene 3 3 45 3.03616 0 103 3.03616 1
gene 3 45 11 0.72483 0 104 0.72483 1
genomeend 81

/* Organism #82 Fitness: 23 Error: 0 */
genomestart 82
trait 1 0.1 0 0 0 0 0 0 0 
trait 2 0.2 0 0 0 0 0 0 0 
trait 3 0.3 0 0 0 0 0 0 0 
node 1 2 1 1
node 2 3 1 1
node 3 3 1 1
node 4 3 1 1
node 5 3 1 1
node 6 1 1 1
node 7 3 1 3
node 8 2 0 2
node 11 1 0 0
node 27 1 0 0
node 45 1 0 0
gene 2 1 8 0.398028 0 1 0.398028 1
gene 1 2 8 2.78715 0 2 2.78715 1
gene 3 3 8 -3.1342 0 3 -3.1342 0
gene 2 4 8 -1.82472 0 4 -1.82472 1
gene 1 5 8 0.972573 0 5 0.972573 1
gene 2 6 8 1.09024 0 6 1.09024 1
gene 1 7 8 1.95012 0 7 1.95012 1
gene 3 3 11 -1.90666 0 12 -1.90666 0
gene 3 11 8 0.600184 0 13 0.600184 1
gene 2 6 11 0.672531 0 45 0.672531 1
gene 1 2 27 -2.04426 0 51 -2.04426 1
gene 1 27 8 0.279498 0 52 0.279498 1
gene 3 3 45 2.26074 0 103 2.26074 1
gene 3 45 11 2.36335 0 104 2.36335 1
genomeend 82

/* Organism #83 Fitness: 46 Error: 0 */
genomestart 83
trait 1 0.1 0 0 0 0 0 0 0 
trait 2 0.238388 0 0 0 0 0 0 0.421138 
trait 3 0.3 0 0 0 0 0 0 0 
node 1 2 1 1
node 2 3 1 1
node 3 3 1 1
node 4 3 1 1
node 5 3 1 1
node 6 1 1 1
node 7 3 1 3
node 8 2 0 2
node 11 1 0 0
node 27 1 0 0
node 45 1 0 0
gene 2 1 8 -0.670374 0 1 -0.670374 1
gene 1 2 8 3.40813 0 2 3.40813 0
gene 3 3 8 -2.56132 0 3 -2.56132 0
gene 2 4 8 -0.987124 0 4 -0.987124 1
gene 1 5 8 4.76628 0 5 4.76628 1
gene 2 6 8 0.59448 0 6 0.59448 1
gene 1 7 8 -2.68636 0 7 -2.68636 1
gene 3 3 11 5.49039 0 12 5.49039 0
gene 3 11 8 -1.1728 0 13 -1.1728 1
gene 2 6 11 -1.84045 0 45 -1.84045 1
gene 1 2 27 -0.375925 0 51 -0.375925 1
gene 1 27 8 2.46518 0 52 2.46518 1
gene 3 3 45 1.58392 0 103 1.58392 1
gene 3 45 11 4.04867 0 104 4.04867 1
genomeend 83

/* Organism #84 Fitness: 5 Error: 0 */
genomestart 84
trait 1 0.1 0 0 0 0 0 0 0 
trait 2 0.2 0 0 0 0 0 0 0 
trait 3 0.3 0 0 0 0 0 0 0 
node 1 2 1 1
node 2 3 1 1
node 3 3 1 1
node 4 3 1 1
node 5 3 1 1
node 6 1 1 1
node 7 3 1 3
node 8 2 0 2
node 11 1 0 0
node 27 1 0 0
node 45 1 0 0
gene 2 1 8 1.70642 0 1 1.70642 1
gene 1 2 8 4.58502 0 2 4.58502 0
gene 1 3 8 1.34411 0 3 1.34411 1
gene 2 4 8 -1.81044 0 4 -1.81044 1
gene 1 5 8 2.91932 0 5 2.91932 1
gene 2 6 8 -2.10912 0 6 -2.10912 1
gene 1 7 8 1.73741 0 7 1.73741 1
gene 3 3 11 1.78069 0 12 1.78069 0
gene 3 11 8 -0.635224 0 13 -0.635224 1
gene 2 6 11 -2.09354 0 45 -2.09354 1
gene 1 2 27 -3.3357 0 51 -3.3357 1
gene 1 27 8 3.57127 0 52 3.57127 1
gene 3 3 45 2.2876 0 103 2.2876 1
gene 3 45 11 0.826912 0 104 0.826912 1
genomeend 84

/* Organism #85 Fitness: 29 Error: 0 */
genomestart 85
trait 1 0.1 0 0 0 0 0 0 0 
trait 2 0.276776 0 0 0 0 0 0 0.842276 
trait 3 1 0 0 0 0.510557 0 0.52797 0.721354 
node 1 2 1 1
node 2 3 1 1
node 3 3 1 1
node 4 3 1 1
node 5 3 1 1
node 6 1 1 1
node 7 3 1 3
node 8 2 0 2
node 11 1 0 0
node 27 1 0 0
node 45 1 0 0
gene 2 1 8 1.87469 0 1 1.87469 1
gene 1 2 8 2.32071 0 2 2.32071 0
gene 3 3 8 -1.24035 0 3 -1.24035 1
gene 2 4 8 -1.53397 0 4 -1.53397 1
gene 1 5 8 1.41523 0 5 1.41523 1
gene 2 6 8 4.29341 0 6 4.29341 1
gene 1 7 8 -0.958348 0 7 -0.958348 1
gene 3 3 11 1.17925 0 12 1.17925 0
gene 3 11 8 1.90959 0 13 1.90959 1
gene 2 6 11 -3.01327 0 45 -3.01327 1
gene 1 2 27 -2.67959 0 51 -2.67959 1
gene 1 27 8 2.00797 0 52 2.00797 1
gene 3 3 45 1.33549 0 103 1.33549 1
gene 3 45 11 3.06313 0 104 3.06313 1
genomeend 85

/* Organism #86 Fitness: 30 Error: 0 */
genomestart 86
trait 1 0.1 0 0 0 0 0 0 0 
trait 2 0.238388 0 0 0 0 0 0 0.421138 
trait 3 0.3 0 0 0 0 0 0 0 
node 1 2 1 1
node 2 3 1 1
node 3 3 1 1
node 4 3 1 1
node 5 3 1 1
node 6 1 1 1
node 7 3 1 3
node 8 2 0 2
node 11 1 0 0
node 27 1 0 0
node 45 1 0 0
gene 2 1 8 2.41145 0 1 2.41145 1
gene 1 2 8 2.93552 0 2 2.93552 0
gene 3 3 8 -1.54286 0 3 -1.54286 0
gene 2 4 8 -2.65713 0 4 -2.65713 1
gene 1 5 8 4.84902 0 5 4.84902 1
gene 2 6 8 3.26703 0 6 3.26703 1
gene 1 7 8 -1.91804 0 7 -1.91804 1
gene 3 3 11 3.62831 0 12 3.62831 0
gene 3 11 8 2.13309 0 13 2.13309 1
gene 2 6 11 -1.87918 0 45 -1.87918 1
gene 1 2 27 -0.848089 0 51 -0.848089 1
gene 1 27 8 3.55814 0 52 3.55814 1
gene 3 3 45 3.1116 0 103 3.1116 1
gene 3 45 11 3.825 0 104 3.825 1
genomeend 86

/* Organism #87 Fitness: 22 Error: 0 */
genomestart 87
trait 1 0.1 0 0 0 0 0 0 0 
trait 2 0.2 0 0 0 0 0 0 0 
trait 3 0.3 0 0 0 0 0 0 0 
node 1 2 1 1
node 2 3 1 1
node 3 3 1 1
node 4 3 1 1
node 5 3 1 1
node 6 1 1 1
node 7 3 1 3
node 8 2 0 2
node 11 1 0 0
node 27 1 0 0
node 45 1 0 0
gene 2 1 8 1.23068 0 1 1.23068 1
gene 1 2 8 2.93966 0 2 2.93966 0
gene 3 3 8 -2.46785 0 3 -2.46785 0
gene 2 4 8 -1.21861 0 4 -1.21861 1
gene 1 5 8 0.464992 0 5 0.464992 1
gene 2 6 8 3.34792 0 6 3.34792 1
gene 1 7 8 -4.42553 0 7 -4.42553 1
gene 3 3 11 1.27158 0 12 1.27158 0
gene 3 11 8 -1.48116 0 13 -1.48116 1
gene 2 6 11 -0.985326 0 45 -0.985326 1
gene 1 2 27 0.453983 0 51 0.453983 1
gene 1 27 8 1.5075 0 52 1.5075 1
gene 3 3 45 1 0 103 1 1
gene 3 45 11 -0.261265 0 104 -0.261265 1
genomeend 87

/* Species #9 : (Size 8) (AF 43.125) (Age 8)  */


/* Organism #88 Fitness: 73 Error: 0 */
genomestart 88
trait 1 0.1 0 0 0 0 0 0 0 
trait 2 0.2 0 0 0 0 0 0 0 
trait 3 0.3 0 0 0 0 0 0 0 
node 1 2 1 1
node 2 3 1 1
node 3 3 1 1
node 4 3 1 1
node 5 1 1 1
node 6 1 1 1
node 7 3 1 3
node 8 2 0 2
node 11 1 0 0
node 36 1 0 0
gene 2 1 8 -3.32151 0 1 -3.32151 1
gene 3 2 8 4.88226 0 2 4.88226 0
gene 2 3 8 1.14605 0 3 1.14605 0
gene 2 4 8 3.74113 0 4 3.74113 1
gene 3 5 8 6.36588 0 5 6.36588 1
gene 1 6 8 2.75492 0 6 2.75492 1
gene 2 7 8 -3.95521 0 7 -3.95521 1
gene 1 3 11 0.2184 0 12 0.2184 1
gene 3 11 8 2.3064 0 13 2.3064 1
gene 3 2 36 -0.339265 0 76 -0.339265 1
gene 3 36 8 -0.0664184 0 77 -0.0664184 1
genomeend 88

/* Organism #89 Fitness: 37 Error: 0 */
genomestart 89
trait 1 0.1 0 0 0 0 0 0 0 
trait 2 0.2 0 0 0 0 0 0 0 
trait 3 0.3 0 0 0 0 0 0 0 
node 1 2 1 1
node 2 3 1 1
node 3 3 1 1
node 4 3 1 1
node 5 1 1 1
node 6 1 1 1
node 7 3 1 3
node 8 2 0 2
node 11 1 0 0
node 36 1 0 0
gene 2 1 8 -2.05438 0 1 -2.05438 1
gene 3 2 8 2.21282 0 2 2.21282 0
gene 2 3 8 2.56704 0 3 2.56704 0
gene 2 4 8 1.24254 0 4 1.24254 1
gene 3 5 8 6.82834 0 5 6.82834 1
gene 1 6 8 3.23194 0 6 3.23194 1
gene 2 7 8 -5.02225 0 7 -5.02225 1
gene 1 3 11 0.626498 0 12 0.626498 1
gene 3 11 8 0.317478 0 13 0.317478 1
gene 3 2 36 -0.224385 0 76 -0.224385 1
gene 3 36 8 -0.637379 0 77 -0.637379 1
genomeend 89

/* Organism #90 Fitness: 54 Error: 0 */
genomestart 90
trait 1 0.1 0.738014 0.0318482 0 0 0 0 0 
trait 2 0.2 0 0 0 0 0 0 0 
trait 3 0.3 0 0 0 0 0 0 0 
node 1 2 1 1
node 2 3 1 1
node 3 3 1 1
node 4 3 1 1
node 5 1 1 1
node 6 1 1 1
node 7 3 1 3
node 8 2 0 2
node 11 1 0 0
node 36 1 0 0
gene 2 1 8 -2.51854 0 1 -2.51854 1
gene 3 2 8 3.59912 0 2 3.59912 1
gene 2 3 8 1.0024 0 3 1.0024 0
gene 2 4 8 2.55609 0 4 2.55609 1
gene 3 5 8 6.52452 0 5 6.52452 1
gene 1 6 8 2.77775 0 6 2.77775 1
gene 2 7 8 -1.34459 0 7 -1.34459 1
gene 2 3 11 1.11111 0 12 1.11111 1
gene 3 11 8 -0.284183 0 13 -0.284183 1
gene 3 2 36 -0.109505 0 76 -0.109505 1
gene 3 36 8 0.284989 0 77 0.284989 1
genomeend 90

/* Organism #91 Fitness: 39 Error: 0 */
genomestart 91
trait 1 0.1 0 0 0 0 0 0 0 
trait 2 0.2 0 0 0 0 0 0 0 
trait 3 0.3 0 0 0 0 0 0 0 
node 1 2 1 1
node 2 3 1 1
node 3 3 1 1
node 4 3 1 1
node 5 1 1 1
node 6 1 1 1
node 7 3 1 3
node 8 2 0 2
node 11 1 0 0
node 36 1 0 0
gene 2 1 8 -4.84211 0 1 -4.84211 1
gene 3 2 8 5.22778 0 2 5.22778 0
gene 2 3 8 2.80469 0 3 2.80469 0
gene 2 4 8 4.2235 0 4 4.2235 1
gene 3 5 8 6.97425 0 5 6.97425 1
gene 1 6 8 1.79462 0 6 1.79462 1
gene 2 7 8 -5.21281 0 7 -5.21281 1
gene 2 3 11 -0.0155331 0 12 -0.0155331 1
gene 3 11 8 1.33575 0 13 1.33575 1
gene 3 2 36 -0.220576 0 76 -0.220576 1
gene 3 36 8 0.284989 0 77 0.284989 1
genomeend 91

/* Organism #92 Fitness: 54 Error: 0 */
genomestart 92
trait 1 0.1 0 0 0 0 0 0 0 
trait 2 0.2 0 0 0 0 0 0 0 
trait 3 0.3 0 0 0 0 0 0 0 
node 1 2 1 1
node 2 3 1 1
node 3 2 1 1
node 4 3 1 1
node 5 1 1 1
node 6 1 1 1
node 7 3 1 3
node 8 2 0 2
node 11 1 0 0
node 36 1 0 0
gene 2 1 8 -2.51854 0 1 -2.51854 1
gene 3 2 8 3.59912 0 2 3.59912 1
gene 2 3 8 1.0024 0 3 1.0024 0
gene 2 4 8 2.55609 0 4 2.55609 1
gene 3 5 8 6.52452 0 5 6.52452 1
gene 1 6 8 2.77775 0 6 2.77775 1
gene 2 7 8 -1.34459 0 7 -1.34459 1
gene 2 3 11 1.11111 0 12 1.11111 1
gene 3 11 8 -0.284183 0 13 -0.284183 1
gene 3 2 36 -0.109505 0 76 -0.109505 1
gene 3 36 8 0.284989 0 77 0.284989 1
genomeend 92

/* Organism #93 Fitness: 26 Error: 0 */
genomestart 93
trait 1 0.1 0 0 0 0 0 0 0 
trait 2 0.2 0 0 0 0 0 0 0 
trait 3 0.3 0 0 0 0 0 0 0 
node 1 2 1 1
node 2 3 1 1
node 3 3 1 1
node 4 3 1 1
node 5 1 1 1
node 6 1 1 1
node 7 3 1 3
node 8 2 0 2
node 11 1 0 0
node 36 1 0 0
gene 2 1 8 -3.88013 0 1 -3.88013 1
gene 3 2 8 4.55244 0 2 4.55244 0
gene 2 3 8 2.42932 0 3 2.42932 0
gene 2 4 8 5.16511 0 4 5.16511 1
gene 3 5 8 5.65677 0 5 5.65677 1
gene 1 6 8 4.47606 0 6 4.47606 1
gene 2 7 8 -5.98367 0 7 -5.98367 1
gene 1 3 11 2.64751 0 12 2.64751 1
gene 3 11 8 1.34692 0 13 1.34692 1
gene 3 2 36 1.99868 0 76 1.99868 1
gene 3 36 8 -1.54883 0 77 -1.54883 1
genomeend 93

/* Organism #94 Fitness: 7 Error: 0 */
genomestart 94
trait 1 0.1 0 0 0 0 0 0 0 
trait 2 0.2 0 0 0 0 0 0 0 
trait 3 0.3 0 0 0 0 0 0 0 
node 1 2 1 1
node 2 3 1 1
node 3 3 1 1
node 4 3 1 1
node 5 1 1 1
node 6 1 1 1
node 7 3 1 3
node 8 2 0 2
node 11 1 0 0
node 36 1 0 0
gene 2 1 8 -1.24474 0 1 -1.24474 1
gene 3 2 8 3.09778 0 2 3.09778 0
gene 2 3 8 1.86328 0 3 1.86328 0
gene 2 4 8 -2.19525 0 4 -2.19525 1
gene 3 5 8 -1.01507 0 5 -1.01507 1
gene 1 6 8 0.411494 0 6 0.411494 1
gene 2 7 8 -1.78069 0 7 -1.78069 1
gene 2 3 11 2.89273 0 12 2.89273 1
gene 3 11 8 3.64566 0 13 3.64566 1
gene 3 2 36 -1.02238 0 76 -1.02238 1
gene 3 36 8 2.02374 0 77 2.02374 1
genomeend 94

/* Organism #95 Fitness: 55 Error: 0 */
genomestart 95
trait 1 0.1 0 0 0 0 0 0 0 
trait 2 0.2 0 0 0 0 0 0 0 
trait 3 1 0.966379 0.17256 0 0 0.910484 0 0.928179 
node 1 2 1 1
node 2 3 1 1
node 3 3 1 1
node 4 3 1 1
node 5 1 1 1
node 6 1 1 1
node 7 3 1 3
node 8 2 0 2
node 11 1 0 0
node 36 1 0 0
gene 2 1 8 -1.56529 0 1 -1.56529 1
gene 3 2 8 4.88226 0 2 4.88226 0
gene 2 3 8 2.01696 0 3 2.01696 0
gene 2 4 8 2.7879 0 4 2.7879 1
gene 3 5 8 6.36588 0 5 6.36588 1
gene 1 6 8 0.546655 0 6 0.546655 1
gene 2 7 8 -2.14527 0 7 -2.14527 1
gene 1 3 11 -0.936577 0 12 -0.936577 1
gene 3 11 8 0.539826 0 13 0.539826 1
gene 3 2 36 2.05997 0 76 2.05997 1
gene 3 36 8 0.092939 0 77 0.092939 1
genomeend 95

/* Species #10 : (Size 6) (AF 43.5) (Age 8)  */


/* Organism #96 Fitness: 65 Error: 0 */
genomestart 96
trait 1 0.1 0 0 0 0 0 0 0 
trait 2 0.2 0 0 0 0 0 0 0 
trait 3 0.3 0 0 0 0 0.014636 0.176774 0 
node 1 2 1 1
node 2 3 1 1
node 3 3 1 1
node 4 3 1 1
node 5 1 1 1
node 6 1 1 1
node 7 3 1 3
node 8 2 0 2
node 11 1 0 0
node 37 1 0 0
gene 2 1 8 -1.30011 0 1 -1.30011 1
gene 1 2 8 3.07406 0 2 3.07406 1
gene 3 3 8 -2.19861 0 3 -2.19861 0
gene 2 4 8 2.23958 0 4 2.23958 1
gene 1 5 8 4.34262 0 5 4.34262 1
gene 1 6 8 0.30815 0 6 0.30815 0
gene 1 7 8 -0.329628 0 7 -0.329628 1
gene 1 3 11 0.134362 0 12 0.134362 1
gene 3 11 8 -2.11372 0 13 -2.11372 1
gene 2 6 11 -0.0439567 0 45 -0.0439567 1
gene 1 6 37 0.383821 0 78 0.383821 1
gene 1 37 8 0.851566 0 79 0.851566 1
gene 1 3 37 0.846589 0 96 0.846589 1
genomeend 96

/* Organism #97 Fitness: 42 Error: 0 */
genomestart 97
trait 1 0.1 0 0 0.626499 0 0 0 0 
trait 2 0.2 0 0 0 0 0 0 0 
trait 3 0.3 0 0 0 0 0.014636 0.176774 0 
node 1 2 1 1
node 2 3 1 1
node 3 3 1 1
node 4 3 1 1
node 5 1 1 1
node 6 1 1 1
node 7 3 1 3
node 8 2 0 2
node 11 1 0 0
node 37 1 0 0
gene 2 1 8 -4.17108 0 1 -4.17108 1
gene 1 2 8 3.65556 0 2 3.65556 1
gene 3 3 8 -2.426 0 3 -2.426 1
gene 2 4 8 1.76134 0 4 1.76134 1
gene 1 5 8 3.00254 0 5 3.00254 1
gene 1 6 8 0.653045 0 6 0.653045 1
gene 1 7 8 1.31477 0 7 1.31477 1
gene 1 3 11 -1.10233 0 12 -1.10233 1
gene 3 11 8 -1.27748 0 13 -1.27748 1
gene 2 6 11 -0.452911 0 45 -0.452911 1
gene 1 6 37 3.2265 0 78 3.2265 1
gene 1 37 8 -0.34376 0 79 -0.34376 1
gene 1 3 37 1.41673 0 96 1.41673 1
genomeend 97

/* Organism #98 Fitness: 13 Error: 0 */
genomestart 98
trait 1 0.1 0 0 0 0 0 0 0 
trait 2 0.2 0 0 0 0 0 0 0 
trait 3 0.3 0 0 0 0 0.014636 0.176774 0 
node 1 2 1 1
node 2 3 1 1
node 3 3 1 1
node 4 3 1 1
node 5 1 1 1
node 6 1 1 1
node 7 3 1 3
node 8 2 0 2
node 11 1 0 0
node 37 1 0 0
gene 2 1 8 -4.56902 0 1 -4.56902 1
gene 1 2 8 0.0324697 0 2 0.0324697 1
gene 3 3 8 -0.476711 0 3 -0.476711 0
gene 2 4 8 2.23344 0 4 2.23344 1
gene 1 5 8 5.41206 0 5 5.41206 1
gene 1 6 8 2.4405 0 6 2.4405 0
gene 1 7 8 -1.48618 0 7 -1.48618 1
gene 1 3 11 0.134362 0 12 0.134362 1
gene 3 11 8 2.48872 0 13 2.48872 1
gene 2 6 11 -2.12235 0 45 -2.12235 1
gene 1 6 37 2.99343 0 78 2.99343 1
gene 1 37 8 -0.48335 0 79 -0.48335 1
gene 1 3 37 -1.77713 0 96 -1.77713 1
genomeend 98

/* Organism #99 Fitness: 46 Error: 0 */
genomestart 99
trait 1 0.1 0 0 0 0 0 0 0 
trait 2 0.2 0 0 0 0 0 0 0 
trait 3 0.3 0 0 0 0 0.014636 0.176774 0 
node 1 2 1 1
node 2 3 1 1
node 3 3 1 1
node 4 3 1 1
node 5 1 1 1
node 6 1 1 1
node 7 3 1 3
node 8 2 0 2
node 11 1 0 0
node 37 1 0 0
gene 2 1 8 -1.30011 0 1 -1.30011 1
gene 1 2 8 1.88195 0 2 1.88195 1
gene 3 3 8 -2.44102 0 3 -2.44102 0
gene 2 4 8 2.23958 0 4 2.23958 1
gene 1 5 8 4.34262 0 5 4.34262 1
gene 1 6 8 1.58104 0 6 1.58104 0
gene 1 7 8 -0.329628 0 7 -0.329628 1
gene 1 3 11 0.134362 0 12 0.134362 1
gene 3 11 8 -1.98132 0 13 -1.98132 1
gene 2 6 11 -0.45152 0 45 -0.45152 1
gene 1 6 37 2.53262 0 78 2.53262 1
gene 1 37 8 0.851566 0 79 0.851566 1
gene 1 3 37 0.846589 0 96 0.846589 1
gene 2 5 11 0.856236 0 158 0 1
genomeend 99

/* Organism #100 Fitness: 25 Error: 0 */
genomestart 100
trait 1 0.1 0 0 0 0 0 0 0 
trait 2 0.2 0 0 0 0 0 0 0 
trait 3 0.3 0 0 0 0 0.014636 0.176774 0 
node 1 2 1 1
node 2 3 1 1
node 3 3 1 1
node 4 3 1 1
node 5 1 1 1
node 6 1 1 1
node 7 3 1 3
node 8 2 0 2
node 11 2 0 0
node 37 1 0 0
gene 2 1 8 -1.69392 0 1 -1.69392 1
gene 1 2 8 1.00253 0 2 1.00253 1
gene 3 3 8 -2.40479 0 3 -2.40479 0
gene 2 4 8 2.21124 0 4 2.21124 1
gene 1 5 8 4.45797 0 5 4.45797 1
gene 1 6 8 -0.44537 0 6 -0.44537 0
gene 1 7 8 0.279959 0 7 0.279959 1
gene 1 3 11 -0.134803 0 12 -0.134803 1
gene 3 11 8 -0.00527659 0 13 -0.00527659 1
gene 2 6 11 1.13064 0 45 1.13064 1
gene 1 6 37 1.15217 0 78 1.15217 1
gene 1 37 8 -1.86908 0 79 -1.86908 1
gene 1 3 37 0.497819 0 96 0.497819 1
genomeend 100

/* Organism #101 Fitness: 70 Error: 0 */
genomestart 101
trait 1 0.1 0 0 0 0 0 0 0 
trait 2 0.2 0 0 0 0 0 0 0 
trait 3 0.3 0 0 0 0 0.014636 0.176774 0 
node 1 2 1 1
node 2 3 1 1
node 3 3 1 1
node 4 3 1 1
node 5 1 1 1
node 6 1 1 1
node 7 3 1 3
node 8 2 0 2
node 11 1 0 0
node 37 1 0 0
gene 2 1 8 -1.30011 0 1 -1.30011 1
gene 1 2 8 3.07406 0 2 3.07406 1
gene 3 3 8 -2.19861 0 3 -2.19861 0
gene 2 4 8 2.23958 0 4 2.23958 1
gene 1 5 8 4.34262 0 5 4.34262 1
gene 1 6 8 0.30815 0 6 0.30815 0
gene 1 7 8 -0.329628 0 7 -0.329628 1
gene 1 3 11 0.134362 0 12 0.134362 1
gene 3 11 8 -2.11372 0 13 -2.11372 1
gene 2 6 11 -0.0439567 0 45 -0.0439567 1
gene 1 6 37 0.383821 0 78 0.383821 1
gene 1 37 8 0.851566 0 79 0.851566 1
gene 1 3 37 0.846589 0 96 0.846589 1
gene 3 5 37 0.175452 0 162 0.175452 1
genomeend 101

/* Species #11 : (Size 9) (AF 40.4444) (Age 8)  */


/* Organism #102 Fitness: 119 Error: 0 */
genomestart 102
trait 1 0.1 0 0 0 0 0 0 0 
trait 2 0.2 0 0 0 0 0 0 0 
trait 3 0.3 0 0 0 0 0 0 0 
node 1 2 1 1
node 2 3 1 1
node 3 3 1 1
node 4 3 1 1
node 5 1 1 1
node 6 1 1 1
node 7 3 1 3
node 8 2 0 2
node 11 1 0 0
gene 2 1 8 1.24767 0 1 1.24767 1
gene 3 2 8 -0.702765 0 2 -0.702765 1
gene 2 3 8 -3.79057 0 3 -3.79057 0
gene 2 4 8 0.609403 0 4 0.609403 1
gene 3 5 8 8 0 5 8 1
gene 1 6 8 1.91459 0 6 1.91459 1
gene 2 7 8 -0.00349082 0 7 -0.00349082 1
gene 2 3 11 0.0629424 0 12 0.0629424 1
gene 3 11 8 -1.7374 0 13 -1.7374 1
gene 2 6 11 2.0247 0 72 2.0247 1
genomeend 102

/* Organism #103 Fitness: 39 Error: 0 */
genomestart 103
trait 1 0.1 0.180062 0 0 0 0.0188505 0 0 
trait 2 0.2 0 0 0 0 0 0 0 
trait 3 0.3 0 0 0 0 0 0 0 
node 1 2 1 1
node 2 3 1 1
node 3 3 1 1
node 4 3 1 1
node 5 1 1 1
node 6 1 1 1
node 7 3 1 3
node 8 2 0 2
node 11 1 0 0
gene 2 1 8 1.96603 0 1 1.96603 1
gene 3 2 8 1.73843 0 2 1.73843 1
gene 2 3 8 -5.92674 0 3 -5.92674 0
gene 2 4 8 1.60615 0 4 1.60615 1
gene 3 5 8 6.95195 0 5 6.95195 1
gene 1 6 8 0.589071 0 6 0.589071 1
gene 2 7 8 0.500169 0 7 0.500169 1
gene 2 3 11 -1.074 0 12 -1.074 1
gene 3 11 8 -1.39386 0 13 -1.39386 1
gene 2 6 11 2.71999 0 72 2.71999 1
genomeend 103

/* Organism #104 Fitness: 5 Error: 0 */
genomestart 104
trait 1 0.05 0.565913 0 0 0 0.032614 0 0 
trait 2 0.2 0 0 0 0 0 0 0 
trait 3 0.3 0 0 0 0 0 0 0 
node 1 1 1 1
node 2 3 1 1
node 3 3 1 1
node 4 3 1 1
node 5 1 1 1
node 6 1 1 1
node 7 3 1 3
node 8 2 0 2
node 11 1 0 0
gene 2 1 8 2.34556 0 1 2.34556 1
gene 3 2 8 1.96149 0 2 1.96149 1
gene 2 3 8 -2.00751 0 3 -2.00751 0
gene 2 4 8 -1.49594 0 4 -1.49594 1
gene 3 5 8 8 0 5 8 1
gene 1 6 8 -1.52157 0 6 -1.52157 1
gene 2 7 8 -4.61377 0 7 -4.61377 1
gene 2 3 11 0.754091 0 12 0.754091 1
gene 3 11 8 0.447833 0 13 0.447833 1
gene 2 6 11 1.29313 0 72 1.29313 1
genomeend 104

/* Organism #105 Fitness: 30 Error: 0 */
genomestart 105
trait 1 0.1 0 0 0 0 0 0 0 
trait 2 0.2 0 0 0 0 0 0 0 
trait 3 0.3 0 0 0 0 0 0 0 
node 1 2 1 1
node 2 3 1 1
node 3 3 1 1
node 4 3 1 1
node 5 1 1 1
node 6 1 1 1
node 7 3 1 3
node 8 2 0 2
node 11 1 0 0
gene 2 1 8 0.424266 0 1 0.424266 1
gene 3 2 8 -3.11022 0 2 -3.11022 1
gene 2 3 8 -5.78398 0 3 -5.78398 0
gene 2 4 8 0.870982 0 4 0.870982 1
gene 3 5 8 7.73043 0 5 7.73043 1
gene 1 6 8 1.99752 0 6 1.99752 1
gene 2 7 8 -1.89218 0 7 -1.89218 1
gene 2 3 11 -2.20206 0 12 -2.20206 1
gene 3 11 8 -3.26058 0 13 -3.26058 1
gene 2 6 11 1.56265 0 72 1.56265 1
genomeend 105

/* Organism #106 Fitness: 30 Error: 0 */
genomestart 106
trait 1 0.1 0.180062 0 0 0 0.0188505 0 0 
trait 2 0.2 0 0 0 0 0 0 0 
trait 3 0.3 0 0 0 0 0 0 0 
node 1 2 1 1
node 2 3 1 1
node 3 3 1 1
node 4 3 1 1
node 5 1 1 1
node 6 1 1 1
node 7 3 1 3
node 8 2 0 2
node 11 1 0 0
gene 2 1 8 0.894719 0 1 0.894719 1
gene 3 2 8 1.38644 0 2 1.38644 1
gene 2 3 8 -2.93211 0 3 -2.93211 0
gene 2 4 8 1.99157 0 4 1.99157 1
gene 3 5 8 8 0 5 8 1
gene 1 6 8 1.70448 0 6 1.70448 1
gene 2 7 8 2.25807 0 7 2.25807 1
gene 2 3 11 0.584421 0 12 0.584421 1
gene 3 11 8 0.0632894 0 13 0.0632894 1
gene 2 6 11 0.191688 0 72 0.191688 1
genomeend 106

/* Organism #107 Fitness: 40 Error: 0 */
genomestart 107
trait 1 0 0.771701 0 0 0 0.0275271 0 0 
trait 2 0.2 0 0 0 0 0 0 0 
trait 3 0.3 0 0 0 0 0 0 0 
node 1 1 1 1
node 2 3 1 1
node 3 3 1 1
node 4 3 1 1
node 5 1 1 1
node 6 1 1 1
node 7 3 1 3
node 8 2 0 2
node 11 1 0 0
gene 2 1 8 -0.597277 0 1 -0.597277 1
gene 3 2 8 -0.854136 0 2 -0.854136 1
gene 2 3 8 -5.69162 0 3 -5.69162 0
gene 2 4 8 -0.252006 0 4 -0.252006 1
gene 3 5 8 7.15434 0 5 7.15434 1
gene 1 6 8 -0.0333584 0 6 -0.0333584 1
gene 2 7 8 -0.508471 0 7 -0.508471 1
gene 2 3 11 0.369678 0 12 0.369678 1
gene 3 11 8 -1.05798 0 13 -1.05798 1
gene 2 6 11 -2.39879 0 72 -2.39879 1
genomeend 107

/* Organism #108 Fitness: 33 Error: 0 */
genomestart 108
trait 1 0.1 0 0 0 0 0 0 0 
trait 2 0.2 0 0 0 0 0 0 0 
trait 3 0.3 0 0 0 0 0 0 0 
node 1 2 1 1
node 2 3 1 1
node 3 3 1 1
node 4 3 1 1
node 5 1 1 1
node 6 1 1 1
node 7 3 1 3
node 8 2 0 2
node 11 1 0 0
gene 2 1 8 2.4503 0 1 2.4503 1
gene 3 2 8 -0.566695 0 2 -0.566695 1
gene 2 3 8 -2.37585 0 3 -2.37585 0
gene 2 4 8 -0.5063 0 4 -0.5063 1
gene 3 5 8 8 0 5 8 1
gene 1 6 8 4.11494 0 6 4.11494 1
gene 2 7 8 0.714973 0 7 0.714973 1
gene 2 3 11 -0.340766 0 12 -0.340766 1
gene 3 11 8 -2.24276 0 13 -2.24276 1
gene 2 6 11 3.15547 0 72 3.15547 1
genomeend 108

/* Organism #109 Fitness: 33 Error: 0 */
genomestart 109
trait 1 0.05 0.385851 0 0 0 0.0137636 0 0 
trait 2 0.2 0 0 0 0 0 0 0 
trait 3 0.3 0 0 0 0 0 0 0 
node 1 1 1 1
node 2 3 1 1
node 3 3 1 1
node 4 3 1 1
node 5 1 1 1
node 6 1 1 1
node 7 3 1 3
node 8 2 0 2
node 11 1 0 0
gene 2 1 8 2.18083 0 1 2.18083 1
gene 3 2 8 -0.612263 0 2 -0.612263 1
gene 2 3 8 -3.00035 0 3 -3.00035 0
gene 2 4 8 0.830941 0 4 0.830941 1
gene 3 5 8 6.84604 0 5 6.84604 1
gene 1 6 8 2.62006 0 6 2.62006 1
gene 2 7 8 -0.0085436 0 7 -0.0085436 1
gene 2 3 11 2.4665 0 12 2.4665 1
gene 3 11 8 1.27516 0 13 1.27516 1
gene 2 6 11 0.975475 0 72 0.975475 1
genomeend 109

/* Organism #110 Fitness: 35 Error: 0 */
genomestart 110
trait 1 0.1 0.360124 0 0 0 0.0377009 0 0 
trait 2 0.2 0 0 0 0 0 0 0 
trait 3 0.3 0 0 0 0 0 0 0 
node 1 2 1 1
node 2 3 1 1
node 3 3 1 1
node 4 3 1 1
node 5 1 1 1
node 6 1 1 1
node 7 3 1 3
node 8 2 0 2
node 11 1 0 0
gene 2 1 8 3.17148 0 1 3.17148 1
gene 3 2 8 0.410937 0 2 0.410937 1
gene 2 3 8 -6.41538 0 3 -6.41538 0
gene 2 4 8 -2.55677 0 4 -2.55677 1
gene 3 5 8 6.48936 0 5 6.48936 1
gene 1 6 8 5.94734 0 6 5.94734 1
gene 2 7 8 -3.24112 0 7 -3.24112 1
gene 2 3 11 -2.26021 0 12 -2.26021 1
gene 3 11 8 -2.68873 0 13 -2.68873 1
gene 2 6 11 3.91511 0 72 3.91511 1
genomeend 110

/* Species #12 : (Size 3) (AF 17) (Age 6)  */


/* Organism #111 Fitness: 7 Error: 0 */
genomestart 111
trait 1 0.1 0 0 0 0 0 0 0 
trait 2 0.2 0 0 0 0 0 0 0 
trait 3 0.3 0 0 0 0 0 0 0 
node 1 2 1 1
node 2 3 1 1
node 3 3 1 1
node 4 3 1 1
node 5 1 1 1
node 6 1 1 1
node 7 3 1 3
node 8 2 0 2
node 11 1 0 0
node 43 1 0 0
gene 2 1 8 -2.06948 0 1 -2.06948 1
gene 3 2 8 -3.29223 0 2 -3.29223 1
gene 2 3 8 2.31055 0 3 2.31055 0
gene 2 4 8 2.87657 0 4 2.87657 1
gene 3 5 8 0.363678 0 5 0.363678 1
gene 1 6 8 1.65405 0 6 1.65405 0
gene 2 7 8 -2.2972 0 7 -2.2972 1
gene 2 3 11 1.24492 0 12 1.24492 1
gene 3 11 8 -0.151474 0 13 -0.151474 1
gene 1 6 43 -0.913318 0 97 -0.913318 1
gene 1 43 8 0.868263 0 98 0.868263 1
genomeend 111

/* Organism #112 Fitness: 38 Error: 0 */
genomestart 112
trait 1 0.1 0 0 0 0 0 0 0 
trait 2 0.2 0 0 0 0 0 0 0 
trait 3 0.3 0 0 0 0 0 0 0 
node 1 2 1 1
node 2 3 1 1
node 3 3 1 1
node 4 3 1 1
node 5 1 1 1
node 6 1 1 1
node 7 3 1 3
node 8 2 0 2
node 11 1 0 0
node 43 1 0 0
gene 2 1 8 -3.39982 0 1 -3.39982 1
gene 3 2 8 -2.54725 0 2 -2.54725 1
gene 2 3 8 3.38663 0 3 3.38663 0
gene 2 4 8 0.511811 0 4 0.511811 1
gene 3 5 8 6.12971 0 5 6.12971 1
gene 1 6 8 -1.47219 0 6 -1.47219 0
gene 2 7 8 -2.06789 0 7 -2.06789 1
gene 2 3 11 1.818 0 12 1.818 1
gene 3 11 8 -1.13458 0 13 -1.13458 1
gene 1 6 43 1.09322 0 97 1.09322 1
gene 1 43 8 1.26214 0 98 1.26214 1
genomeend 112

/* Organism #113 Fitness: 6 Error: 0 */
genomestart 113
trait 1 0.1 0 0 0 0 0 0 0 
trait 2 0.2 0 0 0 0 0 0 0 
trait 3 0.3 0 0 0 0 0 0 0 
node 1 2 1 1
node 2 3 1 1
node 3 3 1 1
node 4 3 1 1
node 5 1 1 1
node 6 1 1 1
node 7 3 1 3
node 8 2 0 2
node 11 1 0 0
node 43 1 0 0
gene 2 1 8 -2.33718 0 1 -2.33718 1
gene 3 2 8 1.127 0 2 1.127 1
gene 2 3 8 0.870317 0 3 0.870317 1
gene 2 4 8 0.20925 0 4 0.20925 1
gene 3 5 8 3.9873 0 5 3.9873 1
gene 1 6 8 1.53194 0 6 1.53194 0
gene 2 7 8 -5.42247 0 7 -5.42247 1
gene 2 3 11 -0.258577 0 12 -0.258577 1
gene 3 11 8 3.98214 0 13 3.98214 1
gene 1 6 43 1.67046 0 97 1.67046 1
gene 1 43 8 -0.571498 0 98 -0.571498 1
genomeend 113

/* Species #13 : (Size 9) (AF 33) (Age 6)  */


/* Organism #114 Fitness: 63 Error: 0 */
genomestart 114
trait 1 0.1 0 0 0 0 0 0 0 
trait 2 0.2 0 0 0 0 0 0 0 
trait 3 0.3 0 0 0 0 0 0 0 
node 1 2 1 1
node 2 2 1 1
node 3 3 1 1
node 4 3 1 1
node 5 1 1 1
node 6 1 1 1
node 7 3 1 3
node 8 3 0 2
node 11 1 0 0
node 15 1 0 0
node 22 1 0 0
node 26 1 0 0
node 44 1 0 0
gene 2 1 8 2.03016 0 1 2.03016 1
gene 3 2 8 -0.114148 0 2 -0.114148 0
gene 2 3 8 -3.48774 0 3 -3.48774 0
gene 1 4 8 -1.62792 0 4 -1.62792 1
gene 1 5 8 4.7469 0 5 4.7469 1
gene 1 6 8 8 0 6 8 1
gene 1 7 8 -0.480785 0 7 -0.480785 1
gene 3 3 11 6.24591 0 12 6.24591 1
gene 3 11 8 0.421271 0 13 0.421271 0
gene 3 11 15 0.0851162 0 20 0.0851162 1
gene 3 15 8 -0.453658 0 21 -0.453658 1
gene 3 2 22 1.27274 0 38 1.27274 0
gene 3 22 8 -2.47315 0 39 -2.47315 1
gene 3 2 26 5.85875 0 48 5.85875 1
gene 3 26 22 -0.691842 0 49 -0.691842 1
gene 2 4 15 4.70411 0 90 4.70411 1
gene 1 5 44 -2.13984 0 101 -2.13984 1
gene 1 44 8 3.38905 0 102 3.38905 1
genomeend 114

/* Organism #115 Fitness: 49 Error: 0 */
genomestart 115
trait 1 0.1 0 0 0 0 0 0 0 
trait 2 0.2 0 0 0 0 0 0 0 
trait 3 0.3 0 0 0 0 0 0 0 
node 1 2 1 1
node 2 2 1 1
node 3 3 1 1
node 4 3 1 1
node 5 1 1 1
node 6 1 1 1
node 7 3 1 3
node 8 3 0 2
node 11 1 0 0
node 15 1 0 0
node 22 1 0 0
node 26 1 0 0
node 44 1 0 0
gene 2 1 8 2.43335 0 1 2.43335 1
gene 3 2 8 -0.114148 0 2 -0.114148 0
gene 2 3 8 -2.01724 0 3 -2.01724 0
gene 1 4 8 -1.62792 0 4 -1.62792 1
gene 1 5 8 4.7469 0 5 4.7469 0
gene 1 6 8 7.78207 0 6 7.78207 1
gene 1 7 8 -0.480785 0 7 -0.480785 1
gene 3 3 11 5.06777 0 12 5.06777 1
gene 3 11 8 2.67056 0 13 2.67056 0
gene 3 11 15 -0.392927 0 20 -0.392927 1
gene 3 15 8 0.648383 0 21 0.648383 1
gene 3 2 22 -2.24625 0 38 -2.24625 0
gene 3 22 8 -0.251915 0 39 -0.251915 1
gene 3 2 26 5.85875 0 48 5.85875 1
gene 3 26 22 -0.691842 0 49 -0.691842 1
gene 2 4 15 4.70411 0 90 4.70411 1
gene 1 5 44 -2.13984 0 101 -2.13984 1
gene 1 44 8 3.99693 0 102 3.99693 1
genomeend 115

/* Organism #116 Fitness: 12 Error: 0 */
genomestart 116
trait 1 0.1 0 0 0 0 0 0 0 
trait 2 0.2 0 0 0 0 0 0 0 
trait 3 0.3 0 0 0 0 0 0 0 
node 1 2 1 1
node 2 2 1 1
node 3 3 1 1
node 4 3 1 1
node 5 1 1 1
node 6 1 1 1
node 7 3 1 3
node 8 3 0 2
node 11 1 0 0
node 15 1 0 0
node 22 1 0 0
node 26 1 0 0
node 44 1 0 0
gene 2 1 8 4.88492 0 1 4.88492 1
gene 3 2 8 0.355138 0 2 0.355138 0
gene 2 3 8 -4.13367 0 3 -4.13367 0
gene 1 4 8 -3.83493 0 4 -3.83493 1
gene 1 5 8 5.93047 0 5 5.93047 0
gene 1 6 8 1.16888 0 6 1.16888 1
gene 1 7 8 -2.46 0 7 -2.46 1
gene 3 3 11 6.28317 0 12 6.28317 1
gene 3 11 8 4.47597 0 13 4.47597 0
gene 3 11 15 -2.15558 0 20 -2.15558 1
gene 3 15 8 2.07441 0 21 2.07441 1
gene 3 2 22 0.0135102 0 38 0.0135102 0
gene 3 22 8 -2.47315 0 39 -2.47315 1
gene 3 2 26 5.53934 0 48 5.53934 1
gene 3 26 22 -2.98593 0 49 -2.98593 1
gene 1 4 15 2.9246 0 90 2.9246 1
gene 1 5 44 -0.528271 0 101 -0.528271 1
gene 1 44 8 5.26886 0 102 5.26886 1
genomeend 116

/* Organism #117 Fitness: 5 Error: 0 */
genomestart 117
trait 1 0.1 0 0 0 0 0 0 0 
trait 2 0.2 0 0 0 0 0 0 0 
trait 3 0.3 0 0 0 0 0 0 0 
node 1 2 1 1
node 2 2 1 1
node 3 3 1 1
node 4 3 1 1
node 5 1 1 1
node 6 1 1 1
node 7 3 1 3
node 8 3 0 2
node 11 1 0 0
node 15 1 0 0
node 22 1 0 0
node 26 1 0 0
node 44 1 0 0
gene 2 1 8 2.45609 0 1 2.45609 1
gene 3 2 8 -0.551911 0 2 -0.551911 1
gene 2 3 8 1.6797 0 3 1.6797 0
gene 1 4 8 -0.984003 0 4 -0.984003 1
gene 1 5 8 1.6407 0 5 1.6407 0
gene 1 6 8 -1.32374 0 6 -1.32374 1
gene 1 7 8 0.990412 0 7 0.990412 1
gene 3 3 11 4.04209 0 12 4.04209 1
gene 3 11 8 0.291552 0 13 0.291552 0
gene 3 11 15 -0.392927 0 20 -0.392927 1
gene 3 15 8 -0.0109562 0 21 -0.0109562 1
gene 3 2 22 2.04011 0 38 2.04011 0
gene 3 22 8 -0.251915 0 39 -0.251915 1
gene 3 2 26 0.118569 0 48 0.118569 1
gene 3 26 22 0.477712 0 49 0.477712 1
gene 1 4 15 3.2221 0 90 3.2221 1
gene 1 5 44 -3.49256 0 101 -3.49256 1
gene 1 44 8 1.61885 0 102 1.61885 1
genomeend 117

/* Organism #118 Fitness: 23 Error: 0 */
genomestart 118
trait 1 0.1 0 0 0 0 0 0 0 
trait 2 0.2 0 0 0 0 0 0 0 
trait 3 0.3 0 0 0 0 0 0 0 
node 1 2 1 1
node 2 2 1 1
node 3 3 1 1
node 4 3 1 1
node 5 1 1 1
node 6 1 1 1
node 7 3 1 3
node 8 3 0 2
node 11 1 0 0
node 15 1 0 0
node 22 1 0 0
node 26 1 0 0
node 44 1 0 0
gene 2 1 8 0.112593 0 1 0.112593 1
gene 3 2 8 1.6141 0 2 1.6141 1
gene 2 3 8 -2.44374 0 3 -2.44374 1
gene 1 4 8 0.467186 0 4 0.467186 1
gene 1 5 8 6.27528 0 5 6.27528 1
gene 1 6 8 7.57302 0 6 7.57302 1
gene 1 7 8 -1.06143 0 7 -1.06143 1
gene 3 3 11 4.74309 0 12 4.74309 1
gene 3 11 8 -0.650897 0 13 -0.650897 0
gene 3 11 15 2.52564 0 20 2.52564 1
gene 3 15 8 -0.905015 0 21 -0.905015 1
gene 3 2 22 1.67689 0 38 1.67689 0
gene 3 22 8 -3.95451 0 39 -3.95451 1
gene 3 2 26 4.41527 0 48 4.41527 1
gene 3 26 22 1.2257 0 49 1.2257 1
gene 2 4 15 -1.0877 0 90 -1.0877 1
gene 1 5 44 -2.13984 0 101 -2.13984 1
gene 1 44 8 -1.54302 0 102 -1.54302 1
genomeend 118

/* Organism #119 Fitness: 13 Error: 0 */
genomestart 119
trait 1 0.1 0 0 0 0 0 0 0 
trait 2 0.2 0 0 0 0 0 0 0 
trait 3 0.3 0 0 0 0 0 0 0 
node 1 2 1 1
node 2 2 1 1
node 3 3 1 1
node 4 3 1 1
node 5 1 1 1
node 6 1 1 1
node 7 3 1 3
node 8 3 0 2
node 11 1 0 0
node 15 1 0 0
node 22 1 0 0
node 26 1 0 0
node 44 1 0 0
gene 2 1 8 2.78163 0 1 2.78163 1
gene 3 2 8 1.47319 0 2 1.47319 0
gene 2 3 8 -2.01724 0 3 -2.01724 0
gene 1 4 8 -3.34625 0 4 -3.34625 1
gene 1 5 8 1.52495 0 5 1.52495 0
gene 1 6 8 6.50918 0 6 6.50918 1
gene 1 7 8 1.8413 0 7 1.8413 1
gene 3 3 11 6.44944 0 12 6.44944 1
gene 3 11 8 1.66868 0 13 1.66868 0
gene 3 11 15 0.639355 0 20 0.639355 1
gene 3 15 8 2.2698 0 21 2.2698 1
gene 3 2 22 -2.10396 0 38 -2.10396 0
gene 3 22 8 -1.12292 0 39 -1.12292 1
gene 3 2 26 -1.24713 0 48 -1.24713 1
gene 3 26 22 -0.930567 0 49 -0.930567 1
gene 1 4 15 3.04422 0 90 3.04422 1
gene 1 5 44 -2.41557 0 101 -2.41557 1
gene 1 44 8 3.20655 0 102 3.20655 1
genomeend 119

/* Organism #120 Fitness: 38 Error: 0 */
genomestart 120
trait 1 0.1 0 0 0 0 0 0 0 
trait 2 0.2 0 0 0 0 0 0 0 
trait 3 0.3 0 0 0 0 0 0 0 
node 1 2 1 1
node 2 2 1 1
node 3 1 1 1
node 4 3 1 1
node 5 1 1 1
node 6 1 1 1
node 7 3 1 3
node 8 3 0 2
node 11 1 0 0
node 15 1 0 0
node 22 1 0 0
node 26 1 0 0
node 44 1 0 0
gene 2 1 8 0.302194 0 1 0.302194 1
gene 3 2 8 -2.5158 0 2 -2.5158 0
gene 2 3 8 -0.804748 0 3 -0.804748 0
gene 1 4 8 -1.49574 0 4 -1.49574 1
gene 1 5 8 4.09118 0 5 4.09118 0
gene 1 6 8 8 0 6 8 1
gene 1 7 8 -0.93637 0 7 -0.93637 1
gene 3 3 11 6.47125 0 12 6.47125 1
gene 3 11 8 2.44076 0 13 2.44076 0
gene 3 11 15 -0.167179 0 20 -0.167179 1
gene 3 15 8 -1.74217 0 21 -1.74217 1
gene 3 2 22 -1.1863 0 38 -1.1863 0
gene 3 22 8 -1.57633 0 39 -1.57633 1
gene 3 2 26 2.24938 0 48 2.24938 1
gene 3 26 22 -2.11946 0 49 -2.11946 1
gene 1 4 15 5.29908 0 90 5.29908 1
gene 1 5 44 -2.37198 0 101 -2.37198 1
gene 1 44 8 4.29914 0 102 4.29914 1
genomeend 120

/* Organism #121 Fitness: 28 Error: 0 */
genomestart 121
trait 1 0.1 0 0 0 0 0 0 0 
trait 2 0.2 0 0 0 0 0 0 0 
trait 3 0.3 0 0 0 0 0 0 0 
node 1 2 1 1
node 2 2 1 1
node 3 3 1 1
node 4 3 1 1
node 5 1 1 1
node 6 1 1 1
node 7 3 1 3
node 8 3 0 2
node 11 1 0 0
node 15 1 0 0
node 22 1 0 0
node 26 1 0 0
node 44 1 0 0
gene 2 1 8 2.6551 0 1 2.6551 1
gene 3 2 8 0.260289 0 2 0.260289 0
gene 2 3 8 -0.974106 0 3 -0.974106 0
gene 1 4 8 0.247688 0 4 0.247688 1
gene 1 5 8 2.66849 0 5 2.66849 0
gene 1 6 8 5.45379 0 6 5.45379 1
gene 1 7 8 -0.514254 0 7 -0.514254 1
gene 3 3 11 4.3784 0 12 4.3784 1
gene 3 11 8 1.49999 0 13 1.49999 0
gene 3 11 15 0.939319 0 20 0.939319 1
gene 3 15 8 -1.82003 0 21 -1.82003 1
gene 3 2 22 -4.04376 0 38 -4.04376 0
gene 3 22 8 1.21601 0 39 1.21601 1
gene 3 2 26 2.72153 0 48 2.72153 1
gene 3 26 22 0.528597 0 49 0.528597 1
gene 1 4 15 2.41167 0 90 2.41167 1
gene 1 5 44 -1.99035 0 101 -1.99035 1
gene 1 44 8 1.77288 0 102 1.77288 1
genomeend 121

/* Organism #122 Fitness: 66 Error: 0 */
genomestart 122
trait 1 0.1 0 0 0 0 0 0 0 
trait 2 0.2 0 0 0 0 0 0 0 
trait 3 0.3 0 0 0 0 0 0 0 
node 1 2 1 1
node 2 2 1 1
node 3 3 1 1
node 4 3 1 1
node 5 1 1 1
node 6 1 1 1
node 7 3 1 3
node 8 3 0 2
node 11 1 0 0
node 15 1 0 0
node 22 1 0 0
node 26 1 0 0
node 44 1 0 0
gene 2 1 8 2.03016 0 1 2.03016 1
gene 3 2 8 -0.501244 0 2 -0.501244 0
gene 2 3 8 0.401196 0 3 0.401196 0
gene 1 4 8 -3.95991 0 4 -3.95991 1
gene 1 5 8 3.57733 0 5 3.57733 1
gene 1 6 8 6.53322 0 6 6.53322 1
gene 1 7 8 -0.581006 0 7 -0.581006 1
gene 3 3 11 6.24591 0 12 6.24591 1
gene 3 11 8 2.89342 0 13 2.89342 0
gene 3 11 15 1.27412 0 20 1.27412 1
gene 3 15 8 -0.160387 0 21 -0.160387 1
gene 3 2 22 0.00887048 0 38 0.00887048 0
gene 3 22 8 -4.28487 0 39 -4.28487 1
gene 3 2 26 3.93727 0 48 3.93727 1
gene 3 26 22 -0.691842 0 49 -0.691842 1
gene 2 4 15 4.32376 0 90 4.32376 1
gene 1 5 44 -1.0459 0 101 -1.0459 1
gene 1 44 8 2.01469 0 102 2.01469 1
genomeend 122

/* Species #14 : (Size 7) (AF 34.1429) (Age 5)  */


/* Organism #123 Fitness: 66 Error: 0 */
genomestart 123
trait 1 0.1 0 0 0 0 0 0 0 
trait 2 0.2 0 0 0 0 0 0 0 
trait 3 0.3 0 0 0 0 0 0 0 
node 1 2 1 1
node 2 3 1 1
node 3 3 1 1
node 4 3 1 1
node 5 1 1 1
node 6 1 1 1
node 7 3 1 3
node 8 2 0 2
node 11 1 0 0
node 46 1 0 0
gene 2 1 8 0.300232 0 1 0.300232 1
gene 3 2 8 4.84643 0 2 4.84643 0
gene 2 3 8 2.17357 0 3 2.17357 0
gene 2 4 8 4.03418 0 4 4.03418 1
gene 3 5 8 8 0 5 8 1
gene 1 6 8 1.40284 0 6 1.40284 1
gene 1 7 8 -3.51718 0 7 -3.51718 1
gene 2 3 11 -1.27212 0 12 -1.27212 1
gene 3 11 8 0.381811 0 13 0.381811 1
gene 3 2 46 2.2814 0 106 2.2814 1
gene 3 46 8 1.27438 0 107 1.27438 1
genomeend 123

/* Organism #124 Fitness: 31 Error: 0 */
genomestart 124
trait 1 0.1 0 0 0 0 0 0 0 
trait 2 0.2 0 0 0 0 0 0 0 
trait 3 0.3 0 0 0 0 0 0 0 
node 1 2 1 1
node 2 3 1 1
node 3 3 1 1
node 4 3 1 1
node 5 1 1 1
node 6 1 1 1
node 7 3 1 3
node 8 2 0 2
node 11 1 0 0
node 46 1 0 0
gene 2 1 8 -1.55033 0 1 -1.55033 1
gene 3 2 8 2.98752 0 2 2.98752 0
gene 2 3 8 1.99971 0 3 1.99971 0
gene 2 4 8 4.08838 0 4 4.08838 1
gene 3 5 8 7.66257 0 5 7.66257 1
gene 1 6 8 3.88952 0 6 3.88952 1
gene 1 7 8 -3.07934 0 7 -3.07934 1
gene 2 3 11 0.718492 0 12 0.718492 1
gene 3 11 8 -2.08967 0 13 -2.08967 1
gene 3 2 46 1.93523 0 106 1.93523 1
gene 3 46 8 -0.875064 0 107 -0.875064 1
genomeend 124

/* Organism #125 Fitness: 5 Error: 0 */
genomestart 125
trait 1 0.1 0 0 0 0 0 0 0 
trait 2 0.395176 0 0 0.237539 0 0.0502937 0 0 
trait 3 0.3 0 0 0 0 0 0 0 
node 1 2 1 1
node 2 3 1 1
node 3 3 1 1
node 4 3 1 1
node 5 1 1 1
node 6 1 1 1
node 7 3 1 3
node 8 2 0 2
node 11 1 0 0
node 46 1 0 0
gene 2 1 8 1.19781 0 1 1.19781 1
gene 3 2 8 5.44295 0 2 5.44295 0
gene 2 3 8 1.01839 0 3 1.01839 0
gene 2 4 8 -1.42868 0 4 -1.42868 1
gene 3 5 8 5.65655 0 5 5.65655 1
gene 1 6 8 -0.672409 0 6 -0.672409 1
gene 1 7 8 -5.26442 0 7 -5.26442 1
gene 2 3 11 -5.92516 0 12 -5.92516 1
gene 3 11 8 2.73065 0 13 2.73065 1
gene 3 2 46 0.840217 0 106 0.840217 1
gene 3 46 8 1.5452 0 107 1.5452 1
genomeend 125

/* Organism #126 Fitness: 38 Error: 0 */
genomestart 126
trait 1 0.1 0 0 0 0 0 0 0 
trait 2 0.2 0 0 0 0 0 0 0 
trait 3 0.3 0 0 0 0 0 0 0 
node 1 2 1 1
node 2 3 1 1
node 3 3 1 1
node 4 3 1 1
node 5 1 1 1
node 6 1 1 1
node 7 3 1 3
node 8 2 0 2
node 11 1 0 0
node 46 1 0 0
gene 2 1 8 1.62052 0 1 1.62052 1
gene 3 2 8 7.10661 0 2 7.10661 0
gene 2 3 8 0.515347 0 3 0.515347 0
gene 2 4 8 4.70401 0 4 4.70401 1
gene 3 5 8 8 0 5 8 1
gene 1 6 8 3.43934 0 6 3.43934 1
gene 1 7 8 -5.93364 0 7 -5.93364 1
gene 2 3 11 -1.30108 0 12 -1.30108 1
gene 3 11 8 -0.626535 0 13 -0.626535 1
gene 3 2 46 2.2814 0 106 2.2814 1
gene 3 46 8 1.27438 0 107 1.27438 1
genomeend 126

/* Organism #127 Fitness: 61 Error: 0 */
genomestart 127
trait 1 0.1 0 0 0 0 0 0 0 
trait 2 0.395176 0 0 0.237539 0 0.0502937 0 0 
trait 3 0.3 0 0 0 0 0 0 0 
node 1 2 1 1
node 2 3 1 1
node 3 3 1 1
node 4 3 1 1
node 5 1 1 1
node 6 1 1 1
node 7 3 1 3
node 8 2 0 2
node 11 1 0 0
node 46 1 0 0
gene 2 1 8 0.300232 0 1 0.300232 1
gene 3 2 8 4.84643 0 2 4.84643 0
gene 2 3 8 1.97095 0 3 1.97095 0
gene 2 4 8 4.03418 0 4 4.03418 1
gene 3 5 8 6.83125 0 5 6.83125 1
gene 1 6 8 1.40284 0 6 1.40284 1
gene 1 7 8 -3.51718 0 7 -3.51718 1
gene 2 3 11 -4.3612 0 12 -4.3612 1
gene 3 11 8 0.381811 0 13 0.381811 1
gene 3 2 46 2.2814 0 106 2.2814 1
gene 3 46 8 1.27438 0 107 1.27438 1
genomeend 127

/* Organism #128 Fitness: 12 Error: 0 */
genomestart 128
trait 1 0.1 0 0 0 0 0 0 0 
trait 2 0.2 0 0 0 0 0 0 0 
trait 3 0.3 0 0 0 0 0 0 0 
node 1 2 1 1
node 2 3 1 1
node 3 3 1 1
node 4 3 1 1
node 5 1 1 1
node 6 1 1 1
node 7 3 1 3
node 8 2 0 2
node 11 1 0 0
node 46 1 0 0
gene 2 1 8 1.59041 0 1 1.59041 1
gene 3 2 8 6.06084 0 2 6.06084 0
gene 2 3 8 0.410831 0 3 0.410831 0
gene 2 4 8 6.40043 0 4 6.40043 1
gene 3 5 8 8 0 5 8 1
gene 1 6 8 -0.922086 0 6 -0.922086 1
gene 1 7 8 -1.72881 0 7 -1.72881 1
gene 2 3 11 -2.10742 0 12 -2.10742 1
gene 3 11 8 -0.604264 0 13 -0.604264 1
gene 3 2 46 2.2814 0 106 2.2814 1
gene 3 46 8 1.27438 0 107 1.27438 1
genomeend 128

/* Organism #129 Fitness: 26 Error: 0 */
genomestart 129
trait 1 0.1 0 0 0 0 0 0 0 
trait 2 0.2 0 0 0 0 0 0 0 
trait 3 0.3 0 0 0 0 0 0 0 
node 1 2 1 1
node 2 3 1 1
node 3 3 1 1
node 4 3 1 1
node 5 1 1 1
node 6 1 1 1
node 7 3 1 3
node 8 2 0 2
node 11 1 0 0
node 46 1 0 0
gene 2 1 8 2.37342 0 1 2.37342 1
gene 3 2 8 5.11336 0 2 5.11336 0
gene 2 3 8 -1.41331 0 3 -1.41331 0
gene 2 4 8 2.87508 0 4 2.87508 1
gene 3 5 8 1.99949 0 5 1.99949 1
gene 1 6 8 2.98812 0 6 2.98812 1
gene 1 7 8 -3.03415 0 7 -3.03415 1
gene 2 3 11 -3.07544 0 12 -3.07544 1
gene 3 11 8 2.44188 0 13 2.44188 1
gene 3 2 46 -1.6425 0 106 -1.6425 1
gene 3 46 8 -0.984022 0 107 -0.984022 1
genomeend 129

/* Species #15 : (Size 7) (AF 62) (Age 5)  */


/* Organism #130 Fitness: 85 Error: 0 */
genomestart 130
trait 1 0.1 0 0 0 0 0 0 0 
trait 2 0.2 0 0 0 0 0 0 0 
trait 3 0.3 0 0 0 0 0 0 0 
node 1 2 1 1
node 2 3 1 1
node 3 3 1 1
node 4 3 1 1
node 5 1 1 1
node 6 1 1 1
node 7 3 1 3
node 8 2 0 2
node 11 1 0 0
node 49 1 0 0
gene 2 1 8 2.59362 0 1 2.59362 1
gene 3 2 8 0.17131 0 2 0.17131 1
gene 2 3 8 -1.25388 0 3 -1.25388 0
gene 2 4 8 1.47027 0 4 1.47027 1
gene 3 5 8 7.82279 0 5 7.82279 1
gene 1 6 8 0.136418 0 6 0.136418 1
gene 2 7 8 -2.27003 0 7 -2.27003 1
gene 2 3 11 -2.01376 0 12 -2.01376 0
gene 3 11 8 0.485977 0 13 0.485977 1
gene 2 6 11 -2.92425 0 72 -2.92425 1
gene 2 5 11 -0.137792 0 105 -0.137792 1
gene 2 3 49 -1.10891 0 115 -1.10891 1
gene 2 49 11 1.95801 0 116 1.95801 1
genomeend 130

/* Organism #131 Fitness: 59 Error: 0 */
genomestart 131
trait 1 0.1 0 0 0 0 0 0 0 
trait 2 0.2 0 0 0 0 0 0 0 
trait 3 0.3 0 0 0 0 0 0 0 
node 1 2 1 1
node 2 3 1 1
node 3 3 1 1
node 4 1 1 1
node 5 1 1 1
node 6 2 1 1
node 7 3 1 3
node 8 2 0 2
node 11 1 0 0
node 49 1 0 0
gene 2 1 8 3.14088 0 1 3.14088 1
gene 3 2 8 -0.0112479 0 2 -0.0112479 1
gene 2 3 8 -3.10972 0 3 -3.10972 0
gene 2 4 8 0.709023 0 4 0.709023 1
gene 3 5 8 7.7674 0 5 7.7674 1
gene 1 6 8 0.592366 0 6 0.592366 1
gene 2 7 8 -2.62505 0 7 -2.62505 1
gene 2 3 11 0.0814123 0 12 0.0814123 0
gene 3 11 8 -0.298789 0 13 -0.298789 1
gene 2 6 11 -1.36865 0 72 -1.36865 1
gene 2 5 11 -1.20562 0 105 -1.20562 1
gene 2 3 49 -1.10891 0 115 -1.10891 1
gene 2 49 11 1.95801 0 116 1.95801 1
genomeend 131

/* Organism #132 Fitness: 56 Error: 0 */
genomestart 132
trait 1 0.1 0 0 0 0 0 0 0 
trait 2 0.2 0 0 0 0 0 0 0 
trait 3 0.3 0 0 0 0 0 0 0 
node 1 2 1 1
node 2 3 1 1
node 3 3 1 1
node 4 3 1 1
node 5 1 1 1
node 6 1 1 1
node 7 3 1 3
node 8 2 0 2
node 11 1 0 0
node 49 1 0 0
gene 2 1 8 2.59362 0 1 2.59362 1
gene 3 2 8 -0.0724627 0 2 -0.0724627 1
gene 2 3 8 -1.36152 0 3 -1.36152 0
gene 2 4 8 -0.891765 0 4 -0.891765 1
gene 3 5 8 7.82279 0 5 7.82279 1
gene 1 6 8 0.136418 0 6 0.136418 1
gene 2 7 8 0.569894 0 7 0.569894 1
gene 2 3 11 -2.01376 0 12 -2.01376 0
gene 3 11 8 -1.87831 0 13 -1.87831 1
gene 2 6 11 -4.26425 0 72 -4.26425 1
gene 2 5 11 1.76891 0 105 1.76891 1
gene 2 3 49 -1.36191 0 115 -1.36191 1
gene 2 49 11 0.53901 0 116 0.53901 1
genomeend 132

/* Organism #133 Fitness: 44 Error: 0 */
genomestart 133
trait 1 0.1 0 0 0 0 0 0 0 
trait 2 0.2 0 0 0 0 0 0 0 
trait 3 0.3 0 0 0 0 0.647982 0 0 
node 1 2 1 1
node 2 3 1 1
node 3 3 1 1
node 4 3 1 1
node 5 1 1 1
node 6 1 1 1
node 7 2 1 3
node 8 2 0 2
node 11 1 0 0
node 49 1 0 0
gene 2 1 8 0.908577 0 1 0.908577 1
gene 3 2 8 -0.04257 0 2 -0.04257 1
gene 2 3 8 -1.9317 0 3 -1.9317 0
gene 2 4 8 2.13557 0 4 2.13557 1
gene 3 5 8 6.8245 0 5 6.8245 1
gene 1 6 8 2.56582 0 6 2.56582 1
gene 2 7 8 -3.30479 0 7 -3.30479 1
gene 2 3 11 -2.30809 0 12 -2.30809 0
gene 3 11 8 -0.262878 0 13 -0.262878 1
gene 2 6 11 -2.9261 0 72 -2.9261 1
gene 2 5 11 1.803 0 105 1.803 1
gene 2 3 49 0.184206 0 115 0.184206 1
gene 2 49 11 1.95801 0 116 1.95801 1
genomeend 133

/* Organism #134 Fitness: 36 Error: 0 */
genomestart 134
trait 1 0.1 0 0 0 0 0 0 0 
trait 2 0.2 0 0 0 0 0 0 0 
trait 3 0.3 0 0 0 0 0 0 0 
node 1 2 1 1
node 2 2 1 1
node 3 3 1 1
node 4 3 1 1
node 5 1 1 1
node 6 2 1 1
node 7 3 1 3
node 8 2 0 2
node 11 1 0 0
node 49 1 0 0
gene 2 1 8 3.68813 0 1 3.68813 1
gene 3 2 8 -2.11834 0 2 -2.11834 1
gene 2 3 8 -4.54773 0 3 -4.54773 0
gene 2 4 8 2.42796 0 4 2.42796 1
gene 3 5 8 8 0 5 8 1
gene 1 6 8 1.48348 0 6 1.48348 1
gene 2 7 8 -5.25898 0 7 -5.25898 1
gene 2 3 11 0.910814 0 12 0.910814 0
gene 3 11 8 -0.180379 0 13 -0.180379 1
gene 2 6 11 0.186942 0 72 0.186942 1
gene 2 5 11 0.0287019 0 105 0.0287019 1
gene 2 3 49 -1.10891 0 115 -1.10891 1
gene 2 49 11 -0.247823 0 116 -0.247823 1
genomeend 134

/* Organism #135 Fitness: 85 Error: 0 */
genomestart 135
trait 1 0.1 0 0 0 0 0 0 0 
trait 2 0.2 0 0 0 0 0 0 0 
trait 3 0.3 0 0 0 0 0 0 0 
node 1 2 1 1
node 2 3 1 1
node 3 3 1 1
node 4 3 1 1
node 5 1 1 1
node 6 1 1 1
node 7 3 1 3
node 8 2 0 2
node 11 1 0 0
node 49 1 0 0
gene 2 1 8 2.59362 0 1 2.59362 1
gene 3 2 8 0.17131 0 2 0.17131 1
gene 2 3 8 -1.25388 0 3 -1.25388 0
gene 2 4 8 1.47027 0 4 1.47027 1
gene 3 5 8 7.82279 0 5 7.82279 1
gene 1 6 8 0.136418 0 6 0.136418 1
gene 2 7 8 -2.27003 0 7 -2.27003 1
gene 2 3 11 -2.01376 0 12 -2.01376 0
gene 3 11 8 0.485977 0 13 0.485977 1
gene 2 6 11 -2.92425 0 72 -2.92425 1
gene 2 5 11 -0.137792 0 105 -0.137792 1
gene 2 3 49 -1.10891 0 115 -1.10891 1
gene 2 49 11 1.95801 0 116 1.95801 1
genomeend 135

/* Organism #136 Fitness: 69 Error: 0 */
genomestart 136
trait 1 0.1 0 0 0 0 0 0 0 
trait 2 0.2 0 0 0 0 0 0 0 
trait 3 0.3 0 0 0 0 0 0 0 
node 1 2 1 1
node 2 3 1 1
node 3 3 1 1
node 4 3 1 1
node 5 1 1 1
node 6 1 1 1
node 7 3 1 3
node 8 2 0 2
node 11 1 0 0
node 49 1 0 0
gene 2 1 8 0.951889 0 1 0.951889 1
gene 3 2 8 -1.26068 0 2 -1.26068 1
gene 2 3 8 -0.117161 0 3 -0.117161 0
gene 2 4 8 -0.36955 0 4 -0.36955 1
gene 3 5 8 5.55975 0 5 5.55975 1
gene 1 6 8 1.30378 0 6 1.30378 1
gene 2 7 8 -0.811245 0 7 -0.811245 1
gene 2 3 11 -1.18341 0 12 -1.18341 0
gene 3 11 8 2.2552 0 13 2.2552 1
gene 2 6 11 -2.17356 0 72 -2.17356 1
gene 2 5 11 -2.56331 0 105 -2.56331 1
gene 2 3 49 -2.07115 0 115 -2.07115 1
gene 2 49 11 2.15837 0 116 2.15837 1
genomeend 136

/* Species #16 : (Size 6) (AF 28.5) (Age 4)  */


/* Organism #137 Fitness: 60 Error: 0 */
genomestart 137
trait 1 0.1 0 0 0 0 0 0 0 
trait 2 0.2 0 0 0 0 0 0 0 
trait 3 0.3 0 0 0 0 0 0 0 
node 1 2 1 1
node 2 2 1 1
node 3 3 1 1
node 4 3 1 1
node 5 1 1 1
node 6 1 1 1
node 7 3 1 3
node 8 3 0 2
node 11 1 0 0
node 15 1 0 0
node 22 1 0 0
node 26 1 0 0
node 41 1 0 0
gene 2 1 8 -0.542005 0 1 -0.542005 1
gene 3 2 8 0.957917 0 2 0.957917 0
gene 2 3 8 -0.519157 0 3 -0.519157 0
gene 1 4 8 2.44634 0 4 2.44634 1
gene 1 5 8 1.16891 0 5 1.16891 1
gene 1 6 8 3.47725 0 6 3.47725 1
gene 1 7 8 -1.69634 0 7 -1.69634 1
gene 3 3 11 3.55875 0 12 3.55875 1
gene 3 11 8 1.65522 0 13 1.65522 0
gene 3 11 15 2.29668 0 20 2.29668 1
gene 3 15 8 2.61843 0 21 2.61843 1
gene 3 2 22 -1.111 0 38 -1.111 0
gene 3 22 8 -1.98382 0 39 -1.98382 1
gene 3 2 26 1.20413 0 48 1.20413 1
gene 3 26 22 1 0 49 1 0
gene 3 26 41 -2.10381 0 88 -2.10381 1
gene 3 41 22 1 0 89 1 1
gene 2 22 15 -0.138072 0 127 -0.138072 1
genomeend 137

/* Organism #138 Fitness: 18 Error: 0 */
genomestart 138
trait 1 0.1 0 0 0 0 0 0 0 
trait 2 0 0.93064 0 0 0 0 0 0 
trait 3 0.030507 0 0 0 0 0 0 0 
node 1 2 1 1
node 2 2 1 1
node 3 3 1 1
node 4 3 1 1
node 5 1 1 1
node 6 1 1 1
node 7 3 1 3
node 8 3 0 2
node 11 1 0 0
node 15 1 0 0
node 22 1 0 0
node 26 1 0 0
node 41 1 0 0
gene 2 1 8 0.493609 0 1 0.493609 1
gene 3 2 8 0.146049 0 2 0.146049 0
gene 2 3 8 -0.327196 0 3 -0.327196 0
gene 1 4 8 0.161105 0 4 0.161105 1
gene 1 5 8 2.92702 0 5 2.92702 1
gene 1 6 8 2.33007 0 6 2.33007 1
gene 1 7 8 -1.88914 0 7 -1.88914 1
gene 3 3 11 4.30786 0 12 4.30786 1
gene 3 11 8 2.20956 0 13 2.20956 0
gene 3 11 15 4.09011 0 20 4.09011 1
gene 3 15 8 -0.593025 0 21 -0.593025 1
gene 3 2 22 -3.98332 0 38 -3.98332 0
gene 3 22 8 -3.09762 0 39 -3.09762 1
gene 3 2 26 1.24629 0 48 1.24629 1
