
/* Species #3 : (Size 11) (AF 77.6364) (Age 21)  */


/* Organism #0 Fitness: 250 Error: 0 */
genomestart 0
trait 1 0.0501709 0.375191 0.00785899 0 0.338261 0 0.49515 0 
trait 2 0.2 0 0 0 0 0 0 0 
trait 3 0.3 0 0 0 0 0 0 0 
node 1 2 1 1
node 2 3 1 1
node 3 3 1 1
node 4 3 1 1
node 5 1 1 1
node 6 1 1 1
node 7 3 1 3
node 8 2 0 2
node 11 1 0 0
gene 2 1 8 -1.887 0 1 -1.887 1
gene 3 2 8 2.26463 0 2 2.26463 1
gene 3 3 8 1.97054 0 3 1.97054 0
gene 2 4 8 -4.99692 0 4 -4.99692 1
gene 1 5 8 3.42837 0 5 3.42837 1
gene 1 6 8 2.30211 0 6 2.30211 1
gene 2 7 8 -2.40218 0 7 -2.40218 1
gene 2 3 11 -2.1685 0 12 -2.1685 1
gene 3 11 8 1.92317 0 13 1.92317 1
gene 3 4 11 -0.302006 0 37 -0.302006 1
gene 1 5 11 0.381869 0 163 0.381869 1
genomeend 0

/* Organism #1 Fitness: 24 Error: 0 */
genomestart 1
trait 1 0.0501709 0.375191 0.00785899 0 0.338261 0 0.49515 0 
trait 2 0.2 0 0 0 0 0 0 0 
trait 3 0.3 0 0 0 0 0 0 0 
node 1 2 1 1
node 2 3 1 1
node 3 3 1 1
node 4 3 1 1
node 5 1 1 1
node 6 1 1 1
node 7 3 1 3
node 8 2 0 2
node 11 1 0 0
gene 2 1 8 -2.62753 0 1 -2.62753 1
gene 3 2 8 2.46928 0 2 2.46928 1
gene 3 3 8 -1.62696 0 3 -1.62696 0
gene 2 4 8 -7.0805 0 4 -7.0805 1
gene 1 5 8 2.99291 0 5 2.99291 1
gene 1 6 8 0.858071 0 6 0.858071 1
gene 2 7 8 0.596307 0 7 0.596307 1
gene 2 3 11 0.890776 0 12 0.890776 1
gene 3 11 8 -0.621939 0 13 -0.621939 1
gene 3 4 11 -2.14257 0 37 -2.14257 1
gene 1 5 11 2.79273 0 163 2.79273 1
genomeend 1

/* Organism #2 Fitness: 49 Error: 0 */
genomestart 2
trait 1 0.0502991 0.374225 0.0137532 0 0.334234 0 0.493876 0 
trait 2 0 0 0 0 0.0474711 0 0 0 
trait 3 0.3 0 0 0 0 0 0 0 
node 1 2 1 1
node 2 3 1 1
node 3 3 1 1
node 4 3 1 1
node 5 1 1 1
node 6 2 1 1
node 7 1 1 3
node 8 2 0 2
node 11 1 0 0
gene 2 1 8 1.05785 0 1 1.05785 1
gene 3 2 8 -1.5956 0 2 -1.5956 1
gene 3 3 8 6.89632 0 3 6.89632 0
gene 2 4 8 -8 0 4 -8 1
gene 1 5 8 6.65519 0 5 6.65519 1
gene 2 6 8 1.44213 0 6 1.44213 1
gene 2 7 8 -1.8188 0 7 -1.8188 1
gene 2 3 11 -2.13407 0 12 -2.13407 1
gene 3 11 8 3.8325 0 13 3.8325 1
gene 3 4 11 2.14102 0 37 2.14102 1
gene 1 5 11 1.22808 0 163 1.22808 1
genomeend 2

/* Organism #3 Fitness: 5 Error: 0 */
genomestart 3
trait 1 0.0502991 0.374225 0.0137532 0 0.334234 0 0.493876 0 
trait 2 0 0 0 0 0.0474711 0 0 0 
trait 3 0.3 0 0 0 0 0 0 0 
node 1 2 1 1
node 2 3 1 1
node 3 3 1 1
node 4 3 1 1
node 5 1 1 1
node 6 2 1 1
node 7 1 1 3
node 8 2 0 2
node 11 3 0 0
gene 2 1 8 1.81321 0 1 1.81321 1
gene 3 2 8 -0.153836 0 2 -0.153836 1
gene 3 3 8 6.23181 0 3 6.23181 0
gene 2 4 8 -5.60683 0 4 -5.60683 1
gene 1 5 8 3.8195 0 5 3.8195 1
gene 2 6 8 -0.648862 0 6 -0.648862 1
gene 2 7 8 1.14048 0 7 1.14048 1
gene 2 3 11 -3.36469 0 12 -3.36469 1
gene 3 11 8 0.279212 0 13 0.279212 1
gene 3 4 11 2.99656 0 37 2.99656 1
gene 1 5 11 1.61073 0 163 1.61073 1
genomeend 3

/* Organism #4 Fitness: 54 Error: 0 */
genomestart 4
trait 1 0.050235 0.374708 0.0108061 0 0.336247 0 0.494513 0 
trait 2 0.1 0 0 0 0.0237355 0 0 0 
trait 3 0.3 0 0 0 0 0 0 0 
node 1 2 1 1
node 2 3 1 1
node 3 3 1 1
node 4 3 1 1
node 5 1 1 1
node 6 2 1 1
node 7 1 1 3
node 8 2 0 2
node 11 1 0 0
gene 2 1 8 0.796026 0 1 0.796026 1
gene 3 2 8 2.26463 0 2 2.26463 1
gene 3 3 8 6.01057 0 3 6.01057 0
gene 2 4 8 -4.99692 0 4 -4.99692 1
gene 1 5 8 4.5363 0 5 4.5363 1
gene 2 6 8 1.18827 0 6 1.18827 1
gene 2 7 8 -1.27347 0 7 -1.27347 1
gene 2 3 11 -1.03154 0 12 -1.03154 1
gene 3 11 8 0.492387 0 13 0.492387 1
gene 3 4 11 1.05355 0 37 1.05355 1
gene 1 5 11 2.79273 0 163 2.79273 1
genomeend 4

/* Organism #5 Fitness: 5 Error: 0 */
genomestart 5
trait 1 0.0501709 0.375191 0.00785899 0 0.338261 0 0.49515 0 
trait 2 0.2 0 0 0 0 0 0 0 
trait 3 0.3 0 0 0 0 0 0 0 
node 1 2 1 1
node 2 3 1 1
node 3 3 1 1
node 4 3 1 1
node 5 1 1 1
node 6 1 1 1
node 7 3 1 3
node 8 2 0 2
node 11 1 0 0
gene 2 1 8 -1.63204 0 1 -1.63204 1
gene 3 2 8 1.52403 0 2 1.52403 1
gene 3 3 8 0.272032 0 3 0.272032 0
gene 2 4 8 -7.17234 0 4 -7.17234 1
gene 1 5 8 5.43497 0 5 5.43497 1
gene 1 6 8 -0.291484 0 6 -0.291484 1
gene 2 7 8 -1.11489 0 7 -1.11489 1
gene 2 3 11 -2.28749 0 12 -2.28749 1
gene 3 11 8 4.36692 0 13 4.36692 1
gene 3 4 11 -3.03844 0 37 -3.03844 1
gene 1 5 11 2.79273 0 163 2.79273 1
genomeend 5

/* Organism #6 Fitness: 32 Error: 0 */
genomestart 6
trait 1 0.0501709 0.375191 0.00785899 0 0.338261 0 0.49515 0 
trait 2 0.2 0 0 0 0 0 0 0 
trait 3 0.3 0 0 0 0 0 0 0 
node 1 2 1 1
node 2 3 1 1
node 3 3 1 1
node 4 3 1 1
node 5 1 1 1
node 6 1 1 1
node 7 3 1 3
node 8 2 0 2
node 11 1 0 0
gene 2 1 8 -1.81269 0 1 -1.81269 1
gene 3 2 8 2.9067 0 2 2.9067 1
gene 3 3 8 1.66177 0 3 1.66177 0
gene 2 4 8 -6.76154 0 4 -6.76154 1
gene 1 5 8 2.38711 0 5 2.38711 1
gene 1 6 8 3.95334 0 6 3.95334 1
gene 2 7 8 -3.47506 0 7 -3.47506 1
gene 2 3 11 -2.88391 0 12 -2.88391 1
gene 3 11 8 -1.71093 0 13 -1.71093 1
gene 3 4 11 -2.14257 0 37 -2.14257 1
gene 1 5 11 3.46268 0 163 3.46268 1
genomeend 6

/* Organism #7 Fitness: 254 Error: 0 */
genomestart 7
trait 1 0.0502991 0.374225 0.0137532 0 0.334234 0 0.493876 0 
trait 2 0 0 0 0 0.0474711 0 0 0 
trait 3 0.3 0 0 0 0 0 0 0 
node 1 2 1 1
node 2 3 1 1
node 3 3 1 1
node 4 3 1 1
node 5 1 1 1
node 6 2 1 1
node 7 1 1 3
node 8 2 0 2
node 11 1 0 0
gene 2 1 8 -0.615394 0 1 -0.615394 1
gene 3 2 8 -0.619879 0 2 -0.619879 1
gene 3 3 8 -0.171375 0 3 -0.171375 0
gene 2 4 8 -6.66187 0 4 -6.66187 1
gene 1 5 8 4.43673 0 5 4.43673 1
gene 2 6 8 1.11801 0 6 1.11801 1
gene 2 7 8 -2.75585 0 7 -2.75585 1
gene 2 3 11 -3.36469 0 12 -3.36469 1
gene 3 11 8 3.49828 0 13 3.49828 1
gene 3 4 11 -0.116771 0 37 -0.116771 1
gene 1 5 11 0.517993 0 163 0.517993 1
genomeend 7

/* Organism #8 Fitness: 76 Error: 0 */
genomestart 8
trait 1 0.0501709 0.375191 0.00785899 0 0.338261 0 0.49515 0 
trait 2 0.2 0 0 0 0 0 0 0 
trait 3 0.3 0 0 0 0 0 0 0 
node 1 2 1 1
node 2 3 1 1
node 3 3 1 1
node 4 3 1 1
node 5 1 1 1
node 6 1 1 1
node 7 3 1 3
node 8 2 0 2
node 11 1 0 0
gene 2 1 8 -5.37877 0 1 -5.37877 1
gene 3 2 8 3.40191 0 2 3.40191 1
gene 3 3 8 -1.63685 0 3 -1.63685 0
gene 2 4 8 -6.40954 0 4 -6.40954 1
gene 1 5 8 1.18331 0 5 1.18331 1
gene 1 6 8 3.63516 0 6 3.63516 1
gene 2 7 8 -2.82083 0 7 -2.82083 1
gene 2 3 11 -2.56815 0 12 -2.56815 1
gene 3 11 8 0.845445 0 13 0.845445 1
gene 3 4 11 0.440361 0 37 0.440361 1
gene 1 5 11 0.583147 0 163 0.583147 1
genomeend 8

/* Organism #9 Fitness: 6 Error: 0 */
genomestart 9
trait 1 0.050235 0.374708 0.0108061 0 0.336247 0 0.494513 0 
trait 2 0.1 0 0 0 0.0237355 0 0 0 
trait 3 0.3 0 0 0 0 0 0 0 
node 1 2 1 1
node 2 3 1 1
node 3 3 1 1
node 4 3 1 1
node 5 1 1 1
node 6 2 1 1
node 7 1 1 3
node 8 2 0 2
node 11 1 0 0
gene 2 1 8 0.305203 0 1 0.305203 1
gene 3 2 8 1.94233 0 2 1.94233 1
gene 3 3 8 1.19054 0 3 1.19054 0
gene 2 4 8 -8 0 4 -8 1
gene 1 5 8 3.41564 0 5 3.41564 1
gene 2 6 8 -1.03627 0 6 -1.03627 1
gene 2 7 8 0.0374259 0 7 0.0374259 1
gene 2 3 11 0.126365 0 12 0.126365 1
gene 3 11 8 3.14038 0 13 3.14038 1
gene 3 4 11 -0.990545 0 37 -0.990545 1
gene 1 5 11 1.79954 0 163 1.79954 1
genomeend 9

/* Organism #10 Fitness: 99 Error: 0 */
genomestart 10
trait 1 0.0502991 0.374225 0.0137532 0 0.334234 0 0.493876 0 
trait 2 0 0 0 0 0.0474711 0 0 0 
trait 3 0.3 0 0 0 0 0 0 0 
node 1 2 1 1
node 2 3 1 1
node 3 3 1 1
node 4 3 1 1
node 5 1 1 1
node 6 2 1 1
node 7 1 1 3
node 8 2 0 2
node 11 1 0 0
gene 2 1 8 0.796026 0 1 0.796026 1
gene 3 2 8 -0.680228 0 2 -0.680228 1
gene 3 3 8 6.01057 0 3 6.01057 0
gene 2 4 8 -7.78978 0 4 -7.78978 1
gene 1 5 8 4.5363 0 5 4.5363 1
gene 2 6 8 1.18827 0 6 1.18827 1
gene 2 7 8 -1.27347 0 7 -1.27347 1
gene 2 3 11 -3.36469 0 12 -3.36469 1
gene 3 11 8 2.60957 0 13 2.60957 1
gene 3 4 11 1.05355 0 37 1.05355 1
gene 1 5 11 0.435777 0 163 0.435777 1
genomeend 10

/* Species #4 : (Size 11) (AF 41.0909) (Age 20)  */


/* Organism #11 Fitness: 111 Error: 0 */
genomestart 11
trait 1 0.1 0 0 0 0 0 0 0 
trait 2 0.2 0 0 0 0 0 0 0 
trait 3 0.3 0 0 0 0 0 0 0 
node 1 2 1 1
node 2 3 1 1
node 3 3 1 1
node 4 3 1 1
node 5 1 1 1
node 6 1 1 1
node 7 3 1 3
node 8 2 0 2
node 11 1 0 0
node 23 1 0 0
gene 2 1 8 -0.738309 0 1 -0.738309 1
gene 1 2 8 -0.294996 0 2 -0.294996 1
gene 3 3 8 1.69233 0 3 1.69233 0
gene 2 4 8 1.01804 0 4 1.01804 0
gene 1 5 8 4.35569 0 5 4.35569 1
gene 2 6 8 0.229895 0 6 0.229895 1
gene 1 7 8 -0.0490528 0 7 -0.0490528 1
gene 3 3 11 0.222824 0 12 0.222824 1
gene 3 11 8 -0.36559 0 13 -0.36559 1
gene 2 4 23 2.61094 0 41 2.61094 1
gene 2 23 8 -0.745193 0 42 -0.745193 1
gene 2 6 11 -0.405709 0 45 -0.405709 1
genomeend 11

/* Organism #12 Fitness: 81 Error: 0 */
genomestart 12
trait 1 0.1 0 0 0 0 0 0 0 
trait 2 0.2 0 0 0 0 0 0 0 
trait 3 0.3 0 0 0 0 0 0 0 
node 1 2 1 1
node 2 3 1 1
node 3 3 1 1
node 4 3 1 1
node 5 1 1 1
node 6 1 1 1
node 7 3 1 3
node 8 2 0 2
node 11 1 0 0
node 23 1 0 0
gene 2 1 8 1.14795 0 1 1.14795 1
gene 1 2 8 -0.299432 0 2 -0.299432 1
gene 3 3 8 -0.212219 0 3 -0.212219 0
gene 2 4 8 2.68619 0 4 2.68619 0
gene 1 5 8 6.2141 0 5 6.2141 1
gene 2 6 8 2.50659 0 6 2.50659 1
gene 1 7 8 1.44802 0 7 1.44802 1
gene 3 3 11 -0.397209 0 12 -0.397209 1
gene 3 11 8 -1.74425 0 13 -1.74425 1
gene 2 4 23 1.62567 0 41 1.62567 1
gene 2 23 8 -2.75944 0 42 -2.75944 1
gene 2 6 11 -0.698983 0 45 -0.698983 1
gene 3 1 11 0.082968 0 270 0.082968 1
genomeend 12

/* Organism #13 Fitness: 48 Error: 0 */
genomestart 13
trait 1 0.1 0 0 0 0 0 0 0 
trait 2 0.2 0 0 0 0 0 0 0 
trait 3 0.3 0 0 0 0 0 0 0 
node 1 2 1 1
node 2 3 1 1
node 3 3 1 1
node 4 3 1 1
node 5 1 1 1
node 6 1 1 1
node 7 3 1 3
node 8 2 0 2
node 11 1 0 0
node 23 1 0 0
gene 2 1 8 2.50884 0 1 2.50884 1
gene 1 2 8 1.67788 0 2 1.67788 1
gene 3 3 8 1.0482 0 3 1.0482 0
gene 2 4 8 -0.543019 0 4 -0.543019 1
gene 1 5 8 3.44562 0 5 3.44562 1
gene 2 6 8 0.423655 0 6 0.423655 1
gene 1 7 8 2.75472 0 7 2.75472 1
gene 3 3 11 1.14783 0 12 1.14783 1
gene 3 11 8 -0.695856 0 13 -0.695856 1
gene 2 4 23 2.82598 0 41 2.82598 1
gene 2 23 8 -1.75232 0 42 -1.75232 1
gene 2 6 11 -0.552346 0 45 -0.552346 1
genomeend 13

/* Organism #14 Fitness: 56 Error: 0 */
genomestart 14
trait 1 0.1 0 0 0 0 0 0 0 
trait 2 0.2 0 0 0 0 0 0 0 
trait 3 0.3 0 0 0 0 0 0 0 
node 1 2 1 1
node 2 3 1 1
node 3 3 1 1
node 4 3 1 1
node 5 1 1 1
node 6 1 1 1
node 7 3 1 3
node 8 2 0 2
node 11 1 0 0
node 23 1 0 0
gene 2 1 8 -0.738309 0 1 -0.738309 1
gene 1 2 8 -0.299432 0 2 -0.299432 1
gene 3 3 8 -0.212219 0 3 -0.212219 0
gene 2 4 8 2.68619 0 4 2.68619 0
gene 1 5 8 4.35569 0 5 4.35569 1
gene 2 6 8 2.50659 0 6 2.50659 1
gene 1 7 8 1.44802 0 7 1.44802 1
gene 3 3 11 -0.397209 0 12 -0.397209 1
gene 3 11 8 -1.74425 0 13 -1.74425 1
gene 2 4 23 1.62567 0 41 1.62567 1
gene 2 23 8 -2.75944 0 42 -2.75944 1
gene 2 6 11 -0.698983 0 45 -0.698983 1
genomeend 14

/* Organism #15 Fitness: 45 Error: 0 */
genomestart 15
trait 1 0.1 0 0 0 0 0 0 0 
trait 2 0.2 0 0 0 0 0 0 0 
trait 3 0.3 0 0 0 0 0 0 0 
node 1 2 1 1
node 2 3 1 1
node 3 3 1 1
node 4 3 1 1
node 5 1 1 1
node 6 1 1 1
node 7 3 1 3
node 8 2 0 2
node 11 1 0 0
node 23 1 0 0
gene 2 1 8 3.28283 0 1 3.28283 1
gene 1 2 8 2.19562 0 2 2.19562 1
gene 3 3 8 0.302297 0 3 0.302297 0
gene 2 4 8 -1.25485 0 4 -1.25485 0
gene 1 5 8 7.98457 0 5 7.98457 1
gene 2 6 8 4.71948 0 6 4.71948 1
gene 1 7 8 2.21788 0 7 2.21788 1
gene 3 3 11 -2.20148 0 12 -2.20148 1
gene 3 11 8 -3.30424 0 13 -3.30424 1
gene 2 4 23 -0.594449 0 41 -0.594449 1
gene 2 23 8 -4.0892 0 42 -4.0892 1
gene 2 6 11 2.27915 0 45 2.27915 1
genomeend 15

/* Organism #16 Fitness: 6 Error: 0 */
genomestart 16
trait 1 0.1 0 0 0 0 0 0 0 
trait 2 0 0 0 0.631938 0 0 0 0 
trait 3 0.3 0 0 0 0 0 0 0 
node 1 2 1 1
node 2 3 1 1
node 3 3 1 1
node 4 3 1 1
node 5 1 1 1
node 6 1 1 1
node 7 3 1 3
node 8 2 0 2
node 11 1 0 0
node 23 1 0 0
gene 2 1 8 0.589823 0 1 0.589823 1
gene 1 2 8 1.03524 0 2 1.03524 1
gene 3 3 8 2.49313 0 3 2.49313 0
gene 2 4 8 1.5178 0 4 1.5178 0
gene 1 5 8 5.82036 0 5 5.82036 1
gene 2 6 8 -1.80287 0 6 -1.80287 1
gene 1 7 8 -0.0490528 0 7 -0.0490528 1
gene 2 3 11 1.33587 0 12 1.33587 1
gene 3 11 8 0.579524 0 13 0.579524 1
gene 2 4 23 0.247724 0 41 0.247724 1
gene 2 23 8 -1.55429 0 42 -1.55429 1
gene 2 6 11 -0.841598 0 45 -0.841598 1
genomeend 16

/* Organism #17 Fitness: 5 Error: 0 */
genomestart 17
trait 1 0.1 0 0 0 0 0 0 0 
trait 2 0.2 0 0 0 0 0 0 0 
trait 3 0.3 0 0 0 0 0 0 0 
node 1 2 1 1
node 2 3 1 1
node 3 3 1 1
node 4 3 1 1
node 5 1 1 1
node 6 1 1 1
node 7 3 1 3
node 8 2 0 2
node 11 1 0 0
node 23 1 0 0
gene 2 1 8 -2.01167 0 1 -2.01167 1
gene 1 2 8 1.6828 0 2 1.6828 1
gene 3 3 8 0.752395 0 3 0.752395 0
gene 2 4 8 1.97624 0 4 1.97624 0
gene 1 5 8 5.1282 0 5 5.1282 1
gene 2 6 8 -0.58497 0 6 -0.58497 1
gene 1 7 8 -0.598327 0 7 -0.598327 1
gene 3 3 11 1.43991 0 12 1.43991 1
gene 3 11 8 -0.0574157 0 13 -0.0574157 1
gene 2 4 23 1.73458 0 41 1.73458 1
gene 2 23 8 -0.745193 0 42 -0.745193 1
gene 2 6 11 0.35298 0 45 0.35298 1
genomeend 17

/* Organism #18 Fitness: 28 Error: 0 */
genomestart 18
trait 1 0.1 0 0 0 0 0 0 0 
trait 2 1 0 0 0 0 0.660767 0.379469 0.471277 
trait 3 0.3 0 0 0 0 0 0 0 
node 1 2 1 1
node 2 3 1 1
node 3 3 1 1
node 4 3 1 1
node 5 1 1 1
node 6 1 1 1
node 7 3 1 3
node 8 2 0 2
node 11 1 0 0
node 23 1 0 0
gene 2 1 8 -0.259698 0 1 -0.259698 1
gene 1 2 8 -2.30482 0 2 -2.30482 1
gene 3 3 8 -0.212219 0 3 -0.212219 0
gene 2 4 8 3.01205 0 4 3.01205 0
gene 1 5 8 7.13336 0 5 7.13336 1
gene 2 6 8 0.843009 0 6 0.843009 1
gene 1 7 8 3.79546 0 7 3.79546 1
gene 3 3 11 0.613905 0 12 0.613905 1
gene 3 11 8 -4.17372 0 13 -4.17372 1
gene 2 4 23 -2.22783 0 41 -2.22783 1
gene 2 23 8 -4.8441 0 42 -4.8441 1
gene 2 6 11 -0.67355 0 45 -0.67355 1
genomeend 18

/* Organism #19 Fitness: 29 Error: 0 */
genomestart 19
trait 1 0.1 0 0 0 0 0 0 0 
trait 2 0.2 0 0 0 0 0 0 0 
trait 3 0.3 0.95614 0 0 0.799606 0.36876 0 0 
node 1 2 1 1
node 2 3 1 1
node 3 3 1 1
node 4 1 1 1
node 5 1 1 1
node 6 1 1 1
node 7 3 1 3
node 8 2 0 2
node 11 1 0 0
node 23 1 0 0
gene 2 1 8 -0.556424 0 1 -0.556424 1
gene 1 2 8 -1.75913 0 2 -1.75913 1
gene 3 3 8 -1.50137 0 3 -1.50137 0
gene 2 4 8 1.51264 0 4 1.51264 0
gene 1 5 8 4.68909 0 5 4.68909 1
gene 2 6 8 2.72457 0 6 2.72457 1
gene 1 7 8 2.08795 0 7 2.08795 1
gene 3 3 11 -0.664624 0 12 -0.664624 1
gene 3 11 8 0.245033 0 13 0.245033 1
gene 2 4 23 4.23449 0 41 4.23449 1
gene 2 23 8 -1.08316 0 42 -1.08316 1
gene 2 6 11 0.687865 0 45 0.687865 1
genomeend 19

/* Organism #20 Fitness: 34 Error: 0 */
genomestart 20
trait 1 0.1 0 0 0 0 0 0 0 
trait 2 0.2 0 0 0 0 0 0 0 
trait 3 0.3 0 0 0 0 0 0 0 
node 1 2 1 1
node 2 3 1 1
node 3 3 1 1
node 4 3 1 1
node 5 1 1 1
node 6 1 1 1
node 7 3 1 3
node 8 2 0 2
node 11 1 0 0
node 23 1 0 0
gene 2 1 8 -2.76857 0 1 -2.76857 1
gene 1 2 8 1.36523 0 2 1.36523 1
gene 3 3 8 -0.431121 0 3 -0.431121 0
gene 2 4 8 -1.20626 0 4 -1.20626 0
gene 1 5 8 5.31059 0 5 5.31059 1
gene 2 6 8 0.48036 0 6 0.48036 1
gene 1 7 8 -1.84419 0 7 -1.84419 1
gene 3 3 11 -0.322959 0 12 -0.322959 1
gene 3 11 8 -2.05569 0 13 -2.05569 1
gene 2 4 23 2.0468 0 41 2.0468 1
gene 2 23 8 -0.745193 0 42 -0.745193 1
gene 2 6 11 -2.50987 0 45 -2.50987 1
genomeend 20

/* Organism #21 Fitness: 9 Error: 0 */
genomestart 21
trait 1 0.1 0 0 0 0 0 0 0 
trait 2 0.2 0 0 0 0 0 0 0 
trait 3 0.3 0 0 0 0 0 0 0 
node 1 2 1 1
node 2 3 1 1
node 3 3 1 1
node 4 3 1 1
node 5 1 1 1
node 6 1 1 1
node 7 3 1 3
node 8 2 0 2
node 11 1 0 0
node 23 1 0 0
gene 2 1 8 -6.8067 0 1 -6.8067 1
gene 1 2 8 0.868123 0 2 0.868123 1
gene 3 3 8 -0.185587 0 3 -0.185587 0
gene 2 4 8 2.56152 0 4 2.56152 1
gene 3 5 8 3.13189 0 5 3.13189 0
gene 1 6 8 -4.43381 0 6 -4.43381 0
gene 1 7 8 -1.0856 0 7 -1.0856 1
gene 3 3 11 -1.71102 0 12 -1.71102 1
gene 3 11 8 0.929539 0 13 0.929539 1
gene 2 4 23 5.00153 0 41 5.00153 1
gene 2 23 8 1.56842 0 42 1.56842 1
gene 2 6 11 -2.40614 0 45 -2.40614 1
genomeend 21

/* Species #5 : (Size 21) (AF 44.7619) (Age 20)  */


/* Organism #22 Fitness: 142 Error: 0 */
genomestart 22
trait 1 0.1 0 0 0 0 0 0 0 
trait 2 0.2 0 0 0 0 0 0 0 
trait 3 0.3 0 0 0 0 0 0 0 
node 1 2 1 1
node 2 3 1 1
node 3 3 1 1
node 4 3 1 1
node 5 1 1 1
node 6 1 1 1
node 7 3 1 3
node 8 2 0 2
node 11 1 0 0
node 24 1 0 0
node 88 1 0 0
gene 2 1 8 4.28639 0 1 4.28639 1
gene 3 2 8 2.81508 0 2 2.81508 1
gene 3 3 8 -3.37278 0 3 -3.37278 1
gene 2 4 8 1.84566 0 4 1.84566 1
gene 1 5 8 4.00102 0 5 4.00102 1
gene 1 6 8 2.18745 0 6 2.18745 1
gene 2 7 8 -3.99931 0 7 -3.99931 1
gene 3 3 11 -0.820765 0 12 -0.820765 1
gene 3 11 8 0.389273 0 13 0.389273 1
gene 3 11 24 -2.87932 0 43 -2.87932 0
gene 3 24 8 3.46267 0 44 3.46267 1
gene 2 7 24 0.304327 0 125 0.304327 1
gene 1 4 11 -0.691304 0 236 -0.691304 1
gene 3 11 88 -0.947254 0 249 -0.947254 1
gene 3 88 24 -0.877234 0 250 -0.877234 1
genomeend 22

/* Organism #23 Fitness: 34 Error: 0 */
genomestart 23
trait 1 0.1 0 0 0 0 0 0 0 
trait 2 0.2 0 0 0 0 0 0 0 
trait 3 0.3 0 0 0 0 0 0 0 
node 1 2 1 1
node 2 3 1 1
node 3 3 1 1
node 4 3 1 1
node 5 1 1 1
node 6 1 1 1
node 7 3 1 3
node 8 2 0 2
node 11 1 0 0
node 24 1 0 0
node 88 1 0 0
gene 2 1 8 4.28639 0 1 4.28639 1
gene 3 2 8 2.81508 0 2 2.81508 1
gene 3 3 8 -4.56743 0 3 -4.56743 1
gene 2 4 8 1.42256 0 4 1.42256 1
gene 1 5 8 4.00102 0 5 4.00102 1
gene 1 6 8 1.69305 0 6 1.69305 1
gene 2 7 8 -3.17968 0 7 -3.17968 1
gene 3 3 11 -0.58739 0 12 -0.58739 1
gene 3 11 8 0.462078 0 13 0.462078 1
gene 3 11 24 -2.35715 0 43 -2.35715 0
gene 3 24 8 2.92579 0 44 2.92579 1
gene 2 7 24 0.963321 0 125 0.963321 1
gene 1 4 11 0.13963 0 236 0.13963 1
gene 3 11 88 -0.947254 0 249 -0.947254 1
gene 3 88 24 -0.877234 0 250 -0.877234 1
genomeend 23

/* Organism #24 Fitness: 39 Error: 0 */
genomestart 24
trait 1 0.1 0 0 0 0 0 0 0 
trait 2 0.2 0 0 0 0 0 0 0 
trait 3 0.3 0 0 0 0 0 0 0 
node 1 2 1 1
node 2 3 1 1
node 3 3 1 1
node 4 3 1 1
node 5 1 1 1
node 6 1 1 1
node 7 3 1 3
node 8 2 0 2
node 11 1 0 0
node 24 1 0 0
node 88 1 0 0
gene 2 1 8 4.28639 0 1 4.28639 1
gene 3 2 8 2.81508 0 2 2.81508 1
gene 3 3 8 -4.56743 0 3 -4.56743 1
gene 2 4 8 1.42256 0 4 1.42256 1
gene 1 5 8 4.00102 0 5 4.00102 1
gene 1 6 8 1.69305 0 6 1.69305 1
gene 2 7 8 -3.17968 0 7 -3.17968 1
gene 3 3 11 -0.58739 0 12 -0.58739 1
gene 3 11 8 0.462078 0 13 0.462078 1
gene 3 11 24 -2.35715 0 43 -2.35715 1
gene 3 24 8 2.92579 0 44 2.92579 1
gene 2 7 24 0.963321 0 125 0.963321 1
gene 1 4 11 0.13963 0 236 0.13963 1
gene 3 11 88 -0.947254 0 249 -0.947254 1
gene 3 88 24 -0.877234 0 250 -0.877234 1
gene 1 5 11 0.914235 0 271 0.914235 1
genomeend 24

/* Organism #25 Fitness: 34 Error: 0 */
genomestart 25
trait 1 0.1 0 0 0 0 0 0 0 
trait 2 0.2 0 0 0 0 0 0 0 
trait 3 0.3 0 0 0 0 0 0 0 
node 1 2 1 1
node 2 3 1 1
node 3 3 1 1
node 4 3 1 1
node 5 1 1 1
node 6 1 1 1
node 7 3 1 3
node 8 2 0 2
node 11 1 0 0
node 24 1 0 0
node 88 1 0 0
gene 2 1 8 2.13395 0 1 2.13395 1
gene 3 2 8 4.70415 0 2 4.70415 1
gene 3 3 8 -6.31356 0 3 -6.31356 1
gene 2 4 8 3.79757 0 4 3.79757 1
gene 1 5 8 4.35881 0 5 4.35881 1
gene 1 6 8 3.05357 0 6 3.05357 1
gene 2 7 8 -4.14118 0 7 -4.14118 1
gene 3 3 11 1.5005 0 12 1.5005 1
gene 3 11 8 0.529574 0 13 0.529574 1
gene 3 11 24 -2.70834 0 43 -2.70834 1
gene 3 24 8 1.16717 0 44 1.16717 1
gene 2 7 24 -1.13129 0 125 -1.13129 1
gene 1 4 11 -1.52942 0 236 -1.52942 1
gene 3 11 88 -0.947254 0 249 -0.947254 1
gene 3 88 24 0.303955 0 250 0.303955 1
genomeend 25

/* Organism #26 Fitness: 5 Error: 0 */
genomestart 26
trait 1 0.1 0 0 0 0 0 0 0 
trait 2 0.2 0 0 0 0 0 0 0 
trait 3 0.3 0 0 0 0 0 0 0 
node 1 2 1 1
node 2 3 1 1
node 3 3 1 1
node 4 3 1 1
node 5 1 1 1
node 6 1 1 1
node 7 3 1 3
node 8 2 0 2
node 11 1 0 0
node 24 1 0 0
gene 2 1 8 3.15525 0 1 3.15525 1
gene 3 2 8 4.53187 0 2 4.53187 1
gene 3 3 8 -7.1463 0 3 -7.1463 1
gene 2 4 8 0.984695 0 4 0.984695 1
gene 1 5 8 2.50593 0 5 2.50593 1
gene 1 6 8 -1.00322 0 6 -1.00322 1
gene 2 7 8 -2.45273 0 7 -2.45273 1
gene 3 3 11 0.0535542 0 12 0.0535542 1
gene 3 11 8 -1.55441 0 13 -1.55441 1
gene 3 11 24 -1.00763 0 43 -1.00763 1
gene 3 24 8 3.04031 0 44 3.04031 1
gene 2 7 24 1.15569 0 125 1.15569 1
gene 1 4 11 0.970565 0 236 0.970565 1
genomeend 26

/* Organism #27 Fitness: 55 Error: 0 */
genomestart 27
trait 1 0.1 0 0 0 0 0 0 0 
trait 2 0.2 0 0 0 0 0 0 0 
trait 3 0.3 0 0 0 0 0 0 0 
node 1 2 1 1
node 2 3 1 1
node 3 3 1 1
node 4 3 1 1
node 5 1 1 1
node 6 1 1 1
node 7 3 1 3
node 8 2 0 2
node 11 1 0 0
node 24 1 0 0
gene 2 1 8 4.87344 0 1 4.87344 1
gene 3 2 8 3.23471 0 2 3.23471 1
gene 3 3 8 -5.42907 0 3 -5.42907 1
gene 2 4 8 0.365624 0 4 0.365624 1
gene 1 5 8 5.66214 0 5 5.66214 1
gene 1 6 8 1.68771 0 6 1.68771 1
gene 2 7 8 -3.63017 0 7 -3.63017 1
gene 3 3 11 -0.561058 0 12 -0.561058 1
gene 3 11 8 -0.0821922 0 13 -0.0821922 1
gene 3 11 24 -1.51102 0 43 -1.51102 1
gene 3 24 8 0.7483 0 44 0.7483 1
gene 2 7 24 2.73658 0 125 2.73658 1
gene 1 4 11 0.970565 0 236 0.970565 1
genomeend 27

/* Organism #28 Fitness: 28 Error: 0 */
genomestart 28
trait 1 0.1 0 0 0.618084 0 0 0 0 
trait 2 0.2 0 0 0 0 0 0 0 
trait 3 0.3 0 0 0 0 0 0 0 
node 1 2 1 1
node 2 3 1 1
node 3 3 1 1
node 4 3 1 1
node 5 1 1 1
node 6 1 1 1
node 7 3 1 3
node 8 2 0 2
node 11 1 0 0
node 24 1 0 0
gene 2 1 8 5.95893 0 1 5.95893 1
gene 3 2 8 0.696205 0 2 0.696205 1
gene 3 3 8 -4.27554 0 3 -4.27554 1
gene 2 4 8 1.25664 0 4 1.25664 1
gene 1 5 8 3.15103 0 5 3.15103 1
gene 1 6 8 1.41297 0 6 1.41297 1
gene 2 7 8 -4.28289 0 7 -4.28289 1
gene 3 3 11 -1.61574 0 12 -1.61574 1
gene 3 11 8 2.37489 0 13 2.37489 1
gene 3 11 24 -0.262495 0 43 -0.262495 1
gene 3 24 8 3.62613 0 44 3.62613 1
gene 2 7 24 1.62232 0 125 1.62232 1
gene 1 4 11 0.970565 0 236 0.970565 1
genomeend 28

/* Organism #29 Fitness: 35 Error: 0 */
genomestart 29
trait 1 0.1 0 0 0 0 0 0 0 
trait 2 0.2 0 0 0 0 0 0 0 
trait 3 0.3 0 0 0 0 0 0 0 
node 1 2 1 1
node 2 3 1 1
node 3 3 1 1
node 4 3 1 1
node 5 1 1 1
node 6 1 1 1
node 7 3 1 3
node 8 2 0 2
node 11 1 0 0
node 24 1 0 0
node 88 1 0 0
gene 2 1 8 2.04973 0 1 2.04973 1
gene 3 2 8 4.97051 0 2 4.97051 1
gene 3 3 8 -1.68459 0 3 -1.68459 1
gene 2 4 8 0.150573 0 4 0.150573 1
gene 1 5 8 4.10019 0 5 4.10019 1
gene 1 6 8 1.82042 0 6 1.82042 1
gene 2 7 8 -6.44727 0 7 -6.44727 1
gene 3 3 11 1.67332 0 12 1.67332 1
gene 3 11 8 1.1495 0 13 1.1495 1
gene 3 11 24 -0.485898 0 43 -0.485898 0
gene 3 24 8 1.48842 0 44 1.48842 1
gene 2 7 24 -1.36541 0 125 -1.36541 1
gene 1 4 11 1.60051 0 236 1.60051 1
gene 3 11 88 -2.07592 0 249 -2.07592 1
gene 3 88 24 -0.977168 0 250 -0.977168 1
genomeend 29

/* Organism #30 Fitness: 31 Error: 0 */
genomestart 30
trait 1 0.1 0 0 0 0 0 0 0 
trait 2 0.2 0 0 0 0 0 0 0 
trait 3 0.3 0 0 0 0 0 0 0 
node 1 2 1 1
node 2 3 1 1
node 3 3 1 1
node 4 3 1 1
node 5 1 1 1
node 6 1 1 1
node 7 3 1 3
node 8 2 0 2
node 11 1 0 0
node 24 1 0 0
gene 2 1 8 3.51855 0 1 3.51855 1
gene 3 2 8 4.35052 0 2 4.35052 1
gene 3 3 8 -3.52974 0 3 -3.52974 1
gene 2 4 8 0.273053 0 4 0.273053 1
gene 1 5 8 3.85915 0 5 3.85915 1
gene 1 6 8 2.78076 0 6 2.78076 1
gene 2 7 8 -3.82834 0 7 -3.82834 1
gene 3 3 11 -0.732235 0 12 -0.732235 1
gene 3 11 8 1.46858 0 13 1.46858 1
gene 3 11 24 -1.84451 0 43 -1.84451 1
gene 3 24 8 3.99205 0 44 3.99205 1
gene 2 7 24 3.18178 0 125 3.18178 1
gene 1 4 11 0.970565 0 236 0.970565 1
genomeend 30

/* Organism #31 Fitness: 39 Error: 0 */
genomestart 31
trait 1 0.1 0 0 0 0 0 0 0 
trait 2 0.2 0 0 0 0 0 0 0 
trait 3 0.3 0 0 0 0 0 0 0 
node 1 2 1 1
node 2 3 1 1
node 3 3 1 1
node 4 3 1 1
node 5 1 1 1
node 6 1 1 1
node 7 3 1 3
node 8 2 0 2
node 11 1 0 0
node 24 1 0 0
node 88 1 0 0
gene 2 1 8 4.28639 0 1 4.28639 1
gene 3 2 8 2.81508 0 2 2.81508 1
gene 3 3 8 -5.76208 0 3 -5.76208 1
gene 2 4 8 1.84566 0 4 1.84566 1
gene 1 5 8 4.00102 0 5 4.00102 1
gene 1 6 8 2.18745 0 6 2.18745 1
gene 2 7 8 -2.36005 0 7 -2.36005 1
gene 3 3 11 -0.820765 0 12 -0.820765 1
gene 3 11 8 0.534884 0 13 0.534884 1
gene 3 11 24 -1.83497 0 43 -1.83497 1
gene 3 24 8 2.38891 0 44 2.38891 1
gene 2 7 24 0.304327 0 125 0.304327 1
gene 1 4 11 0.970565 0 236 0.970565 1
gene 3 11 88 -0.947254 0 249 -0.947254 1
gene 3 88 24 -0.877234 0 250 -0.877234 1
genomeend 31

/* Organism #32 Fitness: 75 Error: 0 */
genomestart 32
trait 1 0.1 0 0 0 0 0 0 0 
trait 2 0.2 0 0 0 0 0 0 0 
trait 3 0.3 0 0 0 0 0 0 0 
node 1 2 1 1
node 2 3 1 1
node 3 3 1 1
node 4 3 1 1
node 5 1 1 1
node 6 1 1 1
node 7 3 1 3
node 8 2 0 2
node 11 1 0 0
node 24 1 0 0
node 88 1 0 0
node 90 1 0 0
gene 2 1 8 4.28639 0 1 4.28639 1
gene 3 2 8 2.81508 0 2 2.81508 1
gene 3 3 8 -5.76208 0 3 -5.76208 1
gene 2 4 8 0.99946 0 4 0.99946 1
gene 1 5 8 4.00102 0 5 4.00102 1
gene 1 6 8 1.19864 0 6 1.19864 1
gene 2 7 8 -2.36005 0 7 -2.36005 1
gene 3 3 11 -0.354014 0 12 -0.354014 1
gene 3 11 8 0.534884 0 13 0.534884 0
gene 3 11 24 -1.83497 0 43 -1.83497 0
gene 3 24 8 2.38891 0 44 2.38891 1
gene 2 7 24 1.62232 0 125 1.62232 1
gene 1 4 11 0.970565 0 236 0.970565 1
gene 3 11 88 1 0 249 0 1
gene 3 88 24 -1.83497 0 250 0 1
gene 3 11 90 1 0 256 0 1
gene 3 90 8 0.534884 0 257 0 1
genomeend 32

/* Organism #33 Fitness: 35 Error: 0 */
genomestart 33
trait 1 0.1 0 0 0 0 0 0 0 
trait 2 0.2 0 0 0 0 0 0 0 
trait 3 0.3 0 0 0 0 0 0 0 
node 1 2 1 1
node 2 3 1 1
node 3 3 1 1
node 4 3 1 1
node 5 1 1 1
node 6 1 1 1
node 7 3 1 3
node 8 2 0 2
node 11 1 0 0
node 24 1 0 0
node 88 1 0 0
node 90 1 0 0
gene 2 1 8 6.24258 0 1 6.24258 1
gene 3 2 8 4.56293 0 2 4.56293 1
gene 3 3 8 -5.46624 0 3 -5.46624 1
gene 2 4 8 0.580139 0 4 0.580139 1
gene 1 5 8 4.83082 0 5 4.83082 1
gene 1 6 8 2.29137 0 6 2.29137 1
gene 2 7 8 -1.09211 0 7 -1.09211 1
gene 3 3 11 -0.484873 0 12 -0.484873 1
gene 3 11 8 1.23675 0 13 1.23675 0
gene 3 11 24 -0.0543867 0 43 -0.0543867 0
gene 3 24 8 2.78769 0 44 2.78769 1
gene 2 7 24 3.66204 0 125 3.66204 1
gene 1 4 11 -0.099406 0 236 -0.099406 1
gene 3 11 88 2.28684 0 249 2.28684 1
gene 3 88 24 -1.80079 0 250 -1.80079 1
gene 3 11 90 2.59155 0 256 2.59155 1
gene 3 90 8 0.534884 0 257 0.534884 1
genomeend 33

/* Organism #34 Fitness: 37 Error: 0 */
genomestart 34
trait 1 0.1 0 0 0 0 0 0 0 
trait 2 0.2 0 0 0 0 0 0 0 
trait 3 0.3 0 0 0 0 0 0 0 
node 1 2 1 1
node 2 3 1 1
node 3 3 1 1
node 4 3 1 1
node 5 1 1 1
node 6 1 1 1
node 7 3 1 3
node 8 2 0 2
node 11 1 0 0
node 24 1 0 0
node 88 1 0 0
node 90 1 0 0
gene 2 1 8 1.81224 0 1 1.81224 1
gene 3 2 8 1.50978 0 2 1.50978 1
gene 3 3 8 -7.56183 0 3 -7.56183 1
gene 2 4 8 -1.01815 0 4 -1.01815 1
gene 1 5 8 3.76023 0 5 3.76023 1
gene 1 6 8 2.76755 0 6 2.76755 1
gene 2 7 8 -3.3405 0 7 -3.3405 1
gene 3 3 11 -1.19055 0 12 -1.19055 1
gene 3 11 8 -0.18196 0 13 -0.18196 0
gene 3 11 24 0.079406 0 43 0.079406 0
gene 3 24 8 2.81874 0 44 2.81874 1
gene 2 7 24 3.66855 0 125 3.66855 1
gene 2 4 11 -1.23873 0 236 -1.23873 1
gene 3 11 88 -1.48868 0 249 -1.48868 1
gene 3 88 24 -3.40255 0 250 -3.40255 1
gene 3 11 90 -0.166204 0 256 -0.166204 1
gene 3 90 8 1.64499 0 257 1.64499 1
genomeend 34

/* Organism #35 Fitness: 75 Error: 0 */
genomestart 35
trait 1 0.1 0 0 0 0 0 0 0 
trait 2 0.2 0 0 0 0 0 0 0 
trait 3 0.3 0 0 0 0 0 0 0 
node 1 2 1 1
node 2 3 1 1
node 3 3 1 1
node 4 3 1 1
node 5 1 1 1
node 6 1 1 1
node 7 3 1 3
node 8 2 0 2
node 11 1 0 0
node 24 1 0 0
node 88 1 0 0
node 90 1 0 0
gene 2 1 8 4.28639 0 1 4.28639 1
gene 3 2 8 2.81508 0 2 2.81508 1
gene 3 3 8 -5.76208 0 3 -5.76208 1
gene 2 4 8 0.99946 0 4 0.99946 1
gene 1 5 8 4.00102 0 5 4.00102 1
gene 1 6 8 1.19864 0 6 1.19864 1
gene 2 7 8 -2.36005 0 7 -2.36005 1
gene 3 3 11 -0.354014 0 12 -0.354014 1
gene 3 11 8 0.534884 0 13 0.534884 0
gene 3 11 24 -1.83497 0 43 -1.83497 0
gene 3 24 8 2.38891 0 44 2.38891 1
gene 2 7 24 1.62232 0 125 1.62232 1
gene 1 4 11 0.970565 0 236 0.970565 1
gene 3 11 88 1 0 249 0 1
gene 3 88 24 -1.83497 0 250 0 1
gene 3 11 90 1 0 256 0 1
gene 3 90 8 0.534884 0 257 0 1
genomeend 35

/* Organism #36 Fitness: 51 Error: 0 */
genomestart 36
trait 1 0.1 0 0 0 0 0 0 0 
trait 2 0.2 0 0 0 0 0 0 0 
trait 3 0.3 0 0 0 0 0 0 0 
node 1 2 1 1
node 2 3 1 1
node 3 3 1 1
node 4 3 1 1
node 5 1 1 1
node 6 1 1 1
node 7 3 1 3
node 8 2 0 2
node 11 1 0 0
node 24 1 0 0
node 88 1 0 0
node 90 1 0 0
gene 2 1 8 5.89774 0 1 5.89774 1
gene 3 2 8 0.473731 0 2 0.473731 1
gene 3 3 8 -5.67126 0 3 -5.67126 1
gene 2 4 8 3.20893 0 4 3.20893 1
gene 1 5 8 5.43427 0 5 5.43427 1
gene 1 6 8 3.07895 0 6 3.07895 1
gene 2 7 8 -4.75515 0 7 -4.75515 1
gene 3 3 11 1.24459 0 12 1.24459 1
gene 3 11 8 0.0661815 0 13 0.0661815 0
gene 3 11 24 -0.333308 0 43 -0.333308 0
gene 3 24 8 0.164246 0 44 0.164246 1
gene 2 7 24 3.9295 0 125 3.9295 1
gene 1 4 11 2.08168 0 236 2.08168 1
gene 3 11 88 1 0 249 1 1
gene 3 88 24 2.42446 0 250 2.42446 1
gene 3 11 90 2.36557 0 256 2.36557 1
gene 3 90 8 2.07318 0 257 2.07318 1
genomeend 36

/* Organism #37 Fitness: 33 Error: 0 */
genomestart 37
trait 1 0.1 0 0 0 0 0 0 0 
trait 2 0.2 0 0 0 0 0 0 0 
trait 3 0.3 0 0 0 0 0 0 0 
node 1 2 1 1
node 2 3 1 1
node 3 3 1 1
node 4 3 1 1
node 5 1 1 1
node 6 1 1 1
node 7 3 1 3
node 8 2 0 2
node 11 1 0 0
node 24 1 0 0
node 88 1 0 0
node 90 1 0 0
gene 2 1 8 4.28639 0 1 4.28639 1
gene 3 2 8 0.318652 0 2 0.318652 1
gene 3 3 8 -5.49368 0 3 -5.49368 1
gene 2 4 8 -1.49151 0 4 -1.49151 1
gene 1 5 8 1.96469 0 5 1.96469 1
gene 1 6 8 3.25738 0 6 3.25738 1
gene 2 7 8 -2.00002 0 7 -2.00002 1
gene 3 3 11 -1.12209 0 12 -1.12209 1
gene 3 11 8 -0.236686 0 13 -0.236686 0
gene 3 11 24 -1.05751 0 43 -1.05751 0
gene 3 24 8 2.85544 0 44 2.85544 1
gene 2 7 24 2.45138 0 125 2.45138 1
gene 1 4 11 -1.36321 0 236 -1.36321 1
gene 3 11 88 2.31994 0 249 2.31994 1
gene 3 88 24 -1.17708 0 250 -1.17708 1
gene 3 11 90 2.45027 0 256 2.45027 1
gene 3 90 8 0.212296 0 257 0.212296 1
genomeend 37

/* Organism #38 Fitness: 27 Error: 0 */
genomestart 38
trait 1 0.1 0 0 0 0 0 0 0 
trait 2 0.2 0 0 0 0 0 0 0 
trait 3 0.3 0 0 0 0 0 0 0 
node 1 2 1 1
node 2 3 1 1
node 3 3 1 1
node 4 3 1 1
node 5 1 1 1
node 6 1 1 1
node 7 3 1 3
node 8 2 0 2
node 11 1 0 0
node 24 1 0 0
node 88 1 0 0
node 90 1 0 0
gene 2 1 8 5.37074 0 1 5.37074 1
gene 3 2 8 3.07798 0 2 3.07798 1
gene 3 3 8 -5.20408 0 3 -5.20408 1
gene 2 4 8 -0.387665 0 4 -0.387665 1
gene 1 5 8 0.266424 0 5 0.266424 1
gene 1 6 8 1.39957 0 6 1.39957 1
gene 2 7 8 0.0879501 0 7 0.0879501 1
gene 3 3 11 1.08655 0 12 1.08655 1
gene 3 11 8 -0.503743 0 13 -0.503743 0
gene 3 11 24 -2.00271 0 43 -2.00271 0
gene 3 24 8 2.74971 0 44 2.74971 1
gene 2 7 24 0.193689 0 125 0.193689 1
gene 1 4 11 -2.39961 0 236 -2.39961 1
gene 3 11 88 1.91336 0 249 1.91336 1
gene 3 88 24 -0.20372 0 250 -0.20372 1
gene 3 11 90 3.46735 0 256 3.46735 1
gene 3 90 8 -1.23447 0 257 -1.23447 1
genomeend 38

/* Organism #39 Fitness: 5 Error: 0 */
genomestart 39
trait 1 0.1 0 0 0 0 0 0 0 
trait 2 0.2 0 0 0 0 0 0 0 
trait 3 0.3 0 0 0 0 0 0 0 
node 1 2 1 1
node 2 3 1 1
node 3 3 1 1
node 4 3 1 1
node 5 1 1 1
node 6 1 1 1
node 7 3 1 3
node 8 2 0 2
node 11 1 0 0
node 24 1 0 0
node 88 1 0 0
node 90 1 0 0
gene 2 1 8 2.65872 0 1 2.65872 1
gene 3 2 8 2.78063 0 2 2.78063 1
gene 3 3 8 -4.64459 0 3 -4.64459 1
gene 2 4 8 -0.417331 0 4 -0.417331 1
gene 1 5 8 2.82082 0 5 2.82082 1
gene 1 6 8 -0.463188 0 6 -0.463188 1
gene 2 7 8 -4.31402 0 7 -4.31402 1
gene 3 3 11 1.60796 0 12 1.60796 1
gene 3 11 8 2.81077 0 13 2.81077 0
gene 3 11 24 -2.47367 0 43 -2.47367 0
gene 3 24 8 2.91577 0 44 2.91577 1
gene 2 7 24 2.95496 0 125 2.95496 1
gene 1 4 11 0.877713 0 236 0.877713 1
gene 3 11 88 3.34894 0 249 3.34894 1
gene 3 88 24 -1.83497 0 250 -1.83497 1
gene 3 11 90 1 0 256 1 1
gene 3 90 8 0.534884 0 257 0.534884 1
genomeend 39

/* Organism #40 Fitness: 10 Error: 0 */
genomestart 40
trait 1 0.1 0 0 0 0 0 0 0 
trait 2 0.2 0 0 0 0 0 0 0 
trait 3 0.3 0 0 0 0 0 0 0 
node 1 2 1 1
node 2 3 1 1
node 3 3 1 1
node 4 3 1 1
node 5 1 1 1
node 6 1 1 1
node 7 3 1 3
node 8 2 0 2
node 11 1 0 0
node 24 1 0 0
node 88 1 0 0
node 90 1 0 0
gene 2 1 8 3.97717 0 1 3.97717 1
gene 3 2 8 4.22203 0 2 4.22203 1
gene 3 3 8 -5.26455 0 3 -5.26455 1
gene 2 4 8 0.42397 0 4 0.42397 1
gene 1 5 8 3.29867 0 5 3.29867 1
gene 1 6 8 0.822049 0 6 0.822049 1
gene 2 7 8 -3.42965 0 7 -3.42965 1
gene 3 3 11 1.22771 0 12 1.22771 1
gene 3 11 8 2.1946 0 13 2.1946 0
gene 3 11 24 0.491074 0 43 0.491074 0
gene 3 24 8 3.95341 0 44 3.95341 1
gene 2 7 24 2.05394 0 125 2.05394 1
gene 1 4 11 -1.31336 0 236 -1.31336 1
gene 3 11 88 -0.796788 0 249 -0.796788 1
gene 3 88 24 -2.89581 0 250 -2.89581 1
gene 3 11 90 0.0576166 0 256 0.0576166 1
gene 3 90 8 2.75068 0 257 2.75068 1
genomeend 40

/* Organism #41 Fitness: 75 Error: 0 */
genomestart 41
trait 1 0.1 0 0 0 0 0 0 0 
trait 2 0.2 0 0 0 0 0 0 0 
trait 3 0.3 0 0 0 0 0 0 0 
node 1 2 1 1
node 2 3 1 1
node 3 3 1 1
node 4 3 1 1
node 5 1 1 1
node 6 1 1 1
node 7 3 1 3
node 8 2 0 2
node 11 1 0 0
node 24 1 0 0
node 88 1 0 0
node 90 1 0 0
gene 2 1 8 4.28639 0 1 4.28639 1
gene 3 2 8 2.81508 0 2 2.81508 1
gene 3 3 8 -5.76208 0 3 -5.76208 1
gene 2 4 8 0.99946 0 4 0.99946 1
gene 1 5 8 4.00102 0 5 4.00102 1
gene 1 6 8 1.19864 0 6 1.19864 1
gene 2 7 8 -2.36005 0 7 -2.36005 1
gene 3 3 11 -0.354014 0 12 -0.354014 1
gene 3 11 8 0.534884 0 13 0.534884 0
gene 3 11 24 -1.83497 0 43 -1.83497 0
gene 3 24 8 2.38891 0 44 2.38891 1
gene 2 7 24 1.62232 0 125 1.62232 1
gene 1 4 11 0.970565 0 236 0.970565 1
gene 3 11 88 1 0 249 0 1
gene 3 88 24 -1.83497 0 250 0 1
gene 3 11 90 1 0 256 0 1
gene 3 90 8 0.534884 0 257 0 1
genomeend 41

/* Organism #42 Fitness: 75 Error: 0 */
genomestart 42
trait 1 0.1 0 0 0 0 0 0 0 
trait 2 0.2 0 0 0 0 0 0 0 
trait 3 0.3 0 0 0 0 0 0 0 
node 1 2 1 1
node 2 3 1 1
node 3 3 1 1
node 4 3 1 1
node 5 1 1 1
node 6 1 1 1
node 7 3 1 3
node 8 2 0 2
node 11 1 0 0
node 24 1 0 0
node 88 1 0 0
node 90 1 0 0
gene 2 1 8 4.28639 0 1 4.28639 1
gene 3 2 8 2.81508 0 2 2.81508 1
gene 3 3 8 -5.76208 0 3 -5.76208 1
gene 2 4 8 0.99946 0 4 0.99946 1
gene 1 5 8 4.00102 0 5 4.00102 1
gene 1 6 8 1.19864 0 6 1.19864 1
gene 2 7 8 -2.36005 0 7 -2.36005 1
gene 3 3 11 -0.354014 0 12 -0.354014 1
gene 3 11 8 0.534884 0 13 0.534884 0
gene 3 11 24 -1.83497 0 43 -1.83497 0
gene 3 24 8 2.38891 0 44 2.38891 1
gene 2 7 24 1.62232 0 125 1.62232 1
gene 1 4 11 0.970565 0 236 0.970565 1
gene 3 11 88 1 0 249 0 1
gene 3 88 24 -1.83497 0 250 0 1
gene 3 11 90 1 0 256 0 1
gene 3 90 8 0.534884 0 257 0 1
genomeend 42

/* Species #6 : (Size 8) (AF 48) (Age 20)  */


/* Organism #43 Fitness: 85 Error: 0 */
genomestart 43
trait 1 0.1 0 0 0 0 0 0 0 
trait 2 0.2 0 0 0 0 0 0 0 
trait 3 0.3 0 0 0 0 0 0 0 
node 1 2 1 1
node 2 3 1 1
node 3 3 1 1
node 4 3 1 1
node 5 1 1 1
node 6 1 1 1
node 7 3 1 3
node 8 3 0 2
node 11 1 0 0
node 15 1 0 0
node 22 1 0 0
node 26 1 0 0
node 64 1 0 0
gene 2 1 8 5.59252 0 1 5.59252 1
gene 3 2 8 3.35986 0 2 3.35986 0
gene 2 3 8 1.55377 0 3 1.55377 0
gene 1 4 8 -1.97874 0 4 -1.97874 1
gene 1 5 8 0.768507 0 5 0.768507 1
gene 1 6 8 1.68979 0 6 1.68979 1
gene 1 7 8 -1.63198 0 7 -1.63198 1
gene 3 3 11 5.12118 0 12 5.12118 1
gene 3 11 8 -1.39677 0 13 -1.39677 0
gene 3 11 15 3.08675 0 20 3.08675 1
gene 3 15 8 0.831664 0 21 0.831664 1
gene 3 2 22 -3.22519 0 38 -3.22519 0
gene 3 22 8 -0.333828 0 39 -0.333828 1
gene 3 2 26 1 0 48 1 1
gene 3 26 22 -1.47017 0 49 -1.47017 0
gene 3 5 22 0.231769 0 146 0.231769 1
gene 3 26 64 1 0 172 0 1
gene 3 64 22 -1.47017 0 173 0 1
genomeend 43

/* Organism #44 Fitness: 65 Error: 0 */
genomestart 44
trait 1 0.1 0 0 0 0 0 0 0 
trait 2 0.2 0 0 0 0 0 0 0 
trait 3 0.3 0 0 0 0 0 0 0 
node 1 2 1 1
node 2 3 1 1
node 3 3 1 1
node 4 3 1 1
node 5 1 1 1
node 6 1 1 1
node 7 3 1 3
node 8 3 0 2
node 11 1 0 0
node 15 1 0 0
node 22 1 0 0
node 26 1 0 0
node 64 1 0 0
gene 2 1 8 5.59252 0 1 5.59252 1
gene 3 2 8 3.35986 0 2 3.35986 0
gene 2 3 8 1.55377 0 3 1.55377 1
gene 1 4 8 -1.97874 0 4 -1.97874 1
gene 1 5 8 0.768507 0 5 0.768507 1
gene 1 6 8 1.68979 0 6 1.68979 1
gene 1 7 8 -1.63198 0 7 -1.63198 1
gene 3 3 11 5.12118 0 12 5.12118 1
gene 3 11 8 -1.39677 0 13 -1.39677 0
gene 3 11 15 3.08675 0 20 3.08675 1
gene 3 15 8 0.831664 0 21 0.831664 1
gene 3 2 22 -3.22519 0 38 -3.22519 0
gene 3 22 8 -0.333828 0 39 -0.333828 1
gene 3 2 26 1 0 48 1 1
gene 3 26 22 -1.47017 0 49 -1.47017 0
gene 3 5 22 0.231769 0 146 0.231769 1
gene 3 26 64 1 0 172 0 1
gene 3 64 22 -1.47017 0 173 0 1
genomeend 44

/* Organism #45 Fitness: 19 Error: 0 */
genomestart 45
trait 1 0.1 0 0 0 0 0 0 0 
trait 2 0.2 0 0 0 0 0 0 0 
trait 3 0.3 0 0 0 0 0 0 0 
node 1 2 1 1
node 2 3 1 1
node 3 3 1 1
node 4 3 1 1
node 5 1 1 1
node 6 1 1 1
node 7 3 1 3
node 8 3 0 2
node 11 1 0 0
node 15 1 0 0
node 22 1 0 0
node 26 1 0 0
node 64 1 0 0
gene 2 1 8 7.72329 0 1 7.72329 1
gene 3 2 8 5.00705 0 2 5.00705 0
gene 2 3 8 0.0237975 0 3 0.0237975 0
gene 1 4 8 -1.79254 0 4 -1.79254 1
gene 1 5 8 -0.476203 0 5 -0.476203 1
gene 1 6 8 1.95102 0 6 1.95102 1
gene 1 7 8 -1.31575 0 7 -1.31575 1
gene 3 3 11 5.56575 0 12 5.56575 1
gene 3 11 8 -3.55679 0 13 -3.55679 0
gene 3 11 15 2.39119 0 20 2.39119 1
gene 3 15 8 -0.652766 0 21 -0.652766 1
gene 3 2 22 -1.7523 0 38 -1.7523 0
gene 3 22 8 0.414371 0 39 0.414371 1
gene 3 2 26 0.62165 0 48 0.62165 1
gene 3 26 22 0.214935 0 49 0.214935 0
gene 3 5 22 0.474775 0 146 0.474775 1
gene 3 26 64 1.81792 0 172 1.81792 1
gene 3 64 22 0.246061 0 173 0.246061 1
genomeend 45

/* Organism #46 Fitness: 6 Error: 0 */
genomestart 46
trait 1 0.1 0 0 0 0 0 0 0 
trait 2 0.2 0 0 0 0 0 0 0 
trait 3 0.3 0 0 0 0 0 0 0 
node 1 2 1 1
node 2 3 1 1
node 3 3 1 1
node 4 3 1 1
node 5 1 1 1
node 6 1 1 1
node 7 3 1 3
node 8 3 0 2
node 11 1 0 0
node 15 1 0 0
node 22 1 0 0
node 26 1 0 0
node 64 1 0 0
gene 2 1 8 4.44676 0 1 4.44676 1
gene 3 2 8 3.0484 0 2 3.0484 0
gene 2 3 8 3.49061 0 3 3.49061 0
gene 1 4 8 -2.90978 0 4 -2.90978 1
gene 1 5 8 2.53193 0 5 2.53193 1
gene 1 6 8 0.360204 0 6 0.360204 1
gene 1 7 8 -1.81002 0 7 -1.81002 1
gene 3 3 11 4.83225 0 12 4.83225 1
gene 3 11 8 -3.50015 0 13 -3.50015 0
gene 3 11 15 4.90066 0 20 4.90066 1
gene 3 15 8 -0.31656 0 21 -0.31656 1
gene 3 2 22 -4.57042 0 38 -4.57042 0
gene 3 22 8 -1.72951 0 39 -1.72951 1
gene 3 2 26 1.47084 0 48 1.47084 1
gene 3 26 22 0.570903 0 49 0.570903 0
gene 3 5 22 1.35417 0 146 1.35417 1
gene 3 26 64 0.785525 0 172 0.785525 1
gene 3 64 22 -2.22401 0 173 -2.22401 1
gene 3 7 26 -2.32906 0 258 -2.32906 1
genomeend 46

/* Organism #47 Fitness: 85 Error: 0 */
genomestart 47
trait 1 0.1 0 0 0 0 0 0 0 
trait 2 0.2 0 0 0 0 0 0 0 
trait 3 0.3 0 0 0 0 0 0 0 
node 1 2 1 1
node 2 3 1 1
node 3 3 1 1
node 4 3 1 1
node 5 1 1 1
node 6 1 1 1
node 7 3 1 3
node 8 3 0 2
node 11 1 0 0
node 15 1 0 0
node 22 1 0 0
node 26 1 0 0
node 64 1 0 0
gene 2 1 8 5.59252 0 1 5.59252 1
gene 3 2 8 3.35986 0 2 3.35986 0
gene 2 3 8 1.55377 0 3 1.55377 0
gene 1 4 8 -1.97874 0 4 -1.97874 1
gene 1 5 8 0.768507 0 5 0.768507 1
gene 1 6 8 1.68979 0 6 1.68979 1
gene 1 7 8 -1.63198 0 7 -1.63198 1
gene 3 3 11 5.12118 0 12 5.12118 1
gene 3 11 8 -1.39677 0 13 -1.39677 0
gene 3 11 15 3.08675 0 20 3.08675 1
gene 3 15 8 0.831664 0 21 0.831664 1
gene 3 2 22 -3.22519 0 38 -3.22519 0
gene 3 22 8 -0.333828 0 39 -0.333828 1
gene 3 2 26 1 0 48 1 1
gene 3 26 22 -1.47017 0 49 -1.47017 0
gene 3 5 22 0.231769 0 146 0.231769 1
gene 3 26 64 1 0 172 0 1
gene 3 64 22 -1.47017 0 173 0 1
genomeend 47

/* Organism #48 Fitness: 85 Error: 0 */
genomestart 48
trait 1 0.1 0 0 0 0 0 0 0 
trait 2 0.2 0 0 0 0 0 0 0 
trait 3 0.3 0 0 0 0 0 0 0 
node 1 2 1 1
node 2 3 1 1
node 3 3 1 1
node 4 3 1 1
node 5 1 1 1
node 6 1 1 1
node 7 3 1 3
node 8 3 0 2
node 11 1 0 0
node 15 1 0 0
node 22 1 0 0
node 26 1 0 0
node 64 1 0 0
gene 2 1 8 5.59252 0 1 5.59252 1
gene 3 2 8 3.35986 0 2 3.35986 0
gene 2 3 8 1.55377 0 3 1.55377 0
gene 1 4 8 -1.97874 0 4 -1.97874 1
gene 1 5 8 0.768507 0 5 0.768507 1
gene 1 6 8 1.68979 0 6 1.68979 1
gene 1 7 8 -1.63198 0 7 -1.63198 1
gene 3 3 11 5.12118 0 12 5.12118 1
gene 3 11 8 -1.39677 0 13 -1.39677 0
gene 3 11 15 3.08675 0 20 3.08675 1
gene 3 15 8 0.831664 0 21 0.831664 1
gene 3 2 22 -3.22519 0 38 -3.22519 0
gene 3 22 8 -0.333828 0 39 -0.333828 1
gene 3 2 26 1 0 48 1 1
gene 3 26 22 -1.47017 0 49 -1.47017 0
gene 3 5 22 0.231769 0 146 0.231769 1
gene 3 26 64 1 0 172 0 1
gene 3 64 22 -1.47017 0 173 0 1
genomeend 48

/* Organism #49 Fitness: 33 Error: 0 */
genomestart 49
trait 1 0.1 0 0 0 0 0 0 0 
trait 2 0.2 0 0 0 0 0 0 0 
trait 3 0.3 0 0 0 0 0 0 0 
node 1 2 1 1
node 2 3 1 1
node 3 3 1 1
node 4 3 1 1
node 5 1 1 1
node 6 1 1 1
node 7 3 1 3
node 8 3 0 2
node 11 1 0 0
node 15 1 0 0
node 22 1 0 0
node 26 1 0 0
node 64 1 0 0
gene 2 1 8 5.68678 0 1 5.68678 1
gene 3 2 8 3.35986 0 2 3.35986 0
gene 2 3 8 -0.328761 0 3 -0.328761 0
gene 1 4 8 -2.3964 0 4 -2.3964 1
gene 1 5 8 -1.27231 0 5 -1.27231 1
gene 1 6 8 2.9626 0 6 2.9626 1
gene 1 7 8 -3.41005 0 7 -3.41005 1
gene 3 3 11 0.886427 0 12 0.886427 1
gene 3 11 8 -1.39677 0 13 -1.39677 0
gene 3 11 15 3.08675 0 20 3.08675 1
gene 3 15 8 2.60127 0 21 2.60127 1
gene 3 2 22 -3.74319 0 38 -3.74319 0
gene 3 22 8 -1.39956 0 39 -1.39956 1
gene 3 2 26 0.531241 0 48 0.531241 1
gene 3 26 22 0.30452 0 49 0.30452 0
gene 3 5 22 -0.785053 0 146 -0.785053 1
gene 3 26 64 -0.976178 0 172 -0.976178 1
gene 3 64 22 -0.470204 0 173 -0.470204 1
genomeend 49

/* Organism #50 Fitness: 6 Error: 0 */
genomestart 50
trait 1 0.1 0 0 0 0 0 0 0 
trait 2 0.2 0 0 0 0 0 0 0 
trait 3 0.3 0 0 0 0 0 0 0 
node 1 2 1 1
node 2 3 1 1
node 3 3 1 1
node 4 3 1 1
node 5 1 1 1
node 6 1 1 1
node 7 3 1 3
node 8 3 0 2
node 11 1 0 0
node 15 1 0 0
node 22 1 0 0
node 26 1 0 0
node 64 1 0 0
gene 2 1 8 4.81616 0 1 4.81616 1
gene 3 2 8 3.96202 0 2 3.96202 0
gene 2 3 8 -0.448563 0 3 -0.448563 0
gene 1 4 8 -0.495973 0 4 -0.495973 1
gene 1 5 8 0.858106 0 5 0.858106 1
gene 1 6 8 0.469641 0 6 0.469641 1
gene 1 7 8 0.198191 0 7 0.198191 1
gene 3 3 11 4.20396 0 12 4.20396 1
gene 3 11 8 -1.09392 0 13 -1.09392 0
gene 3 11 15 2.49424 0 20 2.49424 1
gene 3 15 8 3.20184 0 21 3.20184 1
gene 3 2 22 -4.50115 0 38 -4.50115 0
gene 3 22 8 -0.110446 0 39 -0.110446 1
gene 3 2 26 0.554401 0 48 0.554401 1
gene 3 26 22 -0.41544 0 49 -0.41544 0
gene 3 5 22 -0.063556 0 146 -0.063556 1
gene 3 26 64 1 0 172 1 1
gene 3 64 22 -1.13522 0 173 -1.13522 1
gene 3 7 26 -0.853049 0 258 -0.853049 1
genomeend 50

/* Species #7 : (Size 16) (AF 55.6875) (Age 20)  */


/* Organism #51 Fitness: 188 Error: 0 */
genomestart 51
trait 1 0.1 0 0 0 0 0 0 0 
trait 2 0.2 0 0 0 0 0 0 0 
trait 3 0.3 0 0 0 0 0 0 0 
node 1 2 1 1
node 2 3 1 1
node 3 3 1 1
node 4 3 1 1
node 5 1 1 1
node 6 1 1 1
node 7 3 1 3
node 8 2 0 2
node 11 1 0 0
gene 2 1 8 -0.473467 0 1 -0.473467 1
gene 1 2 8 1.08188 0 2 1.08188 1
gene 3 3 8 0.726432 0 3 0.726432 0
gene 2 4 8 -0.703932 0 4 -0.703932 1
gene 1 5 8 2.10759 0 5 2.10759 1
gene 2 6 8 1.37339 0 6 1.37339 1
gene 1 7 8 -1.81433 0 7 -1.81433 1
gene 3 3 11 -0.186422 0 12 -0.186422 1
gene 3 11 8 1.81347 0 13 1.81347 1
gene 2 6 11 -0.405709 0 45 -0.405709 1
gene 1 4 11 -0.93692 0 56 -0.93692 1
genomeend 51

/* Organism #52 Fitness: 36 Error: 0 */
genomestart 52
trait 1 0.1 0 0 0 0 0 0 0 
trait 2 0.2 0 0 0 0 0 0 0 
trait 3 0.3 0 0 0 0 0 0 0 
node 1 2 1 1
node 2 3 1 1
node 3 3 1 1
node 4 3 1 1
node 5 1 1 1
node 6 1 1 1
node 7 3 1 3
node 8 2 0 2
node 11 1 0 0
gene 2 1 8 0.383737 0 1 0.383737 1
gene 1 2 8 1.03732 0 2 1.03732 1
gene 3 3 8 0.542302 0 3 0.542302 0
gene 2 4 8 -1.07733 0 4 -1.07733 1
gene 1 5 8 1.76374 0 5 1.76374 1
gene 2 6 8 3.69525 0 6 3.69525 1
gene 1 7 8 -1.61194 0 7 -1.61194 1
gene 3 3 11 -0.546675 0 12 -0.546675 1
gene 3 11 8 -0.0537916 0 13 -0.0537916 1
gene 2 6 11 -0.405709 0 45 -0.405709 1
gene 1 4 11 -0.93692 0 56 -0.93692 1
genomeend 52

/* Organism #53 Fitness: 6 Error: 0 */
genomestart 53
trait 1 0.1 0 0 0 0 0 0 0 
trait 2 0.2 0 0 0 0 0 0 0 
trait 3 0.3 0 0 0 0 0 0 0 
node 1 2 1 1
node 2 3 1 1
node 3 3 1 1
node 4 3 1 1
node 5 1 1 1
node 6 1 1 1
node 7 3 1 3
node 8 2 0 2
node 11 1 0 0
gene 2 1 8 -1.54367 0 1 -1.54367 1
gene 1 2 8 -1.24002 0 2 -1.24002 1
gene 3 3 8 3.09839 0 3 3.09839 0
gene 2 4 8 -1.96787 0 4 -1.96787 1
gene 1 5 8 0.14863 0 5 0.14863 1
gene 2 6 8 0.215635 0 6 0.215635 1
gene 1 7 8 -2.52419 0 7 -2.52419 1
gene 3 3 11 1.99849 0 12 1.99849 1
gene 3 11 8 1.3187 0 13 1.3187 1
gene 2 6 11 -0.405709 0 45 -0.405709 1
gene 1 4 11 1.44661 0 56 1.44661 1
genomeend 53

/* Organism #54 Fitness: 33 Error: 0 */
genomestart 54
trait 1 0.1 0 0 0 0 0 0 0 
trait 2 0.2 0 0 0 0 0 0 0 
trait 3 0.3 0 0 0 0 0 0 0 
node 1 2 1 1
node 2 3 1 1
node 3 3 1 1
node 4 3 1 1
node 5 1 1 1
node 6 1 1 1
node 7 3 1 3
node 8 2 0 2
node 11 1 0 0
gene 2 1 8 -2.78541 0 1 -2.78541 1
gene 1 2 8 2.08261 0 2 2.08261 1
gene 3 3 8 0.273668 0 3 0.273668 0
gene 2 4 8 1.03698 0 4 1.03698 1
gene 1 5 8 1.62546 0 5 1.62546 1
gene 2 6 8 2.26105 0 6 2.26105 1
gene 1 7 8 -2.92733 0 7 -2.92733 1
gene 3 3 11 -1.71305 0 12 -1.71305 1
gene 3 11 8 4.01328 0 13 4.01328 1
gene 2 6 11 -0.405709 0 45 -0.405709 1
gene 1 4 11 0.976534 0 56 0.976534 1
genomeend 54

/* Organism #55 Fitness: 141 Error: 0 */
genomestart 55
trait 1 0.1 0 0 0 0 0 0 0 
trait 2 0.2 0 0 0 0 0 0 0 
trait 3 0.3 0 0 0 0 0 0 0 
node 1 2 1 1
node 2 3 1 1
node 3 3 1 1
node 4 3 1 1
node 5 1 1 1
node 6 1 1 1
node 7 3 1 3
node 8 2 0 2
node 11 1 0 0
gene 2 1 8 -0.473467 0 1 -0.473467 1
gene 1 2 8 1.08188 0 2 1.08188 1
gene 3 3 8 0.726432 0 3 0.726432 0
gene 2 4 8 -0.703932 0 4 -0.703932 1
gene 1 5 8 2.10759 0 5 2.10759 1
gene 2 6 8 1.37339 0 6 1.37339 1
gene 1 7 8 -1.81433 0 7 -1.81433 1
gene 3 3 11 -0.186422 0 12 -0.186422 1
gene 3 11 8 1.81347 0 13 1.81347 1
gene 2 6 11 -0.405709 0 45 -0.405709 1
gene 1 4 11 -0.93692 0 56 -0.93692 1
gene 1 2 11 -0.0797465 0 272 -0.0797465 1
genomeend 55

/* Organism #56 Fitness: 27 Error: 0 */
genomestart 56
trait 1 0.1 0 0 0 0 0 0 0 
trait 2 0.2 0 0 0 0 0 0 0 
trait 3 0.3 0 0 0 0 0 0 0 
node 1 2 1 1
node 2 3 1 1
node 3 3 1 1
node 4 3 1 1
node 5 1 1 1
node 6 1 1 1
node 7 3 1 3
node 8 2 0 2
node 11 1 0 0
gene 2 1 8 -1.95881 0 1 -1.95881 1
gene 1 2 8 -1.52707 0 2 -1.52707 1
gene 3 3 8 -0.808621 0 3 -0.808621 1
gene 2 4 8 0.845798 0 4 0.845798 1
gene 1 5 8 2.44881 0 5 2.44881 1
gene 2 6 8 1.37339 0 6 1.37339 1
gene 1 7 8 -0.019042 0 7 -0.019042 1
gene 3 3 11 0.673403 0 12 0.673403 1
gene 3 11 8 2.10613 0 13 2.10613 1
gene 2 6 11 -1.98696 0 45 -1.98696 1
gene 1 4 11 -2.0892 0 56 -2.0892 1
genomeend 56

/* Organism #57 Fitness: 9 Error: 0 */
genomestart 57
trait 1 0.1 0 0 0 0 0 0 0 
trait 2 0.2 0 0 0 0 0 0 0 
trait 3 0.3 0 0 0 0 0 0 0 
node 1 2 1 1
node 2 3 1 1
node 3 3 1 1
node 4 3 1 1
node 5 1 1 1
node 6 1 1 1
node 7 3 1 3
node 8 2 0 2
node 11 1 0 0
gene 2 1 8 0.968919 0 1 0.968919 1
gene 1 2 8 0.129138 0 2 0.129138 1
gene 3 3 8 0.370681 0 3 0.370681 0
gene 2 4 8 0.21154 0 4 0.21154 1
gene 1 5 8 -2.35871 0 5 -2.35871 1
gene 2 6 8 1.37339 0 6 1.37339 1
gene 1 7 8 -4.02867 0 7 -4.02867 1
gene 3 3 11 -0.186422 0 12 -0.186422 1
gene 3 11 8 0.828176 0 13 0.828176 1
gene 2 6 11 1.16249 0 45 1.16249 1
gene 1 4 11 -1.18151 0 56 -1.18151 1
genomeend 57

/* Organism #58 Fitness: 5 Error: 0 */
genomestart 58
trait 1 0.1 0 0 0 0 0 0 0 
trait 2 0.2 0 0 0 0 0 0 0 
trait 3 0.3 0 0 0 0 0 0 0 
node 1 2 1 1
node 2 3 1 1
node 3 3 1 1
node 4 3 1 1
node 5 1 1 1
node 6 1 1 1
node 7 3 1 3
node 8 2 0 2
node 11 1 0 0
gene 2 1 8 1.80613 0 1 1.80613 1
gene 1 2 8 -0.817588 0 2 -0.817588 1
gene 3 3 8 -1.17462 0 3 -1.17462 0
gene 2 4 8 0.979521 0 4 0.979521 1
gene 1 5 8 4.16156 0 5 4.16156 1
gene 2 6 8 -0.735166 0 6 -0.735166 1
gene 1 7 8 -2.36149 0 7 -2.36149 1
gene 3 3 11 -2.65724 0 12 -2.65724 1
gene 3 11 8 3.48363 0 13 3.48363 1
gene 2 6 11 -1.41405 0 45 -1.41405 1
gene 1 4 11 -1.55524 0 56 -1.55524 1
genomeend 58

/* Organism #59 Fitness: 104 Error: 0 */
genomestart 59
trait 1 0.1 0 0 0 0 0 0 0 
trait 2 0.409699 0 0 0 0 0 0 0 
trait 3 0.3 0 0 0 0 0 0 0 
node 1 2 1 1
node 2 3 1 1
node 3 3 1 1
node 4 3 1 1
node 5 1 1 1
node 6 1 1 1
node 7 3 1 3
node 8 2 0 2
node 11 1 0 0
gene 2 1 8 -0.473467 0 1 -0.473467 1
gene 1 2 8 1.08188 0 2 1.08188 1
gene 3 3 8 0.726432 0 3 0.726432 1
gene 2 4 8 -0.703932 0 4 -0.703932 1
gene 1 5 8 2.10759 0 5 2.10759 1
gene 2 6 8 1.37339 0 6 1.37339 1
gene 1 7 8 -1.81433 0 7 -1.81433 1
gene 3 3 11 -0.186422 0 12 -0.186422 1
gene 3 11 8 1.81347 0 13 1.81347 1
gene 2 6 11 -0.405709 0 45 -0.405709 1
gene 1 4 11 -0.93692 0 56 -0.93692 1
genomeend 59

/* Organism #60 Fitness: 11 Error: 0 */
genomestart 60
trait 1 0.1 0 0 0 0 0 0 0 
trait 2 0.2 0 0 0 0 0 0 0 
trait 3 0.3 0 0 0 0 0 0 0 
node 1 2 1 1
node 2 3 1 1
node 3 3 1 1
node 4 3 1 1
node 5 1 1 1
node 6 1 1 1
node 7 3 1 3
node 8 2 0 2
node 11 1 0 0
gene 2 1 8 -1.76244 0 1 -1.76244 1
gene 1 2 8 1.59782 0 2 1.59782 1
gene 3 3 8 -0.72377 0 3 -0.72377 0
gene 2 4 8 1.3446 0 4 1.3446 1
gene 1 5 8 3.47367 0 5 3.47367 1
gene 2 6 8 -2.43355 0 6 -2.43355 1
gene 1 7 8 -0.254226 0 7 -0.254226 1
gene 3 3 11 -1.99932 0 12 -1.99932 1
gene 3 11 8 4.25352 0 13 4.25352 1
gene 2 6 11 1.00402 0 45 1.00402 1
gene 1 4 11 -0.93692 0 56 -0.93692 1
genomeend 60

/* Organism #61 Fitness: 44 Error: 0 */
genomestart 61
trait 1 0.1 0 0 0 0 0 0 0 
trait 2 0.2 0 0 0 0 0 0 0 
trait 3 0.3 0 0 0 0 0 0 0 
node 1 2 1 1
node 2 3 1 1
node 3 3 1 1
node 4 3 1 1
node 5 1 1 1
node 6 1 1 1
node 7 3 1 3
node 8 2 0 2
node 11 1 0 0
gene 2 1 8 0.343948 0 1 0.343948 1
gene 1 2 8 -2.08174 0 2 -2.08174 1
gene 3 3 8 2.20373 0 3 2.20373 0
gene 2 4 8 1.59385 0 4 1.59385 1
gene 1 5 8 3.66593 0 5 3.66593 1
gene 2 6 8 2.98492 0 6 2.98492 1
gene 1 7 8 -1.81433 0 7 -1.81433 1
gene 3 3 11 -0.917901 0 12 -0.917901 1
gene 3 11 8 2.22905 0 13 2.22905 1
gene 2 6 11 1.87233 0 45 1.87233 1
gene 1 4 11 -1.40479 0 56 -1.40479 1
genomeend 61

/* Organism #62 Fitness: 37 Error: 0 */
genomestart 62
trait 1 0.1 0 0 0 0 0 0 0 
trait 2 0.2 0 0 0 0 0 0 0 
trait 3 0.3 0 0 0 0 0 0 0 
node 1 3 1 1
node 2 3 1 1
node 3 3 1 1
node 4 3 1 1
node 5 1 1 1
node 6 1 1 1
node 7 3 1 3
node 8 2 0 2
node 11 1 0 0
gene 2 1 8 -1.3059 0 1 -1.3059 1
gene 1 2 8 1.22003 0 2 1.22003 1
gene 3 3 8 -0.0327649 0 3 -0.0327649 0
gene 2 4 8 0.53049 0 4 0.53049 1
gene 1 5 8 3.44295 0 5 3.44295 1
gene 2 6 8 2.86882 0 6 2.86882 1
gene 1 7 8 -1.08818 0 7 -1.08818 1
gene 3 3 11 -1.32252 0 12 -1.32252 1
gene 3 11 8 2.7318 0 13 2.7318 1
gene 2 6 11 -0.405709 0 45 -0.405709 1
gene 1 4 11 0.306029 0 56 0.306029 1
genomeend 62

/* Organism #63 Fitness: 61 Error: 0 */
genomestart 63
trait 1 0.1 0 0 0 0 0 0 0 
trait 2 0.2 0 0 0 0 0 0 0 
trait 3 0.3 0 0 0 0 0 0 0 
node 1 2 1 1
node 2 3 1 1
node 3 3 1 1
node 4 3 1 1
node 5 1 1 1
node 6 1 1 1
node 7 3 1 3
node 8 2 0 2
node 11 1 0 0
gene 2 1 8 -0.473467 0 1 -0.473467 1
gene 1 2 8 1.08188 0 2 1.08188 1
gene 3 3 8 0.726432 0 3 0.726432 0
gene 2 4 8 -0.703932 0 4 -0.703932 1
gene 1 5 8 2.10759 0 5 2.10759 1
gene 2 6 8 1.37339 0 6 1.37339 1
gene 1 7 8 -1.81433 0 7 -1.81433 1
gene 3 3 11 -0.186422 0 12 -0.186422 1
gene 3 11 8 1.81347 0 13 1.81347 1
gene 2 6 11 -0.405709 0 45 -0.405709 1
gene 1 4 11 -0.93692 0 56 -0.93692 1
gene 1 5 11 0.914235 0 271 0 1
genomeend 63

/* Organism #64 Fitness: 58 Error: 0 */
genomestart 64
trait 1 0.1 0 0 0 0 0 0 0 
trait 2 0.2 0 0 0 0 0 0 0 
trait 3 0.3 0 0 0 0 0 0 0 
node 1 2 1 1
node 2 3 1 1
node 3 3 1 1
node 4 3 1 1
node 5 1 1 1
node 6 1 1 1
node 7 3 1 3
node 8 2 0 2
node 11 1 0 0
gene 2 1 8 1.56935 0 1 1.56935 1
gene 1 2 8 -2.08487 0 2 -2.08487 1
gene 3 3 8 0.217485 0 3 0.217485 0
gene 2 4 8 -3.05635 0 4 -3.05635 1
gene 1 5 8 1.06978 0 5 1.06978 1
gene 2 6 8 0.266895 0 6 0.266895 1
gene 1 7 8 -0.443646 0 7 -0.443646 1
gene 3 3 11 1.2666 0 12 1.2666 1
gene 3 11 8 0.0121427 0 13 0.0121427 1
gene 1 6 11 -0.510037 0 45 -0.510037 1
gene 1 4 11 -0.49425 0 56 -0.49425 1
genomeend 64

/* Organism #65 Fitness: 104 Error: 0 */
genomestart 65
trait 1 0.1 0 0 0 0 0 0 0 
trait 2 0.2 0 0 0 0 0 0 0 
trait 3 0.3 0 0 0 0 0 0 0 
node 1 2 1 1
node 2 3 1 1
node 3 3 1 1
node 4 3 1 1
node 5 1 1 1
node 6 1 1 1
node 7 3 1 3
node 8 2 0 2
node 11 1 0 0
gene 2 1 8 -0.473467 0 1 -0.473467 1
gene 1 2 8 1.08188 0 2 1.08188 1
gene 3 3 8 0.726432 0 3 0.726432 1
gene 2 4 8 -0.703932 0 4 -0.703932 1
gene 1 5 8 2.10759 0 5 2.10759 1
gene 2 6 8 1.37339 0 6 1.37339 1
gene 1 7 8 -1.81433 0 7 -1.81433 1
gene 3 3 11 -0.186422 0 12 -0.186422 1
gene 3 11 8 1.81347 0 13 1.81347 1
gene 2 6 11 -0.405709 0 45 -0.405709 1
gene 1 4 11 -0.93692 0 56 -0.93692 1
genomeend 65

/* Organism #66 Fitness: 27 Error: 0 */
genomestart 66
trait 1 0.1 0 0 0 0 0 0 0 
trait 2 0.2 0 0 0 0 0 0 0 
trait 3 0.3 0 0 0 0 0 0 0 
node 1 3 1 1
node 2 3 1 1
node 3 3 1 1
node 4 3 1 1
node 5 1 1 1
node 6 1 1 1
node 7 3 1 3
node 8 2 0 2
node 11 1 0 0
gene 2 1 8 -1.16089 0 1 -1.16089 1
gene 1 2 8 1.08188 0 2 1.08188 1
gene 3 3 8 1.9699 0 3 1.9699 0
gene 2 4 8 -0.411741 0 4 -0.411741 1
gene 1 5 8 0.741502 0 5 0.741502 1
gene 2 6 8 3.4066 0 6 3.4066 1
gene 1 7 8 -1.81433 0 7 -1.81433 1
gene 3 3 11 -2.48546 0 12 -2.48546 1
gene 3 11 8 -2.01973 0 13 -2.01973 1
gene 2 6 11 -0.508721 0 45 -0.508721 1
gene 1 4 11 -2.25742 0 56 -2.25742 1
genomeend 66

/* Species #8 : (Size 8) (AF 42.5) (Age 20)  */


/* Organism #67 Fitness: 186 Error: 0 */
genomestart 67
trait 1 0.188921 0 0 0 0 0 0 0 
trait 2 0.2 0 0 0 0 0 0 0 
trait 3 0.3 0 0 0 0 0 0 0 
node 1 2 1 1
node 2 3 1 1
node 3 3 1 1
node 4 1 1 1
node 5 3 1 1
node 6 1 1 1
node 7 3 1 3
node 8 2 0 2
node 11 1 0 0
node 27 1 0 0
node 45 1 0 0
gene 2 1 8 3.94369 0 1 3.94369 1
gene 1 2 8 3.5363 0 2 3.5363 0
gene 3 3 8 -0.306274 0 3 -0.306274 1
gene 2 4 8 -1.65169 0 4 -1.65169 1
gene 1 5 8 2.84047 0 5 2.84047 1
gene 2 6 8 0.786613 0 6 0.786613 1
gene 1 7 8 -3.1026 0 7 -3.1026 1
gene 3 3 11 3.12517 0 12 3.12517 0
gene 3 11 8 0.107862 0 13 0.107862 1
gene 2 6 11 0.571152 0 45 0.571152 1
gene 1 2 27 1.11679 0 51 1.11679 1
gene 1 27 8 1.73915 0 52 1.73915 1
gene 3 3 45 2.39443 0 103 2.39443 1
gene 3 45 11 -0.82352 0 104 -0.82352 1
genomeend 67

/* Organism #68 Fitness: 5 Error: 0 */
genomestart 68
trait 1 0.188921 0 0 0 0 0 0 0 
trait 2 0.2 0 0 0 0 0 0 0 
trait 3 0.3 0 0 0 0 0 0 0 
node 1 2 1 1
node 2 3 1 1
node 3 3 1 1
node 4 1 1 1
node 5 3 1 1
node 6 1 1 1
node 7 3 1 3
node 8 2 0 2
node 11 1 0 0
node 27 1 0 0
node 45 1 0 0
gene 2 1 8 3.14692 0 1 3.14692 1
gene 1 2 8 1.06398 0 2 1.06398 0
gene 3 3 8 -2.36461 0 3 -2.36461 0
gene 2 4 8 0.00374163 0 4 0.00374163 1
gene 1 5 8 -0.490289 0 5 -0.490289 1
gene 2 6 8 -0.012487 0 6 -0.012487 1
gene 1 7 8 -4.9637 0 7 -4.9637 1
gene 3 3 11 0.962626 0 12 0.962626 0
gene 3 11 8 1.38968 0 13 1.38968 1
gene 2 6 11 -0.00940025 0 45 -0.00940025 1
gene 1 2 27 1.36083 0 51 1.36083 1
gene 1 27 8 -1.32224 0 52 -1.32224 1
gene 3 3 45 3.12327 0 103 3.12327 1
gene 3 45 11 -1.02756 0 104 -1.02756 1
genomeend 68

/* Organism #69 Fitness: 14 Error: 0 */
genomestart 69
trait 1 0.188921 0 0 0 0 0 0 0 
trait 2 0.2 0 0 0 0 0 0 0 
trait 3 0.3 0 0 0 0 0 0 0 
node 1 2 1 1
node 2 3 1 1
node 3 3 1 1
node 4 1 1 1
node 5 3 1 1
node 6 1 1 1
node 7 3 1 3
node 8 2 0 2
node 11 1 0 0
node 27 1 0 0
node 45 1 0 0
gene 2 1 8 1.80004 0 1 1.80004 1
gene 1 2 8 4.77412 0 2 4.77412 0
gene 3 3 8 -0.394277 0 3 -0.394277 1
gene 2 4 8 -0.834424 0 4 -0.834424 1
gene 1 5 8 1.15909 0 5 1.15909 1
gene 2 6 8 2.61198 0 6 2.61198 1
gene 1 7 8 -4.5516 0 7 -4.5516 1
gene 3 3 11 1.12051 0 12 1.12051 0
gene 3 11 8 -1.95967 0 13 -1.95967 1
gene 2 6 11 1.24093 0 45 1.24093 1
gene 1 2 27 -0.32578 0 51 -0.32578 1
gene 1 27 8 3.25739 0 52 3.25739 1
gene 3 3 45 -1.04469 0 103 -1.04469 1
gene 3 45 11 -1.64153 0 104 -1.64153 1
genomeend 69

/* Organism #70 Fitness: 38 Error: 0 */
genomestart 70
trait 1 0.188921 0 0 0 0 0 0 0 
trait 2 0.2 0 0 0 0 0 0 0 
trait 3 0.3 0 0 0 0 0 0 0 
node 1 2 1 1
node 2 3 1 1
node 3 3 1 1
node 4 1 1 1
node 5 3 1 1
node 6 1 1 1
node 7 3 1 3
node 8 2 0 2
node 11 1 0 0
node 27 1 0 0
node 45 1 0 0
gene 1 1 8 4.4642 0 1 4.4642 1
gene 1 2 8 1.42114 0 2 1.42114 0
gene 3 3 8 0.606733 0 3 0.606733 0
gene 2 4 8 -1.80267 0 4 -1.80267 1
gene 1 5 8 1.77045 0 5 1.77045 1
gene 2 6 8 3.09236 0 6 3.09236 1
gene 1 7 8 -4.41362 0 7 -4.41362 1
gene 3 3 11 3.0839 0 12 3.0839 0
gene 3 11 8 2.14235 0 13 2.14235 1
gene 2 6 11 -1.06147 0 45 -1.06147 1
gene 1 2 27 1.90373 0 51 1.90373 1
gene 1 27 8 1.85919 0 52 1.85919 1
gene 3 3 45 2.40173 0 103 2.40173 1
gene 3 45 11 -2.03894 0 104 -2.03894 1
genomeend 70

/* Organism #71 Fitness: 35 Error: 0 */
genomestart 71
trait 1 0.188921 0 0 0 0 0 0 0 
trait 2 0.2 0 0 0 0 0 0 0 
trait 3 0.3 0 0 0 0 0 0 0 
node 1 2 1 1
node 2 3 1 1
node 3 3 1 1
node 4 1 1 1
node 5 3 1 1
node 6 1 1 1
node 7 3 1 3
node 8 2 0 2
node 11 1 0 0
node 27 1 0 0
node 45 1 0 0
gene 2 1 8 1.69769 0 1 1.69769 1
gene 1 2 8 4.36063 0 2 4.36063 0
gene 3 3 8 -2.0368 0 3 -2.0368 0
gene 2 4 8 -2.41023 0 4 -2.41023 1
gene 1 5 8 2.1813 0 5 2.1813 1
gene 2 6 8 3.01368 0 6 3.01368 1
gene 1 7 8 -3.98581 0 7 -3.98581 1
gene 3 3 11 2.90236 0 12 2.90236 0
gene 3 11 8 -0.592098 0 13 -0.592098 1
gene 2 6 11 0.414657 0 45 0.414657 1
gene 1 2 27 2.61979 0 51 2.61979 1
gene 1 27 8 1.8457 0 52 1.8457 1
gene 3 3 45 -1.91563 0 103 -1.91563 1
gene 3 45 11 -0.82352 0 104 -0.82352 1
genomeend 71

/* Organism #72 Fitness: 38 Error: 0 */
genomestart 72
trait 1 0.188921 0.221722 0 0 0.0840912 0 0 0 
trait 2 0.2 0 0 0 0 0 0 0 
trait 3 0.3 0 0 0 0 0 0 0 
node 1 2 1 1
node 2 3 1 1
node 3 3 1 1
node 4 1 1 1
node 5 3 1 1
node 6 1 1 1
node 7 3 1 3
node 8 2 0 2
node 11 1 0 0
node 27 1 0 0
node 45 1 0 0
gene 2 1 8 4.29803 0 1 4.29803 1
gene 1 2 8 5.90187 0 2 5.90187 1
gene 3 3 8 -0.00887299 0 3 -0.00887299 0
gene 2 4 8 -2.31373 0 4 -2.31373 1
gene 1 5 8 3.6291 0 5 3.6291 1
gene 2 6 8 2.72157 0 6 2.72157 1
gene 1 7 8 -4.95411 0 7 -4.95411 1
gene 3 3 11 3.24721 0 12 3.24721 0
gene 3 11 8 1.3713 0 13 1.3713 1
gene 2 6 11 -0.988863 0 45 -0.988863 1
gene 1 2 27 -1.12298 0 51 -1.12298 1
gene 1 27 8 3.91024 0 52 3.91024 1
gene 3 3 45 1.21313 0 103 1.21313 1
gene 3 45 11 -0.890762 0 104 -0.890762 1
gene 3 2 11 0.498355 0 260 0.498355 1
genomeend 72

/* Organism #73 Fitness: 19 Error: 0 */
genomestart 73
trait 1 0.188921 0 0 0 0 0 0 0 
trait 2 0.2 0 0 0 0 0 0 0 
trait 3 0.3 0 0 0 0 0 0 0 
node 1 2 1 1
node 2 3 1 1
node 3 3 1 1
node 4 1 1 1
node 5 3 1 1
node 6 1 1 1
node 7 3 1 3
node 8 2 0 2
node 11 1 0 0
node 27 1 0 0
node 45 1 0 0
gene 2 1 8 1.806 0 1 1.806 1
gene 1 2 8 5.74094 0 2 5.74094 0
gene 3 3 8 -0.884297 0 3 -0.884297 0
gene 2 4 8 -2.35069 0 4 -2.35069 1
gene 1 5 8 2.31535 0 5 2.31535 1
gene 2 6 8 0.142333 0 6 0.142333 1
gene 1 7 8 -1.09312 0 7 -1.09312 1
gene 3 3 11 4.39558 0 12 4.39558 0
gene 3 11 8 -0.843886 0 13 -0.843886 1
gene 2 6 11 -1.06196 0 45 -1.06196 1
gene 1 2 27 0.70972 0 51 0.70972 1
gene 1 27 8 1.70508 0 52 1.70508 1
gene 3 3 45 0.226795 0 103 0.226795 1
gene 3 45 11 -0.82352 0 104 -0.82352 1
genomeend 73

/* Organism #74 Fitness: 5 Error: 0 */
genomestart 74
trait 1 0.188921 0 0 0 0 0 0 0 
trait 2 0.2 0 0 0 0 0 0 0 
trait 3 0.3 0 0 0 0 0 0 0 
node 1 2 1 1
node 2 3 1 1
node 3 3 1 1
node 4 1 1 1
node 5 3 1 1
node 6 1 1 1
node 7 3 1 3
node 8 2 0 2
node 11 1 0 0
node 27 1 0 0
node 45 1 0 0
gene 2 1 8 5.57097 0 1 5.57097 1
gene 1 2 8 6.00242 0 2 6.00242 0
gene 3 3 8 -0.627179 0 3 -0.627179 0
gene 2 4 8 -3.64095 0 4 -3.64095 1
gene 1 5 8 1.61663 0 5 1.61663 1
gene 2 6 8 -0.330761 0 6 -0.330761 1
gene 1 7 8 -2.91211 0 7 -2.91211 1
gene 3 3 11 5.50018 0 12 5.50018 1
gene 3 11 8 -0.0299035 0 13 -0.0299035 1
gene 2 6 11 2.38115 0 45 2.38115 1
gene 1 2 27 3.14342 0 51 3.14342 1
gene 1 27 8 2.06641 0 52 2.06641 1
gene 3 3 45 4.14844 0 103 4.14844 1
gene 3 45 11 -0.82352 0 104 -0.82352 1
genomeend 74

/* Species #9 : (Size 8) (AF 41.875) (Age 18)  */


/* Organism #75 Fitness: 111 Error: 0 */
genomestart 75
trait 1 0.1 0 0 0 0 0 0 0 
trait 2 0.2 0 0 0 0 0 0 0 
trait 3 1 0.966379 0.17256 0 0 0.910484 0 0.928179 
node 1 2 1 1
node 2 3 1 1
node 3 3 1 1
node 4 2 1 1
node 5 1 1 1
node 6 1 1 1
node 7 3 1 3
node 8 2 0 2
node 11 1 0 0
node 36 1 0 0
gene 2 1 8 -0.629095 0 1 -0.629095 1
gene 3 2 8 7.42325 0 2 7.42325 0
gene 2 3 8 4.16767 0 3 4.16767 0
gene 2 4 8 -0.418765 0 4 -0.418765 1
gene 3 5 8 6.59042 0 5 6.59042 1
gene 1 6 8 1.55234 0 6 1.55234 1
gene 2 7 8 -1.4121 0 7 -1.4121 1
gene 1 3 11 -3.53542 0 12 -3.53542 1
gene 3 11 8 -0.573004 0 13 -0.573004 1
gene 2 2 36 2.35954 0 76 2.35954 1
gene 3 36 8 -0.266288 0 77 -0.266288 1
gene 1 1 11 -0.396702 0 241 -0.396702 1
gene 1 5 36 -0.872172 0 251 -0.872172 1
genomeend 75

/* Organism #76 Fitness: 8 Error: 0 */
genomestart 76
trait 1 0.1 0 0 0 0 0 0 0 
trait 2 0.2 0 0 0 0 0 0 0 
trait 3 1 0.966379 0.17256 0 0 0.910484 0 0.928179 
node 1 2 1 1
node 2 3 1 1
node 3 3 1 1
node 4 2 1 1
node 5 1 1 1
node 6 1 1 1
node 7 3 1 3
node 8 2 0 2
node 11 1 0 0
node 36 1 0 0
gene 2 1 8 1.38258 0 1 1.38258 1
gene 3 2 8 8 0 2 8 1
gene 2 3 8 5.06596 0 3 5.06596 0
gene 2 4 8 -2.44599 0 4 -2.44599 1
gene 3 5 8 8 0 5 8 1
gene 1 6 8 0.0463895 0 6 0.0463895 1
gene 2 7 8 0.873126 0 7 0.873126 1
gene 1 3 11 -5.37748 0 12 -5.37748 1
gene 3 11 8 -1.87434 0 13 -1.87434 1
gene 2 2 36 3.29155 0 76 3.29155 1
gene 3 36 8 -2.1246 0 77 -2.1246 1
gene 1 1 11 1.29704 0 241 1.29704 1
gene 1 5 36 -0.282241 0 251 -0.282241 1
genomeend 76

/* Organism #77 Fitness: 42 Error: 0 */
genomestart 77
trait 1 0.1 0 0 0 0 0 0 0 
trait 2 0.2 0 0 0 0 0 0 0 
trait 3 1 0.966379 0.17256 0 0 0.910484 0 0.928179 
node 1 2 1 1
node 2 3 1 1
node 3 3 1 1
node 4 2 1 1
node 5 1 1 1
node 6 1 1 1
node 7 3 1 3
node 8 2 0 2
node 11 1 0 0
node 36 1 0 0
gene 2 1 8 -2.25296 0 1 -2.25296 1
gene 3 2 8 6.17872 0 2 6.17872 0
gene 2 3 8 6.06252 0 3 6.06252 0
gene 2 4 8 -0.540832 0 4 -0.540832 1
gene 3 5 8 6.59042 0 5 6.59042 1
gene 1 6 8 0.297133 0 6 0.297133 1
gene 2 7 8 -0.133612 0 7 -0.133612 1
gene 1 3 11 -2.24969 0 12 -2.24969 1
gene 3 11 8 -2.65337 0 13 -2.65337 1
gene 2 2 36 3.08018 0 76 3.08018 1
gene 3 36 8 0.58358 0 77 0.58358 1
gene 1 1 11 -0.595839 0 241 -0.595839 1
gene 1 5 36 0.546103 0 251 0.546103 1
genomeend 77

/* Organism #78 Fitness: 5 Error: 0 */
genomestart 78
trait 1 0.1 0 0 0 0 0 0 0 
trait 2 0.2 0 0 0 0 0 0 0 
trait 3 1 0.966379 0.17256 0 0 0.910484 0 0.928179 
node 1 2 1 1
node 2 3 1 1
node 3 3 1 1
node 4 2 1 1
node 5 1 1 1
node 6 1 1 1
node 7 3 1 3
node 8 2 0 2
node 11 1 0 0
node 36 1 0 0
gene 2 1 8 -0.712194 0 1 -0.712194 1
gene 3 2 8 7.76295 0 2 7.76295 0
gene 2 3 8 2.2726 0 3 2.2726 0
gene 2 4 8 1.98848 0 4 1.98848 1
gene 3 5 8 2.44172 0 5 2.44172 1
gene 1 6 8 -0.373568 0 6 -0.373568 1
gene 2 7 8 -1.4121 0 7 -1.4121 1
gene 1 3 11 -1.84808 0 12 -1.84808 1
gene 3 11 8 -1.51885 0 13 -1.51885 1
gene 2 2 36 3.46972 0 76 3.46972 1
gene 3 36 8 -0.266288 0 77 -0.266288 1
gene 1 1 11 -0.396702 0 241 -0.396702 1
gene 1 5 36 0.624586 0 251 0.624586 1
gene 1 3 36 2.18844 0 261 2.18844 1
genomeend 78

/* Organism #79 Fitness: 27 Error: 0 */
genomestart 79
trait 1 0.1 0 0 0 0 0 0 0 
trait 2 0.2 0 0 0 0 0 0 0 
trait 3 1 0.966379 0.17256 0 0 0.910484 0 0.928179 
node 1 2 1 1
node 2 3 1 1
node 3 3 1 1
node 4 2 1 1
node 5 1 1 1
node 6 1 1 1
node 7 3 1 3
node 8 2 0 2
node 11 1 0 0
node 36 1 0 0
gene 2 1 8 1.57307 0 1 1.57307 1
gene 3 2 8 7.15497 0 2 7.15497 0
gene 2 3 8 3.75899 0 3 3.75899 0
gene 2 4 8 1.23961 0 4 1.23961 1
gene 3 5 8 4.34128 0 5 4.34128 1
gene 1 6 8 1.30864 0 6 1.30864 1
gene 2 7 8 0.690228 0 7 0.690228 1
gene 1 3 11 -2.4923 0 12 -2.4923 1
gene 3 11 8 -0.167673 0 13 -0.167673 1
gene 2 2 36 3.19252 0 76 3.19252 1
gene 3 36 8 1.20838 0 77 1.20838 1
gene 1 1 11 1.80413 0 241 1.80413 1
gene 1 5 36 -2.74917 0 251 -2.74917 1
gene 1 3 36 -1.08383 0 261 -1.08383 1
genomeend 79

/* Organism #80 Fitness: 41 Error: 0 */
genomestart 80
trait 1 0.1 0 0 0 0 0 0 0 
trait 2 0.2 0 0 0 0 0 0 0 
trait 3 1 0.966379 0.17256 0 0 0.910484 0 0.928179 
node 1 2 1 1
node 2 3 1 1
node 3 3 1 1
node 4 2 1 1
node 5 1 1 1
node 6 1 1 1
node 7 3 1 3
node 8 2 0 2
node 11 1 0 0
node 36 1 0 0
gene 2 1 8 -1.05154 0 1 -1.05154 1
gene 3 2 8 8 0 2 8 0
gene 2 3 8 2.65555 0 3 2.65555 0
gene 2 4 8 -0.697152 0 4 -0.697152 1
gene 3 5 8 8 0 5 8 1
gene 1 6 8 0.57982 0 6 0.57982 1
gene 2 7 8 0.691852 0 7 0.691852 1
gene 1 3 11 -4.43577 0 12 -4.43577 1
gene 3 11 8 -2.96164 0 13 -2.96164 1
gene 2 2 36 3.95952 0 76 3.95952 1
gene 3 36 8 -1.10722 0 77 -1.10722 1
gene 1 1 11 -0.67349 0 241 -0.67349 1
gene 1 5 36 -1.62944 0 251 -1.62944 1
genomeend 80

/* Organism #81 Fitness: 30 Error: 0 */
genomestart 81
trait 1 0.1 0 0 0 0 0 0 0 
trait 2 0.2 0 0 0 0 0 0 0 
trait 3 1 0.966379 0.17256 0 0 0.910484 0 0.928179 
node 1 2 1 1
node 2 3 1 1
node 3 3 1 1
node 4 2 1 1
node 5 1 1 1
node 6 1 1 1
node 7 3 1 3
node 8 2 0 2
node 11 1 0 0
node 36 1 0 0
gene 2 1 8 1.14639 0 1 1.14639 1
gene 3 2 8 8 0 2 8 0
gene 2 3 8 1.78543 0 3 1.78543 0
gene 2 4 8 -1.84796 0 4 -1.84796 1
gene 3 5 8 5.93527 0 5 5.93527 1
gene 1 6 8 0.191011 0 6 0.191011 1
gene 2 7 8 -2.61218 0 7 -2.61218 1
gene 1 3 11 -5.18153 0 12 -5.18153 1
gene 3 11 8 -1.40044 0 13 -1.40044 1
gene 2 2 36 0.427842 0 76 0.427842 1
gene 3 36 8 0.131625 0 77 0.131625 1
gene 1 1 11 0.980237 0 241 0.980237 1
gene 1 5 36 -0.872172 0 251 -0.872172 1
gene 1 3 36 0.172542 0 261 0.172542 1
genomeend 81

/* Organism #82 Fitness: 71 Error: 0 */
genomestart 82
trait 1 0.1 0 0 0 0 0 0 0 
trait 2 0.2 0 0 0 0 0 0 0 
trait 3 1 0.966379 0.17256 0 0 0.910484 0 0.928179 
node 1 2 1 1
node 2 3 1 1
node 3 3 1 1
node 4 2 1 1
node 5 1 1 1
node 6 1 1 1
node 7 3 1 3
node 8 2 0 2
node 11 1 0 0
node 36 1 0 0
gene 2 1 8 -2.56076 0 1 -2.56076 1
gene 3 2 8 8 0 2 8 0
gene 2 3 8 2.38877 0 3 2.38877 0
gene 2 4 8 -1.82265 0 4 -1.82265 1
gene 3 5 8 8 0 5 8 1
gene 1 6 8 2.54331 0 6 2.54331 1
gene 2 7 8 -1.45485 0 7 -1.45485 1
gene 1 3 11 -4.71547 0 12 -4.71547 1
gene 3 11 8 -2.27018 0 13 -2.27018 1
gene 2 2 36 3.0673 0 76 3.0673 1
gene 3 36 8 -0.544219 0 77 -0.544219 1
gene 1 1 11 1.80654 0 241 1.80654 1
gene 1 5 36 -0.872172 0 251 -0.872172 1
gene 1 3 36 -1.96099 0 261 -1.96099 1
genomeend 82

/* Species #10 : (Size 1) (AF 12) (Age 18)  */


/* Organism #83 Fitness: 12 Error: 0 */
genomestart 83
trait 1 0.1 0 0 0 0 0 0 0 
trait 2 0.554092 0 0 0 0 0 0 0.609083 
trait 3 0.751942 0 0 0.0933381 0.545231 0.562404 0.176774 0.818531 
node 1 2 1 1
node 2 3 1 1
node 3 3 1 1
node 4 3 1 1
node 5 1 1 1
node 6 1 1 1
node 7 3 1 3
node 8 2 0 2
node 11 1 0 0
node 37 1 0 0
gene 2 1 8 -6.12482 0 1 -6.12482 1
gene 1 2 8 3.29391 0 2 3.29391 1
gene 3 3 8 -1.35799 0 3 -1.35799 0
gene 2 4 8 -1.23643 0 4 -1.23643 1
gene 1 5 8 2.13025 0 5 2.13025 1
gene 1 6 8 1.24788 0 6 1.24788 0
gene 1 7 8 -4.05784 0 7 -4.05784 1
gene 1 3 11 -1.70541 0 12 -1.70541 1
gene 3 11 8 -6.98162 0 13 -6.98162 1
gene 2 6 11 -2.09099 0 45 -2.09099 1
gene 1 6 37 0.90625 0 78 0.90625 1
gene 2 37 8 2.58594 0 79 2.58594 1
gene 1 3 37 -2.5402 0 96 -2.5402 1
genomeend 83

/* Species #11 : (Size 7) (AF 64.2857) (Age 18)  */


/* Organism #84 Fitness: 119 Error: 0 */
genomestart 84
trait 1 0.1 0 0 0 0 0 0 0 
trait 2 0.2 0 0 0 0 0 0 0 
trait 3 0.3 0 0 0 0 0 0 0 
node 1 2 1 1
node 2 3 1 1
node 3 3 1 1
node 4 3 1 1
node 5 1 1 1
node 6 1 1 1
node 7 3 1 3
node 8 2 0 2
node 11 1 0 0
gene 2 1 8 1.24767 0 1 1.24767 1
gene 3 2 8 -0.702765 0 2 -0.702765 1
gene 2 3 8 -3.79057 0 3 -3.79057 0
gene 2 4 8 0.609403 0 4 0.609403 1
gene 3 5 8 8 0 5 8 1
gene 1 6 8 1.91459 0 6 1.91459 1
gene 2 7 8 -0.00349082 0 7 -0.00349082 1
gene 2 3 11 0.0629424 0 12 0.0629424 1
gene 3 11 8 -1.7374 0 13 -1.7374 1
gene 2 6 11 2.0247 0 72 2.0247 1
genomeend 84

/* Organism #85 Fitness: 38 Error: 0 */
genomestart 85
trait 1 0.1 0 0 0 0 0 0 0 
trait 2 0.2 0 0 0 0 0 0 0 
trait 3 0.3 0 0 0 0 0 0 0 
node 1 2 1 1
node 2 3 1 1
node 3 3 1 1
node 4 3 1 1
node 5 1 1 1
node 6 1 1 1
node 7 3 1 3
node 8 2 0 2
node 11 1 0 0
gene 2 1 8 1.24767 0 1 1.24767 1
gene 3 2 8 -0.702765 0 2 -0.702765 1
gene 2 3 8 -5.52025 0 3 -5.52025 0
gene 2 4 8 0.609403 0 4 0.609403 1
gene 3 5 8 8 0 5 8 1
gene 1 6 8 1.91459 0 6 1.91459 1
gene 2 7 8 1.67419 0 7 1.67419 1
gene 2 3 11 1.93507 0 12 1.93507 1
gene 3 11 8 -1.7374 0 13 -1.7374 1
gene 2 6 11 2.0247 0 72 2.0247 1
gene 1 5 11 0.914235 0 271 0 1
genomeend 85

/* Organism #86 Fitness: 119 Error: 0 */
genomestart 86
trait 1 0.1 0 0 0 0 0 0 0 
trait 2 0.2 0 0 0 0 0 0 0 
trait 3 0.3 0 0 0 0 0 0 0 
node 1 2 1 1
node 2 3 1 1
node 3 3 1 1
node 4 3 1 1
node 5 1 1 1
node 6 1 1 1
node 7 3 1 3
node 8 2 0 2
node 11 1 0 0
gene 2 1 8 1.24767 0 1 1.24767 1
gene 3 2 8 -0.702765 0 2 -0.702765 1
gene 2 3 8 -3.79057 0 3 -3.79057 0
gene 2 4 8 0.609403 0 4 0.609403 1
gene 3 5 8 8 0 5 8 1
gene 1 6 8 1.91459 0 6 1.91459 1
gene 2 7 8 -0.00349082 0 7 -0.00349082 1
gene 2 3 11 0.0629424 0 12 0.0629424 1
gene 3 11 8 -1.7374 0 13 -1.7374 1
gene 2 6 11 2.0247 0 72 2.0247 1
genomeend 86

/* Organism #87 Fitness: 27 Error: 0 */
genomestart 87
trait 1 0.1 0 0 0 0 0 0 0 
trait 2 0.2 0 0 0 0 0 0 0 
trait 3 0.3 0 0 0 0 0 0 0 
node 1 2 1 1
node 2 3 1 1
node 3 3 1 1
node 4 3 1 1
node 5 1 1 1
node 6 1 1 1
node 7 3 1 3
node 8 2 0 2
node 11 1 0 0
gene 2 1 8 0.188666 0 1 0.188666 1
gene 3 2 8 -4.94857 0 2 -4.94857 1
gene 2 3 8 -4.75923 0 3 -4.75923 0
gene 2 4 8 -0.210296 0 4 -0.210296 1
gene 3 5 8 8 0 5 8 1
gene 1 6 8 -0.0733691 0 6 -0.0733691 1
gene 2 7 8 2.32264 0 7 2.32264 1
gene 2 3 11 -0.217232 0 12 -0.217232 1
gene 3 11 8 -0.537759 0 13 -0.537759 1
gene 2 6 11 1.61434 0 72 1.61434 1
genomeend 87

/* Organism #88 Fitness: 32 Error: 0 */
genomestart 88
trait 1 0.1 0 0 0 0 0 0 0 
trait 2 0.2 0 0 0 0 0 0 0 
trait 3 0.3 0 0 0 0 0 0 0 
node 1 2 1 1
node 2 3 1 1
node 3 3 1 1
node 4 3 1 1
node 5 1 1 1
node 6 1 1 1
node 7 3 1 3
node 8 2 0 2
node 11 1 0 0
gene 2 1 8 1.05322 0 1 1.05322 1
gene 3 2 8 -1.68498 0 2 -1.68498 1
gene 2 3 8 -4.65541 0 3 -4.65541 0
gene 2 4 8 -0.484331 0 4 -0.484331 1
gene 3 5 8 8 0 5 8 1
gene 1 6 8 1.77906 0 6 1.77906 1
gene 2 7 8 0.835351 0 7 0.835351 1
gene 2 3 11 0.999006 0 12 0.999006 1
gene 3 11 8 -2.30402 0 13 -2.30402 1
gene 2 6 11 2.7377 0 72 2.7377 1
genomeend 88

/* Organism #89 Fitness: 48 Error: 0 */
genomestart 89
trait 1 0.1 0 0 0 0 0 0 0 
trait 2 0.2 0 0 0 0 0 0 0 
trait 3 0.3 0 0 0 0 0 0 0 
node 1 2 1 1
node 2 3 1 1
node 3 3 1 1
node 4 3 1 1
node 5 1 1 1
node 6 1 1 1
node 7 3 1 3
node 8 2 0 2
node 11 1 0 0
gene 2 1 8 0.794136 0 1 0.794136 1
gene 3 2 8 -1.68498 0 2 -1.68498 1
gene 2 3 8 -2.49978 0 3 -2.49978 0
gene 2 4 8 0.401564 0 4 0.401564 1
gene 3 5 8 8 0 5 8 1
gene 1 6 8 3.86336 0 6 3.86336 1
gene 2 7 8 0.798075 0 7 0.798075 1
gene 2 3 11 -2.47117 0 12 -2.47117 1
gene 3 11 8 -4.79494 0 13 -4.79494 1
gene 2 6 11 4.62227 0 72 4.62227 1
genomeend 89

/* Organism #90 Fitness: 67 Error: 0 */
genomestart 90
trait 1 0.1 0 0 0 0 0 0 0 
trait 2 0.2 0 0 0 0 0 0 0 
trait 3 0.3 0 0 0 0 0 0 0 
node 1 2 1 1
node 2 3 1 1
node 3 3 1 1
node 4 3 1 1
node 5 1 1 1
node 6 1 1 1
node 7 3 1 3
node 8 2 0 2
node 11 1 0 0
gene 2 1 8 0.867995 0 1 0.867995 1
gene 3 2 8 -3.6691 0 2 -3.6691 1
gene 2 3 8 -5.35915 0 3 -5.35915 0
gene 2 4 8 -3.60776 0 4 -3.60776 1
gene 3 5 8 7.77598 0 5 7.77598 1
gene 1 6 8 3.3521 0 6 3.3521 1
gene 2 7 8 3.2443 0 7 3.2443 1
gene 2 3 11 2.53892 0 12 2.53892 1
gene 3 11 8 -3.23995 0 13 -3.23995 1
gene 2 6 11 2.2341 0 72 2.2341 1
genomeend 90

/* Species #12 : (Size 3) (AF 29.6667) (Age 16)  */


/* Organism #91 Fitness: 16 Error: 0 */
genomestart 91
trait 1 0.1 0 0 0 0 0 0 0 
trait 2 0.2 0 0 0 0 0 0 0 
trait 3 0.3 0 0 0 0 0 0 0 
node 1 2 1 1
node 2 3 1 1
node 3 3 1 1
node 4 3 1 1
node 5 1 1 1
node 6 1 1 1
node 7 3 1 3
node 8 1 0 2
node 11 1 0 0
node 43 1 0 0
node 66 1 0 0
gene 2 1 8 -3.30051 0 1 -3.30051 1
gene 3 2 8 -6.94236 0 2 -6.94236 1
gene 2 3 8 1.41221 0 3 1.41221 0
gene 2 4 8 2.98281 0 4 2.98281 1
gene 3 5 8 0.542301 0 5 0.542301 1
gene 1 6 8 -1.39592 0 6 -1.39592 0
gene 2 7 8 -7.26057 0 7 -7.26057 1
gene 2 3 11 -4.57465 0 12 -4.57465 1
gene 3 11 8 2.57122 0 13 2.57122 1
gene 1 6 43 1.36612 0 97 1.36612 1
gene 1 43 8 -2.03473 0 98 -2.03473 1
gene 3 5 66 1.43548 0 176 1.43548 1
gene 1 66 8 6.78097 0 177 6.78097 1
gene 2 6 11 -1.8816 0 243 -1.8816 1
genomeend 91

/* Organism #92 Fitness: 33 Error: 0 */
genomestart 92
trait 1 0.1 0 0 0 0 0 0 0 
trait 2 0.2 0 0 0 0 0 0 0 
trait 3 0.3 0 0 0 0 0 0 0 
node 1 2 1 1
node 2 3 1 1
node 3 3 1 1
node 4 3 1 1
node 5 1 1 1
node 6 1 1 1
node 7 3 1 3
node 8 1 0 2
node 11 1 0 0
node 43 1 0 0
node 66 1 0 0
gene 2 1 8 -7.15496 0 1 -7.15496 1
gene 3 2 8 -2.19077 0 2 -2.19077 1
gene 2 3 8 4.81122 0 3 4.81122 0
gene 2 4 8 1.77578 0 4 1.77578 1
gene 3 5 8 1.32776 0 5 1.32776 0
gene 1 6 8 -0.172265 0 6 -0.172265 0
gene 2 7 8 -5.51516 0 7 -5.51516 1
gene 2 3 11 -4.74885 0 12 -4.74885 1
gene 3 11 8 0.199789 0 13 0.199789 1
gene 1 6 43 -2.73255 0 97 -2.73255 1
gene 1 43 8 -0.932517 0 98 -0.932517 1
gene 3 5 66 1.54854 0 176 1.54854 1
gene 1 66 8 5.5227 0 177 5.5227 1
gene 2 6 11 -3.57763 0 243 -3.57763 1
genomeend 92

/* Organism #93 Fitness: 40 Error: 0 */
genomestart 93
trait 1 0.1 0 0 0 0 0 0 0 
trait 2 0.2 0 0 0 0 0 0 0 
trait 3 0.3 0 0 0 0 0 0 0 
node 1 2 1 1
node 2 3 1 1
node 3 3 1 1
node 4 3 1 1
node 5 1 1 1
node 6 1 1 1
node 7 3 1 3
node 8 1 0 2
node 11 1 0 0
node 43 1 0 0
node 66 1 0 0
gene 2 1 8 -0.465974 0 1 -0.465974 1
gene 3 2 8 -5.67219 0 2 -5.67219 1
gene 2 3 8 0.373247 0 3 0.373247 0
gene 2 4 8 3.90891 0 4 3.90891 1
gene 3 5 8 1.93677 0 5 1.93677 0
gene 1 6 8 -0.0614749 0 6 -0.0614749 0
gene 2 7 8 -5.81503 0 7 -5.81503 1
gene 2 3 11 -6.70822 0 12 -6.70822 1
gene 3 11 8 -0.178981 0 13 -0.178981 1
gene 1 6 43 1.19518 0 97 1.19518 1
gene 1 43 8 -0.728793 0 98 -0.728793 1
gene 3 5 66 1.3105 0 176 1.3105 1
gene 1 66 8 5.41875 0 177 5.41875 1
gene 2 6 11 -0.723478 0 243 -0.723478 1
genomeend 93

/* Species #13 : (Size 8) (AF 42.25) (Age 16)  */


/* Organism #94 Fitness: 79 Error: 0 */
genomestart 94
trait 1 0.1 0 0 0 0 0 0 0 
trait 2 0.2 0 0 0 0 0 0 0 
trait 3 0.3 0 0 0 0 0 0 0 
node 1 2 1 1
node 2 2 1 1
node 3 3 1 1
node 4 3 1 1
node 5 1 1 1
node 6 1 1 1
node 7 3 1 3
node 8 3 0 2
node 11 1 0 0
node 15 1 0 0
node 22 1 0 0
node 26 1 0 0
node 44 1 0 0
node 73 1 0 0
gene 2 1 8 4.22644 0 1 4.22644 1
gene 3 2 8 -0.145272 0 2 -0.145272 0
gene 2 3 8 -2.47131 0 3 -2.47131 0
gene 1 4 8 -0.652035 0 4 -0.652035 1
gene 1 5 8 2.96812 0 5 2.96812 1
gene 1 6 8 8 0 6 8 1
gene 1 7 8 -1.00001 0 7 -1.00001 1
gene 3 3 11 7.06697 0 12 7.06697 1
gene 3 11 8 4.02788 0 13 4.02788 0
gene 3 11 15 2.27843 0 20 2.27843 1
gene 3 15 8 0.762035 0 21 0.762035 1
gene 3 2 22 -0.932449 0 38 -0.932449 0
gene 3 22 8 -3.55036 0 39 -3.55036 1
gene 3 2 26 4.70721 0 48 4.70721 1
gene 3 26 22 -1.42663 0 49 -1.42663 1
gene 2 4 15 6.1122 0 90 6.1122 0
gene 1 5 44 -1.59287 0 101 -1.59287 1
gene 1 44 8 1.1069 0 102 1.1069 1
gene 2 26 11 -0.978111 0 165 -0.978111 1
gene 2 4 73 1 0 201 0 1
gene 2 73 15 6.1122 0 202 0 1
genomeend 94

/* Organism #95 Fitness: 29 Error: 0 */
genomestart 95
trait 1 0.1 0 0 0 0 0 0 0 
trait 2 0.2 0 0.0919938 0 0 0 0 0 
trait 3 0.3 0 0 0 0 0 0 0 
node 1 2 1 1
node 2 2 1 1
node 3 3 1 1
node 4 3 1 1
node 5 1 1 1
node 6 1 1 1
node 7 3 1 3
node 8 3 0 2
node 11 1 0 0
node 15 1 0 0
node 22 1 0 0
node 26 1 0 0
node 44 1 0 0
node 73 1 0 0
gene 2 1 8 5.71542 0 1 5.71542 1
gene 3 2 8 0.66338 0 2 0.66338 0
gene 2 3 8 -0.498068 0 3 -0.498068 0
gene 1 4 8 -0.506426 0 4 -0.506426 1
gene 2 5 8 4.99922 0 5 4.99922 1
gene 1 6 8 5.59891 0 6 5.59891 1
gene 1 7 8 0.994132 0 7 0.994132 1
gene 3 3 11 5.06193 0 12 5.06193 1
gene 3 11 8 6.40805 0 13 6.40805 0
gene 3 11 15 -0.0217766 0 20 -0.0217766 1
gene 3 15 8 2.69455 0 21 2.69455 1
gene 3 2 22 -0.883018 0 38 -0.883018 1
gene 3 22 8 -4.25539 0 39 -4.25539 1
gene 3 2 26 6.99211 0 48 6.99211 1
gene 3 26 22 -2.5225 0 49 -2.5225 1
gene 2 4 15 8 0 90 8 1
gene 1 5 44 -3.25319 0 101 -3.25319 1
gene 1 44 8 -1.93525 0 102 -1.93525 1
gene 2 26 11 -0.978111 0 165 -0.978111 1
gene 2 4 73 1 0 201 1 1
gene 2 73 15 5.77696 0 202 5.77696 1
genomeend 95

/* Organism #96 Fitness: 59 Error: 0 */
genomestart 96
trait 1 0.1 0 0 0 0 0 0 0 
trait 2 0.2 0 0.0459969 0 0 0 0 0 
trait 3 0.3 0 0 0 0 0 0 0 
node 1 2 1 1
node 2 2 1 1
node 3 3 1 1
node 4 3 1 1
node 5 1 1 1
node 6 1 1 1
node 7 3 1 3
node 8 3 0 2
node 11 1 0 0
node 15 1 0 0
node 22 1 0 0
node 26 1 0 0
node 44 1 0 0
node 73 1 0 0
gene 2 1 8 5.00466 0 1 5.00466 1
gene 3 2 8 -0.145272 0 2 -0.145272 0
gene 2 3 8 -2.47131 0 3 -2.47131 0
gene 1 4 8 -0.652035 0 4 -0.652035 1
gene 1 5 8 2.96812 0 5 2.96812 1
gene 1 6 8 8 0 6 8 1
gene 1 7 8 -1.00001 0 7 -1.00001 1
gene 3 3 11 7.53348 0 12 7.53348 1
gene 3 11 8 4.02788 0 13 4.02788 0
gene 3 11 15 2.27843 0 20 2.27843 1
gene 3 15 8 0.615476 0 21 0.615476 1
gene 3 2 22 -0.932449 0 38 -0.932449 0
gene 3 22 8 -3.55036 0 39 -3.55036 1
gene 3 2 26 4.70721 0 48 4.70721 1
gene 3 26 22 -1.42663 0 49 -1.42663 1
gene 2 4 15 6.1122 0 90 6.1122 0
gene 1 5 44 -1.59287 0 101 -1.59287 1
gene 1 44 8 1.1069 0 102 1.1069 1
gene 2 26 11 -0.978111 0 165 -0.978111 1
gene 2 4 73 1 0 201 0 1
gene 2 73 15 6.1122 0 202 0 1
genomeend 96

/* Organism #97 Fitness: 50 Error: 0 */
genomestart 97
trait 1 0.1 0 0 0 0 0 0 0 
trait 2 0.2 0 0.0459969 0 0 0 0 0 
trait 3 0.3 0 0 0 0 0 0 0 
node 1 2 1 1
node 2 2 1 1
node 3 3 1 1
node 4 3 1 1
node 5 1 1 1
node 6 1 1 1
node 7 3 1 3
node 8 3 0 2
node 11 1 0 0
node 15 1 0 0
node 22 1 0 0
node 26 1 0 0
node 44 1 0 0
node 73 1 0 0
gene 2 1 8 5.00466 0 1 5.00466 1
gene 3 2 8 -0.145272 0 2 -0.145272 0
gene 2 3 8 -2.47131 0 3 -2.47131 0
gene 1 4 8 -0.652035 0 4 -0.652035 1
gene 2 5 8 3.98273 0 5 3.98273 1
gene 1 6 8 8 0 6 8 1
gene 1 7 8 -1.00001 0 7 -1.00001 1
gene 3 3 11 7.53348 0 12 7.53348 1
gene 3 11 8 4.02788 0 13 4.02788 0
gene 3 11 15 2.27843 0 20 2.27843 1
gene 3 15 8 0.762035 0 21 0.762035 1
gene 3 2 22 -0.932449 0 38 -0.932449 0
gene 3 22 8 -3.55036 0 39 -3.55036 1
gene 3 2 26 4.70721 0 48 4.70721 1
gene 3 26 22 -1.42663 0 49 -1.42663 1
gene 2 4 15 6.1122 0 90 6.1122 0
gene 1 5 44 -1.59287 0 101 -1.59287 1
gene 1 44 8 1.1069 0 102 1.1069 1
gene 2 26 11 -0.978111 0 165 -0.978111 1
gene 2 4 73 1 0 201 0.5 1
gene 2 73 15 6.1122 0 202 0 1
genomeend 97

/* Organism #98 Fitness: 51 Error: 0 */
genomestart 98
trait 1 0.1 0 0 0 0 0 0 0 
trait 2 0.2 0 0 0 0 0 0 0 
trait 3 0.3 0 0 0 0 0 0 0 
node 1 2 1 1
node 2 2 1 1
node 3 3 1 1
node 4 3 1 1
node 5 1 1 1
node 6 1 1 1
node 7 3 1 3
node 8 3 0 2
node 11 1 0 0
node 15 1 0 0
node 22 1 0 0
node 26 1 0 0
node 44 1 0 0
node 73 1 0 0
gene 2 1 8 4.22644 0 1 4.22644 1
gene 3 2 8 -0.145272 0 2 -0.145272 0
gene 2 3 8 -2.47131 0 3 -2.47131 0
gene 1 4 8 -0.652035 0 4 -0.652035 1
gene 1 5 8 2.96812 0 5 2.96812 1
gene 1 6 8 8 0 6 8 1
gene 1 7 8 -1.00001 0 7 -1.00001 1
gene 3 3 11 7.06697 0 12 7.06697 1
gene 3 11 8 4.02788 0 13 4.02788 0
gene 3 11 15 2.27843 0 20 2.27843 1
gene 3 15 8 0.762035 0 21 0.762035 1
gene 3 2 22 -0.932449 0 38 -0.932449 0
gene 3 22 8 -3.55036 0 39 -3.55036 1
gene 3 2 26 4.70721 0 48 4.70721 1
gene 3 26 22 -1.42663 0 49 -1.42663 1
gene 2 4 15 6.1122 0 90 6.1122 0
gene 1 5 44 -1.59287 0 101 -1.59287 1
gene 1 44 8 1.1069 0 102 1.1069 1
gene 2 26 11 -0.978111 0 165 -0.978111 1
gene 2 4 73 1 0 201 0 1
gene 2 73 15 6.1122 0 202 0 1
gene 2 26 44 -0.55099 0 273 -0.55099 1
genomeend 98

/* Organism #99 Fitness: 19 Error: 0 */
genomestart 99
trait 1 0.1 0 0 0 0 0 0 0 
trait 2 0.2 0 0.0459969 0 0 0 0 0 
trait 3 0.3 0 0 0 0 0 0 0 
node 1 2 1 1
node 2 2 1 1
node 3 3 1 1
node 4 3 1 1
node 5 1 1 1
node 6 1 1 1
node 7 3 1 3
node 8 3 0 2
node 11 1 0 0
node 15 1 0 0
node 22 1 0 0
node 26 1 0 0
node 44 1 0 0
node 73 1 0 0
gene 2 1 8 2.90759 0 1 2.90759 1
gene 3 2 8 -0.145272 0 2 -0.145272 0
gene 2 3 8 1.69678 0 3 1.69678 0
gene 1 4 8 1.4198 0 4 1.4198 1
gene 1 5 8 3.68759 0 5 3.68759 1
gene 1 6 8 7.91416 0 6 7.91416 1
gene 1 7 8 0.750917 0 7 0.750917 1
gene 3 3 11 -1.92258 0 12 -1.92258 1
gene 3 11 8 4.78572 0 13 4.78572 0
gene 2 11 15 2.15656 0 20 2.15656 1
gene 3 15 8 -2.46685 0 21 -2.46685 1
gene 3 2 22 -2.8823 0 38 -2.8823 0
gene 3 22 8 -5.25574 0 39 -5.25574 1
gene 3 2 26 2.97282 0 48 2.97282 1
gene 3 26 22 2.01837 0 49 2.01837 1
gene 2 4 15 8 0 90 8 0
gene 1 5 44 -1.16632 0 101 -1.16632 1
gene 1 44 8 3.00274 0 102 3.00274 1
gene 2 26 11 1.21676 0 165 1.21676 1
gene 2 4 73 -1.3409 0 201 -1.3409 1
gene 2 73 15 6.1122 0 202 6.1122 1
genomeend 99

/* Organism #100 Fitness: 14 Error: 0 */
genomestart 100
trait 1 0.1 0 0 0 0 0 0 0 
trait 2 0.2 0 0.0459969 0 0 0 0 0 
trait 3 0.3 0 0 0 0 0 0 0 
node 1 2 1 1
node 2 2 1 1
node 3 3 1 1
node 4 3 1 1
node 5 1 1 1
node 6 1 1 1
node 7 3 1 3
node 8 3 0 2
node 11 1 0 0
node 15 1 0 0
node 22 1 0 0
node 26 1 0 0
node 44 1 0 0
node 73 1 0 0
gene 2 1 8 5.05948 0 1 5.05948 1
gene 3 2 8 0.452933 0 2 0.452933 0
gene 2 3 8 -0.268009 0 3 -0.268009 0
gene 1 4 8 -2.25177 0 4 -2.25177 1
gene 2 5 8 1.21483 0 5 1.21483 1
gene 1 6 8 8 0 6 8 1
gene 1 7 8 0.559072 0 7 0.559072 1
gene 3 3 11 6.09187 0 12 6.09187 1
gene 3 11 8 5.99748 0 13 5.99748 1
gene 3 11 15 0.229823 0 20 0.229823 1
gene 3 15 8 1.94141 0 21 1.94141 1
gene 3 2 22 -3.30464 0 38 -3.30464 0
gene 3 22 8 -1.16795 0 39 -1.16795 1
gene 3 2 26 7.07712 0 48 7.07712 1
gene 3 26 22 -2.3537 0 49 -2.3537 1
gene 2 4 15 4.06054 0 90 4.06054 0
gene 1 5 44 -0.445268 0 101 -0.445268 1
gene 1 44 8 -0.462513 0 102 -0.462513 1
gene 2 26 11 1.34902 0 165 1.34902 1
gene 2 4 73 0.750295 0 201 0.750295 1
gene 2 73 15 6.06417 0 202 6.06417 1
genomeend 100

/* Organism #101 Fitness: 37 Error: 0 */
genomestart 101
trait 1 0.1 0 0 0 0 0 0 0 
trait 2 0.2 0 0 0 0 0 0 0 
trait 3 0.3 0 0 0 0 0 0 0 
node 1 2 1 1
node 2 2 1 1
node 3 3 1 1
node 4 3 1 1
node 5 1 1 1
node 6 1 1 1
node 7 3 1 3
node 8 3 0 2
node 11 1 0 0
node 15 1 0 0
node 22 1 0 0
node 26 1 0 0
node 44 1 0 0
node 73 1 0 0
gene 2 1 8 4.22644 0 1 4.22644 1
gene 3 2 8 -1.12737 0 2 -1.12737 0
gene 2 3 8 -2.47131 0 3 -2.47131 0
gene 1 4 8 -0.652035 0 4 -0.652035 1
gene 1 5 8 4.40542 0 5 4.40542 1
gene 1 6 8 8 0 6 8 1
gene 1 7 8 0.0442709 0 7 0.0442709 1
gene 3 3 11 8 0 12 8 1
gene 3 11 8 3.13069 0 13 3.13069 0
gene 3 11 15 0.646547 0 20 0.646547 1
gene 3 15 8 2.02751 0 21 2.02751 1
gene 3 2 22 -0.51834 0 38 -0.51834 0
gene 2 22 8 -4.74024 0 39 -4.74024 1
gene 3 2 26 4.70721 0 48 4.70721 1
gene 3 26 22 -1.03521 0 49 -1.03521 1
gene 2 4 15 5.86642 0 90 5.86642 0
gene 1 5 44 -1.59287 0 101 -1.59287 1
gene 1 44 8 -2.1884 0 102 -2.1884 1
gene 2 26 11 -0.70998 0 165 -0.70998 1
gene 2 4 73 -1.44547 0 201 -1.44547 1
gene 2 73 15 3.66294 0 202 3.66294 1
genomeend 101

/* Species #14 : (Size 7) (AF 50.2857) (Age 15)  */


/* Organism #102 Fitness: 89 Error: 0 */
genomestart 102
trait 1 0.1 0 0 0 0 0 0 0 
trait 2 0.2 0 0 0 0 0 0 0 
trait 3 0.3 0 0 0 0 0 0 0 
node 1 2 1 1
node 2 3 1 1
node 3 3 1 1
node 4 3 1 1
node 5 1 1 1
node 6 1 1 1
node 7 3 1 3
node 8 1 0 2
node 11 1 0 0
node 46 1 0 0
gene 2 1 8 2.32493 0 1 2.32493 1
gene 3 2 8 -0.35385 0 2 -0.35385 0
gene 2 3 8 -2.424 0 3 -2.424 0
gene 2 4 8 -2.41265 0 4 -2.41265 1
gene 3 5 8 8 0 5 8 1
gene 1 6 8 5.60058 0 6 5.60058 1
gene 1 7 8 -3.02326 0 7 -3.02326 1
gene 2 3 11 -1.13704 0 12 -1.13704 1
gene 3 11 8 -1.1316 0 13 -1.1316 1
gene 3 2 46 1.57002 0 106 1.57002 1
gene 3 46 8 1.01323 0 107 1.01323 1
gene 1 46 11 -1.31805 0 244 -1.31805 1
genomeend 102

/* Organism #103 Fitness: 39 Error: 0 */
genomestart 103
trait 1 0.1 0 0 0 0 0 0 0 
trait 2 0.2 0 0 0 0 0 0 0 
trait 3 0.3 0 0 0 0 0 0 0 
node 1 2 1 1
node 2 3 1 1
node 3 3 1 1
node 4 3 1 1
node 5 1 1 1
node 6 1 1 1
node 7 3 1 3
node 8 1 0 2
node 11 1 0 0
node 46 1 0 0
gene 1 1 8 2.72176 0 1 2.72176 1
gene 3 2 8 -2.1005 0 2 -2.1005 0
gene 2 3 8 -0.602626 0 3 -0.602626 0
gene 2 4 8 -3.87407 0 4 -3.87407 1
gene 3 5 8 5.77463 0 5 5.77463 1
gene 1 6 8 6.82025 0 6 6.82025 1
gene 1 7 8 -4.39515 0 7 -4.39515 1
gene 2 3 11 -2.79997 0 12 -2.79997 1
gene 3 11 8 -3.16268 0 13 -3.16268 1
gene 3 2 46 1.04334 0 106 1.04334 1
gene 3 46 8 -0.831674 0 107 -0.831674 1
gene 1 46 11 -0.608981 0 244 -0.608981 1
genomeend 103

/* Organism #104 Fitness: 62 Error: 0 */
genomestart 104
trait 1 0.1 0 0 0 0 0 0 0 
trait 2 0.2 0 0 0 0 0 0 0 
trait 3 0.3 0 0 0 0 0 0 0 
node 1 2 1 1
node 2 3 1 1
node 3 3 1 1
node 4 3 1 1
node 5 1 1 1
node 6 1 1 1
node 7 3 1 3
node 8 1 0 2
node 11 1 0 0
node 46 1 0 0
gene 2 1 8 1.32951 0 1 1.32951 1
gene 3 2 8 0.838478 0 2 0.838478 0
gene 2 3 8 -2.52584 0 3 -2.52584 0
gene 2 4 8 -0.310729 0 4 -0.310729 0
gene 3 5 8 7.96765 0 5 7.96765 1
gene 1 6 8 4.84723 0 6 4.84723 1
gene 1 7 8 -2.61512 0 7 -2.61512 1
gene 2 3 11 -3.56843 0 12 -3.56843 1
gene 3 11 8 -2.03189 0 13 -2.03189 1
gene 3 2 46 0.254552 0 106 0.254552 1
gene 3 46 8 -0.356966 0 107 -0.356966 1
gene 1 46 11 -3.25784 0 244 -3.25784 1
genomeend 104

/* Organism #105 Fitness: 33 Error: 0 */
genomestart 105
trait 1 0.1 0 0 0 0 0 0 0 
trait 2 0.2 0 0 0 0 0 0 0 
trait 3 0.3 0 0 0 0 0 0 0 
node 1 2 1 1
node 2 3 1 1
node 3 3 1 1
node 4 3 1 1
node 5 1 1 1
node 6 1 1 1
node 7 3 1 3
node 8 1 0 2
node 11 1 0 0
node 46 1 0 0
gene 2 1 8 3.29544 0 1 3.29544 1
gene 3 2 8 -2.51092 0 2 -2.51092 0
gene 2 3 8 -2.46619 0 3 -2.46619 0
gene 2 4 8 -4.30659 0 4 -4.30659 1
gene 3 5 8 6.34435 0 5 6.34435 1
gene 1 6 8 4.29013 0 6 4.29013 1
gene 1 7 8 1.237 0 7 1.237 1
gene 2 3 11 0.562168 0 12 0.562168 1
gene 3 11 8 -0.610874 0 13 -0.610874 1
gene 3 2 46 1.57002 0 106 1.57002 1
gene 3 46 8 1.00482 0 107 1.00482 1
gene 1 46 11 -2.20258 0 244 -2.20258 1
genomeend 105

/* Organism #106 Fitness: 29 Error: 0 */
genomestart 106
trait 1 0.1 0 0 0 0 0 0 0 
trait 2 0.2 0 0 0 0 0 0 0 
trait 3 0.3 0 0 0 0 0 0 0 
node 1 2 1 1
node 2 3 1 1
node 3 3 1 1
node 4 3 1 1
node 5 1 1 1
node 6 1 1 1
node 7 3 1 3
node 8 1 0 2
node 11 1 0 0
node 46 1 0 0
gene 2 1 8 5.29716 0 1 5.29716 1
gene 3 2 8 1.1739 0 2 1.1739 0
gene 2 3 8 -3.44979 0 3 -3.44979 0
gene 2 4 8 -1.49612 0 4 -1.49612 1
gene 3 5 8 6.8715 0 5 6.8715 1
gene 1 6 8 1.6956 0 6 1.6956 1
gene 1 7 8 1.80626 0 7 1.80626 1
gene 2 3 11 1.85163 0 12 1.85163 1
gene 3 11 8 -1.79107 0 13 -1.79107 1
gene 3 2 46 0.534799 0 106 0.534799 1
gene 3 46 8 2.16088 0 107 2.16088 1
gene 1 46 11 -2.7761 0 244 -2.7761 1
genomeend 106

/* Organism #107 Fitness: 54 Error: 0 */
genomestart 107
trait 1 0.1 0 0 0 0 0 0 0 
trait 2 0.2 0 0 0 0 0 0 0 
trait 3 0.3 0 0 0 0 0 0 0 
node 1 2 1 1
node 2 3 1 1
node 3 3 1 1
node 4 3 1 1
node 5 1 1 1
node 6 1 1 1
node 7 3 1 3
node 8 1 0 2
node 11 1 0 0
node 46 1 0 0
node 91 1 0 0
gene 2 1 8 2.35394 0 1 2.35394 1
gene 3 2 8 -2.85087 0 2 -2.85087 1
gene 2 3 8 -4.3226 0 3 -4.3226 0
gene 2 4 8 -0.124628 0 4 -0.124628 0
gene 3 5 8 8 0 5 8 1
gene 1 6 8 3.2781 0 6 3.2781 1
gene 1 7 8 -0.806252 0 7 -0.806252 1
gene 2 3 11 1.50995 0 12 1.50995 1
gene 3 11 8 1.05946 0 13 1.05946 1
gene 3 2 46 2.48494 0 106 2.48494 1
gene 3 46 8 -1.03162 0 107 -1.03162 1
gene 1 46 11 -0.116371 0 244 -0.116371 1
gene 2 4 91 1 0 262 1 1
gene 2 91 8 -1.08538 0 263 -1.08538 1
genomeend 107

/* Organism #108 Fitness: 46 Error: 0 */
genomestart 108
trait 1 0.1 0 0 0 0 0 0 0 
trait 2 0.2 0 0 0 0 0 0 0 
trait 3 0.3 0 0 0 0 0 0 0 
node 1 2 1 1
node 2 3 1 1
node 3 3 1 1
node 4 3 1 1
node 5 1 1 1
node 6 1 1 1
node 7 3 1 3
node 8 1 0 2
node 11 1 0 0
node 46 1 0 0
gene 2 1 8 2.64926 0 1 2.64926 1
gene 3 2 8 -2.88899 0 2 -2.88899 0
gene 2 3 8 -1.11238 0 3 -1.11238 0
gene 2 4 8 -0.667455 0 4 -0.667455 1
gene 3 5 8 8 0 5 8 1
gene 1 6 8 3.90018 0 6 3.90018 1
gene 1 7 8 -2.59457 0 7 -2.59457 1
gene 2 3 11 -0.601771 0 12 -0.601771 1
gene 3 11 8 -1.21651 0 13 -1.21651 1
gene 3 2 46 -2.45966 0 106 -2.45966 1
gene 3 46 8 2.14738 0 107 2.14738 1
gene 1 46 11 -2.54607 0 244 -2.54607 1
genomeend 108

/* Species #15 : (Size 8) (AF 47.375) (Age 15)  */


/* Organism #109 Fitness: 85 Error: 0 */
genomestart 109
trait 1 0.1 0 0 0 0 0 0 0 
trait 2 0.2 0 0 0 0 0 0 0 
trait 3 0.3 0 0 0 0 0 0 0 
node 1 2 1 1
node 2 3 1 1
node 3 3 1 1
node 4 3 1 1
node 5 1 1 1
node 6 1 1 1
node 7 3 1 3
node 8 2 0 2
node 11 1 0 0
node 49 1 0 0
gene 2 1 8 2.59362 0 1 2.59362 1
gene 3 2 8 0.17131 0 2 0.17131 1
gene 2 3 8 -1.25388 0 3 -1.25388 0
gene 2 4 8 1.47027 0 4 1.47027 1
gene 3 5 8 7.82279 0 5 7.82279 1
gene 1 6 8 0.136418 0 6 0.136418 1
gene 2 7 8 -2.27003 0 7 -2.27003 1
gene 2 3 11 -2.01376 0 12 -2.01376 0
gene 3 11 8 0.485977 0 13 0.485977 1
gene 2 6 11 -2.92425 0 72 -2.92425 1
gene 2 5 11 -0.137792 0 105 -0.137792 1
gene 2 3 49 -1.10891 0 115 -1.10891 1
gene 2 49 11 1.95801 0 116 1.95801 1
genomeend 109

/* Organism #110 Fitness: 34 Error: 0 */
genomestart 110
trait 1 0.1 0 0 0 0 0 0 0 
trait 2 0.2 0 0 0 0 0 0 0 
trait 3 0.3 0 0 0 0 0 0 0 
node 1 2 1 1
node 2 3 1 1
node 3 3 1 1
node 4 3 1 1
node 5 1 1 1
node 6 1 1 1
node 7 3 1 3
node 8 2 0 2
node 11 1 0 0
node 49 1 0 0
gene 2 1 8 2.59362 0 1 2.59362 1
gene 3 2 8 0.17131 0 2 0.17131 1
gene 2 3 8 -1.25388 0 3 -1.25388 1
gene 2 4 8 1.47027 0 4 1.47027 1
gene 3 5 8 7.82279 0 5 7.82279 1
gene 1 6 8 0.136418 0 6 0.136418 1
gene 2 7 8 -2.27003 0 7 -2.27003 1
gene 2 3 11 -2.01376 0 12 -2.01376 1
gene 3 11 8 0.485977 0 13 0.485977 1
gene 2 6 11 -2.92425 0 72 -2.92425 1
gene 2 5 11 -0.137792 0 105 -0.137792 1
gene 2 3 49 -1.10891 0 115 -1.10891 1
gene 2 49 11 1.95801 0 116 1.95801 1
genomeend 110

/* Organism #111 Fitness: 46 Error: 0 */
genomestart 111
trait 1 0.1 0 0 0 0 0 0 0 
trait 2 0.2 0 0 0 0 0 0 0 
trait 3 0.3 0 0 0 0 0 0 0 
node 1 2 1 1
node 2 3 1 1
node 3 3 1 1
node 4 3 1 1
node 5 1 1 1
node 6 1 1 1
node 7 3 1 3
node 8 2 0 2
node 11 1 0 0
node 49 1 0 0
gene 2 1 8 4.81589 0 1 4.81589 1
gene 3 2 8 1.80005 0 2 1.80005 1
gene 2 3 8 -1.55684 0 3 -1.55684 0
gene 2 4 8 -0.0971687 0 4 -0.0971687 1
gene 3 5 8 -0.379631 0 5 -0.379631 1
gene 1 6 8 2.6152 0 6 2.6152 1
gene 2 7 8 -0.367732 0 7 -0.367732 1
gene 2 3 11 -2.01376 0 12 -2.01376 0
gene 3 11 8 1.36766 0 13 1.36766 1
gene 2 6 11 -1.59148 0 72 -1.59148 1
gene 2 5 11 -1.70999 0 105 -1.70999 1
gene 2 3 49 0.416702 0 115 0.416702 1
gene 2 49 11 1.95801 0 116 1.95801 1
genomeend 111

/* Organism #112 Fitness: 71 Error: 0 */
genomestart 112
trait 1 0.1 0 0 0 0 0 0 0 
trait 2 0.2 0 0 0 0 0 0 0 
trait 3 0.3 0 0 0 0 0 0 0 
node 1 2 1 1
node 2 3 1 1
node 3 3 1 1
node 4 3 1 1
node 5 1 1 1
node 6 1 1 1
node 7 3 1 3
node 8 2 0 2
node 11 1 0 0
node 49 1 0 0
gene 2 1 8 2.59362 0 1 2.59362 1
gene 3 2 8 0.17131 0 2 0.17131 1
gene 2 3 8 -1.25388 0 3 -1.25388 0
gene 2 4 8 1.47027 0 4 1.47027 1
gene 3 5 8 7.82279 0 5 7.82279 1
gene 1 6 8 0.136418 0 6 0.136418 1
gene 2 7 8 -2.27003 0 7 -2.27003 1
gene 2 3 11 -2.01376 0 12 -2.01376 0
gene 3 11 8 0.485977 0 13 0.485977 1
gene 2 6 11 -2.92425 0 72 -2.92425 1
gene 2 5 11 -0.137792 0 105 -0.137792 1
gene 2 3 49 -1.10891 0 115 -1.10891 1
gene 2 49 11 1.95801 0 116 1.95801 1
gene 2 6 49 0.913526 0 274 0.913526 1
genomeend 112

/* Organism #113 Fitness: 6 Error: 0 */
genomestart 113
trait 1 0.1 0 0 0 0 0 0 0 
trait 2 0.2 0 0 0 0 0 0 0 
trait 3 0.3 0 0 0 0 0 0 0 
node 1 2 1 1
node 2 3 1 1
node 3 3 1 1
node 4 3 1 1
node 5 1 1 1
node 6 1 1 1
node 7 3 1 3
node 8 2 0 2
node 11 1 0 0
node 49 1 0 0
gene 2 1 8 0.676461 0 1 0.676461 1
gene 3 2 8 0.253986 0 2 0.253986 1
gene 2 3 8 -0.753719 0 3 -0.753719 0
gene 2 4 8 -0.0181997 0 4 -0.0181997 1
gene 3 5 8 8 0 5 8 1
gene 1 6 8 -0.484728 0 6 -0.484728 1
gene 2 7 8 -0.130539 0 7 -0.130539 1
gene 2 3 11 -3.49598 0 12 -3.49598 0
gene 3 11 8 1.85689 0 13 1.85689 1
gene 2 6 11 -5.0456 0 72 -5.0456 1
gene 2 5 11 1.8909 0 105 1.8909 1
gene 2 3 49 -1.10891 0 115 -1.10891 1
gene 2 49 11 4.01707 0 116 4.01707 1
genomeend 113

/* Organism #114 Fitness: 33 Error: 0 */
genomestart 114
trait 1 0.1 0 0 0 0 0 0 0 
trait 2 0.2 0 0 0 0 0 0 0 
trait 3 0.3 0 0 0 0 0 0 0 
node 1 2 1 1
node 2 3 1 1
node 3 3 1 1
node 4 3 1 1
node 5 1 1 1
node 6 1 1 1
node 7 3 1 3
node 8 2 0 2
node 11 1 0 0
node 49 1 0 0
node 94 1 0 0
gene 2 1 8 2.59362 0 1 2.59362 0
gene 3 2 8 1.48397 0 2 1.48397 1
gene 2 3 8 -1.25388 0 3 -1.25388 0
gene 2 4 8 1.47027 0 4 1.47027 1
gene 3 5 8 8 0 5 8 1
gene 1 6 8 3.3754 0 6 3.3754 1
gene 2 7 8 -2.27003 0 7 -2.27003 1
gene 2 3 11 -3.45676 0 12 -3.45676 0
gene 3 11 8 0.892104 0 13 0.892104 1
gene 2 6 11 -2.92425 0 72 -2.92425 1
gene 2 5 11 -0.137792 0 105 -0.137792 1
gene 2 3 49 -2.85208 0 115 -2.85208 1
gene 1 49 11 -0.269169 0 116 -0.269169 1
gene 2 1 94 1 0 275 0 1
gene 2 94 8 2.59362 0 276 0 1
genomeend 114

/* Organism #115 Fitness: 34 Error: 0 */
genomestart 115
trait 1 0.1 0 0 0 0 0 0 0 
trait 2 0.2 0 0 0 0 0 0 0 
trait 3 0.3 0.695275 0 0 0 0 0 0.140639 
node 1 3 1 1
node 2 3 1 1
node 3 3 1 1
node 4 3 1 1
node 5 1 1 1
node 6 1 1 1
node 7 3 1 3
node 8 2 0 2
node 11 1 0 0
node 49 1 0 0
gene 2 1 8 4.12516 0 1 4.12516 1
gene 3 2 8 -1.12475 0 2 -1.12475 1
gene 2 3 8 0.524872 0 3 0.524872 0
gene 2 4 8 3.13408 0 4 3.13408 1
gene 3 5 8 8 0 5 8 1
gene 1 6 8 -0.0324576 0 6 -0.0324576 1
gene 2 7 8 -1.79173 0 7 -1.79173 1
gene 2 3 11 -1.82232 0 12 -1.82232 0
gene 3 11 8 1.21925 0 13 1.21925 1
gene 2 6 11 -5.11029 0 72 -5.11029 1
gene 2 5 11 -1.41294 0 105 -1.41294 1
gene 2 3 49 -1.10891 0 115 -1.10891 1
gene 2 49 11 4.21655 0 116 4.21655 1
genomeend 115

/* Organism #116 Fitness: 70 Error: 0 */
genomestart 116
trait 1 0.1 0 0 0 0 0 0 0 
trait 2 0.2 0 0 0 0 0 0 0 
trait 3 0.3 0 0 0 0 0 0 0 
node 1 2 1 1
node 2 3 1 1
node 3 3 1 1
node 4 3 1 1
node 5 1 1 1
node 6 1 1 1
node 7 3 1 3
node 8 2 0 2
node 11 1 0 0
node 49 1 0 0
node 92 1 0 0
gene 2 1 8 2.59362 0 1 2.59362 1
gene 3 2 8 1.48397 0 2 1.48397 1
gene 2 3 8 -2.92135 0 3 -2.92135 0
gene 2 4 8 1.47027 0 4 1.47027 1
gene 3 5 8 8 0 5 8 1
gene 1 6 8 3.3754 0 6 3.3754 1
gene 2 7 8 -2.27003 0 7 -2.27003 1
gene 2 3 11 -3.45676 0 12 -3.45676 0
gene 3 11 8 0.892104 0 13 0.892104 1
gene 2 6 11 -2.92425 0 72 -2.92425 0
gene 3 5 11 -1.9647 0 105 -1.9647 1
gene 2 3 49 -2.85208 0 115 -2.85208 1
gene 1 49 11 -0.269169 0 116 -0.269169 1
gene 2 6 92 1 0 264 0 1
gene 2 92 11 -2.92425 0 265 0 1
genomeend 116

/* Species #16 : (Size 5) (AF 27.4) (Age 14)  */


/* Organism #117 Fitness: 60 Error: 0 */
genomestart 117
trait 1 0.1 0 0 0 0 0 0 0 
trait 2 0.2 0 0 0 0 0 0 0 
trait 3 0.3 0 0 0 0 0 0 0 
node 1 2 1 1
node 2 2 1 1
node 3 3 1 1
node 4 3 1 1
node 5 1 1 1
node 6 1 1 1
node 7 3 1 3
node 8 3 0 2
node 11 1 0 0
node 15 1 0 0
node 22 1 0 0
node 26 1 0 0
node 41 1 0 0
gene 2 1 8 -0.542005 0 1 -0.542005 1
gene 3 2 8 0.957917 0 2 0.957917 0
gene 2 3 8 -0.546515 0 3 -0.546515 0
gene 1 4 8 2.44634 0 4 2.44634 1
gene 1 5 8 1.16891 0 5 1.16891 1
gene 1 6 8 3.47725 0 6 3.47725 1
gene 1 7 8 -1.69634 0 7 -1.69634 1
gene 3 3 11 3.55875 0 12 3.55875 1
gene 3 11 8 1.65522 0 13 1.65522 0
gene 3 11 15 2.29668 0 20 2.29668 1
gene 3 15 8 2.61843 0 21 2.61843 1
gene 3 2 22 -1.111 0 38 -1.111 0
gene 3 22 8 -1.98382 0 39 -1.98382 1
gene 3 2 26 1.20413 0 48 1.20413 1
gene 3 26 22 1 0 49 1 0
gene 3 26 41 -2.10381 0 88 -2.10381 1
gene 3 41 22 1 0 89 1 1
gene 2 22 15 -0.138072 0 127 -0.138072 1
genomeend 117

/* Organism #118 Fitness: 14 Error: 0 */
genomestart 118
trait 1 0.1 0 0 0 0 0 0 0 
trait 2 0.2 0 0 0 0 0 0 0 
trait 3 0.3 0 0 0 0 0 0 0 
node 1 2 1 1
node 2 2 1 1
node 3 3 1 1
node 4 3 1 1
node 5 3 1 1
node 6 1 1 1
node 7 3 1 3
node 8 3 0 2
node 11 1 0 0
node 15 1 0 0
node 22 1 0 0
node 26 1 0 0
node 41 1 0 0
gene 2 1 8 0.173864 0 1 0.173864 1
gene 3 2 8 -1.49412 0 2 -1.49412 0
gene 2 3 8 -0.897908 0 3 -0.897908 0
gene 1 4 8 0.468979 0 4 0.468979 1
gene 1 5 8 -1.23327 0 5 -1.23327 1
gene 1 6 8 2.5943 0 6 2.5943 1
gene 1 7 8 -1.17004 0 7 -1.17004 1
gene 3 3 11 4.67078 0 12 4.67078 1
gene 3 11 8 0.151512 0 13 0.151512 0
gene 3 11 15 2.15271 0 20 2.15271 1
gene 3 15 8 0.228025 0 21 0.228025 1
gene 3 2 22 -0.925093 0 38 -0.925093 0
gene 3 22 8 -1.95665 0 39 -1.95665 1
gene 3 2 26 0.448708 0 48 0.448708 1
gene 3 26 22 2.90964 0 49 2.90964 0
gene 3 26 41 -1.6455 0 88 -1.6455 1
gene 3 41 22 1.58228 0 89 1.58228 1
gene 2 22 15 2.01709 0 127 2.01709 1
genomeend 118

/* Organism #119 Fitness: 26 Error: 0 */
genomestart 119
trait 1 0.1 0 0 0 0 0 0 0 
trait 2 0.2 0 0 0 0 0 0 0 
trait 3 0.3 0 0 0 0 0 0 0 
node 1 2 1 1
node 2 2 1 1
node 3 3 1 1
node 4 3 1 1
node 5 1 1 1
node 6 1 1 1
node 7 3 1 3
node 8 3 0 2
node 11 1 0 0
node 15 1 0 0
node 22 1 0 0
node 26 1 0 0
node 41 1 0 0
node 95 1 0 0
gene 2 1 8 -0.542005 0 1 -0.542005 1
gene 3 2 8 0.957917 0 2 0.957917 0
gene 2 3 8 -0.519157 0 3 -0.519157 0
gene 1 4 8 2.44634 0 4 2.44634 1
gene 1 5 8 1.16891 0 5 1.16891 1
gene 1 6 8 3.47725 0 6 3.47725 1
gene 1 7 8 -1.69634 0 7 -1.69634 1
gene 3 3 11 3.55875 0 12 3.55875 1
gene 3 11 8 1.65522 0 13 1.65522 0
gene 3 11 15 2.29668 0 20 2.29668 1
gene 3 15 8 2.61843 0 21 2.61843 1
gene 3 2 22 -1.111 0 38 -1.111 0
gene 3 22 8 -1.98382 0 39 -1.98382 1
gene 3 2 26 1.20413 0 48 1.20413 0
gene 3 26 22 1 0 49 1 0
gene 3 26 41 -2.10381 0 88 -2.10381 1
gene 3 41 22 1 0 89 1 1
gene 2 22 15 -0.138072 0 127 -0.138072 1
gene 3 2 95 1 0 277 0 1
gene 3 95 26 1.20413 0 278 0 1
genomeend 119

/* Organism #120 Fitness: 15 Error: 0 */
genomestart 120
trait 1 0.1 0 0 0 0 0 0 0 
trait 2 0.2 0 0 0 0 0 0 0 
trait 3 0.3 0 0 0 0 0 0 0 
node 1 2 1 1
node 2 2 1 1
node 3 3 1 1
node 4 3 1 1
node 5 1 1 1
node 6 1 1 1
node 7 3 1 3
node 8 3 0 2
node 11 1 0 0
node 15 1 0 0
node 22 1 0 0
node 26 1 0 0
node 41 1 0 0
gene 2 1 8 0.860737 0 1 0.860737 1
gene 3 2 8 0.957917 0 2 0.957917 0
gene 2 3 8 0.156359 0 3 0.156359 0
gene 1 4 8 3.40749 0 4 3.40749 1
gene 1 5 8 1.0278 0 5 1.0278 1
gene 1 6 8 1.61569 0 6 1.61569 1
gene 1 7 8 -2.54197 0 7 -2.54197 1
gene 3 3 11 3.588 0 12 3.588 1
gene 3 11 8 0.212968 0 13 0.212968 0
gene 3 11 15 4.76329 0 20 4.76329 1
gene 3 15 8 0.307413 0 21 0.307413 1
gene 3 2 22 -2.23588 0 38 -2.23588 0
gene 3 22 8 -1.98382 0 39 -1.98382 1
gene 3 2 26 2.34814 0 48 2.34814 1
gene 3 26 22 1.38103 0 49 1.38103 0
gene 3 26 41 -1.23155 0 88 -1.23155 1
gene 3 41 22 -1.43094 0 89 -1.43094 1
gene 2 22 15 0.158733 0 127 0.158733 1
genomeend 120

/* Organism #121 Fitness: 22 Error: 0 */
genomestart 121
trait 1 0.1 0 0 0 0 0 0 0 
trait 2 0.2 0 0 0 0 0 0 0 
trait 3 0.3 0 0 0 0 0 0 0 
node 1 2 1 1
node 2 2 1 1
node 3 3 1 1
node 4 3 1 1
node 5 1 1 1
node 6 1 1 1
node 7 3 1 3
node 8 3 0 2
node 11 1 0 0
node 15 1 0 0
node 22 1 0 0
node 26 1 0 0
node 41 1 0 0
gene 2 1 8 -0.0684445 0 1 -0.0684445 1
gene 3 2 8 1.28204 0 2 1.28204 1
gene 2 3 8 -0.532836 0 3 -0.532836 0
gene 1 4 8 2.0095 0 4 2.0095 1
gene 1 5 8 1.78858 0 5 1.78858 1
gene 1 6 8 3.06095 0 6 3.06095 1
gene 1 7 8 -1.69634 0 7 -1.69634 1
gene 3 3 11 3.55875 0 12 3.55875 1
gene 3 11 8 1.65522 0 13 1.65522 1
gene 3 11 15 2.29668 0 20 2.29668 1
gene 3 15 8 2.61843 0 21 2.61843 1
gene 3 2 22 -1.111 0 38 -1.111 0
gene 3 22 8 -1.98382 0 39 -1.98382 1
gene 3 2 26 1.20413 0 48 1.20413 1
gene 3 26 22 0.527001 0 49 0.527001 0
gene 3 26 41 -2.10381 0 88 -2.10381 1
gene 3 41 22 1 0 89 1 1
gene 2 22 15 0.297819 0 127 0.297819 1
genomeend 121

/* Species #17 : (Size 10) (AF 57.6) (Age 14)  */


/* Organism #122 Fitness: 118 Error: 0 */
genomestart 122
trait 1 0.1 0 0 0 0 0 0 0 
trait 2 0.2 0 0 0 0 0 0 0 
trait 3 0.3 0 0 0 0 0 0 0 
node 1 2 1 1
node 2 3 1 1
node 3 3 1 1
node 4 3 1 1
node 5 1 1 1
node 6 1 1 1
node 7 3 1 3
node 8 2 0 2
node 11 1 0 0
node 36 1 0 0
node 52 1 0 0
gene 2 1 8 1.59195 0 1 1.59195 1
gene 3 2 8 1.6695 0 2 1.6695 0
gene 2 3 8 -0.707485 0 3 -0.707485 1
gene 2 4 8 -0.785458 0 4 -0.785458 1
gene 3 5 8 5.01846 0 5 5.01846 1
gene 1 6 8 1.13823 0 6 1.13823 1
gene 2 7 8 -1.21284 0 7 -1.21284 1
gene 2 3 11 3.40603 0 12 3.40603 0
gene 3 11 8 -0.0904572 0 13 -0.0904572 1
gene 3 2 36 -3.19015 0 76 -3.19015 1
gene 3 36 8 0.313824 0 77 0.313824 1
gene 2 3 52 1 0 128 1 1
gene 2 52 11 4.61134 0 129 4.61134 1
gene 2 4 11 -1.15311 0 142 -1.15311 1
genomeend 122

/* Organism #123 Fitness: 39 Error: 0 */
genomestart 123
trait 1 0.1 0 0 0 0 0 0 0 
trait 2 0.2 0 0 0 0 0 0 0 
trait 3 0.3 0 0 0 0 0 0 0 
node 1 2 1 1
node 2 3 1 1
node 3 3 1 1
node 4 3 1 1
node 5 1 1 1
node 6 1 1 1
node 7 3 1 3
node 8 2 0 2
node 11 1 0 0
node 36 1 0 0
node 52 1 0 0
gene 2 1 8 -0.550551 0 1 -0.550551 1
gene 3 2 8 -0.290928 0 2 -0.290928 0
gene 2 3 8 0.100355 0 3 0.100355 1
gene 2 4 8 -0.107419 0 4 -0.107419 1
gene 3 5 8 2.76245 0 5 2.76245 1
gene 1 6 8 1.80699 0 6 1.80699 1
gene 2 7 8 0.393923 0 7 0.393923 1
gene 2 3 11 -0.837037 0 12 -0.837037 0
gene 3 11 8 -0.0904572 0 13 -0.0904572 1
gene 3 2 36 -4.75057 0 76 -4.75057 1
gene 3 36 8 -1.35333 0 77 -1.35333 1
gene 2 3 52 1.17397 0 128 1.17397 1
gene 2 52 11 -0.608266 0 129 -0.608266 1
gene 2 4 11 -0.492709 0 142 -0.492709 1
genomeend 123

/* Organism #124 Fitness: 118 Error: 0 */
genomestart 124
trait 1 0.1 0 0 0 0 0 0 0 
trait 2 0.2 0 0 0 0 0 0 0 
trait 3 0.3 0 0 0 0 0 0 0 
node 1 2 1 1
node 2 3 1 1
node 3 3 1 1
node 4 3 1 1
node 5 1 1 1
node 6 1 1 1
node 7 3 1 3
node 8 2 0 2
node 11 3 0 0
node 36 1 0 0
node 52 1 0 0
gene 2 1 8 1.59195 0 1 1.59195 1
gene 3 2 8 1.6695 0 2 1.6695 0
gene 2 3 8 -0.707485 0 3 -0.707485 1
gene 2 4 8 -0.785458 0 4 -0.785458 1
gene 3 5 8 5.01846 0 5 5.01846 1
gene 1 6 8 1.13823 0 6 1.13823 1
gene 2 7 8 -1.21284 0 7 -1.21284 1
gene 2 3 11 3.40603 0 12 3.40603 0
gene 3 11 8 -0.0904572 0 13 -0.0904572 1
gene 3 2 36 -3.19015 0 76 -3.19015 1
gene 3 36 8 0.313824 0 77 0.313824 1
gene 2 3 52 1 0 128 1 1
gene 2 52 11 4.61134 0 129 4.61134 1
gene 2 4 11 -1.15311 0 142 -1.15311 1
genomeend 124

/* Organism #125 Fitness: 118 Error: 0 */
genomestart 125
trait 1 0.1 0 0 0 0 0 0 0 
trait 2 0.2 0 0 0 0 0 0 0 
trait 3 0.3 0 0 0 0 0 0 0 
node 1 2 1 1
node 2 3 1 1
node 3 3 1 1
node 4 3 1 1
node 5 1 1 1
node 6 1 1 1
node 7 3 1 3
node 8 2 0 2
node 11 1 0 0
node 36 1 0 0
node 52 1 0 0
gene 2 1 8 1.59195 0 1 1.59195 1
gene 3 2 8 1.6695 0 2 1.6695 0
gene 2 3 8 -0.707485 0 3 -0.707485 1
gene 2 4 8 -0.785458 0 4 -0.785458 1
gene 3 5 8 5.01846 0 5 5.01846 1
