
/* Species #3 : (Size 67) (AF 1869.55) (Age 23)  */


/* Organism #0 Fitness: 5680 Error: 0 */
genomestart 0
trait 1 0.0502991 0.374225 0.0137532 0 0.334234 0 0.493876 0 
trait 2 0 0 0 0 0.0474711 0 0 0 
trait 3 0.3 0 0 0 0 0 0 0 
node 1 2 1 1
node 2 3 1 1
node 3 3 1 1
node 4 3 1 1
node 5 1 1 1
node 6 2 1 1
node 7 1 1 3
node 8 2 0 2
node 11 1 0 0
gene 2 1 8 -2.88355 0 1 -2.88355 1
gene 3 2 8 -0.120536 0 2 -0.120536 1
gene 3 3 8 -2.46039 0 3 -2.46039 0
gene 2 4 8 -7.89797 0 4 -7.89797 1
gene 1 5 8 5.50946 0 5 5.50946 1
gene 2 6 8 2.42603 0 6 2.42603 1
gene 2 7 8 -4.20126 0 7 -4.20126 1
gene 2 3 11 -3.86864 0 12 -3.86864 1
gene 3 11 8 3.73153 0 13 3.73153 1
gene 3 4 11 -1.03318 0 37 -1.03318 1
gene 1 5 11 0.517993 0 163 0.517993 1
genomeend 0

/* Organism #1 Fitness: 5 Error: 0 */
genomestart 1
trait 1 0.0502991 0.374225 0.0137532 0 0.334234 0 0.493876 0 
trait 2 0 0 0 0 0.0474711 0 0 0 
trait 3 0.3 0 0 0 0 0 0 0 
node 1 2 1 1
node 2 3 1 1
node 3 3 1 1
node 4 3 1 1
node 5 1 1 1
node 6 2 1 1
node 7 1 1 3
node 8 2 0 2
node 11 1 0 0
gene 2 1 8 -3.00556 0 1 -3.00556 1
gene 3 2 8 1.24326 0 2 1.24326 1
gene 3 3 8 -0.732344 0 3 -0.732344 0
gene 2 4 8 -8 0 4 -8 1
gene 1 5 8 3.02827 0 5 3.02827 1
gene 2 6 8 0.118871 0 6 0.118871 1
gene 2 7 8 -3.21128 0 7 -3.21128 1
gene 2 3 11 -5.57177 0 12 -5.57177 1
gene 3 11 8 5.08131 0 13 5.08131 1
gene 3 4 11 0.901687 0 37 0.901687 1
gene 1 5 11 0.517993 0 163 0.517993 1
genomeend 1

/* Organism #2 Fitness: 35 Error: 0 */
genomestart 2
trait 1 0.0502991 0.374225 0.0137532 0 0.334234 0 0.493876 0 
trait 2 0 0 0 0 0.0474711 0 0 0 
trait 3 0.3 0 0 0 0 0 0 0 
node 1 2 1 1
node 2 3 1 1
node 3 3 1 1
node 4 3 1 1
node 5 1 1 1
node 6 2 1 1
node 7 1 1 3
node 8 2 0 2
node 11 1 0 0
gene 2 1 8 0.137263 0 1 0.137263 1
gene 3 2 8 1.70059 0 2 1.70059 1
gene 3 3 8 -1.01112 0 3 -1.01112 0
gene 2 4 8 -5.59006 0 4 -5.59006 1
gene 1 5 8 4.6568 0 5 4.6568 1
gene 2 6 8 2.45793 0 6 2.45793 1
gene 2 7 8 -6.34788 0 7 -6.34788 1
gene 2 3 11 -3.89167 0 12 -3.89167 1
gene 3 11 8 -1.21202 0 13 -1.21202 1
gene 3 4 11 1.75783 0 37 1.75783 1
gene 1 5 11 0.435777 0 163 0.435777 1
genomeend 2

/* Organism #3 Fitness: 5 Error: 0 */
genomestart 3
trait 1 0.0502991 0.374225 0.0137532 0 0.334234 0 0.493876 0 
trait 2 0 0.245701 0 0 0 0 0 0 
trait 3 0.3 0 0 0 0 0 0 0 
node 1 2 1 1
node 2 3 1 1
node 3 3 1 1
node 4 3 1 1
node 5 1 1 1
node 6 2 1 1
node 7 1 1 3
node 8 2 0 2
node 11 1 0 0
gene 2 1 8 0.671186 0 1 0.671186 1
gene 3 2 8 1.6428 0 2 1.6428 1
gene 3 3 8 1.39172 0 3 1.39172 0
gene 2 4 8 -8 0 4 -8 1
gene 1 5 8 4.44436 0 5 4.44436 1
gene 2 6 8 -0.0250077 0 6 -0.0250077 1
gene 2 7 8 -1.94298 0 7 -1.94298 1
gene 2 3 11 -0.874573 0 12 -0.874573 1
gene 3 11 8 2.08159 0 13 2.08159 1
gene 3 4 11 -0.996497 0 37 -0.996497 1
gene 1 5 11 -0.141935 0 163 -0.141935 1
genomeend 3

/* Organism #4 Fitness: 74 Error: 0 */
genomestart 4
trait 1 0.0502991 0.374225 0.0137532 0 0.334234 0 0.493876 0 
trait 2 0 0 0 0 0.0474711 0 0 0 
trait 3 0.3 0 0 0 0 0 0 0 
node 1 2 1 1
node 2 3 1 1
node 3 2 1 1
node 4 3 1 1
node 5 1 1 1
node 6 2 1 1
node 7 1 1 3
node 8 2 0 2
node 11 1 0 0
gene 2 1 8 1.34621 0 1 1.34621 1
gene 3 2 8 -1.40369 0 2 -1.40369 1
gene 3 3 8 -0.0991399 0 3 -0.0991399 0
gene 2 4 8 -8 0 4 -8 1
gene 1 5 8 5.12145 0 5 5.12145 1
gene 2 6 8 2.05454 0 6 2.05454 1
gene 2 7 8 -1.96503 0 7 -1.96503 1
gene 2 3 11 -5.24011 0 12 -5.24011 1
gene 3 11 8 5.02247 0 13 5.02247 1
gene 3 4 11 1.95999 0 37 1.95999 1
gene 1 5 11 -0.99282 0 163 -0.99282 1
genomeend 4

/* Organism #5 Fitness: 58 Error: 0 */
genomestart 5
trait 1 0.0502991 0.374225 0.0137532 0 0.334234 0 0.493876 0 
trait 2 0 0 0 0 0.0474711 0 0 0 
trait 3 0.512625 0.665274 0 0.619841 0 0 0.0728305 0 
node 1 2 1 1
node 2 3 1 1
node 3 3 1 1
node 4 3 1 1
node 5 1 1 1
node 6 2 1 1
node 7 1 1 3
node 8 2 0 2
node 11 1 0 0
gene 2 1 8 -1.96971 0 1 -1.96971 1
gene 3 2 8 2.26618 0 2 2.26618 1
gene 3 3 8 -3.23085 0 3 -3.23085 0
gene 2 4 8 -7.89797 0 4 -7.89797 1
gene 1 5 8 7.4046 0 5 7.4046 1
gene 2 6 8 2.42603 0 6 2.42603 1
gene 2 7 8 -3.78066 0 7 -3.78066 1
gene 2 3 11 2.28985 0 12 2.28985 1
gene 3 11 8 1.61262 0 13 1.61262 1
gene 3 4 11 0.841502 0 37 0.841502 1
gene 1 5 11 0.517993 0 163 0.517993 1
genomeend 5

/* Organism #6 Fitness: 41 Error: 0 */
genomestart 6
trait 1 0.0502991 0.374225 0.0137532 0 0.334234 0 0.493876 0 
trait 2 0 0 0 0 0.0474711 0 0 0 
trait 3 0.3 0 0 0 0 0 0 0 
node 1 2 1 1
node 2 3 1 1
node 3 3 1 1
node 4 3 1 1
node 5 1 1 1
node 6 2 1 1
node 7 1 1 3
node 8 2 0 2
node 11 1 0 0
gene 2 1 8 1.64089 0 1 1.64089 1
gene 3 2 8 1.04557 0 2 1.04557 1
gene 3 3 8 -2.52227 0 3 -2.52227 0
gene 2 4 8 -4.90354 0 4 -4.90354 1
gene 1 5 8 -1.03829 0 5 -1.03829 1
gene 2 6 8 3.18332 0 6 3.18332 1
gene 2 7 8 -0.559954 0 7 -0.559954 1
gene 2 3 11 -3.36469 0 12 -3.36469 1
gene 3 11 8 0.919742 0 13 0.919742 1
gene 3 4 11 -0.24469 0 37 -0.24469 1
gene 1 5 11 1.94506 0 163 1.94506 1
genomeend 6

/* Organism #7 Fitness: 6 Error: 0 */
genomestart 7
trait 1 0.0502991 0.374225 0.0137532 0 0.334234 0 0.493876 0 
trait 2 0 0 0 0 0.0474711 0 0 0 
trait 3 0.3 0 0 0 0 0 0 0 
node 1 2 1 1
node 2 3 1 1
node 3 3 1 1
node 4 3 1 1
node 5 1 1 1
node 6 2 1 1
node 7 1 1 3
node 8 2 0 2
node 11 1 0 0
gene 2 1 8 -2.74046 0 1 -2.74046 1
gene 3 2 8 -0.582604 0 2 -0.582604 1
gene 3 3 8 -3.21688 0 3 -3.21688 0
gene 2 4 8 -7.68984 0 4 -7.68984 1
gene 1 5 8 5.21664 0 5 5.21664 1
gene 2 6 8 1.00469 0 6 1.00469 1
gene 2 7 8 -4.63615 0 7 -4.63615 1
gene 2 3 11 -6.18966 0 12 -6.18966 1
gene 3 11 8 2.6647 0 13 2.6647 1
gene 3 4 11 -1.81136 0 37 -1.81136 1
gene 1 5 11 0.517993 0 163 0.517993 1
genomeend 7

/* Organism #8 Fitness: 159 Error: 0 */
genomestart 8
trait 1 0.0502991 0.374225 0.0137532 0 0.334234 0 0.493876 0 
trait 2 0 0 0 0 0.0474711 0 0 0 
trait 3 0.3 0 0 0 0 0 0 0 
node 1 2 1 1
node 2 3 1 1
node 3 3 1 1
node 4 3 1 1
node 5 1 1 1
node 6 2 1 1
node 7 1 1 3
node 8 2 0 2
node 11 1 0 0
node 103 1 0 0
gene 2 1 8 0.137263 0 1 0.137263 1
gene 3 2 8 1.11919 0 2 1.11919 1
gene 3 3 8 0.993877 0 3 0.993877 0
gene 2 4 8 -4.32662 0 4 -4.32662 1
gene 1 5 8 5.91535 0 5 5.91535 1
gene 2 6 8 2.0299 0 6 2.0299 1
gene 2 7 8 -4.20126 0 7 -4.20126 1
gene 2 3 11 -3.86864 0 12 -3.86864 1
gene 3 11 8 3.73153 0 13 3.73153 1
gene 3 4 11 -1.03318 0 37 -1.03318 1
gene 1 5 11 0.435777 0 163 0.435777 0
gene 1 5 103 1 0 297 0 1
gene 1 103 11 0.435777 0 298 0 1
genomeend 8

/* Organism #9 Fitness: 5680 Error: 0 */
genomestart 9
trait 1 0.0502991 0.374225 0.0137532 0 0.334234 0 0.493876 0 
trait 2 0 0 0 0 0.0474711 0 0 0 
trait 3 0.3 0 0 0 0 0 0 0 
node 1 2 1 1
node 2 3 1 1
node 3 3 1 1
node 4 3 1 1
node 5 1 1 1
node 6 2 1 1
node 7 1 1 3
node 8 2 0 2
node 11 1 0 0
gene 2 1 8 -2.88355 0 1 -2.88355 1
gene 3 2 8 -0.120536 0 2 -0.120536 1
gene 3 3 8 -2.46039 0 3 -2.46039 0
gene 2 4 8 -7.89797 0 4 -7.89797 1
gene 1 5 8 5.50946 0 5 5.50946 1
gene 2 6 8 2.42603 0 6 2.42603 1
gene 2 7 8 -4.20126 0 7 -4.20126 1
gene 2 3 11 -3.86864 0 12 -3.86864 1
gene 3 11 8 3.73153 0 13 3.73153 1
gene 3 4 11 -1.03318 0 37 -1.03318 1
gene 1 5 11 0.517993 0 163 0.517993 1
genomeend 9

/* Organism #10 Fitness: 11 Error: 0 */
genomestart 10
trait 1 0.0502991 0.374225 0.0137532 0 0.334234 0 0.493876 0 
trait 2 0 0 0 0 0.0474711 0 0 0 
trait 3 0.3 0 0 0 0 0 0 0 
node 1 2 1 1
node 2 3 1 1
node 3 3 1 1
node 4 3 1 1
node 5 1 1 1
node 6 2 1 1
node 7 1 1 3
node 8 2 0 2
node 11 1 0 0
gene 2 1 8 0.100266 0 1 0.100266 1
gene 3 2 8 0.330217 0 2 0.330217 1
gene 3 3 8 -0.577873 0 3 -0.577873 0
gene 2 4 8 -5.54859 0 4 -5.54859 1
gene 1 5 8 4.08079 0 5 4.08079 1
gene 2 6 8 0.502291 0 6 0.502291 1
gene 2 7 8 -1.10636 0 7 -1.10636 1
gene 2 3 11 -3.54306 0 12 -3.54306 1
gene 3 11 8 3.78446 0 13 3.78446 1
gene 3 4 11 -0.116771 0 37 -0.116771 1
gene 1 5 11 2.74767 0 163 2.74767 1
genomeend 10

/* Organism #11 Fitness: 25 Error: 0 */
genomestart 11
trait 1 0.0502991 0.374225 0.0137532 0 0.334234 0 0.493876 0 
trait 2 0 0 0 0 0.0474711 0 0 0 
trait 3 0.3 0 0 0 0 0 0 0 
node 1 2 1 1
node 2 3 1 1
node 3 3 1 1
node 4 3 1 1
node 5 1 1 1
node 6 2 1 1
node 7 1 1 3
node 8 2 0 2
node 11 1 0 0
gene 2 1 8 -0.421397 0 1 -0.421397 1
gene 3 2 8 -1.14959 0 2 -1.14959 1
gene 3 3 8 -0.137306 0 3 -0.137306 1
gene 2 4 8 -7.0634 0 4 -7.0634 1
gene 1 5 8 7.00433 0 5 7.00433 1
gene 2 6 8 0.508936 0 6 0.508936 1
gene 2 7 8 -3.29209 0 7 -3.29209 1
gene 2 3 11 -1.50493 0 12 -1.50493 1
gene 3 11 8 4.58368 0 13 4.58368 1
gene 3 4 11 0.145397 0 37 0.145397 1
gene 1 5 11 -0.0185906 0 163 -0.0185906 1
genomeend 11

/* Organism #12 Fitness: 49 Error: 0 */
genomestart 12
trait 1 0.0502991 0.374225 0.0137532 0 0.334234 0 0.493876 0 
trait 2 0 0 0 0 0.0474711 0 0 0 
trait 3 0.3 0 0 0 0 0 0 0 
node 1 2 1 1
node 2 3 1 1
node 3 3 1 1
node 4 3 1 1
node 5 1 1 1
node 6 2 1 1
node 7 1 1 3
node 8 2 0 2
node 11 1 0 0
gene 2 1 8 -0.884507 0 1 -0.884507 1
gene 3 2 8 -1.78748 0 2 -1.78748 1
gene 3 3 8 1.06522 0 3 1.06522 0
gene 2 4 8 -4.31528 0 4 -4.31528 1
gene 1 5 8 6.01277 0 5 6.01277 1
gene 2 6 8 2.05956 0 6 2.05956 1
gene 2 7 8 -5.21677 0 7 -5.21677 1
gene 2 3 11 -4.56446 0 12 -4.56446 1
gene 3 11 8 4.0786 0 13 4.0786 1
gene 3 4 11 0.0520937 0 37 0.0520937 1
gene 1 5 11 -0.152268 0 163 -0.152268 1
genomeend 12

/* Organism #13 Fitness: 108 Error: 0 */
genomestart 13
trait 1 0.0502991 0.374225 0.0137532 0 0.334234 0 0.493876 0 
trait 2 0 0 0 0 0.0474711 0 0 0 
trait 3 0.3 0 0 0 0 0 0 0 
node 1 2 1 1
node 2 3 1 1
node 3 3 1 1
node 4 3 1 1
node 5 1 1 1
node 6 2 1 1
node 7 1 1 3
node 8 2 0 2
node 11 1 0 0
gene 2 1 8 -1.89342 0 1 -1.89342 1
gene 3 2 8 -1.83805 0 2 -1.83805 1
gene 3 3 8 -4.35581 0 3 -4.35581 0
gene 2 4 8 -6.20915 0 4 -6.20915 1
gene 1 5 8 5.48976 0 5 5.48976 1
gene 2 6 8 1.86732 0 6 1.86732 1
gene 2 7 8 -5.37628 0 7 -5.37628 1
gene 2 3 11 -4.46036 0 12 -4.46036 1
gene 3 11 8 4.09998 0 13 4.09998 1
gene 3 4 11 -0.216269 0 37 -0.216269 1
gene 1 5 11 0.517993 0 163 0.517993 1
genomeend 13

/* Organism #14 Fitness: 29 Error: 0 */
genomestart 14
trait 1 0 0.374225 0 0 0.28427 0 0 0 
trait 2 0 0 0 0 0.0474711 0 0 0 
trait 3 0.3 0 0 0 0 0 0 0 
node 1 2 1 1
node 2 3 1 1
node 3 3 1 1
node 4 3 1 1
node 5 1 1 1
node 6 2 1 1
node 7 1 1 3
node 8 2 0 2
node 11 1 0 0
gene 2 1 8 -1.02497 0 1 -1.02497 1
gene 3 2 8 1.11919 0 2 1.11919 1
gene 3 3 8 2.81246 0 3 2.81246 0
gene 2 4 8 1.75898 0 4 1.75898 1
gene 1 5 8 6.25909 0 5 6.25909 1
gene 2 6 8 3.4379 0 6 3.4379 1
gene 2 7 8 1.48511 0 7 1.48511 1
gene 2 3 11 -3.85405 0 12 -3.85405 1
gene 3 11 8 4.71966 0 13 4.71966 1
gene 3 4 11 2.00115 0 37 2.00115 1
gene 1 5 11 0.435777 0 163 0.435777 1
genomeend 14

/* Organism #15 Fitness: 74 Error: 0 */
genomestart 15
trait 1 0.0502991 0.374225 0.0137532 0 0.334234 0 0.493876 0 
trait 2 0 0 0 0 0.0474711 0 0 0 
trait 3 0.3 0 0 0 0 0 0 0 
node 1 2 1 1
node 2 3 1 1
node 3 3 1 1
node 4 3 1 1
node 5 1 1 1
node 6 2 1 1
node 7 1 1 3
node 8 2 0 2
node 11 1 0 0
gene 2 1 8 -0.383481 0 1 -0.383481 1
gene 3 2 8 2.6719 0 2 2.6719 1
gene 3 3 8 3.15565 0 3 3.15565 0
gene 2 4 8 -3.42885 0 4 -3.42885 1
gene 1 5 8 7.13925 0 5 7.13925 1
gene 2 6 8 2.04418 0 6 2.04418 1
gene 2 7 8 -4.74613 0 7 -4.74613 1
gene 2 3 11 -4.32833 0 12 -4.32833 1
gene 3 11 8 7.00772 0 13 7.00772 1
gene 3 4 11 -0.24608 0 37 -0.24608 1
gene 1 5 11 -0.058825 0 163 -0.058825 1
genomeend 15

/* Organism #16 Fitness: 22 Error: 0 */
genomestart 16
trait 1 0.0502991 0.374225 0.0137532 0 0.334234 0 0.493876 0 
trait 2 0 0 0 0 0.0474711 0 0 0 
trait 3 0.3 0 0 0 0 0 0 0 
node 1 2 1 1
node 2 3 1 1
node 3 3 1 1
node 4 3 1 1
node 5 1 1 1
node 6 2 1 1
node 7 1 1 3
node 8 2 0 2
node 11 1 0 0
gene 2 1 8 -3.14947 0 1 -3.14947 1
gene 3 2 8 0.205161 0 2 0.205161 1
gene 3 3 8 -1.96298 0 3 -1.96298 0
gene 2 4 8 -0.781562 0 4 -0.781562 1
gene 1 5 8 5.91535 0 5 5.91535 1
gene 2 6 8 1.38264 0 6 1.38264 1
gene 2 7 8 -1.16531 0 7 -1.16531 1
gene 2 3 11 1.84866 0 12 1.84866 1
gene 3 11 8 5.88566 0 13 5.88566 1
gene 3 4 11 -1.49317 0 37 -1.49317 1
gene 1 5 11 0.614803 0 163 0.614803 1
genomeend 16

/* Organism #17 Fitness: 89 Error: 0 */
genomestart 17
trait 1 0.0502991 0.374225 0.0137532 0 0.334234 0 0.493876 0 
trait 2 0 0 0 0 0.0474711 0 0 0 
trait 3 0.3 0 0 0 0 0 0 0 
node 1 2 1 1
node 2 3 1 1
node 3 3 1 1
node 4 3 1 1
node 5 1 1 1
node 6 2 1 1
node 7 1 1 3
node 8 2 0 2
node 11 1 0 0
gene 2 1 8 0.881936 0 1 0.881936 1
gene 3 2 8 -0.322904 0 2 -0.322904 1
gene 3 3 8 -3.58458 0 3 -3.58458 0
gene 2 4 8 -4.56444 0 4 -4.56444 1
gene 1 5 8 5.12823 0 5 5.12823 1
gene 2 6 8 3.96214 0 6 3.96214 1
gene 2 7 8 -5.30735 0 7 -5.30735 1
gene 2 3 11 -1.57329 0 12 -1.57329 1
gene 3 11 8 5.4964 0 13 5.4964 1
gene 3 4 11 0.844492 0 37 0.844492 1
gene 1 5 11 0.831336 0 163 0.831336 1
genomeend 17

/* Organism #18 Fitness: 402 Error: 0 */
genomestart 18
trait 1 0.0502991 0.374225 0.0137532 0 0.334234 0 0.493876 0 
trait 2 0 0 0 0 0.0474711 0 0 0 
trait 3 0.3 0 0 0 0 0 0 0 
node 1 2 1 1
node 2 3 1 1
node 3 3 1 1
node 4 3 1 1
node 5 1 1 1
node 6 2 1 1
node 7 1 1 3
node 8 2 0 2
node 11 1 0 0
gene 2 1 8 -4.6408 0 1 -4.6408 1
gene 3 2 8 -1.17657 0 2 -1.17657 1
gene 3 3 8 -4.66917 0 3 -4.66917 0
gene 2 4 8 -8 0 4 -8 1
gene 1 5 8 6.17085 0 5 6.17085 1
gene 2 6 8 4.33919 0 6 4.33919 1
gene 2 7 8 -2.75633 0 7 -2.75633 1
gene 2 3 11 -2.92952 0 12 -2.92952 1
gene 3 11 8 4.17227 0 13 4.17227 1
gene 3 4 11 -1.51343 0 37 -1.51343 1
gene 1 5 11 0.517993 0 163 0.517993 1
genomeend 18

/* Organism #19 Fitness: 20 Error: 0 */
genomestart 19
trait 1 0.0502991 0.374225 0.0137532 0 0.334234 0 0.493876 0 
trait 2 0 0 0 0 0.0474711 0 0 0 
trait 3 0.3 0 0 0 0 0 0 0 
node 1 2 1 1
node 2 3 1 1
node 3 3 1 1
node 4 3 1 1
node 5 1 1 1
node 6 2 1 1
node 7 1 1 3
node 8 2 0 2
node 11 1 0 0
gene 2 1 8 1.35158 0 1 1.35158 1
gene 3 2 8 -2.03429 0 2 -2.03429 1
gene 3 3 8 -0.126351 0 3 -0.126351 0
gene 2 4 8 -5.68207 0 4 -5.68207 1
gene 1 5 8 5.3783 0 5 5.3783 1
gene 2 6 8 0.480781 0 6 0.480781 1
gene 3 7 8 -2.64686 0 7 -2.64686 1
gene 2 3 11 -3.64932 0 12 -3.64932 1
gene 3 11 8 -2.15522 0 13 -2.15522 1
gene 3 4 11 -1.20617 0 37 -1.20617 1
gene 1 5 11 -1.26361 0 163 -1.26361 1
genomeend 19

/* Organism #20 Fitness: 5 Error: 0 */
genomestart 20
trait 1 0.0502991 0.374225 0.0137532 0 0.334234 0 0.493876 0 
trait 2 0 0 0 0 0.0474711 0 0 0 
trait 3 0.3 0 0 0 0 0 0 0 
node 1 2 1 1
node 2 3 1 1
node 3 3 1 1
node 4 3 1 1
node 5 1 1 1
node 6 2 1 1
node 7 1 1 3
node 8 2 0 2
node 11 1 0 0
gene 2 1 8 -2.61184 0 1 -2.61184 1
gene 3 2 8 -1.95272 0 2 -1.95272 1
gene 3 3 8 1.69862 0 3 1.69862 0
gene 2 4 8 -6.80182 0 4 -6.80182 1
gene 1 5 8 6.68548 0 5 6.68548 1
gene 2 6 8 -1.20691 0 6 -1.20691 1
gene 2 7 8 -2.44832 0 7 -2.44832 1
gene 2 3 11 -2.91784 0 12 -2.91784 1
gene 3 11 8 4.03195 0 13 4.03195 1
gene 3 4 11 -0.116771 0 37 -0.116771 1
gene 1 5 11 -1.48488 0 163 -1.48488 1
genomeend 20

/* Organism #21 Fitness: 39 Error: 0 */
genomestart 21
trait 1 0.0502991 0.374225 0.0137532 0 0.334234 0 0.493876 0 
trait 2 0 0 0 0 0.0474711 0 0 0 
trait 3 0.3 0 0 0 0 0 0 0 
node 1 2 1 1
node 2 3 1 1
node 3 3 1 1
node 4 3 1 1
node 5 1 1 1
node 6 2 1 1
node 7 1 1 3
node 8 2 0 2
node 11 1 0 0
gene 2 1 8 -2.81014 0 1 -2.81014 1
gene 3 2 8 0.563455 0 2 0.563455 1
gene 3 3 8 -0.0658069 0 3 -0.0658069 0
gene 2 4 8 -8 0 4 -8 1
gene 1 5 8 4.44526 0 5 4.44526 1
gene 2 6 8 3.01746 0 6 3.01746 1
gene 2 7 8 -2.36052 0 7 -2.36052 1
gene 2 3 11 -1.9868 0 12 -1.9868 1
gene 3 11 8 6.13496 0 13 6.13496 1
gene 3 4 11 2.32469 0 37 2.32469 1
gene 1 5 11 2.6013 0 163 2.6013 1
genomeend 21

/* Organism #22 Fitness: 5 Error: 0 */
genomestart 22
trait 1 0.0502991 0.374225 0.0137532 0 0.334234 0 0.493876 0 
trait 2 0 0 0 0 0.0474711 0 0 0 
trait 3 0.3 0 0 0 0 0 0 0 
node 1 2 1 1
node 2 3 1 1
node 3 3 1 1
node 4 3 1 1
node 5 1 1 1
node 6 2 1 1
node 7 1 1 3
node 8 2 0 2
node 11 1 0 0
gene 2 1 8 -1.88263 0 1 -1.88263 1
gene 3 2 8 1.31572 0 2 1.31572 1
gene 3 3 8 2.21722 0 3 2.21722 0
gene 2 4 8 -8 0 4 -8 1
gene 1 5 8 3.81624 0 5 3.81624 1
gene 2 6 8 8.16183e-05 0 6 8.16183e-05 1
gene 2 7 8 -2.78726 0 7 -2.78726 1
gene 2 3 11 -1.45839 0 12 -1.45839 1
gene 3 11 8 4.73083 0 13 4.73083 1
gene 3 4 11 -0.728318 0 37 -0.728318 1
gene 1 5 11 1.78413 0 163 1.78413 1
genomeend 22

/* Organism #23 Fitness: 53 Error: 0 */
genomestart 23
trait 1 0.0502991 0.374225 0.0137532 0 0.334234 0 0.493876 0 
trait 2 0 0 0 0 0.0474711 0 0 0 
trait 3 0.3 0 0 0 0 0 0 0 
node 1 2 1 1
node 2 3 1 1
node 3 3 1 1
node 4 3 1 1
node 5 1 1 1
node 6 2 1 1
node 7 1 1 3
node 8 2 0 2
node 11 1 0 0
gene 2 1 8 -1.5272 0 1 -1.5272 1
gene 3 2 8 -0.0992583 0 2 -0.0992583 1
gene 3 3 8 3.08198 0 3 3.08198 0
gene 3 4 8 -3.62745 0 4 -3.62745 1
gene 1 5 8 8 0 5 8 1
gene 2 6 8 2.0299 0 6 2.0299 1
gene 2 7 8 -1.14777 0 7 -1.14777 1
gene 2 3 11 -4.56486 0 12 -4.56486 1
gene 3 11 8 -0.997396 0 13 -0.997396 1
gene 3 4 11 1.77368 0 37 1.77368 1
gene 1 5 11 -1.14636 0 163 -1.14636 1
genomeend 23

/* Organism #24 Fitness: 6 Error: 0 */
genomestart 24
trait 1 0.0502991 0.374225 0.0137532 0 0.334234 0 0.493876 0 
trait 2 0 0 0 0 0.0474711 0 0 0 
trait 3 0.3 0 0 0 0 0 0 0 
node 1 2 1 1
node 2 3 1 1
node 3 3 1 1
node 4 3 1 1
node 5 1 1 1
node 6 2 1 1
node 7 1 1 3
node 8 2 0 2
node 11 1 0 0
gene 2 1 8 1.04557 0 1 1.04557 1
gene 3 2 8 -1.90859 0 2 -1.90859 1
gene 3 3 8 -2.26781 0 3 -2.26781 1
gene 2 4 8 -8 0 4 -8 1
gene 1 5 8 6.43468 0 5 6.43468 1
gene 2 6 8 0.243822 0 6 0.243822 1
gene 2 7 8 -1.60575 0 7 -1.60575 1
gene 2 3 11 -4.40359 0 12 -4.40359 1
gene 3 11 8 4.43291 0 13 4.43291 1
gene 3 4 11 -0.116771 0 37 -0.116771 1
gene 1 5 11 0.495719 0 163 0.495719 1
genomeend 24

/* Organism #25 Fitness: 35 Error: 0 */
genomestart 25
trait 1 0.0502991 0.374225 0.0137532 0 0.334234 0 0.493876 0 
trait 2 0 0 0 0 0.0474711 0 0 0 
trait 3 0.3 0 0 0 0 0 0 0 
node 1 2 1 1
node 2 3 1 1
node 3 3 1 1
node 4 3 1 1
node 5 1 1 1
node 6 2 1 1
node 7 1 1 3
node 8 2 0 2
node 11 1 0 0
gene 2 1 8 0.814561 0 1 0.814561 1
gene 3 2 8 -0.977806 0 2 -0.977806 1
gene 3 3 8 -0.244075 0 3 -0.244075 0
gene 2 4 8 -0.542057 0 4 -0.542057 1
gene 1 5 8 3.47906 0 5 3.47906 1
gene 2 6 8 2.18896 0 6 2.18896 1
gene 2 7 8 -4.69062 0 7 -4.69062 1
gene 2 3 11 -4.15472 0 12 -4.15472 1
gene 3 11 8 4.73108 0 13 4.73108 1
gene 3 4 11 -0.280866 0 37 -0.280866 1
gene 1 5 11 0.278294 0 163 0.278294 1
genomeend 25

/* Organism #26 Fitness: 6 Error: 0 */
genomestart 26
trait 1 0.0502991 0.374225 0.0137532 0 0.334234 0 0.493876 0 
trait 2 0 0 0 0 0.0474711 0 0 0 
trait 3 0.3 0 0 0 0 0 0 0 
node 1 2 1 1
node 2 3 1 1
node 3 3 1 1
node 4 3 1 1
node 5 1 1 1
node 6 2 1 1
node 7 1 1 3
node 8 2 0 2
node 11 1 0 0
gene 2 1 8 -1.61008 0 1 -1.61008 1
gene 2 2 8 -1.28597 0 2 -1.28597 1
gene 3 3 8 1.73418 0 3 1.73418 0
gene 2 4 8 -6.47211 0 4 -6.47211 1
gene 1 5 8 5.9434 0 5 5.9434 1
gene 2 6 8 0.378485 0 6 0.378485 1
gene 2 7 8 -4.56867 0 7 -4.56867 1
gene 2 3 11 -2.67885 0 12 -2.67885 1
gene 3 11 8 1.76435 0 13 1.76435 1
gene 3 4 11 -1.03318 0 37 -1.03318 1
gene 1 5 11 2.2119 0 163 2.2119 1
genomeend 26

/* Organism #27 Fitness: 307 Error: 0 */
genomestart 27
trait 1 0.0502991 0.374225 0.0137532 0 0.334234 0 0.493876 0 
trait 2 0 0 0 0 0.0474711 0 0 0 
trait 3 0.3 0 0 0 0 0 0 0 
node 1 2 1 1
node 2 3 1 1
node 3 3 1 1
node 4 3 1 1
node 5 1 1 1
node 6 2 1 1
node 7 1 1 3
node 8 2 0 2
node 11 1 0 0
gene 2 1 8 -0.615394 0 1 -0.615394 1
gene 3 2 8 -0.619879 0 2 -0.619879 1
gene 3 3 8 -2.46039 0 3 -2.46039 0
gene 2 4 8 -7.89797 0 4 -7.89797 1
gene 1 5 8 4.43673 0 5 4.43673 1
gene 2 6 8 2.42603 0 6 2.42603 1
gene 2 7 8 -4.20126 0 7 -4.20126 1
gene 2 3 11 -3.86864 0 12 -3.86864 1
gene 3 11 8 3.49828 0 13 3.49828 1
gene 3 4 11 -1.03318 0 37 -1.03318 1
gene 1 5 11 0.517993 0 163 0.517993 1
genomeend 27

/* Organism #28 Fitness: 210 Error: 0 */
genomestart 28
trait 1 0.0502991 0.374225 0.0137532 0 0.334234 0 0.493876 0 
trait 2 0 0 0 0 0.0474711 0 0 0 
trait 3 0.3 0 0 0 0 0 0 0 
node 1 2 1 1
node 2 3 1 1
node 3 3 1 1
node 4 3 1 1
node 5 1 1 1
node 6 2 1 1
node 7 1 1 3
node 8 2 0 2
node 11 1 0 0
gene 2 1 8 -0.615394 0 1 -0.615394 1
gene 3 2 8 1.11919 0 2 1.11919 1
gene 3 3 8 0.993877 0 3 0.993877 0
gene 2 4 8 -6.66187 0 4 -6.66187 1
gene 1 5 8 4.43673 0 5 4.43673 1
gene 2 6 8 2.0299 0 6 2.0299 1
gene 2 7 8 -4.51458 0 7 -4.51458 1
gene 2 3 11 -3.36469 0 12 -3.36469 1
gene 3 11 8 3.49828 0 13 3.49828 1
gene 3 4 11 -0.116771 0 37 -0.116771 1
gene 1 5 11 0.435777 0 163 0.435777 1
genomeend 28

/* Organism #29 Fitness: 200 Error: 0 */
genomestart 29
trait 1 0.0502991 0.374225 0.0137532 0 0.334234 0 0.493876 0 
trait 2 0 0 0 0 0.0474711 0 0 0 
trait 3 0.3 0 0 0 0 0 0 0 
node 1 2 1 1
node 2 3 1 1
node 3 3 1 1
node 4 3 1 1
node 5 1 1 1
node 6 2 1 1
node 7 1 1 3
node 8 2 0 2
node 11 1 0 0
gene 2 1 8 -1.45147 0 1 -1.45147 1
gene 3 2 8 1.46667 0 2 1.46667 1
gene 3 3 8 -0.155111 0 3 -0.155111 0
gene 2 4 8 -5.5705 0 4 -5.5705 1
gene 1 5 8 4.30491 0 5 4.30491 1
gene 2 6 8 2.92199 0 6 2.92199 1
gene 2 7 8 -4.01879 0 7 -4.01879 1
gene 2 3 11 -5.26165 0 12 -5.26165 1
gene 3 11 8 4.8416 0 13 4.8416 1
gene 3 4 11 -0.116771 0 37 -0.116771 1
gene 1 5 11 2.61556 0 163 2.61556 1
genomeend 29

/* Organism #30 Fitness: 67 Error: 0 */
genomestart 30
trait 1 0.0502991 0.374225 0.0137532 0 0.334234 0 0.493876 0 
trait 2 0 0 0 0 0.0474711 0 0 0 
trait 3 0.3 0 0 0 0 0 0 0 
node 1 2 1 1
node 2 3 1 1
node 3 3 1 1
node 4 3 1 1
node 5 1 1 1
node 6 2 1 1
node 7 1 1 3
node 8 2 0 2
node 11 1 0 0
gene 2 1 8 1.07137 0 1 1.07137 1
gene 3 2 8 1.89582 0 2 1.89582 1
gene 3 3 8 1.11636 0 3 1.11636 0
gene 2 4 8 -5.9198 0 4 -5.9198 1
gene 1 5 8 8 0 5 8 1
gene 2 6 8 4.77398 0 6 4.77398 1
gene 2 7 8 -1.745 0 7 -1.745 1
gene 2 3 11 -5.37777 0 12 -5.37777 1
gene 3 11 8 6.36996 0 13 6.36996 1
gene 3 4 11 -1.25034 0 37 -1.25034 1
gene 1 5 11 -1.06716 0 163 -1.06716 1
genomeend 30

/* Organism #31 Fitness: 17 Error: 0 */
genomestart 31
trait 1 0.0502991 0.374225 0.0137532 0 0.334234 0 0.493876 0 
trait 2 0 0 0 0 0.0474711 0 0 0 
trait 3 0.3 0 0 0 0 0 0 0 
node 1 2 1 1
node 2 3 1 1
node 3 3 1 1
node 4 3 1 1
node 5 1 1 1
node 6 2 1 1
node 7 1 1 3
node 8 2 0 2
node 11 1 0 0
gene 2 1 8 0.847192 0 1 0.847192 1
gene 3 2 8 0.897767 0 2 0.897767 1
gene 3 3 8 3.12457 0 3 3.12457 0
gene 2 4 8 -4.09584 0 4 -4.09584 1
gene 1 5 8 4.12892 0 5 4.12892 1
gene 2 6 8 0.620886 0 6 0.620886 1
gene 2 7 8 -3.65918 0 7 -3.65918 1
gene 2 3 11 -2.12559 0 12 -2.12559 1
gene 3 11 8 3.97142 0 13 3.97142 1
gene 3 4 11 -1.28133 0 37 -1.28133 1
gene 1 5 11 1.39173 0 163 1.39173 1
genomeend 31

/* Organism #32 Fitness: 7 Error: 0 */
genomestart 32
trait 1 0.0502991 0.374225 0.0137532 0 0.334234 0 0.493876 0 
trait 2 0 0 0 0 0.0474711 0 0 0 
trait 3 0.3 0 0 0 0 0 0 0 
node 1 2 1 1
node 2 3 1 1
node 3 3 1 1
node 4 3 1 1
node 5 1 1 1
node 6 2 1 1
node 7 1 1 3
node 8 2 0 2
node 11 1 0 0
gene 2 1 8 -2.88355 0 1 -2.88355 1
gene 3 2 8 2.08092 0 2 2.08092 1
gene 3 3 8 -1.81089 0 3 -1.81089 0
gene 2 4 8 -7.68312 0 4 -7.68312 1
gene 2 5 8 5.50946 0 5 5.50946 1
gene 2 6 8 1.07027 0 6 1.07027 1
gene 2 7 8 -4.0276 0 7 -4.0276 1
gene 2 3 11 -5.22891 0 12 -5.22891 1
gene 3 11 8 3.59574 0 13 3.59574 1
gene 3 4 11 -1.03318 0 37 -1.03318 1
gene 1 5 11 0.159284 0 163 0.159284 1
genomeend 32

/* Organism #33 Fitness: 1372 Error: 0 */
genomestart 33
trait 1 0.0502991 0.374225 0.0137532 0 0.334234 0 0.493876 0 
trait 2 0 0 0 0 0.0474711 0 0 0 
trait 3 0.3 0 0 0 0 0 0 0 
node 1 2 1 1
node 2 3 1 1
node 3 3 1 1
node 4 3 1 1
node 5 1 1 1
node 6 2 1 1
node 7 1 1 3
node 8 2 0 2
node 11 1 0 0
gene 2 1 8 -2.88355 0 1 -2.88355 1
gene 3 2 8 -0.120536 0 2 -0.120536 1
gene 3 3 8 0.993877 0 3 0.993877 0
gene 2 4 8 -4.32662 0 4 -4.32662 1
gene 1 5 8 5.50946 0 5 5.50946 1
gene 2 6 8 2.42603 0 6 2.42603 1
gene 2 7 8 -4.51458 0 7 -4.51458 1
gene 2 3 11 -3.86864 0 12 -3.86864 1
gene 3 11 8 4.73108 0 13 4.73108 1
gene 3 4 11 -1.03318 0 37 -1.03318 1
gene 1 5 11 0.435777 0 163 0.435777 1
genomeend 33

/* Organism #34 Fitness: 624 Error: 0 */
genomestart 34
trait 1 0.0502991 0.374225 0.0137532 0 0.334234 0 0.493876 0 
trait 2 0 0 0 0 0.0474711 0 0 0 
trait 3 0.3 0 0 0 0 0 0 0 
node 1 2 1 1
node 2 3 1 1
node 3 3 1 1
node 4 3 1 1
node 5 1 1 1
node 6 2 1 1
node 7 1 1 3
node 8 2 0 2
node 11 1 0 0
gene 2 1 8 -2.67747 0 1 -2.67747 1
gene 3 2 8 -0.120536 0 2 -0.120536 1
gene 3 3 8 -3.80058 0 3 -3.80058 0
gene 2 4 8 -7.1422 0 4 -7.1422 1
gene 1 5 8 7.31054 0 5 7.31054 1
gene 2 6 8 2.88164 0 6 2.88164 1
gene 2 7 8 -4.50776 0 7 -4.50776 1
gene 2 3 11 -4.24719 0 12 -4.24719 1
gene 3 11 8 4.3748 0 13 4.3748 1
gene 3 4 11 -2.2151 0 37 -2.2151 1
gene 1 5 11 -0.511001 0 163 -0.511001 1
genomeend 34

/* Organism #35 Fitness: 5 Error: 0 */
genomestart 35
trait 1 0 0.374225 0 0 0.334234 0 0.469779 0 
trait 2 0 0 0 0 0.0474711 0 0 0 
trait 3 0.3 0 0 0 0 0 0 0 
node 1 2 1 1
node 2 3 1 1
node 3 3 1 1
node 4 3 1 1
node 5 1 1 1
node 6 2 1 1
node 7 1 1 3
node 8 2 0 2
node 11 1 0 0
gene 2 1 8 0.338485 0 1 0.338485 1
gene 3 2 8 1.24765 0 2 1.24765 1
gene 3 3 8 1.64298 0 3 1.64298 0
gene 2 4 8 -2.25415 0 4 -2.25415 1
gene 1 5 8 5.19603 0 5 5.19603 1
gene 2 6 8 -2.26337 0 6 -2.26337 1
gene 2 7 8 -2.79982 0 7 -2.79982 1
gene 2 3 11 -2.75941 0 12 -2.75941 1
gene 3 11 8 2.34587 0 13 2.34587 1
gene 2 4 11 -0.253472 0 37 -0.253472 1
gene 1 5 11 -1.47192 0 163 -1.47192 1
genomeend 35

/* Organism #36 Fitness: 49 Error: 0 */
genomestart 36
trait 1 0.0502991 0.985902 0.0137532 0 0 0 0.493876 0 
trait 2 0 0 0 0 0.0474711 0 0 0 
trait 3 0.3 0 0 0 0 0 0 0 
node 1 2 1 1
node 2 3 1 1
node 3 3 1 1
node 4 3 1 1
node 5 1 1 1
node 6 2 1 1
node 7 1 1 3
node 8 2 0 2
node 11 1 0 0
gene 2 1 8 -1.58042 0 1 -1.58042 1
gene 3 2 8 3.5763 0 2 3.5763 1
gene 3 3 8 3.06257 0 3 3.06257 0
gene 2 4 8 -4.32662 0 4 -4.32662 1
gene 1 5 8 7.08594 0 5 7.08594 1
gene 2 6 8 3.78719 0 6 3.78719 1
gene 2 7 8 -2.92448 0 7 -2.92448 1
gene 2 3 11 -3.1807 0 12 -3.1807 1
gene 3 11 8 3.94973 0 13 3.94973 1
gene 3 4 11 1.46048 0 37 1.46048 1
gene 1 5 11 2.83358 0 163 2.83358 1
genomeend 36

/* Organism #37 Fitness: 3539 Error: 0 */
genomestart 37
trait 1 0.0502991 0.374225 0.0137532 0 0.334234 0 0.493876 0 
trait 2 0 0 0 0 0.0474711 0 0 0 
trait 3 0.3 0 0 0 0 0 0 0 
node 1 2 1 1
node 2 3 1 1
node 3 3 1 1
node 4 3 1 1
node 5 1 1 1
node 6 2 1 1
node 7 1 1 3
node 8 2 0 2
node 11 1 0 0
gene 2 1 8 -2.88355 0 1 -2.88355 1
gene 3 2 8 -0.120536 0 2 -0.120536 1
gene 3 3 8 -2.46039 0 3 -2.46039 0
gene 2 4 8 -7.89797 0 4 -7.89797 1
gene 1 5 8 5.50946 0 5 5.50946 1
gene 2 6 8 2.42603 0 6 2.42603 1
gene 2 7 8 -4.20126 0 7 -4.20126 1
gene 2 3 11 -3.86864 0 12 -3.86864 1
gene 3 11 8 3.73153 0 13 3.73153 1
gene 3 4 11 -1.03318 0 37 -1.03318 1
gene 1 5 11 0.517993 0 163 0.517993 1
gene 1 6 11 0.272213 0 299 0.272213 1
genomeend 37

/* Organism #38 Fitness: 54 Error: 0 */
genomestart 38
trait 1 0.0502991 0.374225 0.0137532 0 0.334234 0 0.493876 0 
trait 2 0 0 0 0 0.0474711 0 0 0 
trait 3 0.3 0 0 0 0 0 0 0 
node 1 2 1 1
node 2 3 1 1
node 3 3 1 1
node 4 3 1 1
node 5 1 1 1
node 6 2 1 1
node 7 1 1 3
node 8 2 0 2
node 11 1 0 0
gene 2 1 8 -0.964523 0 1 -0.964523 1
gene 3 2 8 2.35299 0 2 2.35299 1
gene 3 3 8 -0.090602 0 3 -0.090602 0
gene 2 4 8 -4.55654 0 4 -4.55654 1
gene 1 5 8 3.44086 0 5 3.44086 1
gene 2 6 8 3.36564 0 6 3.36564 1
gene 2 7 8 -0.680093 0 7 -0.680093 1
gene 2 3 11 -2.74217 0 12 -2.74217 1
gene 3 11 8 6.25639 0 13 6.25639 1
gene 3 4 11 -0.513058 0 37 -0.513058 1
gene 1 5 11 -1.44245 0 163 -1.44245 1
genomeend 38

/* Organism #39 Fitness: 42 Error: 0 */
genomestart 39
trait 1 0.0502991 0.374225 0.0137532 0 0.334234 0 0.493876 0 
trait 2 0 0 0 0 0.0474711 0 0 0 
trait 3 0.3 0 0 0 0 0 0 0 
node 1 2 1 1
node 2 3 1 1
node 3 3 1 1
node 4 3 1 1
node 5 1 1 1
node 6 2 1 1
node 7 1 1 3
node 8 2 0 2
node 11 1 0 0
node 104 1 0 0
gene 2 1 8 -1.37314 0 1 -1.37314 1
gene 3 2 8 0.499327 0 2 0.499327 1
gene 3 3 8 -0.733256 0 3 -0.733256 0
gene 2 4 8 -6.1123 0 4 -6.1123 1
gene 1 5 8 5.7124 0 5 5.7124 0
gene 2 6 8 2.22797 0 6 2.22797 1
gene 2 7 8 -4.35792 0 7 -4.35792 1
gene 2 3 11 -3.88016 0 12 -3.88016 1
gene 3 11 8 4.23131 0 13 4.23131 1
gene 3 4 11 -0.639629 0 37 -0.639629 1
gene 1 5 11 0.476885 0 163 0.476885 1
gene 1 5 104 1 0 300 0 1
gene 1 104 8 5.7124 0 301 0 1
genomeend 39

/* Organism #40 Fitness: 74 Error: 0 */
genomestart 40
trait 1 0.0502991 0.374225 0.0137532 0 0.334234 0 0.493876 0 
trait 2 0 0 0 0 0.0474711 0 0 0 
trait 3 0.3 0 0 0 0 0 0 0 
node 1 2 1 1
node 2 3 1 1
node 3 3 1 1
node 4 3 1 1
node 5 1 1 1
node 6 2 1 1
node 7 1 1 3
node 8 2 0 2
node 11 1 0 0
gene 2 1 8 -4.70315 0 1 -4.70315 1
gene 3 2 8 -0.899261 0 2 -0.899261 1
gene 3 3 8 -1.88633 0 3 -1.88633 0
gene 2 4 8 -5.5104 0 4 -5.5104 1
gene 1 5 8 4.44801 0 5 4.44801 1
gene 2 6 8 1.05161 0 6 1.05161 1
gene 2 7 8 -2.59517 0 7 -2.59517 1
gene 2 3 11 -3.49809 0 12 -3.49809 1
gene 3 11 8 1.33359 0 13 1.33359 1
gene 2 4 11 -1.03318 0 37 -1.03318 1
gene 1 5 11 0.517993 0 163 0.517993 1
genomeend 40

/* Organism #41 Fitness: 46 Error: 0 */
genomestart 41
trait 1 0.0502991 0.374225 0.0137532 0 0.334234 0 0.493876 0 
trait 2 0 0 0 0 0.0474711 0 0 0 
trait 3 0.3 0 0 0 0 0 0 0 
node 1 2 1 1
node 2 3 1 1
node 3 3 1 1
node 4 3 1 1
node 5 1 1 1
node 6 2 1 1
node 7 1 1 3
node 8 2 0 2
node 11 1 0 0
gene 2 1 8 0.303621 0 1 0.303621 1
gene 3 2 8 3.34739 0 2 3.34739 1
gene 3 3 8 0.0656999 0 3 0.0656999 0
gene 2 4 8 -3.9626 0 4 -3.9626 1
gene 1 5 8 4.56036 0 5 4.56036 1
gene 2 6 8 3.11121 0 6 3.11121 1
gene 2 7 8 -6.99745 0 7 -6.99745 1
gene 2 3 11 -3.65055 0 12 -3.65055 1
gene 3 11 8 3.60149 0 13 3.60149 1
gene 3 4 11 -0.24608 0 37 -0.24608 1
gene 1 5 11 0.387026 0 163 0.387026 1
genomeend 41

/* Organism #42 Fitness: 44 Error: 0 */
genomestart 42
trait 1 0.0502991 0.374225 0.0137532 0 0.334234 0 0.493876 0 
trait 2 0 0 0 0 0.0474711 0 0 0 
trait 3 0.3 0 0 0 0 0 0 0 
node 1 2 1 1
node 2 3 1 1
node 3 3 1 1
node 4 3 1 1
node 5 1 1 1
node 6 2 1 1
node 7 1 1 3
node 8 2 0 2
node 11 1 0 0
gene 2 1 8 1.92185 0 1 1.92185 1
gene 3 2 8 -0.662259 0 2 -0.662259 1
gene 3 3 8 -0.832371 0 3 -0.832371 0
gene 2 4 8 1.92647 0 4 1.92647 1
gene 1 5 8 4.74696 0 5 4.74696 1
gene 2 6 8 3.89815 0 6 3.89815 1
gene 2 7 8 -0.374575 0 7 -0.374575 1
gene 2 3 11 -2.32528 0 12 -2.32528 1
gene 3 11 8 1.612 0 13 1.612 1
gene 3 4 11 -0.24608 0 37 -0.24608 1
gene 1 5 11 0.740111 0 163 0.740111 1
genomeend 42

/* Organism #43 Fitness: 84 Error: 0 */
genomestart 43
trait 1 0.0502991 0.374225 0.0137532 0 0.334234 0 0.493876 0 
trait 2 0 0 0 0 0.0474711 0 0 0 
trait 3 0.3 0 0 0 0 0 0 0 
node 1 2 1 1
node 2 3 1 1
node 3 3 1 1
node 4 3 1 1
node 5 1 1 1
node 6 2 1 1
node 7 1 1 3
node 8 2 0 2
node 11 1 0 0
gene 2 1 8 -0.615394 0 1 -0.615394 1
gene 3 2 8 -0.619879 0 2 -0.619879 1
gene 3 3 8 -0.171375 0 3 -0.171375 0
gene 2 4 8 -4.32662 0 4 -4.32662 1
gene 1 5 8 5.91535 0 5 5.91535 1
gene 2 6 8 1.11801 0 6 1.11801 1
gene 2 7 8 -4.51458 0 7 -4.51458 1
gene 2 3 11 -3.89167 0 12 -3.89167 1
gene 3 11 8 3.49828 0 13 3.49828 1
gene 3 4 11 -0.116771 0 37 -0.116771 1
gene 1 5 11 0.517993 0 163 0.517993 1
genomeend 43

/* Organism #44 Fitness: 34 Error: 0 */
genomestart 44
trait 1 0.0502991 0.374225 0.0137532 0 0.334234 0 0.493876 0 
trait 2 0 0 0 0 0.0474711 0 0 0 
trait 3 0.3 0 0 0 0 0 0 0 
node 1 2 1 1
node 2 3 1 1
node 3 3 1 1
node 4 3 1 1
node 5 1 1 1
node 6 2 1 1
node 7 1 1 3
node 8 2 0 2
node 11 1 0 0
gene 2 1 8 -0.335903 0 1 -0.335903 1
gene 3 2 8 0.835984 0 2 0.835984 1
gene 3 3 8 -1.31588 0 3 -1.31588 0
gene 2 4 8 -6.22893 0 4 -6.22893 1
gene 1 5 8 4.97309 0 5 4.97309 1
gene 2 6 8 2.39184 0 6 2.39184 1
gene 2 7 8 -2.02821 0 7 -2.02821 1
gene 2 3 11 2.496 0 12 2.496 1
gene 3 11 8 3.17033 0 13 3.17033 1
gene 3 4 11 -0.574974 0 37 -0.574974 1
gene 1 5 11 -1.89138 0 163 -1.89138 1
genomeend 44

/* Organism #45 Fitness: 16 Error: 0 */
genomestart 45
trait 1 0.0502991 0.374225 0.0137532 0 0.334234 0 0.493876 0 
trait 2 0 0 0 0 0.0474711 0 0 0 
trait 3 0.3 0 0 0 0 0 0 0 
node 1 2 1 1
node 2 3 1 1
node 3 3 1 1
node 4 3 1 1
node 5 1 1 1
node 6 2 1 1
node 7 1 1 3
node 8 2 0 2
node 11 1 0 0
gene 2 1 8 -1.99384 0 1 -1.99384 1
gene 3 2 8 -2.81875 0 2 -2.81875 1
gene 3 3 8 -0.414762 0 3 -0.414762 0
gene 2 4 8 -4.34606 0 4 -4.34606 1
gene 1 5 8 -2.33061 0 5 -2.33061 1
gene 2 6 8 1.28562 0 6 1.28562 1
gene 2 7 8 0.376651 0 7 0.376651 1
gene 2 3 11 -3.44062 0 12 -3.44062 1
gene 3 11 8 4.997 0 13 4.997 1
gene 3 4 11 -0.942939 0 37 -0.942939 1
gene 1 5 11 0.687988 0 163 0.687988 1
genomeend 45

/* Organism #46 Fitness: 232 Error: 0 */
genomestart 46
trait 1 0.0502991 0.374225 0.0137532 0 0.334234 0 0.493876 0 
trait 2 0 0 0 0 0.0474711 0 0 0 
trait 3 0.3 0 0 0 0 0 0 0 
node 1 2 1 1
node 2 3 1 1
node 3 3 1 1
node 4 3 1 1
node 5 1 1 1
node 6 2 1 1
node 7 1 1 3
node 8 2 0 2
node 11 1 0 0
gene 2 1 8 0.137263 0 1 0.137263 1
gene 3 2 8 1.11919 0 2 1.11919 1
gene 3 3 8 0.993877 0 3 0.993877 0
gene 2 4 8 -6.66187 0 4 -6.66187 1
gene 1 5 8 5.91535 0 5 5.91535 1
gene 2 6 8 2.0299 0 6 2.0299 1
gene 2 7 8 -4.51458 0 7 -4.51458 1
gene 2 3 11 -3.36469 0 12 -3.36469 1
gene 3 11 8 4.73108 0 13 4.73108 1
gene 3 4 11 -0.24608 0 37 -0.24608 1
gene 1 5 11 0.517993 0 163 0.517993 1
genomeend 46

/* Organism #47 Fitness: 114 Error: 0 */
genomestart 47
trait 1 0.0502991 0.374225 0.0137532 0 0.334234 0 0.493876 0 
trait 2 0 0 0 0 0.0474711 0 0 0 
trait 3 0.3 0 0 0 0 0 0 0 
node 1 2 1 1
node 2 3 1 1
node 3 3 1 1
node 4 3 1 1
node 5 1 1 1
node 6 2 1 1
node 7 1 1 3
node 8 2 0 2
node 11 1 0 0
gene 2 1 8 0.137263 0 1 0.137263 1
gene 3 2 8 1.11919 0 2 1.11919 1
gene 3 3 8 -0.171375 0 3 -0.171375 0
gene 2 4 8 -4.32662 0 4 -4.32662 1
gene 1 5 8 5.91535 0 5 5.91535 1
gene 2 6 8 2.0299 0 6 2.0299 1
gene 2 7 8 -2.75585 0 7 -2.75585 1
gene 2 3 11 -3.89167 0 12 -3.89167 1
gene 3 11 8 4.73108 0 13 4.73108 1
gene 3 4 11 -0.24608 0 37 -0.24608 1
gene 1 5 11 0.435777 0 163 0.435777 1
genomeend 47

/* Organism #48 Fitness: 6 Error: 0 */
genomestart 48
trait 1 0.0502991 0.374225 0.0137532 0 0.334234 0 0.493876 0 
trait 2 0 0 0 0 0.0474711 0 0 0 
trait 3 0.3 0 0 0 0 0 0 0 
node 1 2 1 1
node 2 3 1 1
node 3 3 1 1
node 4 3 1 1
node 5 1 1 1
node 6 2 1 1
node 7 1 1 3
node 8 2 0 2
node 11 1 0 0
gene 2 1 8 1.94083 0 1 1.94083 1
gene 3 2 8 -1.15873 0 2 -1.15873 1
gene 3 3 8 -1.72728 0 3 -1.72728 0
gene 2 4 8 -2.61953 0 4 -2.61953 1
gene 1 5 8 4.57153 0 5 4.57153 1
gene 2 6 8 0.140558 0 6 0.140558 1
gene 2 7 8 -2.62994 0 7 -2.62994 1
gene 2 3 11 -5.78033 0 12 -5.78033 1
gene 3 11 8 5.36534 0 13 5.36534 1
gene 3 4 11 -0.749164 0 37 -0.749164 1
gene 1 5 11 1.2406 0 163 1.2406 1
genomeend 48

/* Organism #49 Fitness: 5 Error: 0 */
genomestart 49
trait 1 0.0502991 0.374225 0.0137532 0 0.334234 0 0.493876 0 
trait 2 0 0 0 0 0.0474711 0 0 0 
trait 3 0.3 0 0 0 0 0 0 0 
node 1 2 1 1
node 2 3 1 1
node 3 3 1 1
node 4 3 1 1
node 5 1 1 1
node 6 2 1 1
node 7 1 1 3
node 8 2 0 2
node 11 1 0 0
gene 2 1 8 -1.80842 0 1 -1.80842 1
gene 3 2 8 1.23347 0 2 1.23347 1
gene 3 3 8 -0.171375 0 3 -0.171375 0
gene 2 4 8 -0.644258 0 4 -0.644258 1
gene 1 5 8 -2.26829 0 5 -2.26829 1
gene 2 6 8 0.088676 0 6 0.088676 1
gene 2 7 8 -3.60561 0 7 -3.60561 1
gene 2 3 11 -3.84077 0 12 -3.84077 1
gene 3 11 8 1.18785 0 13 1.18785 1
gene 3 4 11 0.0891904 0 37 0.0891904 1
gene 1 5 11 0.789435 0 163 0.789435 1
genomeend 49

/* Organism #50 Fitness: 5 Error: 0 */
genomestart 50
trait 1 0.0502991 0.374225 0.0137532 0 0.334234 0 0.493876 0 
trait 2 0 0 0 0 0.0474711 0 0 0 
trait 3 0.3 0 0 0 0 0 0 0 
node 1 2 1 1
node 2 3 1 1
node 3 3 1 1
node 4 3 1 1
node 5 1 1 1
node 6 2 1 1
node 7 1 1 3
node 8 2 0 2
node 11 1 0 0
gene 2 1 8 -4.63213 0 1 -4.63213 1
gene 3 2 8 1.27708 0 2 1.27708 1
gene 3 3 8 -4.58179 0 3 -4.58179 0
gene 2 4 8 -5.50754 0 4 -5.50754 1
gene 1 5 8 -1.54879 0 5 -1.54879 1
gene 2 6 8 0.346188 0 6 0.346188 1
gene 3 7 8 -4.20126 0 7 -4.20126 1
gene 2 3 11 -1.46222 0 12 -1.46222 1
gene 3 11 8 0.964794 0 13 0.964794 1
gene 3 4 11 0.698773 0 37 0.698773 1
gene 1 5 11 2.78856 0 163 2.78856 1
genomeend 50

/* Organism #51 Fitness: 52 Error: 0 */
genomestart 51
trait 1 0.0502991 0.374225 0.0137532 0 0.334234 0 0.493876 0 
trait 2 0 0 0 0 0.0474711 0 0 0 
trait 3 0.3 0 0 0 0 0 0 0 
node 1 2 1 1
node 2 3 1 1
node 3 3 1 1
node 4 3 1 1
node 5 1 1 1
node 6 2 1 1
node 7 1 1 3
node 8 2 0 2
node 11 1 0 0
gene 2 1 8 1.27277 0 1 1.27277 1
gene 3 2 8 3.38568 0 2 3.38568 1
gene 3 3 8 2.54853 0 3 2.54853 0
gene 2 4 8 -2.47979 0 4 -2.47979 1
gene 1 5 8 7.15444 0 5 7.15444 1
gene 2 6 8 3.76443 0 6 3.76443 1
gene 2 7 8 -2.12298 0 7 -2.12298 1
gene 2 3 11 -4.17034 0 12 -4.17034 1
gene 3 11 8 6.4755 0 13 6.4755 1
gene 3 4 11 -0.109428 0 37 -0.109428 1
gene 1 5 11 0.809724 0 163 0.809724 1
genomeend 51

/* Organism #52 Fitness: 261 Error: 0 */
genomestart 52
trait 1 0.0502991 0.374225 0.0137532 0 0.334234 0 0.493876 0 
trait 2 0 0 0 0 0.0474711 0 0 0 
trait 3 0.3 0 0 0 0 0 0 0 
node 1 2 1 1
node 2 3 1 1
node 3 3 1 1
node 4 3 1 1
node 5 1 1 1
node 6 2 1 1
node 7 1 1 3
node 8 2 0 2
node 11 1 0 0
gene 2 1 8 -0.239066 0 1 -0.239066 1
gene 3 2 8 0.249655 0 2 0.249655 1
gene 3 3 8 0.411251 0 3 0.411251 0
gene 2 4 8 -5.49424 0 4 -5.49424 1
gene 1 5 8 5.17604 0 5 5.17604 1
gene 2 6 8 1.57395 0 6 1.57395 1
gene 2 7 8 -3.63522 0 7 -3.63522 1
gene 2 3 11 -3.62818 0 12 -3.62818 1
gene 3 11 8 4.11468 0 13 4.11468 1
gene 3 4 11 -0.181426 0 37 -0.181426 1
gene 1 5 11 0.476885 0 163 0.476885 1
genomeend 52

/* Organism #53 Fitness: 1355 Error: 0 */
genomestart 53
trait 1 0.0502991 0.374225 0.0137532 0 0.334234 0 0.493876 0 
trait 2 0 0 0 0 0.0474711 0 0 0 
trait 3 0.3 0 0 0 0 0 0 0 
node 1 2 1 1
node 2 3 1 1
node 3 3 1 1
node 4 3 1 1
node 5 1 1 1
node 6 2 1 1
node 7 1 1 3
node 8 2 0 2
node 11 1 0 0
gene 2 1 8 -1.37314 0 1 -1.37314 1
gene 3 2 8 0.499327 0 2 0.499327 1
gene 3 3 8 -0.733256 0 3 -0.733256 0
gene 2 4 8 -6.1123 0 4 -6.1123 1
gene 1 5 8 5.7124 0 5 5.7124 1
gene 2 6 8 2.22797 0 6 2.22797 1
gene 2 7 8 -4.35792 0 7 -4.35792 1
gene 2 3 11 -3.88016 0 12 -3.88016 1
gene 3 11 8 4.23131 0 13 4.23131 1
gene 3 4 11 -0.639629 0 37 -0.639629 1
gene 1 5 11 0.476885 0 163 0.476885 1
genomeend 53

/* Organism #54 Fitness: 1341 Error: 0 */
genomestart 54
trait 1 0.0502991 0.374225 0.0137532 0 0.334234 0 0.493876 0 
trait 2 0 0 0 0 0.0474711 0 0 0 
trait 3 0.3 0 0 0 0 0 0 0 
node 1 2 1 1
node 2 3 1 1
node 3 3 1 1
node 4 3 1 1
node 5 1 1 1
node 6 2 1 1
node 7 1 1 3
node 8 2 0 2
node 11 1 0 0
gene 2 1 8 -2.88355 0 1 -2.88355 1
gene 3 2 8 -0.120536 0 2 -0.120536 1
gene 3 3 8 -2.46039 0 3 -2.46039 0
gene 2 4 8 -7.89797 0 4 -7.89797 1
gene 1 5 8 5.50946 0 5 5.50946 1
gene 2 6 8 2.42603 0 6 2.42603 1
gene 2 7 8 -4.20126 0 7 -4.20126 1
gene 2 3 11 -3.86864 0 12 -3.86864 1
gene 3 11 8 3.73153 0 13 3.73153 1
gene 3 4 11 -1.03318 0 37 -1.03318 1
gene 1 5 11 0.517993 0 163 0.517993 1
gene 2 7 11 0.117898 0 302 0.117898 1
genomeend 54

/* Organism #55 Fitness: 212 Error: 0 */
genomestart 55
trait 1 0.0502991 0.374225 0.0137532 0 0.334234 0 0.493876 0 
trait 2 0 0 0 0 0.0474711 0 0 0 
trait 3 0.3 0 0 0 0 0 0 0 
node 1 2 1 1
node 2 3 1 1
node 3 3 1 1
node 4 3 1 1
node 5 1 1 1
node 6 2 1 1
node 7 1 1 3
node 8 2 0 2
node 11 1 0 0
gene 2 1 8 0.137263 0 1 0.137263 1
gene 3 2 8 1.11919 0 2 1.11919 1
gene 3 3 8 0.993877 0 3 0.993877 1
gene 2 4 8 -4.32662 0 4 -4.32662 1
gene 1 5 8 5.91535 0 5 5.91535 1
gene 2 6 8 2.0299 0 6 2.0299 1
gene 2 7 8 -4.51458 0 7 -4.51458 1
gene 2 3 11 -3.89167 0 12 -3.89167 1
gene 3 11 8 4.73108 0 13 4.73108 1
gene 3 4 11 -0.24608 0 37 -0.24608 1
gene 1 5 11 0.435777 0 163 0.435777 1
genomeend 55

/* Organism #56 Fitness: 6 Error: 0 */
genomestart 56
trait 1 0.0502991 0.374225 0.0137532 0 0.334234 0 0.493876 0 
trait 2 0 0 0 0 0.0474711 0 0 0 
trait 3 0.3 0 0 0 0 0 0 0 
node 1 2 1 1
node 2 3 1 1
node 3 3 1 1
node 4 3 1 1
node 5 1 1 1
node 6 2 1 1
node 7 1 1 3
node 8 2 0 2
node 11 1 0 0
gene 2 1 8 -1.52038 0 1 -1.52038 1
gene 3 2 8 1.73643 0 2 1.73643 1
gene 3 3 8 -1.8246 0 3 -1.8246 0
gene 2 4 8 -5.11174 0 4 -5.11174 1
gene 1 5 8 6.2725 0 5 6.2725 1
gene 2 6 8 0.606093 0 6 0.606093 1
gene 2 7 8 -5.5738 0 7 -5.5738 1
gene 2 3 11 -3.98009 0 12 -3.98009 1
gene 3 11 8 3.84628 0 13 3.84628 1
gene 3 4 11 -2.50589 0 37 -2.50589 1
gene 1 5 11 1.79611 0 163 1.79611 1
genomeend 56

/* Organism #57 Fitness: 261 Error: 0 */
genomestart 57
trait 1 0.0502991 0.374225 0.0137532 0 0.334234 0 0.493876 0 
trait 2 0 0 0 0 0.0474711 0 0 0 
trait 3 0.3 0 0 0 0 0 0 0 
node 1 2 1 1
node 2 3 1 1
node 3 3 1 1
node 4 3 1 1
node 5 1 1 1
node 6 2 1 1
node 7 1 1 3
node 8 2 0 2
node 11 1 0 0
gene 2 1 8 -0.239066 0 1 -0.239066 1
gene 3 2 8 0.249655 0 2 0.249655 1
gene 3 3 8 0.411251 0 3 0.411251 0
gene 2 4 8 -5.49424 0 4 -5.49424 1
gene 1 5 8 5.17604 0 5 5.17604 1
gene 2 6 8 1.57395 0 6 1.57395 1
gene 2 7 8 -3.63522 0 7 -3.63522 1
gene 2 3 11 -3.62818 0 12 -3.62818 1
gene 3 11 8 4.11468 0 13 4.11468 1
gene 3 4 11 -0.181426 0 37 -0.181426 1
gene 1 5 11 0.476885 0 163 0.476885 1
genomeend 57

/* Organism #58 Fitness: 89 Error: 0 */
genomestart 58
trait 1 0.0502991 0.374225 0.0137532 0 0.334234 0 0.493876 0 
trait 2 0 0 0 0 0.0474711 0 0 0 
trait 3 0.3 0 0 0 0 0 0 0 
node 1 2 1 1
node 2 3 1 1
node 3 3 1 1
node 4 3 1 1
node 5 1 1 1
node 6 2 1 1
node 7 1 1 3
node 8 2 0 2
node 11 1 0 0
gene 2 1 8 -0.118432 0 1 -0.118432 1
gene 3 2 8 -1.90304 0 2 -1.90304 1
gene 3 3 8 -0.749954 0 3 -0.749954 0
gene 2 4 8 -5.00511 0 4 -5.00511 1
gene 1 5 8 6.89068 0 5 6.89068 1
gene 2 6 8 3.26726 0 6 3.26726 1
gene 2 7 8 -2.44336 0 7 -2.44336 1
gene 2 3 11 -2.91649 0 12 -2.91649 1
gene 3 11 8 3.1011 0 13 3.1011 1
gene 3 4 11 -0.753372 0 37 -0.753372 1
gene 1 5 11 -0.253676 0 163 -0.253676 1
genomeend 58

/* Organism #59 Fitness: 730 Error: 0 */
genomestart 59
trait 1 0.0502991 0.374225 0.0137532 0 0.334234 0 0.493876 0 
trait 2 0 0 0 0 0.0474711 0 0 0 
trait 3 0.3 0 0 0 0 0 0 0 
node 1 2 1 1
node 2 3 1 1
node 3 3 1 1
node 4 3 1 1
node 5 1 1 1
node 6 2 1 1
node 7 1 1 3
node 8 2 0 2
node 11 1 0 0
gene 2 1 8 0.137263 0 1 0.137263 1
gene 3 2 8 1.11919 0 2 1.11919 1
gene 3 3 8 0.993877 0 3 0.993877 0
gene 2 4 8 -4.32662 0 4 -4.32662 1
gene 1 5 8 5.91535 0 5 5.91535 1
gene 2 6 8 2.0299 0 6 2.0299 1
gene 2 7 8 -4.51458 0 7 -4.51458 1
gene 2 3 11 -3.89167 0 12 -3.89167 1
gene 3 11 8 4.73108 0 13 4.73108 1
gene 3 4 11 -0.24608 0 37 -0.24608 1
gene 1 5 11 0.435777 0 163 0.435777 1
gene 3 1 11 -0.618823 0 303 -0.618823 1
genomeend 59

/* Organism #60 Fitness: 6 Error: 0 */
genomestart 60
trait 1 0.0502991 0.374225 0.0137532 0 0.334234 0 0.493876 0 
trait 2 0 0 0 0 0.0474711 0 0 0 
trait 3 0.3 0 0 0 0 0 0 0 
node 1 2 1 1
node 2 3 1 1
node 3 3 1 1
node 4 3 1 1
node 5 1 1 1
node 6 2 1 1
node 7 1 1 3
node 8 2 0 2
node 11 1 0 0
gene 2 1 8 -0.922161 0 1 -0.922161 1
gene 3 2 8 -2.48457 0 2 -2.48457 1
gene 3 3 8 0.411251 0 3 0.411251 0
gene 2 4 8 -3.95108 0 4 -3.95108 1
gene 1 5 8 7.39177 0 5 7.39177 1
gene 2 6 8 -0.113663 0 6 -0.113663 1
gene 2 7 8 -5.50223 0 7 -5.50223 1
gene 2 3 11 1.75271 0 12 1.75271 1
gene 3 11 8 2.43839 0 13 2.43839 1
gene 3 4 11 -1.60223 0 37 -1.60223 1
gene 1 5 11 2.25089 0 163 2.25089 1
genomeend 60

/* Organism #61 Fitness: 7 Error: 0 */
genomestart 61
trait 1 0.0502991 0.374225 0.0137532 0 0.334234 0 0.493876 0 
trait 2 0 0 0 0 0.0474711 0 0 0 
trait 3 0.3 0 0 0 0 0 0 0 
node 1 2 1 1
node 2 3 1 1
node 3 3 1 1
node 4 3 1 1
node 5 1 1 1
node 6 2 1 1
node 7 1 1 3
node 8 2 0 2
node 11 1 0 0
node 105 1 0 0
gene 2 1 8 -2.88355 0 1 -2.88355 1
gene 3 2 8 -0.619879 0 2 -0.619879 1
gene 3 3 8 -0.171375 0 3 -0.171375 0
gene 2 4 8 -7.89797 0 4 -7.89797 0
gene 1 5 8 4.43673 0 5 4.43673 1
gene 2 6 8 2.42603 0 6 2.42603 1
gene 2 7 8 -2.75585 0 7 -2.75585 1
gene 2 3 11 -3.36469 0 12 -3.36469 1
gene 3 11 8 3.49828 0 13 3.49828 1
gene 3 4 11 -0.116771 0 37 -0.116771 1
gene 1 5 11 0.517993 0 163 0.517993 1
gene 2 4 105 1 0 304 0 1
gene 2 105 8 -7.89797 0 305 0 1
genomeend 61

/* Organism #62 Fitness: 44 Error: 0 */
genomestart 62
trait 1 0.0502991 0.374225 0.0137532 0 0.334234 0 0.493876 0 
trait 2 0 0 0 0 0.0474711 0 0 0 
trait 3 0.3 0 0 0 0 0 0 0 
node 1 2 1 1
node 2 3 1 1
node 3 3 1 1
node 4 3 1 1
node 5 1 1 1
node 6 2 1 1
node 7 1 1 3
node 8 2 0 2
node 11 1 0 0
gene 2 1 8 2.19814 0 1 2.19814 1
gene 3 2 8 1.20161 0 2 1.20161 1
gene 3 3 8 -1.35912 0 3 -1.35912 0
gene 2 4 8 -4.1074 0 4 -4.1074 1
gene 1 5 8 6.91463 0 5 6.91463 1
gene 2 6 8 3.36009 0 6 3.36009 1
gene 2 7 8 -5.11706 0 7 -5.11706 1
gene 2 3 11 -3.84375 0 12 -3.84375 1
gene 3 11 8 2.66953 0 13 2.66953 1
gene 3 4 11 2.0547 0 37 2.0547 1
gene 1 5 11 -1.98225 0 163 -1.98225 1
genomeend 62

/* Organism #63 Fitness: 232 Error: 0 */
genomestart 63
trait 1 0.0502991 0.374225 0.0137532 0 0.334234 0 0.493876 0 
trait 2 0 0 0 0 0.0474711 0 0 0 
trait 3 0.3 0 0 0 0 0 0 0 
node 1 2 1 1
node 2 3 1 1
node 3 3 1 1
node 4 3 1 1
node 5 1 1 1
node 6 2 1 1
node 7 1 1 3
node 8 2 0 2
node 11 1 0 0
gene 2 1 8 0.137263 0 1 0.137263 1
gene 3 2 8 1.11919 0 2 1.11919 1
gene 3 3 8 0.993877 0 3 0.993877 0
gene 2 4 8 -4.32662 0 4 -4.32662 1
gene 1 5 8 5.91535 0 5 5.91535 1
gene 2 6 8 2.0299 0 6 2.0299 1
gene 2 7 8 -4.51458 0 7 -4.51458 1
gene 2 3 11 -3.89167 0 12 -3.89167 1
gene 3 11 8 4.73108 0 13 4.73108 1
gene 3 4 11 -0.24608 0 37 -0.24608 1
gene 1 5 11 0.435777 0 163 0.435777 1
genomeend 63

/* Organism #64 Fitness: 59 Error: 0 */
genomestart 64
trait 1 0.0502991 0.374225 0.0137532 0 0.334234 0 0.493876 0 
trait 2 0 0 0 0 0.0474711 0 0 0 
trait 3 0.3 0 0 0 0 0 0 0 
node 1 2 1 1
node 2 3 1 1
node 3 3 1 1
node 4 3 1 1
node 5 1 1 1
node 6 2 1 1
node 7 1 1 3
node 8 2 0 2
node 11 1 0 0
gene 2 1 8 1.18628 0 1 1.18628 1
gene 3 2 8 0.28895 0 2 0.28895 1
gene 3 3 8 -1.71732 0 3 -1.71732 0
gene 2 4 8 -0.445961 0 4 -0.445961 1
gene 1 5 8 2.12914 0 5 2.12914 1
gene 2 6 8 1.46335 0 6 1.46335 1
gene 2 7 8 -2.20342 0 7 -2.20342 1
gene 2 3 11 -3.17804 0 12 -3.17804 1
gene 3 11 8 4.32551 0 13 4.32551 1
gene 3 4 11 -1.95639 0 37 -1.95639 1
gene 1 5 11 2.87602 0 163 2.87602 1
genomeend 64

/* Organism #65 Fitness: 730 Error: 0 */
genomestart 65
trait 1 0.0502991 0.374225 0.0137532 0 0.334234 0 0.493876 0 
trait 2 0 0 0 0 0.0474711 0 0 0 
trait 3 0.3 0 0 0 0 0 0 0 
node 1 2 1 1
node 2 3 1 1
node 3 3 1 1
node 4 3 1 1
node 5 1 1 1
node 6 2 1 1
node 7 1 1 3
node 8 2 0 2
node 11 1 0 0
gene 2 1 8 0.137263 0 1 0.137263 1
gene 3 2 8 1.11919 0 2 1.11919 1
gene 3 3 8 0.993877 0 3 0.993877 0
gene 2 4 8 -4.32662 0 4 -4.32662 1
gene 1 5 8 5.91535 0 5 5.91535 1
gene 2 6 8 2.0299 0 6 2.0299 1
gene 2 7 8 -4.51458 0 7 -4.51458 1
gene 2 3 11 -3.89167 0 12 -3.89167 1
gene 3 11 8 4.73108 0 13 4.73108 1
gene 3 4 11 -0.24608 0 37 -0.24608 1
gene 1 5 11 0.435777 0 163 0.435777 1
gene 3 1 11 -0.618823 0 303 0 1
genomeend 65

/* Organism #66 Fitness: 100001 Error: 0 */
/* ##------$ WINNER 66 SPECIES #3 $------## */
genomestart 66
trait 1 0.0502991 0.374225 0.0137532 0 0.334234 0 0.493876 0 
trait 2 0 0 0 0 0.0474711 0 0 0 
trait 3 0.3 0 0 0 0 0 0 0 
node 1 2 1 1
node 2 3 1 1
node 3 3 1 1
node 4 3 1 1
node 5 1 1 1
node 6 2 1 1
node 7 1 1 3
node 8 2 0 2
node 11 1 0 0
gene 2 1 8 -1.74947 0 1 -1.74947 1
gene 3 2 8 -0.370208 0 2 -0.370208 1
gene 3 3 8 -1.31588 0 3 -1.31588 0
gene 2 4 8 -7.27992 0 4 -7.27992 1
gene 1 5 8 4.97309 0 5 4.97309 1
gene 2 6 8 1.77202 0 6 1.77202 1
gene 2 7 8 -3.47856 0 7 -3.47856 1
gene 2 3 11 -3.61666 0 12 -3.61666 1
gene 3 11 8 3.61491 0 13 3.61491 1
gene 3 4 11 -0.574974 0 37 -0.574974 1
gene 1 5 11 0.517993 0 163 0.517993 1
genomeend 66

/* Species #4 : (Size 7) (AF 39.2857) (Age 22)  */


/* Organism #67 Fitness: 111 Error: 0 */
genomestart 67
trait 1 0.1 0 0 0 0 0 0 0 
trait 2 0.2 0 0 0 0 0 0 0 
trait 3 0.3 0 0 0 0 0 0 0 
node 1 2 1 1
node 2 3 1 1
node 3 3 1 1
node 4 3 1 1
node 5 1 1 1
node 6 1 1 1
node 7 3 1 3
node 8 2 0 2
node 11 1 0 0
node 23 1 0 0
gene 2 1 8 -0.738309 0 1 -0.738309 1
gene 1 2 8 -0.294996 0 2 -0.294996 1
gene 3 3 8 1.69233 0 3 1.69233 0
gene 2 4 8 1.01804 0 4 1.01804 0
gene 1 5 8 4.35569 0 5 4.35569 1
gene 2 6 8 0.229895 0 6 0.229895 1
gene 1 7 8 -0.0490528 0 7 -0.0490528 1
gene 3 3 11 0.222824 0 12 0.222824 1
gene 3 11 8 -0.36559 0 13 -0.36559 1
gene 2 4 23 2.61094 0 41 2.61094 1
gene 2 23 8 -0.745193 0 42 -0.745193 1
gene 2 6 11 -0.405709 0 45 -0.405709 1
genomeend 67

/* Organism #68 Fitness: 14 Error: 0 */
genomestart 68
trait 1 0.1 0 0 0 0 0 0 0 
trait 2 0.2 0 0 0 0 0 0 0 
trait 3 0.3 0 0 0 0 0 0 0 
node 1 2 1 1
node 2 3 1 1
node 3 3 1 1
node 4 3 1 1
node 5 1 1 1
node 6 1 1 1
node 7 3 1 3
node 8 2 0 2
node 11 1 0 0
node 23 1 0 0
gene 2 1 8 -2.61611 0 1 -2.61611 1
gene 1 2 8 1.35439 0 2 1.35439 1
gene 3 3 8 2.68609 0 3 2.68609 0
gene 2 4 8 0.609446 0 4 0.609446 0
gene 1 5 8 3.67162 0 5 3.67162 1
gene 2 6 8 0.0271636 0 6 0.0271636 1
gene 1 7 8 -0.594456 0 7 -0.594456 1
gene 3 3 11 -2.41323 0 12 -2.41323 1
gene 3 11 8 0.359073 0 13 0.359073 1
gene 3 4 23 -0.158899 0 41 -0.158899 1
gene 2 23 8 -0.437719 0 42 -0.437719 1
gene 2 6 11 -0.552346 0 45 -0.552346 1
genomeend 68

/* Organism #69 Fitness: 5 Error: 0 */
genomestart 69
trait 1 0.1 0 0 0 0 0 0 0 
trait 2 0.2 0 0 0 0 0 0 0 
trait 3 0.3 0 0 0 0 0 0 0 
node 1 2 1 1
node 2 3 1 1
node 3 3 1 1
node 4 3 1 1
node 5 1 1 1
node 6 1 1 1
node 7 3 1 3
node 8 2 0 2
node 11 1 0 0
node 23 1 0 0
gene 2 1 8 -1.75928 0 1 -1.75928 1
gene 1 2 8 1.26201 0 2 1.26201 1
gene 3 3 8 2.20512 0 3 2.20512 0
gene 2 4 8 2.54728 0 4 2.54728 0
gene 1 5 8 4.71854 0 5 4.71854 1
gene 2 6 8 -1.31994 0 6 -1.31994 1
gene 1 7 8 -0.616466 0 7 -0.616466 1
gene 3 3 11 1.19319 0 12 1.19319 1
gene 3 11 8 -2.19646 0 13 -2.19646 1
gene 2 4 23 4.18605 0 41 4.18605 1
gene 2 23 8 1.08537 0 42 1.08537 1
gene 2 6 11 -0.405709 0 45 -0.405709 1
genomeend 69

/* Organism #70 Fitness: 29 Error: 0 */
genomestart 70
trait 1 0.1 0 0 0 0 0 0 0 
trait 2 0.2 0 0 0 0 0 0 0 
trait 3 0.3 0 0 0 0 0 0 0 
node 1 2 1 1
node 2 3 1 1
node 3 3 1 1
node 4 3 1 1
node 5 1 1 1
node 6 1 1 1
node 7 3 1 3
node 8 2 0 2
node 11 1 0 0
node 23 1 0 0
gene 2 1 8 -2.78247 0 1 -2.78247 1
gene 1 2 8 -1.86629 0 2 -1.86629 1
gene 3 3 8 1.81029 0 3 1.81029 0
gene 2 4 8 2.68619 0 4 2.68619 0
gene 1 5 8 2.33371 0 5 2.33371 1
gene 2 6 8 2.50659 0 6 2.50659 1
gene 1 7 8 0.313833 0 7 0.313833 1
gene 3 3 11 0.247815 0 12 0.247815 1
gene 3 11 8 -4.21255 0 13 -4.21255 1
gene 2 4 23 -0.701 0 41 -0.701 1
gene 2 23 8 1.84406 0 42 1.84406 1
gene 2 6 11 0.35111 0 45 0.35111 1
genomeend 70

/* Organism #71 Fitness: 8 Error: 0 */
genomestart 71
trait 1 0.1 0 0 0 0 0 0 0 
trait 2 0.2 0 0 0 0 0 0 0 
trait 3 0.3 0 0 0 0 0 0 0 
node 1 2 1 1
node 2 3 1 1
node 3 3 1 1
node 4 3 1 1
node 5 1 1 1
node 6 1 1 1
node 7 3 1 3
node 8 2 0 2
node 11 1 0 0
node 23 1 0 0
gene 2 1 8 0.541863 0 1 0.541863 1
gene 1 2 8 0.682941 0 2 0.682941 1
gene 3 3 8 -0.212219 0 3 -0.212219 0
gene 2 4 8 -0.13746 0 4 -0.13746 0
gene 1 5 8 2.7781 0 5 2.7781 1
gene 2 6 8 -0.882556 0 6 -0.882556 1
gene 1 7 8 1.44802 0 7 1.44802 1
gene 3 3 11 2.49527 0 12 2.49527 1
gene 3 11 8 -3.57129 0 13 -3.57129 1
gene 2 4 23 1.62567 0 41 1.62567 1
gene 2 23 8 -1.78027 0 42 -1.78027 1
gene 2 6 11 1.38176 0 45 1.38176 1
genomeend 71

/* Organism #72 Fitness: 102 Error: 0 */
genomestart 72
trait 1 0.1 0 0 0 0 0 0 0 
trait 2 0.2 0 0 0 0 0 0 0 
trait 3 0.3 0 0 0 0 0 0 0 
node 1 2 1 1
node 2 3 1 1
node 3 3 1 1
node 4 3 1 1
node 5 1 1 1
node 6 1 1 1
node 7 3 1 3
node 8 2 0 2
node 11 1 0 0
node 23 1 0 0
node 106 1 0 0
gene 2 1 8 -0.738309 0 1 -0.738309 1
gene 1 2 8 -0.294996 0 2 -0.294996 1
gene 3 3 8 1.69233 0 3 1.69233 0
gene 2 4 8 1.01804 0 4 1.01804 0
gene 1 5 8 4.35569 0 5 4.35569 1
gene 2 6 8 0.229895 0 6 0.229895 1
gene 1 7 8 -0.0490528 0 7 -0.0490528 1
gene 3 3 11 0.222824 0 12 0.222824 1
gene 3 11 8 -0.36559 0 13 -0.36559 1
gene 2 4 23 2.61094 0 41 2.61094 1
gene 2 23 8 -0.745193 0 42 -0.745193 1
gene 2 6 11 -0.405709 0 45 -0.405709 0
gene 2 6 106 1 0 306 0 1
gene 2 106 11 -0.405709 0 307 0 1
genomeend 72

/* Organism #73 Fitness: 6 Error: 0 */
genomestart 73
trait 1 0.1 0 0 0 0 0 0 0 
trait 2 0.2 0 0 0 0 0 0 0 
trait 3 0.3 0 0 0 0 0 0 0 
node 1 2 1 1
node 2 3 1 1
node 3 3 1 1
node 4 3 1 1
node 5 1 1 1
node 6 1 1 1
node 7 3 1 3
node 8 2 0 2
node 11 1 0 0
node 23 1 0 0
gene 2 1 8 -0.93611 0 1 -0.93611 1
gene 1 2 8 1.34623 0 2 1.34623 1
gene 3 3 8 0.911859 0 3 0.911859 0
gene 2 4 8 -0.466251 0 4 -0.466251 0
gene 1 5 8 6.27616 0 5 6.27616 1
gene 2 6 8 -0.240527 0 6 -0.240527 1
gene 1 7 8 0.0116418 0 7 0.0116418 1
gene 3 3 11 -0.619608 0 12 -0.619608 1
gene 3 11 8 -1.32098 0 13 -1.32098 1
gene 2 4 23 3.99633 0 41 3.99633 1
gene 2 23 8 -3.9659 0 42 -3.9659 1
gene 2 6 11 -1.98045 0 45 -1.98045 1
genomeend 73

/* Species #5 : (Size 8) (AF 41.25) (Age 22)  */


/* Organism #74 Fitness: 142 Error: 0 */
genomestart 74
trait 1 0.1 0 0 0 0 0 0 0 
trait 2 0.2 0 0 0 0 0 0 0 
trait 3 0.3 0 0 0 0 0 0 0 
node 1 2 1 1
node 2 3 1 1
node 3 3 1 1
node 4 3 1 1
node 5 1 1 1
node 6 1 1 1
node 7 3 1 3
node 8 2 0 2
node 11 1 0 0
node 24 1 0 0
node 88 1 0 0
gene 2 1 8 4.28639 0 1 4.28639 1
gene 3 2 8 2.81508 0 2 2.81508 1
gene 3 3 8 -3.37278 0 3 -3.37278 1
gene 2 4 8 1.84566 0 4 1.84566 1
gene 1 5 8 4.00102 0 5 4.00102 1
gene 1 6 8 2.18745 0 6 2.18745 1
gene 2 7 8 -3.99931 0 7 -3.99931 1
gene 3 3 11 -0.820765 0 12 -0.820765 1
gene 3 11 8 0.389273 0 13 0.389273 1
gene 3 11 24 -2.87932 0 43 -2.87932 0
gene 3 24 8 3.46267 0 44 3.46267 1
gene 2 7 24 0.304327 0 125 0.304327 1
gene 1 4 11 -0.691304 0 236 -0.691304 1
gene 3 11 88 -0.947254 0 249 -0.947254 1
gene 3 88 24 -0.877234 0 250 -0.877234 1
genomeend 74

/* Organism #75 Fitness: 8 Error: 0 */
genomestart 75
trait 1 0.1 0 0 0 0 0 0 0 
trait 2 0.2 0 0 0 0 0 0 0 
trait 3 0.3 0 0 0 0 0 0 0 
node 1 2 1 1
node 2 3 1 1
node 3 3 1 1
node 4 3 1 1
node 5 1 1 1
node 6 1 1 1
node 7 3 1 3
node 8 2 0 2
node 11 2 0 0
node 24 1 0 0
node 88 1 0 0
gene 2 1 8 6.10313 0 1 6.10313 1
gene 3 2 8 3.55276 0 2 3.55276 1
gene 3 3 8 -4.33675 0 3 -4.33675 1
gene 2 4 8 1.1597 0 4 1.1597 1
gene 1 5 8 4.2104 0 5 4.2104 1
gene 1 6 8 0.532382 0 6 0.532382 1
gene 2 7 8 -5.97956 0 7 -5.97956 1
gene 3 3 11 0.0341171 0 12 0.0341171 1
gene 3 11 8 0.741845 0 13 0.741845 1
gene 3 11 24 -5.23945 0 43 -5.23945 0
gene 3 24 8 1.48122 0 44 1.48122 1
gene 2 7 24 1.88482 0 125 1.88482 1
gene 1 4 11 -2.31811 0 236 -2.31811 1
gene 3 11 88 -0.283583 0 249 -0.283583 1
gene 3 88 24 -1.29859 0 250 -1.29859 1
genomeend 75

/* Organism #76 Fitness: 34 Error: 0 */
genomestart 76
trait 1 0.1 0 0 0 0 0 0 0 
trait 2 0.2 0 0 0 0 0 0 0 
trait 3 0.3 0 0 0 0 0 0 0 
node 1 2 1 1
node 2 3 1 1
node 3 3 1 1
node 4 3 1 1
node 5 1 1 1
node 6 1 1 1
node 7 3 1 3
node 8 2 0 2
node 11 1 0 0
node 24 1 0 0
node 88 1 0 0
gene 2 1 8 4.28639 0 1 4.28639 1
gene 3 2 8 2.81508 0 2 2.81508 1
gene 3 3 8 -3.37278 0 3 -3.37278 1
gene 2 4 8 1.84566 0 4 1.84566 1
gene 1 5 8 4.00102 0 5 4.00102 1
gene 1 6 8 2.18745 0 6 2.18745 1
gene 2 7 8 -3.99931 0 7 -3.99931 1
gene 3 3 11 -0.820765 0 12 -0.820765 1
gene 3 11 8 0.389273 0 13 0.389273 1
gene 3 11 24 -2.87932 0 43 -2.87932 1
gene 3 24 8 3.46267 0 44 3.46267 1
gene 2 7 24 0.304327 0 125 0.304327 1
gene 1 4 11 -0.691304 0 236 -0.691304 1
gene 3 11 88 -0.947254 0 249 -0.947254 1
gene 3 88 24 -0.877234 0 250 -0.877234 1
gene 1 3 88 -0.474287 0 308 -0.474287 1
genomeend 76

/* Organism #77 Fitness: 36 Error: 0 */
genomestart 77
trait 1 0.1 0 0 0 0 0 0 0 
trait 2 0.2 0 0 0 0 0 0 0 
trait 3 0.3 0 0 0 0 0 0 0 
node 1 2 1 1
node 2 3 1 1
node 3 3 1 1
node 4 3 1 1
node 5 1 1 1
node 6 1 1 1
node 7 3 1 3
node 8 2 0 2
node 11 1 0 0
node 24 1 0 0
node 88 1 0 0
gene 2 1 8 3.99427 0 1 3.99427 1
gene 3 2 8 2.81508 0 2 2.81508 1
gene 3 3 8 -1.63076 0 3 -1.63076 1
gene 2 4 8 0.465163 0 4 0.465163 1
gene 1 5 8 5.35385 0 5 5.35385 1
gene 1 6 8 0.389446 0 6 0.389446 1
gene 2 7 8 2.27288 0 7 2.27288 1
gene 3 3 11 0.850799 0 12 0.850799 1
gene 3 11 8 -1.46245 0 13 -1.46245 1
gene 3 11 24 -2.1157 0 43 -2.1157 0
gene 3 24 8 1.94908 0 44 1.94908 1
gene 2 7 24 -1.87786 0 125 -1.87786 1
gene 1 4 11 -1.37671 0 236 -1.37671 1
gene 3 11 88 -1.0032 0 249 -1.0032 1
gene 3 88 24 -2.3901 0 250 -2.3901 1
genomeend 77

/* Organism #78 Fitness: 37 Error: 0 */
genomestart 78
trait 1 0.1 0 0 0 0 0 0 0 
trait 2 0.2 0 0 0 0 0 0 0 
trait 3 0.3 0 0 0 0 0 0 0 
node 1 2 1 1
node 2 3 1 1
node 3 3 1 1
node 4 3 1 1
node 5 1 1 1
node 6 1 1 1
node 7 3 1 3
node 8 2 0 2
node 11 1 0 0
node 24 1 0 0
node 88 1 0 0
gene 2 1 8 5.36026 0 1 5.36026 1
gene 3 2 8 5.1338 0 2 5.1338 1
gene 3 3 8 -5.21827 0 3 -5.21827 1
gene 2 4 8 1.54282 0 4 1.54282 1
gene 1 5 8 5.95931 0 5 5.95931 1
gene 1 6 8 2.8565 0 6 2.8565 1
gene 2 7 8 -3.67552 0 7 -3.67552 1
gene 3 3 11 -1.49224 0 12 -1.49224 1
gene 3 11 8 -1.78788 0 13 -1.78788 1
gene 3 11 24 -3.10942 0 43 -3.10942 0
gene 3 24 8 1.51512 0 44 1.51512 1
gene 2 7 24 -1.23404 0 125 -1.23404 1
gene 1 4 11 -1.58202 0 236 -1.58202 1
gene 3 11 88 -2.41949 0 249 -2.41949 1
gene 3 88 24 -1.99058 0 250 -1.99058 1
genomeend 78

/* Organism #79 Fitness: 6 Error: 0 */
genomestart 79
trait 1 0.1 0 0 0 0 0 0 0 
trait 2 0.2 0 0 0 0 0 0 0 
trait 3 0.3 0 0 0 0 0 0 0 
node 1 2 1 1
node 2 3 1 1
node 3 3 1 1
node 4 3 1 1
node 5 1 1 1
node 6 1 1 1
node 7 3 1 3
node 8 2 0 2
node 11 1 0 0
node 24 1 0 0
node 88 1 0 0
gene 2 1 8 5.90253 0 1 5.90253 1
gene 3 2 8 4.3201 0 2 4.3201 1
gene 3 3 8 -4.06711 0 3 -4.06711 1
gene 2 4 8 1.00159 0 4 1.00159 1
gene 1 5 8 4.12729 0 5 4.12729 1
gene 1 6 8 0.506979 0 6 0.506979 1
gene 2 7 8 -4.82032 0 7 -4.82032 1
gene 3 3 11 -2.37449 0 12 -2.37449 1
gene 3 11 8 1.04406 0 13 1.04406 1
gene 3 11 24 -4.31837 0 43 -4.31837 0
gene 3 24 8 1.30846 0 44 1.30846 1
gene 2 7 24 -1.48099 0 125 -1.48099 1
gene 1 4 11 -0.744054 0 236 -0.744054 1
gene 3 11 88 -0.947254 0 249 -0.947254 1
gene 3 88 24 -0.877234 0 250 -0.877234 1
genomeend 79

/* Organism #80 Fitness: 36 Error: 0 */
genomestart 80
trait 1 0.1 0 0 0 0 0 0 0 
trait 2 0.2 0 0 0 0 0 0 0 
trait 3 0.3 0 0 0 0 0 0 0 
node 1 2 1 1
node 2 3 1 1
node 3 3 1 1
node 4 3 1 1
node 5 1 1 1
node 6 1 1 1
node 7 3 1 3
node 8 2 0 2
node 11 1 0 0
node 24 1 0 0
node 88 1 0 0
gene 2 1 8 3.59951 0 1 3.59951 1
gene 3 2 8 4.51772 0 2 4.51772 1
gene 3 3 8 -4.57402 0 3 -4.57402 1
gene 2 4 8 2.7655 0 4 2.7655 1
gene 1 5 8 5.42721 0 5 5.42721 1
gene 1 6 8 3.34179 0 6 3.34179 1
gene 2 7 8 -4.48564 0 7 -4.48564 1
gene 3 3 11 -0.820765 0 12 -0.820765 1
gene 3 11 8 0.389273 0 13 0.389273 1
gene 3 11 24 -0.717298 0 43 -0.717298 0
gene 3 24 8 5.8591 0 44 5.8591 1
gene 2 7 24 0.678516 0 125 0.678516 1
gene 1 4 11 -2.39066 0 236 -2.39066 1
gene 3 11 88 -3.13077 0 249 -3.13077 1
gene 3 88 24 -1.97626 0 250 -1.97626 1
genomeend 80

/* Organism #81 Fitness: 31 Error: 0 */
genomestart 81
trait 1 0.1 0 0 0 0 0 0 0 
trait 2 0.2 0 0 0 0 0 0 0 
trait 3 0.3 0 0 0 0 0 0 0 
node 1 2 1 1
node 2 3 1 1
node 3 3 1 1
node 4 3 1 1
node 5 1 1 1
node 6 1 1 1
node 7 3 1 3
node 8 2 0 2
node 11 1 0 0
node 24 1 0 0
node 88 1 0 0
gene 2 1 8 1.8635 0 1 1.8635 1
gene 3 2 8 2.2377 0 2 2.2377 1
gene 3 3 8 -1.56515 0 3 -1.56515 1
gene 2 4 8 2.07536 0 4 2.07536 1
gene 1 5 8 4.64941 0 5 4.64941 1
gene 1 6 8 3.20933 0 6 3.20933 1
gene 2 7 8 -6.47904 0 7 -6.47904 1
gene 3 3 11 0.546175 0 12 0.546175 1
gene 3 11 8 -0.305692 0 13 -0.305692 1
gene 3 11 24 -2.87932 0 43 -2.87932 0
gene 3 24 8 2.493 0 44 2.493 1
gene 2 7 24 -0.504271 0 125 -0.504271 1
gene 1 4 11 1.42922 0 236 1.42922 1
gene 3 11 88 -1.90764 0 249 -1.90764 1
gene 3 88 24 -1.96454 0 250 -1.96454 1
genomeend 81

/* Species #6 : (Size 3) (AF 44.3333) (Age 22)  */


/* Organism #82 Fitness: 40 Error: 0 */
genomestart 82
trait 1 0.1 0 0 0 0 0 0 0 
trait 2 0.2 0 0 0 0 0 0 0 
trait 3 0.3 0 0 0 0 0 0 0 
node 1 2 1 1
node 2 3 1 1
node 3 3 1 1
node 4 3 1 1
node 5 1 1 1
node 6 1 1 1
node 7 3 1 3
node 8 3 0 2
node 11 1 0 0
node 15 1 0 0
node 22 1 0 0
node 26 1 0 0
node 64 1 0 0
gene 2 1 8 3.53118 0 1 3.53118 1
gene 3 2 8 1.6933 0 2 1.6933 0
gene 2 3 8 -0.510908 0 3 -0.510908 0
gene 1 4 8 0.677709 0 4 0.677709 1
gene 1 5 8 0.768507 0 5 0.768507 1
gene 1 6 8 2.21834 0 6 2.21834 1
gene 1 7 8 -2.65025 0 7 -2.65025 1
gene 3 3 11 5.04357 0 12 5.04357 1
gene 3 11 8 -1.45683 0 13 -1.45683 0
gene 3 11 15 3.08675 0 20 3.08675 1
gene 3 15 8 1.1644 0 21 1.1644 1
gene 3 2 22 -4.51239 0 38 -4.51239 0
gene 3 22 8 0.0757369 0 39 0.0757369 1
gene 3 2 26 -1.49628 0 48 -1.49628 1
gene 3 26 22 -0.419015 0 49 -0.419015 0
gene 3 5 22 -1.37786 0 146 -1.37786 1
gene 3 26 64 1 0 172 1 1
gene 3 64 22 -0.137451 0 173 -0.137451 1
genomeend 82

/* Organism #83 Fitness: 63 Error: 0 */
genomestart 83
trait 1 0.1 0 0 0 0 0 0 0 
trait 2 0.2 0 0 0 0 0 0 0 
trait 3 0.3 0 0 0 0 0 0 0 
node 1 2 1 1
node 2 3 1 1
node 3 3 1 1
node 4 3 1 1
node 5 1 1 1
node 6 1 1 1
node 7 3 1 3
node 8 3 0 2
node 11 1 0 0
node 15 1 0 0
node 22 1 0 0
node 26 2 0 0
node 64 1 0 0
gene 2 1 8 7.82056 0 1 7.82056 1
gene 3 2 8 5.46249 0 2 5.46249 0
gene 2 3 8 0.552028 0 3 0.552028 0
gene 1 4 8 -1.97874 0 4 -1.97874 1
gene 1 5 8 1.26054 0 5 1.26054 1
gene 1 6 8 0.681579 0 6 0.681579 1
gene 1 7 8 -3.8358 0 7 -3.8358 1
gene 3 3 11 4.68154 0 12 4.68154 1
gene 3 11 8 -1.98817 0 13 -1.98817 0
gene 3 11 15 4.79077 0 20 4.79077 1
gene 3 15 8 2.01185 0 21 2.01185 1
gene 3 2 22 -1.64171 0 38 -1.64171 0
gene 3 22 8 -1.87411 0 39 -1.87411 1
gene 3 2 26 -0.81791 0 48 -0.81791 1
gene 3 26 22 -3.14081 0 49 -3.14081 0
gene 3 5 22 -1.70919 0 146 -1.70919 1
gene 3 26 64 2.88349 0 172 2.88349 1
gene 3 64 22 -1.5564 0 173 -1.5564 1
genomeend 83

/* Organism #84 Fitness: 30 Error: 0 */
genomestart 84
trait 1 0.1 0 0 0 0 0 0 0 
trait 2 0.2 0 0 0 0 0 0 0 
trait 3 0.3 0 0 0 0 0 0 0 
node 1 2 1 1
node 2 3 1 1
node 3 3 1 1
node 4 3 1 1
node 5 1 1 1
node 6 1 1 1
node 7 3 1 3
node 8 3 0 2
node 11 1 0 0
node 15 1 0 0
node 22 1 0 0
node 26 1 0 0
node 64 1 0 0
gene 2 1 8 5.867 0 1 5.867 1
gene 3 2 8 3.90203 0 2 3.90203 1
gene 2 3 8 2.12064 0 3 2.12064 0
gene 1 4 8 -1.7785 0 4 -1.7785 1
gene 1 5 8 0.649527 0 5 0.649527 1
gene 1 6 8 1.94756 0 6 1.94756 1
gene 1 7 8 0.0355792 0 7 0.0355792 1
gene 3 3 11 7.10754 0 12 7.10754 1
gene 3 11 8 -3.88999 0 13 -3.88999 0
gene 3 11 15 1.79704 0 20 1.79704 1
gene 3 15 8 0.857332 0 21 0.857332 1
gene 3 2 22 -5.41926 0 38 -5.41926 1
gene 3 22 8 -0.103236 0 39 -0.103236 1
gene 3 2 26 -0.373371 0 48 -0.373371 1
gene 3 26 22 -0.802756 0 49 -0.802756 0
gene 3 5 22 -2.14177 0 146 -2.14177 1
gene 3 26 64 1 0 172 1 1
gene 3 64 22 1.13933 0 173 1.13933 1
genomeend 84

/* Species #7 : (Size 6) (AF 60.5) (Age 22)  */


/* Organism #85 Fitness: 188 Error: 0 */
genomestart 85
trait 1 0.1 0 0 0 0 0 0 0 
trait 2 0.2 0 0 0 0 0 0 0 
trait 3 0.3 0 0 0 0 0 0 0 
node 1 2 1 1
node 2 3 1 1
node 3 3 1 1
node 4 3 1 1
node 5 1 1 1
node 6 1 1 1
node 7 3 1 3
node 8 2 0 2
node 11 1 0 0
gene 2 1 8 -0.473467 0 1 -0.473467 1
gene 1 2 8 1.08188 0 2 1.08188 1
gene 3 3 8 0.726432 0 3 0.726432 0
gene 2 4 8 -0.703932 0 4 -0.703932 1
gene 1 5 8 2.10759 0 5 2.10759 1
gene 2 6 8 1.37339 0 6 1.37339 1
gene 1 7 8 -1.81433 0 7 -1.81433 1
gene 3 3 11 -0.186422 0 12 -0.186422 1
gene 3 11 8 1.81347 0 13 1.81347 1
gene 2 6 11 -0.405709 0 45 -0.405709 1
gene 1 4 11 -0.93692 0 56 -0.93692 1
genomeend 85

/* Organism #86 Fitness: 42 Error: 0 */
genomestart 86
trait 1 0.1 0 0 0 0 0 0 0 
trait 2 0.252425 0 0 0 0 0 0 0 
trait 3 0.3 0 0 0 0 0 0 0 
node 1 2 1 1
node 2 3 1 1
node 3 3 1 1
node 4 3 1 1
node 5 1 1 1
node 6 1 1 1
node 7 3 1 3
node 8 2 0 2
node 11 1 0 0
gene 2 1 8 -1.49622 0 1 -1.49622 1
gene 1 2 8 1.08188 0 2 1.08188 1
gene 3 3 8 0.726432 0 3 0.726432 0
gene 2 4 8 -3.11666 0 4 -3.11666 1
gene 1 5 8 2.10759 0 5 2.10759 1
gene 2 6 8 3.48882 0 6 3.48882 1
gene 1 7 8 -1.81433 0 7 -1.81433 1
gene 3 3 11 -0.186422 0 12 -0.186422 1
gene 3 11 8 3.58112 0 13 3.58112 1
gene 2 6 11 1.9296 0 45 1.9296 1
gene 1 4 11 -0.93692 0 56 -0.93692 1
genomeend 86

/* Organism #87 Fitness: 47 Error: 0 */
genomestart 87
trait 1 0.1 0 0 0 0 0 0 0 
trait 2 0.2 0 0 0 0 0 0 0 
trait 3 0.3 0 0 0 0 0 0 0 
node 1 2 1 1
node 2 3 1 1
node 3 3 1 1
node 4 3 1 1
node 5 1 1 1
node 6 1 1 1
node 7 3 1 3
node 8 2 0 2
node 11 1 0 0
gene 2 1 8 0.308134 0 1 0.308134 1
gene 1 2 8 3.24879 0 2 3.24879 1
gene 3 3 8 2.75624 0 3 2.75624 0
gene 2 4 8 -2.45443 0 4 -2.45443 1
gene 1 5 8 1.64425 0 5 1.64425 1
gene 2 6 8 3.11326 0 6 3.11326 1
gene 1 7 8 -1.77781 0 7 -1.77781 1
gene 3 3 11 -1.04819 0 12 -1.04819 1
gene 3 11 8 0.195481 0 13 0.195481 1
gene 2 6 11 2.41409 0 45 2.41409 1
gene 1 4 11 -1.49587 0 56 -1.49587 1
genomeend 87

/* Organism #88 Fitness: 49 Error: 0 */
genomestart 88
trait 1 0.1 0 0 0 0 0 0 0 
trait 2 0.30485 0 0 0 0 0 0 0 
trait 3 0.3 0 0 0 0 0 0 0 
node 1 2 1 1
node 2 3 1 1
node 3 3 1 1
node 4 3 1 1
node 5 1 1 1
node 6 1 1 1
node 7 3 1 3
node 8 2 0 2
node 11 1 0 0
gene 2 1 8 -1.49622 0 1 -1.49622 1
gene 1 2 8 0.200387 0 2 0.200387 1
gene 3 3 8 1.42459 0 3 1.42459 1
gene 2 4 8 -3.11666 0 4 -3.11666 1
gene 1 5 8 0.780744 0 5 0.780744 1
gene 2 6 8 3.48882 0 6 3.48882 1
gene 1 7 8 -2.52413 0 7 -2.52413 1
gene 3 3 11 -0.601595 0 12 -0.601595 1
gene 3 11 8 3.58112 0 13 3.58112 1
gene 2 6 11 1.9296 0 45 1.9296 1
gene 1 4 11 -0.93692 0 56 -0.93692 1
genomeend 88

/* Organism #89 Fitness: 28 Error: 0 */
genomestart 89
trait 1 0.1 0 0 0 0 0 0 0 
trait 2 0.2 0 0 0 0 0 0 0 
trait 3 0.3 0 0 0 0 0 0 0 
node 1 2 1 1
node 2 3 1 1
node 3 3 1 1
node 4 3 1 1
node 5 1 1 1
node 6 1 1 1
node 7 3 1 3
node 8 2 0 2
node 11 1 0 0
gene 2 1 8 0.154786 0 1 0.154786 1
gene 1 2 8 0.564731 0 2 0.564731 1
gene 3 3 8 0.726432 0 3 0.726432 0
gene 2 4 8 -3.18516 0 4 -3.18516 1
gene 1 5 8 0.448815 0 5 0.448815 1
gene 2 6 8 1.59302 0 6 1.59302 1
gene 1 7 8 -2.70052 0 7 -2.70052 1
gene 3 3 11 -2.6352 0 12 -2.6352 1
gene 3 11 8 -1.66644 0 13 -1.66644 1
gene 2 6 11 -0.524505 0 45 -0.524505 1
gene 1 4 11 -1.58217 0 56 -1.58217 1
genomeend 89

/* Organism #90 Fitness: 9 Error: 0 */
genomestart 90
trait 1 0.1 0 0 0 0 0 0 0 
trait 2 0.2 0 0 0 0 0 0 0 
trait 3 0.3 0 0 0 0 0 0 0 
node 1 2 1 1
node 2 3 1 1
node 3 3 1 1
node 4 3 1 1
node 5 1 1 1
node 6 1 1 1
node 7 3 1 3
node 8 2 0 2
node 11 1 0 0
gene 2 1 8 -1.22156 0 1 -1.22156 1
gene 1 2 8 2.47816 0 2 2.47816 1
gene 3 3 8 -1.26931 0 3 -1.26931 1
gene 2 4 8 -0.622259 0 4 -0.622259 1
gene 1 5 8 0.744673 0 5 0.744673 1
gene 2 6 8 -0.00584232 0 6 -0.00584232 1
gene 1 7 8 -0.656086 0 7 -0.656086 1
gene 3 3 11 -0.449836 0 12 -0.449836 1
gene 3 11 8 2.20358 0 13 2.20358 1
gene 2 6 11 0.529003 0 45 0.529003 1
gene 1 4 11 -1.81075 0 56 -1.81075 1
genomeend 90

/* Species #8 : (Size 6) (AF 60) (Age 22)  */


/* Organism #91 Fitness: 186 Error: 0 */
genomestart 91
trait 1 0.188921 0 0 0 0 0 0 0 
trait 2 0.2 0 0 0 0 0 0 0 
trait 3 0.3 0 0 0 0 0 0 0 
node 1 2 1 1
node 2 3 1 1
node 3 3 1 1
node 4 1 1 1
node 5 3 1 1
node 6 1 1 1
node 7 3 1 3
node 8 2 0 2
node 11 1 0 0
node 27 1 0 0
node 45 1 0 0
gene 2 1 8 3.94369 0 1 3.94369 1
gene 1 2 8 3.5363 0 2 3.5363 0
gene 3 3 8 -0.306274 0 3 -0.306274 1
gene 2 4 8 -1.65169 0 4 -1.65169 1
gene 1 5 8 2.84047 0 5 2.84047 1
gene 2 6 8 0.786613 0 6 0.786613 1
gene 1 7 8 -3.1026 0 7 -3.1026 1
gene 3 3 11 3.12517 0 12 3.12517 0
gene 3 11 8 0.107862 0 13 0.107862 1
gene 2 6 11 0.571152 0 45 0.571152 1
gene 1 2 27 1.11679 0 51 1.11679 1
gene 1 27 8 1.73915 0 52 1.73915 1
gene 3 3 45 2.39443 0 103 2.39443 1
gene 3 45 11 -0.82352 0 104 -0.82352 1
genomeend 91

/* Organism #92 Fitness: 5 Error: 0 */
genomestart 92
trait 1 0.188921 0 0 0 0 0 0 0 
trait 2 0.2 0 0 0 0 0 0 0 
trait 3 0.3 0 0 0 0 0 0 0 
node 1 2 1 1
node 2 3 1 1
node 3 3 1 1
node 4 1 1 1
node 5 3 1 1
node 6 1 1 1
node 7 3 1 3
node 8 2 0 2
node 11 3 0 0
node 27 1 0 0
node 45 1 0 0
gene 2 1 8 3.08246 0 1 3.08246 1
gene 1 2 8 0.0979721 0 2 0.0979721 0
gene 3 3 8 -1.22667 0 3 -1.22667 1
gene 2 4 8 -3.14732 0 4 -3.14732 1
gene 1 5 8 1.08856 0 5 1.08856 1
gene 2 6 8 -1.66204 0 6 -1.66204 1
gene 1 7 8 1.13275 0 7 1.13275 1
gene 3 3 11 0.119772 0 12 0.119772 0
gene 3 11 8 0.515877 0 13 0.515877 1
gene 2 6 11 -0.586262 0 45 -0.586262 1
gene 1 2 27 1.25362 0 51 1.25362 1
gene 1 27 8 1.94614 0 52 1.94614 1
gene 3 3 45 2.32257 0 103 2.32257 1
gene 3 45 11 0.783125 0 104 0.783125 1
genomeend 92

/* Organism #93 Fitness: 6 Error: 0 */
genomestart 93
trait 1 0.188921 0 0 0 0 0 0 0 
trait 2 0.2 0 0 0 0 0 0 0 
trait 3 0.3 0 0 0 0 0 0 0 
node 1 2 1 1
node 2 3 1 1
node 3 3 1 1
node 4 1 1 1
node 5 3 1 1
node 6 1 1 1
node 7 3 1 3
node 8 2 0 2
node 11 3 0 0
node 27 1 0 0
node 45 1 0 0
gene 2 1 8 6.14725 0 1 6.14725 1
gene 1 2 8 4.87112 0 2 4.87112 0
gene 3 3 8 -2.21812 0 3 -2.21812 1
gene 2 4 8 -2.96821 0 4 -2.96821 1
gene 1 5 8 3.70245 0 5 3.70245 1
gene 2 6 8 -0.362933 0 6 -0.362933 1
gene 1 7 8 -0.951783 0 7 -0.951783 1
gene 3 3 11 2.65083 0 12 2.65083 0
gene 3 11 8 1.54008 0 13 1.54008 1
gene 2 6 11 1.32627 0 45 1.32627 1
gene 1 2 27 -1.0305 0 51 -1.0305 1
gene 1 27 8 0.321036 0 52 0.321036 1
gene 3 3 45 0.131405 0 103 0.131405 1
gene 3 45 11 0.444667 0 104 0.444667 1
genomeend 93

/* Organism #94 Fitness: 76 Error: 0 */
genomestart 94
trait 1 0.188921 0 0 0 0 0 0 0 
trait 2 0.2 0 0 0 0 0 0 0 
trait 3 0.3 0 0 0 0 0 0 0 
node 1 2 1 1
node 2 3 1 1
node 3 3 1 1
node 4 1 1 1
node 5 3 1 1
node 6 1 1 1
node 7 3 1 3
node 8 2 0 2
node 11 3 0 0
node 27 1 0 0
node 45 1 0 0
gene 2 1 8 2.27377 0 1 2.27377 1
gene 1 2 8 1.51834 0 2 1.51834 0
gene 3 3 8 -2.14707 0 3 -2.14707 1
gene 2 4 8 -1.65169 0 4 -1.65169 1
gene 1 5 8 2.84047 0 5 2.84047 1
gene 2 6 8 0.786613 0 6 0.786613 1
gene 1 7 8 -3.1026 0 7 -3.1026 1
gene 3 3 11 1.69321 0 12 1.69321 0
gene 3 11 8 0.107862 0 13 0.107862 1
gene 2 6 11 0.571152 0 45 0.571152 1
gene 1 2 27 1.11679 0 51 1.11679 1
gene 1 27 8 1.73915 0 52 1.73915 1
gene 3 3 45 2.25071 0 103 2.25071 1
gene 3 45 11 -0.82352 0 104 -0.82352 1
genomeend 94

/* Organism #95 Fitness: 31 Error: 0 */
genomestart 95
trait 1 0.188921 0 0 0 0 0 0 0 
trait 2 0.2 0 0 0 0 0 0 0 
trait 3 0.3 0 0 0 0 0 0 0 
node 1 2 1 1
node 2 3 1 1
node 3 3 1 1
node 4 1 1 1
node 5 3 1 1
node 6 1 1 1
node 7 3 1 3
node 8 2 0 2
node 11 1 0 0
node 27 1 0 0
node 45 1 0 0
gene 2 1 8 2.87194 0 1 2.87194 1
gene 1 2 8 4.98902 0 2 4.98902 0
gene 3 3 8 -2.57908 0 3 -2.57908 1
gene 2 4 8 -2.79534 0 4 -2.79534 1
gene 1 5 8 1.45041 0 5 1.45041 1
gene 2 6 8 2.95158 0 6 2.95158 1
gene 1 7 8 -3.45878 0 7 -3.45878 1
gene 3 3 11 1.02084 0 12 1.02084 0
gene 3 11 8 -1.50308 0 13 -1.50308 1
gene 2 6 11 -1.51527 0 45 -1.51527 1
gene 1 2 27 2.8459 0 51 2.8459 1
gene 1 27 8 0.818139 0 52 0.818139 1
gene 3 3 45 2.23201 0 103 2.23201 1
gene 3 45 11 -0.82352 0 104 -0.82352 1
genomeend 95

/* Organism #96 Fitness: 56 Error: 0 */
genomestart 96
trait 1 0.188921 0 0 0 0 0 0 0 
trait 2 0.2 0 0 0 0 0 0 0 
trait 3 0.3 0 0 0 0 0 0 0 
node 1 2 1 1
node 2 3 1 1
node 3 3 1 1
node 4 1 1 1
node 5 3 1 1
node 6 1 1 1
node 7 3 1 3
node 8 2 0 2
node 11 3 0 0
node 27 1 0 0
node 45 1 0 0
gene 2 1 8 -0.0744998 0 1 -0.0744998 1
gene 1 2 8 0.172093 0 2 0.172093 0
gene 3 3 8 0.0591255 0 3 0.0591255 1
gene 2 4 8 -2.05944 0 4 -2.05944 1
gene 1 5 8 7.31631 0 5 7.31631 1
gene 2 6 8 0.390058 0 6 0.390058 1
gene 1 7 8 -2.48093 0 7 -2.48093 1
gene 3 3 11 0.333148 0 12 0.333148 0
gene 3 11 8 4.56343 0 13 4.56343 1
gene 2 6 11 1.96959 0 45 1.96959 1
gene 1 2 27 2.61395 0 51 2.61395 1
gene 1 27 8 -0.55404 0 52 -0.55404 1
gene 3 3 45 -0.268252 0 103 -0.268252 1
gene 3 45 11 -3.35999 0 104 -3.35999 1
genomeend 96

/* Species #9 : (Size 8) (AF 59) (Age 20)  */


/* Organism #97 Fitness: 111 Error: 0 */
genomestart 97
trait 1 0.1 0 0 0 0 0 0 0 
trait 2 0.2 0 0 0 0 0 0 0 
trait 3 1 0.966379 0.17256 0 0 0.910484 0 0.928179 
node 1 2 1 1
node 2 3 1 1
node 3 3 1 1
node 4 2 1 1
node 5 1 1 1
node 6 1 1 1
node 7 3 1 3
node 8 2 0 2
node 11 1 0 0
node 36 1 0 0
gene 2 1 8 -0.629095 0 1 -0.629095 1
gene 3 2 8 7.42325 0 2 7.42325 0
gene 2 3 8 4.16767 0 3 4.16767 0
gene 2 4 8 -0.418765 0 4 -0.418765 1
gene 3 5 8 6.59042 0 5 6.59042 1
gene 1 6 8 1.55234 0 6 1.55234 1
gene 2 7 8 -1.4121 0 7 -1.4121 1
gene 1 3 11 -3.53542 0 12 -3.53542 1
gene 3 11 8 -0.573004 0 13 -0.573004 1
gene 2 2 36 2.35954 0 76 2.35954 1
gene 3 36 8 -0.266288 0 77 -0.266288 1
gene 1 1 11 -0.396702 0 241 -0.396702 1
gene 1 5 36 -0.872172 0 251 -0.872172 1
genomeend 97

/* Organism #98 Fitness: 55 Error: 0 */
genomestart 98
trait 1 0.1 0 0 0 0 0 0 0 
trait 2 0.2 0 0 0 0 0 0 0 
trait 3 1 0.966379 0.17256 0 0 0.910484 0 0.928179 
node 1 2 1 1
node 2 3 1 1
node 3 3 1 1
node 4 2 1 1
node 5 1 1 1
node 6 1 1 1
node 7 3 1 3
node 8 2 0 2
node 11 1 0 0
node 36 1 0 0
gene 2 1 8 1.67147 0 1 1.67147 1
gene 3 2 8 8 0 2 8 0
gene 2 3 8 3.36225 0 3 3.36225 0
gene 2 4 8 1.28677 0 4 1.28677 1
gene 3 5 8 5.01865 0 5 5.01865 1
gene 1 6 8 3.27042 0 6 3.27042 1
gene 2 7 8 0.950676 0 7 0.950676 1
gene 1 3 11 -1.3784 0 12 -1.3784 1
gene 3 11 8 -1.29897 0 13 -1.29897 1
gene 2 2 36 1.26102 0 76 1.26102 1
gene 3 36 8 -2.19061 0 77 -2.19061 1
gene 1 1 11 -0.570543 0 241 -0.570543 1
gene 1 5 36 0.0275933 0 251 0.0275933 1
genomeend 98

/* Organism #99 Fitness: 32 Error: 0 */
genomestart 99
trait 1 0.1 0 0 0 0 0 0 0 
trait 2 0.2 0 0 0 0 0 0 0 
trait 3 1 0.966379 0.17256 0 0 0.910484 0 0.928179 
node 1 2 1 1
node 2 3 1 1
node 3 3 1 1
node 4 2 1 1
node 5 1 1 1
node 6 1 1 1
node 7 3 1 3
node 8 2 0 2
node 11 1 0 0
node 36 1 0 0
gene 2 1 8 -2.80659 0 1 -2.80659 1
gene 3 2 8 8 0 2 8 0
gene 2 3 8 1.82477 0 3 1.82477 0
gene 2 4 8 0.524064 0 4 0.524064 1
gene 3 5 8 6.59042 0 5 6.59042 1
gene 1 6 8 -0.014332 0 6 -0.014332 1
gene 2 7 8 0.230781 0 7 0.230781 1
gene 1 3 11 -1.11226 0 12 -1.11226 1
gene 3 11 8 0.133343 0 13 0.133343 1
gene 2 2 36 0.835242 0 76 0.835242 1
gene 3 36 8 0.0837886 0 77 0.0837886 1
gene 1 1 11 0.169069 0 241 0.169069 1
gene 1 5 36 2.17978 0 251 2.17978 1
genomeend 99

/* Organism #100 Fitness: 93 Error: 0 */
genomestart 100
trait 1 0.1 0 0 0 0 0 0 0 
trait 2 0.2 0 0 0 0 0 0 0 
trait 3 1 0.966379 0.17256 0 0 0.910484 0 0.928179 
node 1 2 1 1
node 2 3 1 1
node 3 3 1 1
node 4 2 1 1
node 5 1 1 1
node 6 1 1 1
node 7 3 1 3
node 8 2 0 2
node 11 1 0 0
node 36 1 0 0
gene 2 1 8 -2.56076 0 1 -2.56076 1
gene 3 2 8 7.42325 0 2 7.42325 0
gene 2 3 8 2.38877 0 3 2.38877 0
gene 2 4 8 -1.82265 0 4 -1.82265 1
gene 3 5 8 6.59042 0 5 6.59042 1
gene 1 6 8 2.54331 0 6 2.54331 1
gene 2 7 8 -1.4121 0 7 -1.4121 1
gene 1 3 11 -4.71547 0 12 -4.71547 1
gene 3 11 8 -0.573004 0 13 -0.573004 1
gene 2 2 36 2.35954 0 76 2.35954 1
gene 3 36 8 -0.266288 0 77 -0.266288 1
gene 1 1 11 1.80654 0 241 1.80654 1
gene 1 5 36 -0.872172 0 251 -0.872172 1
genomeend 100

/* Organism #101 Fitness: 41 Error: 0 */
genomestart 101
trait 1 0.1 0 0 0 0 0 0 0 
trait 2 0.2 0 0 0 0 0 0 0 
trait 3 1 0.966379 0.17256 0 0 0.910484 0 0.928179 
node 1 2 1 1
node 2 3 1 1
node 3 3 1 1
node 4 2 1 1
node 5 1 1 1
node 6 1 1 1
node 7 3 1 3
node 8 2 0 2
node 11 1 0 0
node 36 1 0 0
gene 2 1 8 -1.11681 0 1 -1.11681 1
gene 3 2 8 8 0 2 8 0
gene 2 3 8 4.81704 0 3 4.81704 0
gene 2 4 8 -2.44028 0 4 -2.44028 1
gene 3 5 8 8 0 5 8 1
gene 1 6 8 3.78804 0 6 3.78804 1
gene 2 7 8 -1.71567 0 7 -1.71567 1
gene 1 3 11 -2.99851 0 12 -2.99851 1
gene 3 11 8 -2.24267 0 13 -2.24267 1
gene 2 2 36 2.64951 0 76 2.64951 1
gene 3 36 8 -2.50138 0 77 -2.50138 1
gene 1 1 11 3.8949 0 241 3.8949 1
gene 1 5 36 -0.872172 0 251 -0.872172 1
gene 1 3 36 1.40482 0 261 1.40482 1
genomeend 101

/* Organism #102 Fitness: 71 Error: 0 */
genomestart 102
trait 1 0.1 0 0 0 0 0 0 0 
trait 2 0.2 0 0 0 0 0 0 0 
trait 3 1 0.966379 0.17256 0 0 0.910484 0 0.928179 
node 1 2 1 1
node 2 3 1 1
node 3 3 1 1
node 4 2 1 1
node 5 1 1 1
node 6 1 1 1
node 7 3 1 3
node 8 2 0 2
node 11 1 0 0
node 36 1 0 0
gene 2 1 8 1.49078 0 1 1.49078 1
gene 3 2 8 7.06022 0 2 7.06022 0
gene 2 3 8 4.52744 0 3 4.52744 0
gene 2 4 8 -0.0437003 0 4 -0.0437003 1
gene 3 5 8 6.40063 0 5 6.40063 1
gene 1 6 8 1.00376 0 6 1.00376 1
gene 2 7 8 -2.4374 0 7 -2.4374 1
gene 1 3 11 -3.48221 0 12 -3.48221 1
gene 3 11 8 -2.01728 0 13 -2.01728 1
gene 2 2 36 2.66104 0 76 2.66104 1
gene 3 36 8 0.965446 0 77 0.965446 1
gene 1 1 11 -1.59158 0 241 -1.59158 1
gene 1 5 36 -1.61139 0 251 -1.61139 1
genomeend 102

/* Organism #103 Fitness: 11 Error: 0 */
genomestart 103
trait 1 0.1 0 0 0 0 0 0 0 
trait 2 0.2 0 0 0 0 0 0 0 
trait 3 1 0.966379 0.17256 0 0 0.910484 0 0.928179 
node 1 2 1 1
node 2 3 1 1
node 3 3 1 1
node 4 2 1 1
node 5 1 1 1
node 6 1 1 1
node 7 3 1 3
node 8 2 0 2
node 11 1 0 0
node 36 1 0 0
gene 2 1 8 1.80341 0 1 1.80341 1
gene 3 2 8 8 0 2 8 0
gene 2 3 8 2.45589 0 3 2.45589 0
gene 2 4 8 1.82183 0 4 1.82183 1
gene 3 5 8 5.44796 0 5 5.44796 1
gene 1 6 8 -0.745005 0 6 -0.745005 1
gene 2 7 8 0.854878 0 7 0.854878 1
gene 1 3 11 -2.76256 0 12 -2.76256 1
gene 3 11 8 -0.253729 0 13 -0.253729 1
gene 2 2 36 2.52484 0 76 2.52484 1
gene 3 36 8 -1.08443 0 77 -1.08443 1
gene 1 1 11 -0.396702 0 241 -0.396702 1
gene 1 5 36 -0.783971 0 251 -0.783971 1
genomeend 103

/* Organism #104 Fitness: 58 Error: 0 */
genomestart 104
trait 1 0.1 0 0 0 0 0 0 0 
trait 2 0.2 0 0 0 0 0 0 0 
trait 3 1 0.966379 0.17256 0 0 0.910484 0 0.928179 
node 1 2 1 1
node 2 3 1 1
node 3 3 1 1
node 4 2 1 1
node 5 1 1 1
node 6 1 1 1
node 7 3 1 3
node 8 2 0 2
node 11 1 0 0
node 36 1 0 0
gene 2 1 8 -0.426578 0 1 -0.426578 1
gene 3 2 8 7.71163 0 2 7.71163 0
gene 2 3 8 -1.08246 0 3 -1.08246 0
gene 2 4 8 0.592764 0 4 0.592764 1
gene 3 5 8 7.29521 0 5 7.29521 1
gene 1 6 8 1.20005 0 6 1.20005 1
gene 2 7 8 -1.43348 0 7 -1.43348 1
gene 1 3 11 -5.37014 0 12 -5.37014 1
gene 3 11 8 0.452877 0 13 0.452877 1
gene 2 2 36 2.71342 0 76 2.71342 1
gene 3 36 8 0.0186362 0 77 0.0186362 1
gene 1 1 11 0.729131 0 241 0.729131 1
gene 1 5 36 -2.51994 0 251 -2.51994 1
genomeend 104

/* Species #13 : (Size 6) (AF 40.8333) (Age 18)  */


/* Organism #105 Fitness: 79 Error: 0 */
genomestart 105
trait 1 0.1 0 0 0 0 0 0 0 
trait 2 0.2 0 0 0 0 0 0 0 
trait 3 0.3 0 0 0 0 0 0 0 
node 1 2 1 1
node 2 2 1 1
node 3 3 1 1
node 4 3 1 1
node 5 1 1 1
node 6 1 1 1
node 7 3 1 3
node 8 3 0 2
node 11 1 0 0
node 15 1 0 0
node 22 1 0 0
node 26 1 0 0
node 44 1 0 0
node 73 1 0 0
gene 2 1 8 4.22644 0 1 4.22644 1
gene 3 2 8 -0.145272 0 2 -0.145272 0
gene 2 3 8 -2.47131 0 3 -2.47131 0
gene 1 4 8 -0.652035 0 4 -0.652035 1
gene 1 5 8 2.96812 0 5 2.96812 1
gene 1 6 8 8 0 6 8 1
gene 1 7 8 -1.00001 0 7 -1.00001 1
gene 3 3 11 7.06697 0 12 7.06697 1
gene 3 11 8 4.02788 0 13 4.02788 0
gene 3 11 15 2.27843 0 20 2.27843 1
gene 3 15 8 0.762035 0 21 0.762035 1
gene 3 2 22 -0.932449 0 38 -0.932449 0
gene 3 22 8 -3.55036 0 39 -3.55036 1
gene 3 2 26 4.70721 0 48 4.70721 1
gene 3 26 22 -1.42663 0 49 -1.42663 1
gene 2 4 15 6.1122 0 90 6.1122 0
gene 1 5 44 -1.59287 0 101 -1.59287 1
gene 1 44 8 1.1069 0 102 1.1069 1
gene 2 26 11 -0.978111 0 165 -0.978111 1
gene 2 4 73 1 0 201 0 1
gene 2 73 15 6.1122 0 202 0 1
genomeend 105

/* Organism #106 Fitness: 46 Error: 0 */
genomestart 106
trait 1 0.1 0 0 0 0 0 0 0 
trait 2 0.2 0 0.0229984 0 0 0 0 0 
trait 3 0.3 0 0 0 0 0 0 0 
node 1 2 1 1
node 2 2 1 1
node 3 3 1 1
node 4 3 1 1
node 5 1 1 1
node 6 1 1 1
node 7 3 1 3
node 8 3 0 2
node 11 1 0 0
node 15 1 0 0
node 22 1 0 0
node 26 1 0 0
node 44 1 0 0
node 73 1 0 0
gene 2 1 8 4.65048 0 1 4.65048 1
gene 3 2 8 2.16318 0 2 2.16318 0
gene 2 3 8 -0.985582 0 3 -0.985582 0
gene 1 4 8 1.45346 0 4 1.45346 1
gene 1 5 8 2.0907 0 5 2.0907 1
gene 1 6 8 7.84817 0 6 7.84817 1
gene 1 7 8 0.352627 0 7 0.352627 1
gene 3 3 11 6.27909 0 12 6.27909 1
gene 3 11 8 4.18163 0 13 4.18163 0
gene 3 11 15 -0.194618 0 20 -0.194618 1
gene 3 15 8 1.62839 0 21 1.62839 1
gene 3 2 22 -0.82979 0 38 -0.82979 0
gene 3 22 8 -1.80439 0 39 -1.80439 1
gene 3 2 26 3.96493 0 48 3.96493 1
gene 3 26 22 -1.19483 0 49 -1.19483 1
gene 2 4 15 4.25921 0 90 4.25921 0
gene 1 5 44 -3.77872 0 101 -3.77872 1
gene 1 44 8 -1.38415 0 102 -1.38415 1
gene 2 26 11 -1.60635 0 165 -1.60635 1
gene 2 4 73 1 0 201 1 0
gene 2 73 15 8 0 202 8 1
genomeend 106

/* Organism #107 Fitness: 30 Error: 0 */
genomestart 107
trait 1 0.1 0 0 0 0 0 0 0 
trait 2 0.2 0 0 0 0 0 0 0 
trait 3 0.3 0 0 0 0 0 0 0 
node 1 2 1 1
node 2 2 1 1
node 3 3 1 1
node 4 3 1 1
node 5 1 1 1
node 6 1 1 1
node 7 3 1 3
node 8 3 0 2
node 11 1 0 0
node 15 1 0 0
node 22 1 0 0
node 26 1 0 0
node 44 1 0 0
node 73 1 0 0
gene 2 1 8 2.35229 0 1 2.35229 1
gene 3 2 8 -2.20324 0 2 -2.20324 0
gene 2 3 8 -1.04621 0 3 -1.04621 0
gene 1 4 8 -1.13085 0 4 -1.13085 1
gene 1 5 8 1.89646 0 5 1.89646 1
gene 1 6 8 8 0 6 8 1
gene 1 7 8 -1.45644 0 7 -1.45644 1
gene 3 3 11 7.16706 0 12 7.16706 1
gene 3 11 8 6.2534 0 13 6.2534 0
gene 3 11 15 3.36486 0 20 3.36486 1
gene 3 15 8 1.31677 0 21 1.31677 1
gene 3 2 22 1.42978 0 38 1.42978 0
gene 3 22 8 -3.76344 0 39 -3.76344 1
gene 3 2 26 6.23461 0 48 6.23461 1
gene 3 26 22 -2.30268 0 49 -2.30268 1
gene 2 4 15 4.78628 0 90 4.78628 0
gene 1 5 44 -3.97138 0 101 -3.97138 1
gene 1 44 8 1.1069 0 102 1.1069 1
gene 2 26 11 -0.978111 0 165 -0.978111 1
gene 2 4 73 -1.20352 0 201 -1.20352 1
gene 2 73 15 6.1122 0 202 6.1122 1
genomeend 107

/* Organism #108 Fitness: 39 Error: 0 */
genomestart 108
trait 1 0.1 0 0 0 0 0 0 0 
trait 2 0.2 0 0.0229984 0 0 0 0 0 
trait 3 0.3 0 0 0 0 0 0 0 
node 1 2 1 1
node 2 2 1 1
node 3 3 1 1
node 4 3 1 1
node 5 1 1 1
node 6 1 1 1
node 7 3 1 3
node 8 3 0 2
node 11 1 0 0
node 15 1 0 0
node 22 1 0 0
node 26 1 0 0
node 44 1 0 0
node 73 1 0 0
gene 2 1 8 4.61555 0 1 4.61555 1
gene 3 2 8 2.09452 0 2 2.09452 1
gene 2 3 8 -2.3547 0 3 -2.3547 0
gene 1 4 8 0.68395 0 4 0.68395 1
gene 1 5 8 4.49216 0 5 4.49216 1
gene 1 6 8 7.12403 0 6 7.12403 1
gene 1 7 8 -1.00001 0 7 -1.00001 1
gene 3 3 11 8 0 12 8 1
gene 3 11 8 2.35008 0 13 2.35008 0
gene 3 11 15 4.45905 0 20 4.45905 1
gene 3 15 8 0.438814 0 21 0.438814 1
gene 3 2 22 -1.57821 0 38 -1.57821 1
gene 3 22 8 -3.55036 0 39 -3.55036 1
gene 3 2 26 4.50382 0 48 4.50382 1
gene 3 26 22 -1.7346 0 49 -1.7346 1
gene 2 4 15 6.29321 0 90 6.29321 0
gene 1 5 44 -1.59287 0 101 -1.59287 1
gene 1 44 8 2.4529 0 102 2.4529 1
gene 2 26 11 -0.648572 0 165 -0.648572 1
gene 2 4 73 -1.40243 0 201 -1.40243 0
gene 2 73 15 5.21705 0 202 5.21705 1
genomeend 108

/* Organism #109 Fitness: 32 Error: 0 */
genomestart 109
trait 1 0.1 0 0 0 0 0 0 0 
trait 2 0.2 0 0.0229984 0 0 0 0 0 
trait 3 0.3 0 0 0 0 0 0 0 
node 1 2 1 1
node 2 2 1 1
node 3 3 1 1
node 4 3 1 1
node 5 1 1 1
node 6 1 1 1
node 7 3 1 3
node 8 3 0 2
node 11 1 0 0
node 15 1 0 0
node 22 1 0 0
node 26 1 0 0
node 44 1 0 0
node 73 1 0 0
gene 2 1 8 5.63263 0 1 5.63263 1
gene 3 2 8 -0.305871 0 2 -0.305871 1
gene 2 3 8 -0.107609 0 3 -0.107609 0
gene 1 4 8 0.99748 0 4 0.99748 1
gene 1 5 8 0.745571 0 5 0.745571 1
gene 1 6 8 8 0 6 8 1
gene 1 7 8 -0.645889 0 7 -0.645889 1
gene 3 3 11 6.74173 0 12 6.74173 1
gene 3 11 8 4.02788 0 13 4.02788 0
gene 3 11 15 -1.41656 0 20 -1.41656 1
gene 3 15 8 -0.529844 0 21 -0.529844 1
gene 3 2 22 0.0478874 0 38 0.0478874 0
gene 3 22 8 -5.39924 0 39 -5.39924 1
gene 3 2 26 6.33464 0 48 6.33464 1
gene 3 26 22 -1.39201 0 49 -1.39201 1
gene 2 4 15 5.9599 0 90 5.9599 0
gene 1 5 44 -1.7551 0 101 -1.7551 1
gene 1 44 8 -0.0712383 0 102 -0.0712383 1
gene 2 26 11 -2.85583 0 165 -2.85583 1
gene 2 4 73 2.62486 0 201 2.62486 0
gene 2 73 15 -1.71808 0 202 -1.71808 1
genomeend 109

/* Organism #110 Fitness: 19 Error: 0 */
genomestart 110
trait 1 0.1 0 0 0 0 0 0 0 
trait 2 0.2 0 0.0459969 0 0 0 0 0 
trait 3 0.3 0 0 0 0 0 0 0 
node 1 2 1 1
node 2 2 1 1
node 3 3 1 1
node 4 3 1 1
node 5 1 1 1
node 6 1 1 1
node 7 3 1 3
node 8 3 0 2
node 11 1 0 0
node 15 1 0 0
node 22 1 0 0
node 26 1 0 0
node 44 1 0 0
node 73 1 0 0
node 101 1 0 0
gene 2 1 8 4.66794 0 1 4.66794 1
gene 3 2 8 -1.3989 0 2 -1.3989 0
gene 2 3 8 -2.97818 0 3 -2.97818 0
gene 1 4 8 -1.41843 0 4 -1.41843 1
gene 1 5 8 3.24395 0 5 3.24395 1
gene 1 6 8 7.10176 0 6 7.10176 1
gene 1 7 8 2.30205 0 7 2.30205 1
gene 3 3 11 6.00847 0 12 6.00847 1
gene 3 11 8 4.96006 0 13 4.96006 0
gene 3 11 15 4.20083 0 20 4.20083 1
gene 3 15 8 2.32853 0 21 2.32853 1
gene 3 2 22 0.423152 0 38 0.423152 0
gene 3 22 8 2.32465 0 39 2.32465 1
gene 3 2 26 3.14064 0 48 3.14064 1
gene 3 26 22 -1.65294 0 49 -1.65294 1
gene 2 4 15 4.65498 0 90 4.65498 0
gene 1 5 44 -1.76534 0 101 -1.76534 1
gene 1 44 8 1.1069 0 102 1.1069 1
gene 2 26 11 -0.851889 0 165 -0.851889 1
gene 2 4 73 2.61634 0 201 2.61634 0
gene 2 73 15 4.53091 0 202 4.53091 1
gene 2 4 101 1 0 292 1 1
gene 2 101 73 0.326409 0 293 0.326409 1
genomeend 110

/* Species #14 : (Size 6) (AF 63.1667) (Age 17)  */


/* Organism #111 Fitness: 89 Error: 0 */
genomestart 111
trait 1 0.1 0 0 0 0 0 0 0 
trait 2 0.2 0 0 0 0 0 0 0 
trait 3 0.3 0 0 0 0 0 0 0 
node 1 2 1 1
node 2 3 1 1
node 3 3 1 1
node 4 3 1 1
node 5 1 1 1
node 6 1 1 1
node 7 3 1 3
node 8 1 0 2
node 11 1 0 0
node 46 1 0 0
gene 2 1 8 2.32493 0 1 2.32493 1
gene 3 2 8 -0.35385 0 2 -0.35385 0
gene 2 3 8 -2.424 0 3 -2.424 0
gene 2 4 8 -2.41265 0 4 -2.41265 1
gene 3 5 8 8 0 5 8 1
gene 1 6 8 5.60058 0 6 5.60058 1
gene 1 7 8 -3.02326 0 7 -3.02326 1
gene 2 3 11 -1.13704 0 12 -1.13704 1
gene 3 11 8 -1.1316 0 13 -1.1316 1
gene 3 2 46 1.57002 0 106 1.57002 1
gene 3 46 8 1.01323 0 107 1.01323 1
gene 1 46 11 -1.31805 0 244 -1.31805 1
genomeend 111

/* Organism #112 Fitness: 32 Error: 0 */
genomestart 112
trait 1 0.1 0 0 0 0 0 0 0 
trait 2 0.2 0 0 0 0 0 0 0 
trait 3 0.3 0 0 0 0 0 0 0 
node 1 2 1 1
node 2 3 1 1
node 3 3 1 1
node 4 3 1 1
node 5 1 1 1
node 6 1 1 1
node 7 3 1 3
node 8 1 0 2
node 11 1 0 0
node 46 1 0 0
gene 2 1 8 2.32493 0 1 2.32493 1
gene 3 2 8 1.71513 0 2 1.71513 0
gene 2 3 8 -3.81904 0 3 -3.81904 0
gene 2 4 8 -2.41265 0 4 -2.41265 1
gene 3 5 8 7.38347 0 5 7.38347 1
gene 1 6 8 4.65209 0 6 4.65209 1
gene 1 7 8 -4.45415 0 7 -4.45415 1
gene 2 3 11 -1.10971 0 12 -1.10971 1
gene 3 11 8 -3.04056 0 13 -3.04056 1
gene 3 2 46 1.57002 0 106 1.57002 1
gene 3 46 8 -0.133273 0 107 -0.133273 1
gene 1 46 11 0.631571 0 244 0.631571 1
genomeend 112

/* Organism #113 Fitness: 47 Error: 0 */
genomestart 113
trait 1 0.1 0 0 0 0 0 0 0 
trait 2 0.2 0 0 0 0 0 0 0 
trait 3 0.3 0 0 0 0 0 0 0 
node 1 2 1 1
node 2 3 1 1
node 3 3 1 1
node 4 3 1 1
node 5 1 1 1
node 6 1 1 1
node 7 3 1 3
node 8 1 0 2
node 11 1 0 0
node 46 1 0 0
gene 2 1 8 2.70945 0 1 2.70945 1
gene 3 2 8 0.492387 0 2 0.492387 0
gene 2 3 8 -3.01806 0 3 -3.01806 0
gene 2 4 8 -2.16187 0 4 -2.16187 0
gene 3 5 8 7.37283 0 5 7.37283 1
gene 1 6 8 2.45267 0 6 2.45267 1
gene 1 7 8 -4.1207 0 7 -4.1207 1
gene 2 3 11 -5.01118 0 12 -5.01118 1
gene 3 11 8 -2.2755 0 13 -2.2755 1
gene 3 2 46 0.977816 0 106 0.977816 1
gene 3 46 8 0.381377 0 107 0.381377 1
gene 1 46 11 -1.31805 0 244 -1.31805 1
genomeend 113

/* Organism #114 Fitness: 84 Error: 0 */
genomestart 114
trait 1 0.1 0 0 0 0 0 0 0 
trait 2 0.2 0 0 0 0 0 0 0 
trait 3 0.3 0 0 0 0 0 0 0 
node 1 2 1 1
node 2 3 1 1
node 3 3 1 1
node 4 3 1 1
node 5 1 1 1
node 6 1 1 1
node 7 3 1 3
node 8 1 0 2
node 11 1 0 0
node 46 1 0 0
gene 2 1 8 1.64079 0 1 1.64079 1
gene 3 2 8 -0.821956 0 2 -0.821956 1
gene 2 3 8 -4.87015 0 3 -4.87015 0
gene 2 4 8 -3.1801 0 4 -3.1801 1
gene 3 5 8 8 0 5 8 1
gene 1 6 8 3.6632 0 6 3.6632 1
gene 1 7 8 -2.62749 0 7 -2.62749 1
gene 2 3 11 -1.89661 0 12 -1.89661 1
gene 3 11 8 0.0311373 0 13 0.0311373 1
gene 3 2 46 2.80775 0 106 2.80775 1
gene 3 46 8 1.01323 0 107 1.01323 1
gene 1 46 11 -1.54749 0 244 -1.54749 1
genomeend 114

/* Organism #115 Fitness: 87 Error: 0 */
genomestart 115
trait 1 0.1 0 0 0 0 0 0 0 
trait 2 0.2 0 0 0 0 0 0 0 
trait 3 0.3 0 0 0 0 0 0 0 
node 1 2 1 1
node 2 3 1 1
node 3 3 1 1
node 4 3 1 1
node 5 1 1 1
node 6 1 1 1
node 7 3 1 3
node 8 1 0 2
node 11 1 0 0
node 46 1 0 0
gene 2 1 8 1.32951 0 1 1.32951 1
gene 3 2 8 0.838478 0 2 0.838478 0
gene 2 3 8 -2.52584 0 3 -2.52584 0
gene 2 4 8 -2.41265 0 4 -2.41265 0
gene 3 5 8 7.96765 0 5 7.96765 1
gene 1 6 8 5.60058 0 6 5.60058 1
gene 1 7 8 -3.02326 0 7 -3.02326 1
gene 2 3 11 -1.13704 0 12 -1.13704 1
gene 3 11 8 -1.1316 0 13 -1.1316 1
gene 3 2 46 1.57002 0 106 1.57002 1
gene 3 46 8 1.01323 0 107 1.01323 1
gene 1 46 11 -1.31805 0 244 -1.31805 1
genomeend 115

/* Organism #116 Fitness: 40 Error: 0 */
genomestart 116
trait 1 0.1 0 0 0 0 0 0 0 
trait 2 0.2 0 0 0 0 0 0 0 
trait 3 0.3 0 0 0 0.0698205 0 0 0.816234 
node 1 2 1 1
node 2 3 1 1
node 3 3 1 1
node 4 3 1 1
node 5 1 1 1
node 6 1 1 1
node 7 3 1 3
node 8 1 0 2
node 11 1 0 0
node 46 1 0 0
gene 2 1 8 1.2651 0 1 1.2651 1
gene 3 2 8 3.06891 0 2 3.06891 0
gene 2 3 8 -3.23847 0 3 -3.23847 0
gene 2 4 8 -0.813528 0 4 -0.813528 0
gene 3 5 8 6.575 0 5 6.575 1
gene 1 6 8 4.41083 0 6 4.41083 1
gene 1 7 8 -3.35347 0 7 -3.35347 1
gene 2 3 11 0.941012 0 12 0.941012 1
gene 3 11 8 -2.30533 0 13 -2.30533 1
gene 3 2 46 1.52143 0 106 1.52143 1
gene 3 46 8 -1.20987 0 107 -1.20987 1
gene 1 46 11 -4.22164 0 244 -4.22164 1
genomeend 116

/* Species #15 : (Size 5) (AF 34.6) (Age 17)  */


/* Organism #117 Fitness: 55 Error: 0 */
genomestart 117
trait 1 0.1 0 0.614359 0.29914 0.884083 0.152709 0.306839 0 
trait 2 0.2 0 0 0 0 0 0 0 
trait 3 0.3 0 0 0 0 0 0 0 
node 1 2 1 1
node 2 3 1 1
node 3 3 1 1
node 4 3 1 1
node 5 1 1 1
node 6 1 1 1
node 7 3 1 3
node 8 2 0 2
node 11 1 0 0
node 49 1 0 0
gene 2 1 8 1.43143 0 1 1.43143 1
gene 3 2 8 1.12782 0 2 1.12782 1
gene 2 3 8 -3.30062 0 3 -3.30062 0
gene 2 4 8 2.53632 0 4 2.53632 1
gene 3 5 8 8 0 5 8 1
gene 1 6 8 2.48502 0 6 2.48502 1
gene 2 7 8 -3.66883 0 7 -3.66883 1
gene 2 3 11 -1.98761 0 12 -1.98761 0
gene 3 11 8 2.24088 0 13 2.24088 1
gene 2 6 11 -2.96673 0 72 -2.96673 1
gene 2 5 11 2.34744 0 105 2.34744 1
gene 2 3 49 -3.53437 0 115 -3.53437 1
gene 2 49 11 -0.015081 0 116 -0.015081 1
genomeend 117

/* Organism #118 Fitness: 5 Error: 0 */
genomestart 118
trait 1 0.1 0 0 0 0 0 0 0 
trait 2 0.2 0 0 0 0 0 0 0 
trait 3 0.3 0 0 0 0 0 0 0 
node 1 2 1 1
node 2 3 1 1
node 3 3 1 1
node 4 3 1 1
node 5 1 1 1
node 6 1 1 1
node 7 3 1 3
node 8 2 0 2
node 11 1 0 0
node 49 1 0 0
gene 2 1 8 0.554189 0 1 0.554189 1
gene 3 2 8 -0.222441 0 2 -0.222441 1
gene 2 3 8 -3.60003 0 3 -3.60003 0
gene 2 4 8 2.59353 0 4 2.59353 1
gene 3 5 8 8 0 5 8 1
gene 1 6 8 -1.7 0 6 -1.7 1
gene 2 7 8 -1.30805 0 7 -1.30805 1
gene 2 3 11 -0.942703 0 12 -0.942703 0
gene 3 11 8 2.81658 0 13 2.81658 1
gene 2 6 11 -3.69696 0 72 -3.69696 1
gene 2 5 11 2.10273 0 105 2.10273 1
gene 2 3 49 -2.99515 0 115 -2.99515 1
gene 2 49 11 -0.539408 0 116 -0.539408 1
gene 2 4 49 2.37893 0 294 2.37893 1
genomeend 118

/* Organism #119 Fitness: 38 Error: 0 */
genomestart 119
trait 1 0.1 0 0 0 0 0 0 0 
trait 2 0.2 0 0 0 0 0 0 0 
trait 3 0.3 0 0 0 0 0 0 0 
node 1 2 1 1
node 2 3 1 1
node 3 3 1 1
node 4 3 1 1
node 5 1 1 1
node 6 1 1 1
node 7 3 1 3
node 8 2 0 2
node 11 1 0 0
node 49 1 0 0
gene 2 1 8 3.23823 0 1 3.23823 1
gene 3 2 8 2.45681 0 2 2.45681 1
gene 2 3 8 -0.208279 0 3 -0.208279 1
gene 2 4 8 3.40677 0 4 3.40677 1
gene 3 5 8 7.82279 0 5 7.82279 1
gene 1 6 8 0.136418 0 6 0.136418 1
gene 2 7 8 -3.34989 0 7 -3.34989 1
gene 2 3 11 -2.01376 0 12 -2.01376 0
gene 3 11 8 -0.470574 0 13 -0.470574 1
gene 2 6 11 -4.22591 0 72 -4.22591 1
gene 2 5 11 0.21767 0 105 0.21767 1
gene 2 3 49 -1.22817 0 115 -1.22817 1
gene 2 49 11 2.84135 0 116 2.84135 1
genomeend 119

/* Organism #120 Fitness: 47 Error: 0 */
genomestart 120
trait 1 0.1 0.246259 0 0 0 0.789691 0 0 
trait 2 0.2 0 0 0 0 0 0 0 
trait 3 0.3 0 0 0 0 0 0 0 
node 1 2 1 1
node 2 3 1 1
node 3 3 1 1
node 4 3 1 1
node 5 1 1 1
node 6 1 1 1
node 7 3 1 3
node 8 2 0 2
node 11 1 0 0
node 49 1 0 0
gene 2 1 8 4.13159 0 1 4.13159 1
gene 3 2 8 2.37812 0 2 2.37812 1
gene 2 3 8 -1.28848 0 3 -1.28848 0
gene 2 4 8 1.57805 0 4 1.57805 1
gene 3 5 8 8 0 5 8 1
gene 1 6 8 0.193496 0 6 0.193496 1
gene 2 7 8 -0.434512 0 7 -0.434512 1
gene 2 3 11 -1.03279 0 12 -1.03279 0
gene 3 11 8 -0.634034 0 13 -0.634034 1
gene 2 6 11 -0.88795 0 72 -0.88795 1
gene 2 5 11 -2.27938 0 105 -2.27938 1
gene 2 3 49 1.23524 0 115 1.23524 1
gene 2 49 11 1.40643 0 116 1.40643 1
gene 2 4 49 -1.16814 0 294 -1.16814 1
genomeend 120

/* Organism #121 Fitness: 28 Error: 0 */
genomestart 121
trait 1 0.1 0 0 0 0 0 0 0 
trait 2 0.2 0 0 0 0 0 0 0 
trait 3 0.3 0 0 0 0 0 0 0 
node 1 2 1 1
node 2 3 1 1
node 3 3 1 1
node 4 3 1 1
node 5 1 1 1
node 6 1 1 1
node 7 3 1 3
node 8 2 0 2
node 11 1 0 0
node 49 1 0 0
gene 2 1 8 -0.808315 0 1 -0.808315 1
gene 3 2 8 -0.61466 0 2 -0.61466 1
gene 2 3 8 -0.653728 0 3 -0.653728 0
gene 2 4 8 0.331489 0 4 0.331489 1
gene 3 5 8 6.12893 0 5 6.12893 1
gene 1 6 8 2.44722 0 6 2.44722 1
gene 2 7 8 0.0750912 0 7 0.0750912 1
gene 2 3 11 -0.303614 0 12 -0.303614 0
gene 3 11 8 1.76193 0 13 1.76193 1
gene 2 6 11 -2.5698 0 72 -2.5698 1
gene 2 5 11 -0.137792 0 105 -0.137792 1
gene 2 3 49 2.27454 0 115 2.27454 1
gene 2 49 11 1.27073 0 116 1.27073 1
gene 2 4 49 -0.0582391 0 294 -0.0582391 1
genomeend 121

/* Species #17 : (Size 7) (AF 62) (Age 16)  */


/* Organism #122 Fitness: 118 Error: 0 */
genomestart 122
trait 1 0.1 0 0 0 0 0 0 0 
trait 2 0.2 0 0 0 0 0 0 0 
trait 3 0.3 0 0 0 0 0 0 0 
node 1 2 1 1
node 2 3 1 1
node 3 3 1 1
node 4 3 1 1
node 5 1 1 1
node 6 1 1 1
node 7 3 1 3
node 8 2 0 2
node 11 1 0 0
node 36 1 0 0
node 52 1 0 0
gene 2 1 8 1.59195 0 1 1.59195 1
gene 3 2 8 1.6695 0 2 1.6695 0
gene 2 3 8 -0.707485 0 3 -0.707485 1
gene 2 4 8 -0.785458 0 4 -0.785458 1
gene 3 5 8 5.01846 0 5 5.01846 1
gene 1 6 8 1.13823 0 6 1.13823 1
gene 2 7 8 -1.21284 0 7 -1.21284 1
gene 2 3 11 3.40603 0 12 3.40603 0
gene 3 11 8 -0.0904572 0 13 -0.0904572 1
gene 3 2 36 -3.19015 0 76 -3.19015 1
gene 3 36 8 0.313824 0 77 0.313824 1
gene 2 3 52 1 0 128 1 1
gene 2 52 11 4.61134 0 129 4.61134 1
gene 2 4 11 -1.15311 0 142 -1.15311 1
genomeend 122

/* Organism #123 Fitness: 68 Error: 0 */
genomestart 123
trait 1 0.1 0 0 0 0 0 0 0 
trait 2 0.2 0 0 0 0 0 0 0 
trait 3 0.3 0 0 0 0 0 0 0 
node 1 2 1 1
node 2 3 1 1
node 3 3 1 1
node 4 3 1 1
node 5 1 1 1
node 6 1 1 1
node 7 3 1 3
node 8 2 0 2
node 11 1 0 0
node 36 1 0 0
node 52 1 0 0
gene 2 1 8 3.72506 0 1 3.72506 1
gene 3 2 8 1.78089 0 2 1.78089 0
gene 2 3 8 -0.0199503 0 3 -0.0199503 1
gene 2 4 8 -0.22088 0 4 -0.22088 1
gene 3 5 8 5.75559 0 5 5.75559 1
gene 1 6 8 1.28758 0 6 1.28758 1
gene 2 7 8 -2.61677 0 7 -2.61677 1
gene 2 3 11 2.4121 0 12 2.4121 1
gene 3 11 8 0.587428 0 13 0.587428 1
gene 3 2 36 -1.67404 0 76 -1.67404 1
gene 3 36 8 -0.306974 0 77 -0.306974 1
gene 2 3 52 -0.168216 0 128 -0.168216 1
gene 2 52 11 1.05166 0 129 1.05166 1
gene 2 4 11 -2.70165 0 142 -2.70165 1
genomeend 123

/* Organism #124 Fitness: 86 Error: 0 */
genomestart 124
trait 1 0.1 0 0 0 0 0 0 0 
trait 2 0.2 0.768144 0 0 0 0 0 0 
trait 3 0.3 0 0 0 0 0 0 0 
node 1 2 1 1
node 2 3 1 1
node 3 3 1 1
node 4 3 1 1
node 5 1 1 1
node 6 1 1 1
node 7 3 1 3
node 8 2 0 2
node 11 1 0 0
node 36 1 0 0
node 52 1 0 0
gene 2 1 8 2.61079 0 1 2.61079 1
gene 3 2 8 0.537785 0 2 0.537785 0
gene 2 3 8 -3.24483 0 3 -3.24483 1
gene 2 4 8 2.26995 0 4 2.26995 1
gene 3 5 8 5.96683 0 5 5.96683 1
gene 1 6 8 4.48338 0 6 4.48338 1
gene 2 7 8 -0.334657 0 7 -0.334657 1
gene 2 3 11 3.10619 0 12 3.10619 0
gene 3 11 8 -0.563122 0 13 -0.563122 1
gene 3 2 36 -7.59111 0 76 -7.59111 1
gene 3 36 8 1.46888 0 77 1.46888 1
gene 2 3 52 0.715744 0 128 0.715744 1
gene 2 52 11 4.69652 0 129 4.69652 1
gene 2 4 11 -1.60206 0 142 -1.60206 1
genomeend 124

/* Organism #125 Fitness: 5 Error: 0 */
genomestart 125
trait 1 0.1 0 0 0 0 0 0 0 
trait 2 0.2 0 0 0 0 0 0 0 
trait 3 0.3 0 0 0 0 0 0 0 
node 1 2 1 1
node 2 3 1 1
node 3 3 1 1
node 4 3 1 1
node 5 1 1 1
node 6 1 1 1
node 7 3 1 3
node 8 2 0 2
node 11 1 0 0
node 36 1 0 0
node 52 1 0 0
gene 2 1 8 0.436193 0 1 0.436193 1
gene 3 2 8 2.86632 0 2 2.86632 0
gene 2 3 8 -0.764237 0 3 -0.764237 1
gene 2 4 8 0.564821 0 4 0.564821 1
gene 3 5 8 4.20539 0 5 4.20539 1
gene 1 6 8 -0.481962 0 6 -0.481962 1
gene 2 7 8 -2.23878 0 7 -2.23878 1
gene 2 3 11 5.08122 0 12 5.08122 0
gene 3 11 8 -1.75476 0 13 -1.75476 1
gene 3 2 36 -3.34566 0 76 -3.34566 1
gene 3 36 8 1.72024 0 77 1.72024 1
gene 2 3 52 -0.959737 0 128 -0.959737 1
gene 2 52 11 6.02535 0 129 6.02535 1
gene 2 4 11 -2.85844 0 142 -2.85844 1
gene 1 2 11 0.730331 0 289 0.730331 1
genomeend 125

/* Organism #126 Fitness: 50 Error: 0 */
genomestart 126
trait 1 0.1 0 0 0 0 0 0 0 
trait 2 0.2 0 0 0 0 0 0 0 
trait 3 0.3 0 0 0 0 0 0 0 
node 1 2 1 1
node 2 3 1 1
node 3 3 1 1
node 4 3 1 1
node 5 1 1 1
node 6 1 1 1
node 7 3 1 3
node 8 2 0 2
node 11 1 0 0
node 36 1 0 0
node 52 1 0 0
gene 2 1 8 -0.934606 0 1 -0.934606 1
gene 3 2 8 3.57976 0 2 3.57976 0
gene 2 3 8 -1.99631 0 3 -1.99631 1
gene 2 4 8 -0.22088 0 4 -0.22088 1
gene 3 5 8 3.7313 0 5 3.7313 1
gene 1 6 8 1.13453 0 6 1.13453 1
gene 2 7 8 -1.89062 0 7 -1.89062 1
gene 2 3 11 1.08342 0 12 1.08342 0
gene 3 11 8 0.523365 0 13 0.523365 1
gene 3 2 36 -3.86202 0 76 -3.86202 1
gene 3 36 8 -0.638358 0 77 -0.638358 1
gene 2 3 52 0.627403 0 128 0.627403 1
gene 2 52 11 4.28143 0 129 4.28143 1
gene 2 4 11 -4.07218 0 142 -4.07218 1
genomeend 126

/* Organism #127 Fitness: 66 Error: 0 */
genomestart 127
trait 1 0.1 0 0 0 0 0 0 0 
trait 2 0.2 0 0 0 0 0 0 0 
trait 3 0.3 0 0 0 0 0 0 0 
node 1 2 1 1
node 2 3 1 1
node 3 3 1 1
node 4 3 1 1
node 5 1 1 1
node 6 1 1 1
node 7 3 1 3
node 8 2 0 2
node 11 1 0 0
node 36 1 0 0
node 52 1 0 0
gene 2 1 8 3.72506 0 1 3.72506 1
gene 3 2 8 2.0102 0 2 2.0102 0
gene 2 3 8 -0.707485 0 3 -0.707485 1
gene 2 4 8 -0.785458 0 4 -0.785458 1
gene 3 5 8 5.34022 0 5 5.34022 1
gene 1 6 8 3.59817 0 6 3.59817 1
gene 2 7 8 -2.32219 0 7 -2.32219 1
gene 2 3 11 2.0995 0 12 2.0995 0
gene 3 11 8 0.523365 0 13 0.523365 1
gene 3 2 36 -3.19015 0 76 -3.19015 1
gene 3 36 8 -0.306974 0 77 -0.306974 1
gene 2 3 52 1 0 128 1 1
gene 2 52 11 4.61134 0 129 4.61134 1
gene 2 4 11 -1.15311 0 142 -1.15311 1
genomeend 127

/* Organism #128 Fitness: 41 Error: 0 */
genomestart 128
trait 1 0.1 0 0 0 0 0 0 0 
trait 2 0.2 0 0 0 0 0 0 0 
trait 3 0.3 0 0 0 0 0 0 0 
node 1 2 1 1
node 2 3 1 1
node 3 3 1 1
node 4 3 1 1
node 5 1 1 1
node 6 1 1 1
node 7 3 1 3
node 8 2 0 2
node 11 1 0 0
node 36 1 0 0
node 52 1 0 0
gene 2 1 8 3.01112 0 1 3.01112 1
gene 3 2 8 2.24191 0 2 2.24191 0
gene 2 3 8 -3.09023 0 3 -3.09023 1
gene 2 4 8 -3.17391 0 4 -3.17391 1
gene 3 5 8 5.33717 0 5 5.33717 1
gene 1 6 8 2.85513 0 6 2.85513 1
gene 2 7 8 -0.272556 0 7 -0.272556 1
gene 2 3 11 5.70108 0 12 5.70108 0
gene 3 11 8 -1.88189 0 13 -1.88189 1
gene 3 2 36 -2.68691 0 76 -2.68691 1
gene 3 36 8 0.0555478 0 77 0.0555478 1
gene 2 3 52 -0.944315 0 128 -0.944315 1
gene 2 52 11 6.47918 0 129 6.47918 1
gene 2 4 11 -3.15492 0 142 -3.15492 1
gene 1 2 11 0.730331 0 289 0.730331 1
genomeend 128

/* Species #19 : (Size 1) (AF 8) (Age 10)  */


/* Organism #129 Fitness: 8 Error: 0 */
genomestart 129
trait 1 0 0 0 0 0 0.796388 0.847958 0.967423 
trait 2 0.436061 0 0 0 0 0 0 0.406055 
trait 3 0.798919 0 0 0.890301 0 0.014636 0.176774 0 
node 1 3 1 1
node 2 3 1 1
node 3 3 1 1
node 4 3 1 1
node 5 1 1 1
node 6 1 1 1
node 7 3 1 3
node 8 2 0 2
node 11 1 0 0
node 37 1 0 0
node 67 1 0 0
gene 2 1 8 -8 0 1 -8 1
gene 2 2 8 4.87011 0 2 4.87011 0
gene 3 3 8 1.79786 0 3 1.79786 0
gene 2 4 8 -0.304491 0 4 -0.304491 1
gene 1 5 8 5.03168 0 5 5.03168 1
gene 1 6 8 1.30987 0 6 1.30987 0
gene 1 7 8 -1.89849 0 7 -1.89849 1
gene 1 3 11 -3.50678 0 12 -3.50678 1
gene 3 11 8 4.16705 0 13 4.16705 1
gene 2 6 11 -2.05253 0 45 -2.05253 1
gene 1 6 37 -2.86111 0 78 -2.86111 1
gene 1 37 8 1.66277 0 79 1.66277 1
gene 1 3 37 7.8248 0 96 7.8248 1
gene 3 5 37 -3.01106 0 162 -3.01106 1
gene 1 2 67 1.0772 0 180 1.0772 1
gene 1 67 8 1.87401 0 181 1.87401 1
genomeend 129

/* Species #20 : (Size 4) (AF 50.5) (Age 9)  */


/* Organism #130 Fitness: 38 Error: 0 */
genomestart 130
trait 1 0.161303 0 0 0 0 0 0 0 
trait 2 0.2 0 0 0 0 0 0 0 
trait 3 0.3 0 0 0 0 0 0 0 
node 1 3 1 1
node 2 3 1 1
node 3 3 1 1
node 4 3 1 1
node 5 1 1 1
node 6 1 1 1
node 7 3 1 3
node 8 3 0 2
node 11 1 0 0
node 15 1 0 0
node 67 1 0 0
gene 2 1 8 5.55543 0 1 5.55543 1
gene 3 2 8 5.26658 0 2 5.26658 1
gene 2 3 8 6.29485 0 3 6.29485 0
gene 1 4 8 -0.974715 0 4 -0.974715 1
gene 1 5 8 1.21918 0 5 1.21918 1
gene 1 6 8 2.76163 0 6 2.76163 1
gene 1 7 8 -2.50437 0 7 -2.50437 1
gene 3 3 11 -4.32385 0 12 -4.32385 1
gene 3 11 8 4.01331 0 13 4.01331 1
gene 3 11 15 -2.08276 0 20 -2.08276 1
gene 3 15 8 2.6426 0 21 2.6426 1
gene 3 2 67 -1.34811 0 180 -1.34811 1
gene 3 67 8 -0.674172 0 181 -0.674172 1
gene 1 67 15 -0.0694517 0 192 -0.0694517 1
genomeend 130

/* Organism #131 Fitness: 52 Error: 0 */
genomestart 131
trait 1 0.161303 0 0 0 0 0 0 0 
trait 2 0.2 0 0 0 0 0 0 0 
trait 3 0.3 0 0 0 0 0 0 0 
node 1 3 1 1
node 2 3 1 1
node 3 3 1 1
node 4 3 1 1
node 5 1 1 1
node 6 1 1 1
node 7 3 1 3
node 8 3 0 2
node 11 1 0 0
node 15 1 0 0
node 67 1 0 0
gene 2 1 8 6.31205 0 1 6.31205 1
gene 3 2 8 4.14418 0 2 4.14418 1
gene 2 3 8 3.60837 0 3 3.60837 0
gene 1 4 8 -2.37087 0 4 -2.37087 1
gene 1 5 8 4.62313 0 5 4.62313 1
gene 1 6 8 2.52706 0 6 2.52706 1
gene 1 7 8 -4.36919 0 7 -4.36919 1
gene 3 3 11 -1.19084 0 12 -1.19084 1
gene 3 11 8 3.92531 0 13 3.92531 1
gene 3 11 15 -0.775846 0 20 -0.775846 1
gene 3 15 8 3.81988 0 21 3.81988 1
gene 3 2 67 -0.353157 0 180 -0.353157 1
gene 3 67 8 1.27103 0 181 1.27103 1
gene 1 67 15 -1.42945 0 192 -1.42945 1
genomeend 131

/* Organism #132 Fitness: 81 Error: 0 */
genomestart 132
