
/* Species #3 : (Size 20) (AF 83.45) (Age 16)  */


/* Organism #0 Fitness: 227 Error: 0 */
genomestart 0
trait 1 0.05 0.376477 0 0 0.34363 0 0.496848 0 
trait 2 0.2 0 0 0 0 0 0 0 
trait 3 0.3 0 0 0 0 0 0 0 
node 1 2 1 1
node 2 3 1 1
node 3 1 1 1
node 4 3 1 1
node 5 1 1 1
node 6 1 1 1
node 7 3 1 3
node 8 2 0 2
node 11 1 0 0
gene 2 1 8 0.148241 0 1 0.148241 1
gene 3 2 8 2.26463 0 2 2.26463 1
gene 3 3 8 2.8849 0 3 2.8849 0
gene 2 4 8 -4.99692 0 4 -4.99692 1
gene 1 5 8 3.28812 0 5 3.28812 1
gene 1 6 8 2.30211 0 6 2.30211 1
gene 2 7 8 -2.40218 0 7 -2.40218 1
gene 2 3 11 -2.1685 0 12 -2.1685 1
gene 3 11 8 1.92317 0 13 1.92317 1
gene 3 4 11 -0.302006 0 37 -0.302006 1
gene 1 5 11 0.381869 0 163 0.381869 1
gene 1 1 11 -0.873014 0 193 0 1
genomeend 0

/* Organism #1 Fitness: 53 Error: 0 */
genomestart 1
trait 1 0.0501709 0.375191 0.00785899 0 0.338261 0 0.49515 0 
trait 2 0.2 0 0 0 0 0 0 0 
trait 3 0.3 0 0 0 0 0 0 0 
node 1 1 1 1
node 2 3 1 1
node 3 3 1 1
node 4 3 1 1
node 5 1 1 1
node 6 1 1 1
node 7 3 1 3
node 8 2 0 2
node 11 1 0 0
gene 2 1 8 -1.76361 0 1 -1.76361 1
gene 3 2 8 1.20816 0 2 1.20816 1
gene 3 3 8 4.48691 0 3 4.48691 0
gene 2 4 8 -6.85402 0 4 -6.85402 1
gene 1 5 8 4.60875 0 5 4.60875 1
gene 1 6 8 1.75685 0 6 1.75685 1
gene 2 7 8 -0.0725786 0 7 -0.0725786 1
gene 2 3 11 -2.50201 0 12 -2.50201 1
gene 3 11 8 1.9998 0 13 1.9998 1
gene 3 4 11 -2.05061 0 37 -2.05061 1
gene 1 5 11 0.381869 0 163 0.381869 1
gene 1 1 11 -0.872741 0 193 -0.872741 1
genomeend 1

/* Organism #2 Fitness: 7 Error: 0 */
genomestart 2
trait 1 0.0503418 0.373904 0.015718 0 0.332892 0 0.493452 0 
trait 2 0.2 0 0 0 0 0 0 0 
trait 3 0.3 0 0 0 0 0 0 0 
node 1 2 1 1
node 2 3 1 1
node 3 3 1 1
node 4 3 1 1
node 5 1 1 1
node 6 1 1 1
node 7 3 1 3
node 8 2 0 2
node 11 1 0 0
gene 2 1 8 -1.887 0 1 -1.887 1
gene 3 2 8 3.87576 0 2 3.87576 1
gene 3 3 8 1.50909 0 3 1.50909 0
gene 2 4 8 -0.869012 0 4 -0.869012 1
gene 1 5 8 5.48231 0 5 5.48231 1
gene 1 6 8 -0.0607895 0 6 -0.0607895 1
gene 2 7 8 0.88016 0 7 0.88016 1
gene 2 3 11 -0.846861 0 12 -0.846861 1
gene 3 11 8 0.147881 0 13 0.147881 1
gene 3 4 11 0.471607 0 37 0.471607 1
gene 1 5 11 -1.59244 0 163 -1.59244 1
genomeend 2

/* Organism #3 Fitness: 5 Error: 0 */
genomestart 3
trait 1 0.0501709 0.375191 0.00785899 0 0.338261 0 0.49515 0 
trait 2 0.2 0 0 0 0 0 0 0 
trait 3 0.3 0 0 0 0 0 0 0 
node 1 2 1 1
node 2 3 1 1
node 3 3 1 1
node 4 3 1 1
node 5 1 1 1
node 6 1 1 1
node 7 3 1 3
node 8 2 0 2
node 11 1 0 0
gene 2 1 8 0.224158 0 1 0.224158 1
gene 3 2 8 1.82698 0 2 1.82698 1
gene 3 3 8 -0.366179 0 3 -0.366179 0
gene 2 4 8 -4.05814 0 4 -4.05814 1
gene 1 5 8 0.861238 0 5 0.861238 1
gene 1 6 8 0.449341 0 6 0.449341 1
gene 2 7 8 -2.3195 0 7 -2.3195 1
gene 1 3 11 -2.49815 0 12 -2.49815 1
gene 3 11 8 -0.357696 0 13 -0.357696 1
gene 3 4 11 2.14099 0 37 2.14099 1
gene 1 5 11 0.381869 0 163 0.381869 1
genomeend 3

/* Organism #4 Fitness: 113 Error: 0 */
genomestart 4
trait 1 0.05 0.376477 0 0 0.34363 0 0.496848 0 
trait 2 0.2 0 0 0 0 0 0 0 
trait 3 0.3 0 0 0 0 0 0 0 
node 1 2 1 1
node 2 3 1 1
node 3 1 1 1
node 4 3 1 1
node 5 1 1 1
node 6 1 1 1
node 7 3 1 3
node 8 2 0 2
node 11 1 0 0
gene 2 1 8 -3.2234 0 1 -3.2234 1
gene 3 2 8 4.21197 0 2 4.21197 1
gene 3 3 8 1.09175 0 3 1.09175 1
gene 2 4 8 -5.01853 0 4 -5.01853 1
gene 1 5 8 4.27392 0 5 4.27392 1
gene 1 6 8 2.63274 0 6 2.63274 1
gene 2 7 8 -4.72578 0 7 -4.72578 1
gene 2 3 11 -2.43193 0 12 -2.43193 1
gene 3 11 8 2.80592 0 13 2.80592 1
gene 3 4 11 1.78375 0 37 1.78375 1
gene 1 5 11 1.66887 0 163 1.66887 1
gene 1 1 11 0.613401 0 193 0.613401 1
genomeend 4

/* Organism #5 Fitness: 5 Error: 0 */
genomestart 5
trait 1 0.0501709 0.375191 0.00785899 0 0.338261 0 0.49515 0 
trait 2 0.2 0 0 0 0 0 0 0 
trait 3 0.3 0 0 0 0 0 0 0 
node 1 2 1 1
node 2 3 1 1
node 3 3 1 1
node 4 2 1 1
node 5 1 1 1
node 6 1 1 1
node 7 3 1 3
node 8 2 0 2
node 11 1 0 0
gene 2 1 8 -2.22917 0 1 -2.22917 1
gene 3 2 8 2.24388 0 2 2.24388 1
gene 3 3 8 2.3267 0 3 2.3267 0
gene 2 4 8 -5.27718 0 4 -5.27718 1
gene 1 5 8 1.60965 0 5 1.60965 1
gene 1 6 8 0.472125 0 6 0.472125 1
gene 2 7 8 -2.48939 0 7 -2.48939 1
gene 2 3 11 -2.31469 0 12 -2.31469 1
gene 3 11 8 2.01816 0 13 2.01816 1
gene 3 4 11 -1.9715 0 37 -1.9715 1
gene 1 5 11 -1.58631 0 163 -1.58631 1
genomeend 5

/* Organism #6 Fitness: 41 Error: 0 */
genomestart 6
trait 1 0.0503418 0.962268 0.0283233 0.630139 0 0 0.493452 0 
trait 2 0.2 0 0 0 0 0 0 0 
trait 3 0.3 0 0 0 0 0 0 0 
node 1 2 1 1
node 2 3 1 1
node 3 3 1 1
node 4 3 1 1
node 5 1 1 1
node 6 1 1 1
node 7 3 1 3
node 8 2 0 2
node 11 1 0 0
gene 2 1 8 -2.18902 0 1 -2.18902 1
gene 3 2 8 2.85041 0 2 2.85041 1
gene 3 3 8 1.51704 0 3 1.51704 0
gene 2 4 8 -6.5647 0 4 -6.5647 1
gene 1 5 8 5.7155 0 5 5.7155 1
gene 1 6 8 1.82711 0 6 1.82711 1
gene 2 7 8 0.0206261 0 7 0.0206261 1
gene 2 3 11 0.0587068 0 12 0.0587068 1
gene 3 11 8 1.79804 0 13 1.79804 1
gene 3 4 11 -0.302006 0 37 -0.302006 1
gene 1 5 11 -1.31423 0 163 -1.31423 1
genomeend 6

/* Organism #7 Fitness: 56 Error: 0 */
genomestart 7
trait 1 0.0503418 0.373904 0.015718 0 0.332892 0 0.493452 0 
trait 2 0.2 0 0 0 0 0 0 0 
trait 3 0.3 0 0 0 0 0 0 0 
node 1 2 1 1
node 2 3 1 1
node 3 3 1 1
node 4 3 1 1
node 5 1 1 1
node 6 1 1 1
node 7 3 1 3
node 8 2 0 2
node 11 1 0 0
gene 2 1 8 0.156104 0 1 0.156104 1
gene 3 2 8 1.84643 0 2 1.84643 1
gene 3 3 8 -0.979678 0 3 -0.979678 0
gene 2 4 8 -3.70364 0 4 -3.70364 1
gene 1 5 8 3.4216 0 5 3.4216 1
gene 1 6 8 1.66058 0 6 1.66058 1
gene 2 7 8 -1.8782 0 7 -1.8782 1
gene 2 3 11 1.68772 0 12 1.68772 1
gene 3 11 8 -0.517527 0 13 -0.517527 1
gene 3 4 11 0.263157 0 37 0.263157 1
gene 1 5 11 0.381869 0 163 0.381869 1
genomeend 7

/* Organism #8 Fitness: 151 Error: 0 */
genomestart 8
trait 1 0.0501709 0.375191 0.00785899 0 0.338261 0 0.49515 0 
trait 2 0.2 0 0 0 0 0 0 0 
trait 3 0.3 0 0 0 0 0 0 0 
node 1 2 1 1
node 2 3 1 1
node 3 1 1 1
node 4 3 1 1
node 5 1 1 1
node 6 1 1 1
node 7 3 1 3
node 8 2 0 2
node 11 1 0 0
gene 2 1 8 -0.869379 0 1 -0.869379 1
gene 3 2 8 2.26463 0 2 2.26463 1
gene 3 3 8 2.25326 0 3 2.25326 0
gene 2 4 8 -4.99692 0 4 -4.99692 1
gene 1 5 8 3.28812 0 5 3.28812 1
gene 1 6 8 2.30211 0 6 2.30211 1
gene 2 7 8 -2.40218 0 7 -2.40218 1
gene 2 3 11 -2.1685 0 12 -2.1685 1
gene 3 11 8 1.92317 0 13 1.92317 1
gene 3 4 11 -0.302006 0 37 -0.302006 1
gene 1 5 11 0.381869 0 163 0.381869 1
gene 1 1 11 -0.873014 0 193 0 1
genomeend 8

/* Organism #9 Fitness: 44 Error: 0 */
genomestart 9
trait 1 0.0501709 0.375191 0.00785899 0 0.338261 0 0.49515 0 
trait 2 0.2 0 0 0 0 0 0 0 
trait 3 0.3 0 0 0 0 0 0 0 
node 1 2 1 1
node 2 3 1 1
node 3 3 1 1
node 4 3 1 1
node 5 1 1 1
node 6 1 1 1
node 7 3 1 3
node 8 2 0 2
node 11 1 0 0
gene 2 1 8 -4.28485 0 1 -4.28485 1
gene 3 2 8 0.970992 0 2 0.970992 1
gene 3 3 8 2.30906 0 3 2.30906 1
gene 2 4 8 -6.41525 0 4 -6.41525 1
gene 1 5 8 2.07758 0 5 2.07758 1
gene 1 6 8 4.36327 0 6 4.36327 1
gene 2 7 8 -2.05811 0 7 -2.05811 1
gene 2 3 11 -4.23853 0 12 -4.23853 1
gene 3 11 8 -0.392733 0 13 -0.392733 1
gene 3 4 11 -2.31019 0 37 -2.31019 1
gene 1 5 11 0.285102 0 163 0.285102 1
genomeend 9

/* Organism #10 Fitness: 205 Error: 0 */
genomestart 10
trait 1 0.0503418 0.373904 0.015718 0 0.332892 0 0.493452 0 
trait 2 0.2 0 0 0 0 0 0 0 
trait 3 0.3 0 0 0 0 0 0 0 
node 1 2 1 1
node 2 3 1 1
node 3 3 1 1
node 4 3 1 1
node 5 1 1 1
node 6 1 1 1
node 7 3 1 3
node 8 2 0 2
node 11 1 0 0
gene 2 1 8 -1.887 0 1 -1.887 1
gene 3 2 8 2.26463 0 2 2.26463 1
gene 3 3 8 1.79608 0 3 1.79608 0
gene 2 4 8 -4.99692 0 4 -4.99692 1
gene 1 5 8 3.42837 0 5 3.42837 1
gene 1 6 8 2.23151 0 6 2.23151 1
gene 2 7 8 -2.40218 0 7 -2.40218 1
gene 2 3 11 -2.1685 0 12 -2.1685 1
gene 3 11 8 1.92317 0 13 1.92317 1
gene 3 4 11 -0.302006 0 37 -0.302006 1
gene 1 5 11 0.381869 0 163 0.381869 1
genomeend 10

/* Organism #11 Fitness: 5 Error: 0 */
genomestart 11
trait 1 0.0503418 0.373904 0.015718 0 0.332892 0 0.493452 0 
trait 2 0.2 0 0 0 0 0 0 0 
trait 3 0.3 0 0 0 0 0 0 0 
node 1 2 1 1
node 2 3 1 1
node 3 3 1 1
node 4 3 1 1
node 5 1 1 1
node 6 1 1 1
node 7 3 1 3
node 8 2 0 2
node 11 1 0 0
gene 2 1 8 -1.03725 0 1 -1.03725 1
gene 3 2 8 3.38449 0 2 3.38449 1
gene 3 3 8 1.66835 0 3 1.66835 0
gene 2 4 8 -6.3023 0 4 -6.3023 1
gene 1 5 8 3.34618 0 5 3.34618 1
gene 1 6 8 -0.21399 0 6 -0.21399 1
gene 2 7 8 -4.60996 0 7 -4.60996 1
gene 2 3 11 -2.2975 0 12 -2.2975 1
gene 3 11 8 4.1107 0 13 4.1107 1
gene 3 4 11 -0.302006 0 37 -0.302006 1
gene 1 5 11 -0.990411 0 163 -0.990411 1
genomeend 11

/* Organism #12 Fitness: 96 Error: 0 */
genomestart 12
trait 1 0.0503418 0.373904 0.015718 0 0.332892 0 0.493452 0 
trait 2 0.2 0 0 0 0 0 0 0 
trait 3 0.3 0 0 0 0 0 0 0 
node 1 2 1 1
node 2 3 1 1
node 3 3 1 1
node 4 3 1 1
node 5 1 1 1
node 6 1 1 1
node 7 3 1 3
node 8 2 0 2
node 11 1 0 0
gene 2 1 8 -0.676409 0 1 -0.676409 1
gene 3 2 8 4.7066 0 2 4.7066 1
gene 3 3 8 0.687902 0 3 0.687902 0
gene 2 4 8 -5.83426 0 4 -5.83426 1
gene 1 5 8 2.17518 0 5 2.17518 1
gene 1 6 8 1.65886 0 6 1.65886 1
gene 2 7 8 -3.43825 0 7 -3.43825 1
gene 2 3 11 -1.8724 0 12 -1.8724 1
gene 3 11 8 3.01771 0 13 3.01771 1
gene 3 4 11 0.0665567 0 37 0.0665567 1
gene 3 5 11 0.369112 0 163 0.369112 1
genomeend 12

/* Organism #13 Fitness: 96 Error: 0 */
genomestart 13
trait 1 0.0501709 0.375191 0.00785899 0 0.338261 0 0.49515 0 
trait 2 0.2 0 0 0 0 0 0 0 
trait 3 0.3 0 0 0 0 0 0 0 
node 1 2 1 1
node 2 3 1 1
node 3 1 1 1
node 4 3 1 1
node 5 1 1 1
node 6 1 1 1
node 7 3 1 3
node 8 2 0 2
node 11 1 0 0
gene 2 1 8 -2.12815 0 1 -2.12815 1
gene 3 2 8 0.984068 0 2 0.984068 1
gene 3 3 8 4.31647 0 3 4.31647 0
gene 2 4 8 -4.65466 0 4 -4.65466 1
gene 1 5 8 1.5232 0 5 1.5232 1
gene 1 6 8 0.854591 0 6 0.854591 1
gene 2 7 8 -0.673548 0 7 -0.673548 1
gene 2 3 11 0.145347 0 12 0.145347 1
gene 3 11 8 -0.438148 0 13 -0.438148 1
gene 3 4 11 -0.302006 0 37 -0.302006 1
gene 1 5 11 -1.09875 0 163 -1.09875 1
gene 1 1 11 -2.39409 0 193 -2.39409 1
genomeend 13

/* Organism #14 Fitness: 32 Error: 0 */
genomestart 14
trait 1 0.05 0.376477 0 0 0.34363 0 0.496848 0 
trait 2 0.2 0 0 0 0 0 0 0 
trait 3 0.3 0 0 0 0 0 0 0 
node 1 2 1 1
node 2 3 1 1
node 3 3 1 1
node 4 3 1 1
node 5 1 1 1
node 6 1 1 1
node 7 3 1 3
node 8 2 0 2
node 11 1 0 0
gene 2 1 8 -1.3755 0 1 -1.3755 1
gene 3 2 8 3.41532 0 2 3.41532 1
gene 3 3 8 1.35116 0 3 1.35116 0
gene 2 4 8 -6.88011 0 4 -6.88011 1
gene 1 5 8 1.45281 0 5 1.45281 1
gene 1 6 8 2.78834 0 6 2.78834 1
gene 2 7 8 -4.49874 0 7 -4.49874 1
gene 2 3 11 -3.37703 0 12 -3.37703 1
gene 3 11 8 1.60506 0 13 1.60506 1
gene 3 4 11 2.08102 0 37 2.08102 1
gene 1 5 11 0.211426 0 163 0.211426 1
genomeend 14

/* Organism #15 Fitness: 250 Error: 0 */
genomestart 15
trait 1 0.0501709 0.375191 0.00785899 0 0.338261 0 0.49515 0 
trait 2 0.2 0 0 0 0 0 0 0 
trait 3 0.3 0 0 0 0 0 0 0 
node 1 2 1 1
node 2 3 1 1
node 3 3 1 1
node 4 3 1 1
node 5 1 1 1
node 6 1 1 1
node 7 3 1 3
node 8 2 0 2
node 11 1 0 0
gene 2 1 8 -1.887 0 1 -1.887 1
gene 3 2 8 2.26463 0 2 2.26463 1
gene 3 3 8 1.97054 0 3 1.97054 0
gene 2 4 8 -4.99692 0 4 -4.99692 1
gene 1 5 8 3.42837 0 5 3.42837 1
gene 1 6 8 2.30211 0 6 2.30211 1
gene 2 7 8 -2.40218 0 7 -2.40218 1
gene 2 3 11 -2.1685 0 12 -2.1685 1
gene 3 11 8 1.92317 0 13 1.92317 1
gene 3 4 11 -0.302006 0 37 -0.302006 1
gene 1 5 11 0.381869 0 163 0.381869 1
genomeend 15

/* Organism #16 Fitness: 5 Error: 0 */
genomestart 16
trait 1 0.05 0.376477 0 0 0.34363 0 0.496848 0 
trait 2 0.2 0 0 0 0 0 0 0 
trait 3 0.3 0 0 0 0 0 0 0 
node 1 2 1 1
node 2 3 1 1
node 3 1 1 1
node 4 3 1 1
node 5 1 1 1
node 6 1 1 1
node 7 3 1 3
node 8 2 0 2
node 11 1 0 0
gene 2 1 8 -3.64451 0 1 -3.64451 1
gene 3 2 8 3.72607 0 2 3.72607 1
gene 3 3 8 0.421354 0 3 0.421354 0
gene 2 4 8 -6.87187 0 4 -6.87187 1
gene 1 5 8 1.61566 0 5 1.61566 1
gene 1 6 8 -1.16057 0 6 -1.16057 1
gene 2 7 8 -2.40218 0 7 -2.40218 1
gene 2 3 11 -0.538946 0 12 -0.538946 1
gene 3 11 8 -0.374507 0 13 -0.374507 1
gene 3 4 11 1.42458 0 37 1.42458 1
gene 1 5 11 0.381869 0 163 0.381869 1
gene 1 1 11 -3.18029 0 193 -3.18029 1
genomeend 16

/* Organism #17 Fitness: 75 Error: 0 */
genomestart 17
trait 1 0.0501709 0.375191 0.00785899 0 0.338261 0 0.49515 0 
trait 2 0.2 0 0 0 0 0 0 0 
trait 3 0.3 0 0 0 0 0 0 0 
node 1 2 1 1
node 2 3 1 1
node 3 3 1 1
node 4 3 1 1
node 5 1 1 1
node 6 1 1 1
node 7 3 1 3
node 8 2 0 2
node 11 1 0 0
gene 2 1 8 -3.23084 0 1 -3.23084 1
gene 3 2 8 3.68088 0 2 3.68088 1
gene 3 3 8 -0.596053 0 3 -0.596053 0
gene 2 4 8 -3.66173 0 4 -3.66173 1
gene 1 5 8 1.20337 0 5 1.20337 1
gene 1 6 8 2.98036 0 6 2.98036 1
gene 2 7 8 -3.96766 0 7 -3.96766 1
gene 2 3 11 -3.68536 0 12 -3.68536 1
gene 3 11 8 2.0918 0 13 2.0918 1
gene 3 4 11 -1.94523 0 37 -1.94523 1
gene 1 5 11 2.3461 0 163 2.3461 1
gene 1 1 11 -2.48662 0 193 -2.48662 1
genomeend 17

/* Organism #18 Fitness: 195 Error: 0 */
genomestart 18
trait 1 0.0501709 0.375191 0.00785899 0 0.338261 0 0.49515 0 
trait 2 0.2 0 0 0 0 0 0 0 
trait 3 0.3 0 0 0 0 0 0 0 
node 1 2 1 1
node 2 3 1 1
node 3 3 1 1
node 4 3 1 1
node 5 1 1 1
node 6 1 1 1
node 7 3 1 3
node 8 2 0 2
node 11 1 0 0
gene 2 1 8 -1.887 0 1 -1.887 1
gene 3 2 8 2.26463 0 2 2.26463 1
gene 3 3 8 1.79608 0 3 1.79608 0
gene 2 4 8 -4.99692 0 4 -4.99692 1
gene 1 5 8 3.28812 0 5 3.28812 1
gene 1 6 8 2.30211 0 6 2.30211 1
gene 2 7 8 -2.40218 0 7 -2.40218 1
gene 2 3 11 -2.1685 0 12 -2.1685 1
gene 3 11 8 1.92317 0 13 1.92317 1
gene 3 4 11 -0.302006 0 37 -0.302006 1
gene 1 5 11 0.381869 0 163 0.381869 1
genomeend 18

/* Organism #19 Fitness: 8 Error: 0 */
genomestart 19
trait 1 0.05 0.376477 0 0 0.34363 0 0.496848 0 
trait 2 0.2 0 0 0 0 0 0 0 
trait 3 0.3 0 0 0 0 0 0 0 
node 1 2 1 1
node 2 3 1 1
node 3 1 1 1
node 4 3 1 1
node 5 1 1 1
node 6 1 1 1
node 7 3 1 3
node 8 2 0 2
node 11 1 0 0
gene 2 1 8 -0.175086 0 1 -0.175086 1
gene 3 2 8 4.52572 0 2 4.52572 1
gene 3 3 8 4.38891 0 3 4.38891 0
gene 2 4 8 -5.92673 0 4 -5.92673 1
gene 1 5 8 4.32819 0 5 4.32819 1
gene 1 6 8 1.11795 0 6 1.11795 1
gene 2 7 8 -3.89049 0 7 -3.89049 1
gene 2 3 11 -3.00277 0 12 -3.00277 1
gene 3 11 8 3.41704 0 13 3.41704 1
gene 3 4 11 -0.793827 0 37 -0.793827 1
gene 1 5 11 -1.12926 0 163 -1.12926 1
gene 1 1 11 -0.873014 0 193 -0.873014 1
genomeend 19

/* Species #4 : (Size 7) (AF 40) (Age 15)  */


/* Organism #20 Fitness: 111 Error: 0 */
genomestart 20
trait 1 0.1 0 0 0 0 0 0 0 
trait 2 0.2 0 0 0 0 0 0 0 
trait 3 0.3 0 0 0 0 0 0 0 
node 1 2 1 1
node 2 3 1 1
node 3 3 1 1
node 4 3 1 1
node 5 1 1 1
node 6 1 1 1
node 7 3 1 3
node 8 2 0 2
node 11 1 0 0
node 23 1 0 0
gene 2 1 8 -0.738309 0 1 -0.738309 1
gene 1 2 8 -0.294996 0 2 -0.294996 1
gene 3 3 8 1.69233 0 3 1.69233 0
gene 2 4 8 1.01804 0 4 1.01804 0
gene 1 5 8 4.35569 0 5 4.35569 1
gene 2 6 8 0.229895 0 6 0.229895 1
gene 1 7 8 -0.0490528 0 7 -0.0490528 1
gene 3 3 11 0.222824 0 12 0.222824 1
gene 3 11 8 -0.36559 0 13 -0.36559 1
gene 2 4 23 2.61094 0 41 2.61094 1
gene 2 23 8 -0.745193 0 42 -0.745193 1
gene 2 6 11 -0.405709 0 45 -0.405709 1
genomeend 20

/* Organism #21 Fitness: 55 Error: 0 */
genomestart 21
trait 1 0.1 0 0 0 0 0 0 0 
trait 2 0.2 0 0 0 0 0 0 0 
trait 3 0.3 0 0 0 0 0 0 0 
node 1 2 1 1
node 2 3 1 1
node 3 3 1 1
node 4 3 1 1
node 5 1 1 1
node 6 1 1 1
node 7 3 1 3
node 8 2 0 2
node 11 1 0 0
node 23 1 0 0
gene 2 1 8 1.76056 0 1 1.76056 1
gene 1 2 8 -0.294996 0 2 -0.294996 1
gene 3 3 8 1.69233 0 3 1.69233 0
gene 2 4 8 1.36384 0 4 1.36384 0
gene 1 5 8 4.61654 0 5 4.61654 1
gene 2 6 8 1.21005 0 6 1.21005 1
gene 1 7 8 -0.605592 0 7 -0.605592 1
gene 3 3 11 -0.137225 0 12 -0.137225 1
gene 3 11 8 -1.45649 0 13 -1.45649 1
gene 2 4 23 4.10161 0 41 4.10161 1
gene 2 23 8 -0.00939826 0 42 -0.00939826 1
gene 2 6 11 -2.89246 0 45 -2.89246 1
genomeend 21

/* Organism #22 Fitness: 9 Error: 0 */
genomestart 22
trait 1 0.1 0 0 0 0 0 0 0 
trait 2 0.2 0 0 0 0 0 0 0 
trait 3 0.65 0 0 0 0 0 0 0 
node 1 2 1 1
node 2 3 1 1
node 3 3 1 1
node 4 3 1 1
node 5 1 1 1
node 6 1 1 1
node 7 3 1 3
node 8 2 0 2
node 11 1 0 0
node 23 1 0 0
gene 2 1 8 1.29817 0 1 1.29817 1
gene 1 2 8 1.15202 0 2 1.15202 1
gene 3 3 8 1.88854 0 3 1.88854 0
gene 2 4 8 -0.851149 0 4 -0.851149 1
gene 1 5 8 -0.294021 0 5 -0.294021 1
gene 2 6 8 1.50587 0 6 1.50587 1
gene 1 7 8 -0.607648 0 7 -0.607648 1
gene 3 3 11 3.69255 0 12 3.69255 1
gene 3 11 8 -2.3535 0 13 -2.3535 1
gene 2 4 23 1.70456 0 41 1.70456 1
gene 2 23 8 -2.44231 0 42 -2.44231 1
gene 2 6 11 -1.67792 0 45 -1.67792 1
genomeend 22

/* Organism #23 Fitness: 59 Error: 0 */
genomestart 23
trait 1 0.1 0 0 0 0 0 0 0 
trait 2 0.2 0 0 0 0 0 0 0 
trait 3 0.3 0 0 0 0 0 0 0 
node 1 2 1 1
node 2 3 1 1
node 3 3 1 1
node 4 3 1 1
node 5 1 1 1
node 6 1 1 1
node 7 3 1 3
node 8 2 0 2
node 11 1 0 0
node 23 1 0 0
node 77 1 0 0
gene 2 1 8 -0.738309 0 1 -0.738309 1
gene 1 2 8 -0.294996 0 2 -0.294996 1
gene 3 3 8 1.69233 0 3 1.69233 0
gene 2 4 8 1.01804 0 4 1.01804 0
gene 1 5 8 4.35569 0 5 4.35569 1
gene 2 6 8 0.229895 0 6 0.229895 1
gene 1 7 8 -0.0490528 0 7 -0.0490528 1
gene 3 3 11 0.222824 0 12 0.222824 1
gene 3 11 8 -0.36559 0 13 -0.36559 0
gene 2 4 23 2.61094 0 41 2.61094 1
gene 2 23 8 -0.745193 0 42 -0.745193 1
gene 2 6 11 -0.405709 0 45 -0.405709 1
gene 3 11 77 1 0 211 0 1
gene 3 77 8 -0.36559 0 212 0 1
genomeend 23

/* Organism #24 Fitness: 5 Error: 0 */
genomestart 24
trait 1 0.1 0 0 0 0 0 0 0 
trait 2 0.2 0 0 0 0 0 0 0 
trait 3 0.3 0 0 0 0 0 0 0 
node 1 2 1 1
node 2 3 1 1
node 3 3 1 1
node 4 3 1 1
node 5 1 1 1
node 6 1 1 1
node 7 3 1 3
node 8 2 0 2
node 11 1 0 0
node 23 1 0 0
node 71 1 0 0
gene 2 1 8 1.42564 0 1 1.42564 1
gene 1 2 8 0.716418 0 2 0.716418 1
gene 3 3 8 -0.794504 0 3 -0.794504 0
gene 2 4 8 0.629871 0 4 0.629871 1
gene 1 5 8 3.86606 0 5 3.86606 1
gene 2 6 8 -1.41301 0 6 -1.41301 1
gene 1 7 8 -1.3825 0 7 -1.3825 1
gene 3 3 11 0.677538 0 12 0.677538 1
gene 3 11 8 0.951246 0 13 0.951246 1
gene 2 4 23 -0.647518 0 41 -0.647518 1
gene 2 23 8 -0.935825 0 42 -0.935825 1
gene 2 6 11 -0.174659 0 45 -0.174659 0
gene 2 6 71 0.29917 0 196 0.29917 1
gene 2 71 11 -1.03114 0 197 -1.03114 1
genomeend 24

/* Organism #25 Fitness: 28 Error: 0 */
genomestart 25
trait 1 0.1 0 0 0 0 0 0 0 
trait 2 0.2 0 0 0 0 0 0 0 
trait 3 0.3 0 0 0 0 0 0 0 
node 1 2 1 1
node 2 3 1 1
node 3 3 1 1
node 4 3 1 1
node 5 1 1 1
node 6 1 1 1
node 7 3 1 3
node 8 2 0 2
node 11 1 0 0
node 23 1 0 0
gene 2 1 8 1.60751 0 1 1.60751 1
gene 1 2 8 -0.294996 0 2 -0.294996 1
gene 3 3 8 1.69233 0 3 1.69233 0
gene 2 4 8 -1.1681 0 4 -1.1681 0
gene 1 5 8 4.35569 0 5 4.35569 1
gene 2 6 8 0.229895 0 6 0.229895 1
gene 1 7 8 -1.52965 0 7 -1.52965 1
gene 3 3 11 -1.11587 0 12 -1.11587 1
gene 3 11 8 1.32609 0 13 1.32609 1
gene 2 4 23 1.41746 0 41 1.41746 1
gene 2 23 8 -1.00557 0 42 -1.00557 1
gene 2 6 11 -2.2973 0 45 -2.2973 1
genomeend 25

/* Organism #26 Fitness: 13 Error: 0 */
genomestart 26
trait 1 0.1 0 0 0 0 0 0 0 
trait 2 0.2 0 0 0 0 0 0 0 
trait 3 0.65 0 0 0 0 0 0 0 
node 1 2 1 1
node 2 3 1 1
node 3 3 1 1
node 4 3 1 1
node 5 1 1 1
node 6 1 1 1
node 7 3 1 3
node 8 2 0 2
node 11 1 0 0
node 23 1 0 0
gene 2 1 8 2.13888 0 1 2.13888 1
gene 1 2 8 2.53394 0 2 2.53394 1
gene 3 3 8 1.37556 0 3 1.37556 0
gene 2 4 8 4.56867 0 4 4.56867 1
gene 1 5 8 -0.283397 0 5 -0.283397 1
gene 2 6 8 2.42638 0 6 2.42638 1
gene 1 7 8 -1.30137 0 7 -1.30137 1
gene 3 3 11 3.87272 0 12 3.87272 1
gene 3 11 8 -0.278335 0 13 -0.278335 1
gene 2 4 23 -0.764449 0 41 -0.764449 1
gene 2 23 8 -3.65664 0 42 -3.65664 1
gene 2 6 11 0.201971 0 45 0.201971 1
genomeend 26

/* Species #5 : (Size 11) (AF 29.2727) (Age 15)  */


/* Organism #27 Fitness: 78 Error: 0 */
genomestart 27
trait 1 0.1 0 0 0 0 0 0 0 
trait 2 0.2 0 0 0 0 0 0 0 
trait 3 0.3 0 0 0 0 0 0 0 
node 1 2 1 1
node 2 3 1 1
node 3 3 1 1
node 4 3 1 1
node 5 1 1 1
node 6 1 1 1
node 7 3 1 3
node 8 2 0 2
node 11 1 0 0
node 24 1 0 0
gene 2 1 8 2.97625 0 1 2.97625 1
gene 3 2 8 3.4816 0 2 3.4816 1
gene 3 3 8 -5.76208 0 3 -5.76208 1
gene 2 4 8 0.99946 0 4 0.99946 1
gene 1 5 8 2.12713 0 5 2.12713 1
gene 1 6 8 1.19864 0 6 1.19864 1
gene 1 7 8 -1.37849 0 7 -1.37849 1
gene 3 3 11 -0.354014 0 12 -0.354014 1
gene 3 11 8 -0.0444317 0 13 -0.0444317 1
gene 3 11 24 -1.83497 0 43 -1.83497 1
gene 3 24 8 0.794789 0 44 0.794789 1
gene 2 7 24 1.62232 0 125 1.62232 1
genomeend 27

/* Organism #28 Fitness: 40 Error: 0 */
genomestart 28
trait 1 0.1 0 0 0 0 0 0 0 
trait 2 0.2 0 0 0 0 0 0 0 
trait 3 0.3 0 0 0 0 0 0 0 
node 1 2 1 1
node 2 3 1 1
node 3 3 1 1
node 4 3 1 1
node 5 1 1 1
node 6 1 1 1
node 7 3 1 3
node 8 2 0 2
node 11 1 0 0
node 24 1 0 0
gene 2 1 8 3.73986 0 1 3.73986 1
gene 3 2 8 4.87975 0 2 4.87975 1
gene 3 3 8 -5.87001 0 3 -5.87001 1
gene 2 4 8 1.49953 0 4 1.49953 1
gene 1 5 8 1.55989 0 5 1.55989 1
gene 1 6 8 1.86994 0 6 1.86994 1
gene 1 7 8 0.638246 0 7 0.638246 1
gene 3 3 11 -1.298 0 12 -1.298 1
gene 3 11 8 -1.44916 0 13 -1.44916 1
gene 3 11 24 -4.30185 0 43 -4.30185 1
gene 3 24 8 2.73588 0 44 2.73588 1
gene 2 7 24 0.854193 0 125 0.854193 1
genomeend 28

/* Organism #29 Fitness: 6 Error: 0 */
genomestart 29
trait 1 0.1 0 0 0 0 0 0 0 
trait 2 0.2 0 0 0 0 0 0 0 
trait 3 0.3 0 0 0.0607384 0.458367 0 0 0 
node 1 2 1 1
node 2 3 1 1
node 3 3 1 1
node 4 3 1 1
node 5 1 1 1
node 6 1 1 1
node 7 3 1 3
node 8 2 0 2
node 11 1 0 0
node 24 1 0 0
gene 2 1 8 3.26972 0 1 3.26972 1
gene 3 2 8 3.77829 0 2 3.77829 1
gene 3 3 8 -1.04914 0 3 -1.04914 1
gene 2 4 8 0.594048 0 4 0.594048 1
gene 1 5 8 -2.09515 0 5 -2.09515 1
gene 1 6 8 1.19864 0 6 1.19864 1
gene 2 7 8 -0.385188 0 7 -0.385188 1
gene 3 3 11 -0.823494 0 12 -0.823494 1
gene 3 11 8 -2.17048 0 13 -2.17048 1
gene 3 11 24 -1.04145 0 43 -1.04145 1
gene 3 24 8 -1.68557 0 44 -1.68557 1
gene 2 7 24 3.26281 0 125 3.26281 1
genomeend 29

/* Organism #30 Fitness: 5 Error: 0 */
genomestart 30
trait 1 0.1 0 0 0 0 0 0 0 
trait 2 0.2 0 0 0 0 0 0 0 
trait 3 0.3 0 0 0 0 0 0 0 
node 1 3 1 1
node 2 3 1 1
node 3 3 1 1
node 4 3 1 1
node 5 1 1 1
node 6 1 1 1
node 7 3 1 3
node 8 2 0 2
node 11 1 0 0
node 24 1 0 0
gene 2 1 8 5.01938 0 1 5.01938 1
gene 3 2 8 3.8173 0 2 3.8173 1
gene 3 3 8 -6.89337 0 3 -6.89337 1
gene 2 4 8 0.413698 0 4 0.413698 1
gene 1 5 8 3.01974 0 5 3.01974 1
gene 1 6 8 0.0491298 0 6 0.0491298 1
gene 2 7 8 -3.36302 0 7 -3.36302 1
gene 3 3 11 -0.295587 0 12 -0.295587 1
gene 3 11 8 -1.18821 0 13 -1.18821 1
gene 3 11 24 -2.2132 0 43 -2.2132 1
gene 3 24 8 -0.0337026 0 44 -0.0337026 1
gene 2 7 24 1.09891 0 125 1.09891 1
genomeend 30

/* Organism #31 Fitness: 11 Error: 0 */
genomestart 31
trait 1 0.1 0 0 0 0 0 0 0 
trait 2 0.2 0 0 0 0 0 0 0 
trait 3 0.3 0 0 0 0 0 0 0 
node 1 2 1 1
node 2 3 1 1
node 3 3 1 1
node 4 3 1 1
node 5 1 1 1
node 6 1 1 1
node 7 3 1 3
node 8 2 0 2
node 11 1 0 0
node 24 1 0 0
gene 2 1 8 3.0121 0 1 3.0121 1
gene 3 2 8 2.23557 0 2 2.23557 1
gene 3 3 8 -6.32443 0 3 -6.32443 1
gene 2 4 8 0.945167 0 4 0.945167 1
gene 1 5 8 1.97615 0 5 1.97615 1
gene 1 6 8 2.90693 0 6 2.90693 1
gene 2 7 8 -3.63388 0 7 -3.63388 1
gene 3 3 11 -1.9138 0 12 -1.9138 1
gene 3 11 8 0.95852 0 13 0.95852 1
gene 3 11 24 -1.17035 0 43 -1.17035 1
gene 3 24 8 -2.07731 0 44 -2.07731 1
gene 2 7 24 0.867447 0 125 0.867447 1
genomeend 31

/* Organism #32 Fitness: 30 Error: 0 */
genomestart 32
trait 1 0.1 0 0 0 0 0 0 0 
trait 2 0.2 0 0 0 0 0 0 0 
trait 3 0.3 0 0 0 0 0 0 0 
node 1 2 1 1
node 2 3 1 1
node 3 3 1 1
node 4 3 1 1
node 5 1 1 1
node 6 1 1 1
node 7 3 1 3
node 8 2 0 2
node 11 1 0 0
node 24 1 0 0
gene 2 1 8 2.97625 0 1 2.97625 1
gene 3 2 8 3.4816 0 2 3.4816 1
gene 3 3 8 -5.76208 0 3 -5.76208 1
gene 2 4 8 0.99946 0 4 0.99946 1
gene 1 5 8 2.12713 0 5 2.12713 1
gene 1 6 8 1.19864 0 6 1.19864 1
gene 1 7 8 -1.37849 0 7 -1.37849 1
gene 3 3 11 -0.354014 0 12 -0.354014 1
gene 3 11 8 -0.0444317 0 13 -0.0444317 1
gene 3 11 24 -1.83497 0 43 -1.83497 1
gene 3 24 8 0.794789 0 44 0.794789 1
gene 2 7 24 1.62232 0 125 1.62232 1
gene 3 5 11 0.567853 0 213 0.567853 1
genomeend 32

/* Organism #33 Fitness: 20 Error: 0 */
genomestart 33
trait 1 0.1 0 0 0 0 0 0 0 
trait 2 0.2 0 0 0 0 0 0 0 
trait 3 0.3 0 0 0 0 0 0 0 
node 1 2 1 1
node 2 3 1 1
node 3 3 1 1
node 4 3 1 1
node 5 1 1 1
node 6 1 1 1
node 7 3 1 3
node 8 2 0 2
node 11 1 0 0
node 24 1 0 0
gene 2 1 8 1.21428 0 1 1.21428 1
gene 3 2 8 1.65292 0 2 1.65292 1
gene 3 3 8 -3.8306 0 3 -3.8306 1
gene 2 4 8 2.27382 0 4 2.27382 1
gene 1 5 8 1.8282 0 5 1.8282 1
gene 1 6 8 3.00583 0 6 3.00583 1
gene 2 7 8 -1.71968 0 7 -1.71968 1
gene 3 3 11 -0.993742 0 12 -0.993742 1
gene 3 11 8 -2.18476 0 13 -2.18476 1
gene 3 11 24 -3.26983 0 43 -3.26983 1
gene 3 24 8 -0.661394 0 44 -0.661394 1
gene 2 7 24 0.229296 0 125 0.229296 1
genomeend 33

/* Organism #34 Fitness: 42 Error: 0 */
genomestart 34
trait 1 0.1 0 0 0 0 0 0 0 
trait 2 0.2 0 0 0 0 0 0 0 
trait 3 0.3 0 0 0 0 0 0 0 
node 1 2 1 1
node 2 3 1 1
node 3 3 1 1
node 4 3 1 1
node 5 1 1 1
node 6 1 1 1
node 7 3 1 3
node 8 2 0 2
node 11 1 0 0
node 24 1 0 0
gene 2 1 8 4.28639 0 1 4.28639 1
gene 3 2 8 2.81508 0 2 2.81508 1
gene 3 3 8 -3.44302 0 3 -3.44302 1
gene 2 4 8 -0.776124 0 4 -0.776124 1
gene 1 5 8 4.00102 0 5 4.00102 1
gene 1 6 8 2.7477 0 6 2.7477 1
gene 2 7 8 -2.36005 0 7 -2.36005 1
gene 3 3 11 2.46732 0 12 2.46732 1
gene 3 11 8 0.534884 0 13 0.534884 1
gene 3 11 24 -3.63361 0 43 -3.63361 1
gene 3 24 8 2.38891 0 44 2.38891 1
gene 2 7 24 1.54759 0 125 1.54759 1
genomeend 34

/* Organism #35 Fitness: 78 Error: 0 */
genomestart 35
trait 1 0.1 0 0 0 0 0 0 0 
trait 2 0.2 0 0 0 0 0 0 0 
trait 3 0.3 0 0 0 0 0 0 0 
node 1 2 1 1
node 2 3 1 1
node 3 3 1 1
node 4 3 1 1
node 5 1 1 1
node 6 1 1 1
node 7 3 1 3
node 8 2 0 2
node 11 1 0 0
node 24 1 0 0
gene 2 1 8 2.97625 0 1 2.97625 1
gene 3 2 8 3.4816 0 2 3.4816 1
gene 3 3 8 -5.76208 0 3 -5.76208 1
gene 2 4 8 0.99946 0 4 0.99946 1
gene 1 5 8 2.12713 0 5 2.12713 1
gene 1 6 8 1.19864 0 6 1.19864 1
gene 2 7 8 -1.37849 0 7 -1.37849 1
gene 3 3 11 -0.354014 0 12 -0.354014 1
gene 3 11 8 -0.0444317 0 13 -0.0444317 1
gene 3 11 24 -1.83497 0 43 -1.83497 1
gene 3 24 8 0.794789 0 44 0.794789 1
gene 2 7 24 1.62232 0 125 1.62232 1
genomeend 35

/* Organism #36 Fitness: 5 Error: 0 */
genomestart 36
trait 1 0.1 0 0 0 0 0 0 0 
trait 2 0.2 0 0 0 0 0 0 0 
trait 3 0 0 0 0 0 0 0.811626 0 
node 1 2 1 1
node 2 3 1 1
node 3 3 1 1
node 4 3 1 1
node 5 1 1 1
node 6 1 1 1
node 7 3 1 3
node 8 2 0 2
node 11 1 0 0
node 24 1 0 0
gene 2 1 8 1.81476 0 1 1.81476 1
gene 3 2 8 3.65653 0 2 3.65653 1
gene 3 3 8 -4.7923 0 3 -4.7923 1
gene 2 4 8 1.33457 0 4 1.33457 1
gene 1 5 8 2.40275 0 5 2.40275 1
gene 1 6 8 -0.200123 0 6 -0.200123 1
gene 2 7 8 -1.71692 0 7 -1.71692 1
gene 3 3 11 0.283239 0 12 0.283239 1
gene 3 11 8 -1.65872 0 13 -1.65872 1
gene 3 11 24 -1.07527 0 43 -1.07527 1
gene 3 24 8 -0.0934779 0 44 -0.0934779 1
gene 2 7 24 2.9458 0 125 2.9458 1
genomeend 36

/* Organism #37 Fitness: 7 Error: 0 */
genomestart 37
trait 1 0.1 0 0 0 0 0 0 0 
trait 2 0.2 0 0 0 0 0 0 0 
trait 3 0.3 0 0 0 0 0 0 0 
node 1 2 1 1
node 2 3 1 1
node 3 3 1 1
node 4 3 1 1
node 5 1 1 1
node 6 1 1 1
node 7 3 1 3
node 8 2 0 2
node 11 1 0 0
node 24 1 0 0
gene 2 1 8 2.96323 0 1 2.96323 1
gene 3 2 8 3.4816 0 2 3.4816 1
gene 3 3 8 -5.4429 0 3 -5.4429 1
gene 2 4 8 1.30633 0 4 1.30633 1
gene 1 5 8 0.632809 0 5 0.632809 1
gene 1 6 8 0.333623 0 6 0.333623 1
gene 1 7 8 0.858643 0 7 0.858643 1
gene 3 3 11 1.36562 0 12 1.36562 1
gene 3 11 8 -0.482935 0 13 -0.482935 1
gene 3 11 24 -3.50061 0 43 -3.50061 1
gene 3 24 8 1.46429 0 44 1.46429 1
gene 2 7 24 -1.54223 0 125 -1.54223 1
genomeend 37

/* Species #6 : (Size 9) (AF 33.6667) (Age 15)  */


/* Organism #38 Fitness: 85 Error: 0 */
genomestart 38
trait 1 0.1 0 0 0 0 0 0 0 
trait 2 0.2 0 0 0 0 0 0 0 
trait 3 0.3 0 0 0 0 0 0 0 
node 1 2 1 1
node 2 3 1 1
node 3 3 1 1
node 4 3 1 1
node 5 1 1 1
node 6 1 1 1
node 7 3 1 3
node 8 3 0 2
node 11 1 0 0
node 15 1 0 0
node 22 1 0 0
node 26 1 0 0
node 64 1 0 0
gene 2 1 8 5.59252 0 1 5.59252 1
gene 3 2 8 3.35986 0 2 3.35986 0
gene 2 3 8 1.55377 0 3 1.55377 0
gene 1 4 8 -1.97874 0 4 -1.97874 1
gene 1 5 8 0.768507 0 5 0.768507 1
gene 1 6 8 1.68979 0 6 1.68979 1
gene 1 7 8 -1.63198 0 7 -1.63198 1
gene 3 3 11 5.12118 0 12 5.12118 1
gene 3 11 8 -1.39677 0 13 -1.39677 0
gene 3 11 15 3.08675 0 20 3.08675 1
gene 3 15 8 0.831664 0 21 0.831664 1
gene 3 2 22 -3.22519 0 38 -3.22519 0
gene 3 22 8 -0.333828 0 39 -0.333828 1
gene 3 2 26 1 0 48 1 1
gene 3 26 22 -1.47017 0 49 -1.47017 0
gene 3 5 22 0.231769 0 146 0.231769 1
gene 3 26 64 1 0 172 0 1
gene 3 64 22 -1.47017 0 173 0 1
genomeend 38

/* Organism #39 Fitness: 42 Error: 0 */
genomestart 39
trait 1 0.1 0 0 0 0 0 0 0 
trait 2 0.2 0 0 0 0 0 0 0 
trait 3 0.3 0 0 0 0 0 0 0 
node 1 2 1 1
node 2 3 1 1
node 3 3 1 1
node 4 3 1 1
node 5 1 1 1
node 6 1 1 1
node 7 3 1 3
node 8 3 0 2
node 11 1 0 0
node 15 1 0 0
node 22 1 0 0
node 26 1 0 0
node 64 1 0 0
gene 2 1 8 6.28589 0 1 6.28589 1
gene 3 2 8 5.3846 0 2 5.3846 0
gene 2 3 8 2.55318 0 3 2.55318 0
gene 1 4 8 -4.1782 0 4 -4.1782 1
gene 1 5 8 1.28922 0 5 1.28922 1
gene 1 6 8 3.31636 0 6 3.31636 1
gene 1 7 8 -3.16776 0 7 -3.16776 1
gene 3 3 11 6.58775 0 12 6.58775 1
gene 3 11 8 -1.94595 0 13 -1.94595 0
gene 3 11 15 3.93591 0 20 3.93591 1
gene 3 15 8 0.865749 0 21 0.865749 1
gene 3 2 22 -5.59723 0 38 -5.59723 0
gene 3 22 8 0.275827 0 39 0.275827 1
gene 3 2 26 0.850219 0 48 0.850219 1
gene 3 26 22 -2.12799 0 49 -2.12799 0
gene 3 5 22 0.231769 0 146 0.231769 1
gene 3 26 64 1 0 172 1 1
gene 3 64 22 -0.769987 0 173 -0.769987 1
genomeend 39

/* Organism #40 Fitness: 40 Error: 0 */
genomestart 40
trait 1 0.1 0 0 0 0 0 0 0 
trait 2 0.2 0 0 0 0 0 0 0 
trait 3 0.3 0 0 0 0 0 0 0 
node 1 2 1 1
node 2 3 1 1
node 3 3 1 1
node 4 3 1 1
node 5 1 1 1
node 6 1 1 1
node 7 3 1 3
node 8 3 0 2
node 11 1 0 0
node 15 1 0 0
node 22 1 0 0
node 26 1 0 0
node 64 1 0 0
gene 2 1 8 3.30829 0 1 3.30829 1
gene 3 2 8 -1.53958 0 2 -1.53958 0
gene 2 3 8 3.3714 0 3 3.3714 0
gene 1 4 8 -1.97874 0 4 -1.97874 1
gene 1 5 8 0.282427 0 5 0.282427 1
gene 1 6 8 3.85509 0 6 3.85509 1
gene 1 7 8 -2.34178 0 7 -2.34178 1
gene 3 3 11 3.33324 0 12 3.33324 1
gene 3 11 8 -1.39677 0 13 -1.39677 0
gene 3 11 15 3.03797 0 20 3.03797 1
gene 3 15 8 0.960891 0 21 0.960891 1
gene 3 2 22 0.70882 0 38 0.70882 0
gene 3 22 8 -2.20072 0 39 -2.20072 1
gene 3 2 26 0.769942 0 48 0.769942 1
gene 3 26 22 -1.24506 0 49 -1.24506 0
gene 3 5 22 -1.02508 0 146 -1.02508 1
gene 3 26 64 1 0 172 1 1
gene 3 64 22 -2.30381 0 173 -2.30381 1
genomeend 40

/* Organism #41 Fitness: 18 Error: 0 */
genomestart 41
trait 1 0.1 0 0 0 0 0 0 0 
trait 2 0.2 0 0 0 0 0 0 0 
trait 3 0.3 0 0 0 0 0 0 0 
node 1 2 1 1
node 2 3 1 1
node 3 3 1 1
node 4 3 1 1
node 5 1 1 1
node 6 1 1 1
node 7 3 1 3
node 8 3 0 2
node 11 1 0 0
node 15 1 0 0
node 22 1 0 0
node 26 1 0 0
node 64 1 0 0
gene 2 1 8 -0.934009 0 1 -0.934009 1
gene 3 2 8 1.3929 0 2 1.3929 0
gene 2 3 8 2.14251 0 3 2.14251 0
gene 1 4 8 -0.0844828 0 4 -0.0844828 1
gene 1 5 8 -0.398219 0 5 -0.398219 1
gene 1 6 8 1.22126 0 6 1.22126 1
gene 1 7 8 -3.96866 0 7 -3.96866 1
gene 3 3 11 4.03429 0 12 4.03429 1
gene 3 11 8 -0.563564 0 13 -0.563564 0
gene 3 11 15 2.26405 0 20 2.26405 1
gene 3 15 8 2.0043 0 21 2.0043 1
gene 3 2 22 -5.67685 0 38 -5.67685 0
gene 3 22 8 -0.632505 0 39 -0.632505 1
gene 3 2 26 1 0 48 1 1
gene 3 26 22 -1.47017 0 49 -1.47017 0
gene 3 5 22 1.22617 0 146 1.22617 1
gene 3 26 64 -1.44051 0 172 -1.44051 1
gene 3 64 22 -0.212811 0 173 -0.212811 1
genomeend 41

/* Organism #42 Fitness: 7 Error: 0 */
genomestart 42
trait 1 0.1 0 0 0 0 0 0 0 
trait 2 0.2 0 0 0 0 0 0 0 
trait 3 0.3 0 0 0 0 0 0 0 
node 1 2 1 1
node 2 3 1 1
node 3 3 1 1
node 4 3 1 1
node 5 1 1 1
node 6 1 1 1
node 7 3 1 3
node 8 3 0 2
node 11 1 0 0
node 15 1 0 0
node 22 1 0 0
node 26 1 0 0
node 64 1 0 0
gene 2 1 8 3.10111 0 1 3.10111 1
gene 3 2 8 1.31733 0 2 1.31733 0
gene 2 3 8 1.9718 0 3 1.9718 0
gene 1 4 8 -3.20237 0 4 -3.20237 1
gene 1 5 8 1.2537 0 5 1.2537 1
gene 1 6 8 -0.213727 0 6 -0.213727 1
gene 1 7 8 0.0599772 0 7 0.0599772 1
gene 3 3 11 4.90752 0 12 4.90752 1
gene 3 11 8 0.0484851 0 13 0.0484851 0
gene 3 11 15 3.80825 0 20 3.80825 1
gene 3 15 8 0.411839 0 21 0.411839 1
gene 3 2 22 -4.16184 0 38 -4.16184 0
gene 3 22 8 -0.224066 0 39 -0.224066 1
gene 3 2 26 0.649039 0 48 0.649039 1
gene 3 26 22 0.514965 0 49 0.514965 0
gene 3 5 22 1.64961 0 146 1.64961 1
gene 3 26 64 1 0 172 1 1
gene 3 64 22 -1.91756 0 173 -1.91756 1
genomeend 42

/* Organism #43 Fitness: 40 Error: 0 */
genomestart 43
trait 1 0.1 0 0 0 0 0 0 0 
trait 2 0.2 0 0 0 0 0 0 0 
trait 3 0.3 0 0 0 0 0 0 0 
node 1 2 1 1
node 2 3 1 1
node 3 3 1 1
node 4 3 1 1
node 5 1 1 1
node 6 1 1 1
node 7 3 1 3
node 8 3 0 2
node 11 1 0 0
node 15 1 0 0
node 22 1 0 0
node 26 1 0 0
node 64 1 0 0
gene 2 1 8 7.79164 0 1 7.79164 1
gene 3 2 8 4.04886 0 2 4.04886 0
gene 2 3 8 0.959808 0 3 0.959808 0
gene 1 4 8 -3.97758 0 4 -3.97758 1
gene 1 5 8 -0.143928 0 5 -0.143928 1
gene 1 6 8 2.51907 0 6 2.51907 1
gene 1 7 8 -1.46309 0 7 -1.46309 1
gene 3 3 11 6.03654 0 12 6.03654 1
gene 3 11 8 -1.49385 0 13 -1.49385 0
gene 3 11 15 0.606061 0 20 0.606061 1
gene 3 15 8 0.624596 0 21 0.624596 1
gene 3 2 22 -2.53632 0 38 -2.53632 0
gene 3 22 8 0.47924 0 39 0.47924 1
gene 3 2 26 -1.39576 0 48 -1.39576 1
gene 3 26 22 -0.812327 0 49 -0.812327 1
gene 3 5 22 0.476591 0 146 0.476591 1
gene 3 26 64 1 0 172 1 1
gene 3 64 22 -3.52615 0 173 -3.52615 1
genomeend 43

/* Organism #44 Fitness: 25 Error: 0 */
genomestart 44
trait 1 0.1 0 0 0 0 0 0 0 
trait 2 0.2 0 0 0 0 0 0 0 
trait 3 0.3 0 0 0 0 0 0 0 
node 1 2 1 1
node 2 3 1 1
node 3 3 1 1
node 4 3 1 1
node 5 1 1 1
node 6 1 1 1
node 7 3 1 3
node 8 3 0 2
node 11 1 0 0
node 15 1 0 0
node 22 1 0 0
node 26 1 0 0
node 64 1 0 0
gene 2 1 8 -2.33566 0 1 -2.33566 1
gene 3 2 8 1.45611 0 2 1.45611 0
gene 2 3 8 3.0332 0 3 3.0332 0
gene 1 4 8 0.0679627 0 4 0.0679627 1
gene 1 5 8 1.97385 0 5 1.97385 1
gene 1 6 8 0.516363 0 6 0.516363 1
gene 1 7 8 -0.423373 0 7 -0.423373 1
gene 3 3 11 5.25007 0 12 5.25007 1
gene 3 11 8 -2.54011 0 13 -2.54011 0
gene 3 11 15 1.80757 0 20 1.80757 1
gene 3 15 8 -1.65833 0 21 -1.65833 1
gene 3 2 22 -1.91189 0 38 -1.91189 0
gene 3 22 8 -0.167151 0 39 -0.167151 1
gene 3 2 26 1.62424 0 48 1.62424 1
gene 3 26 22 0.0992465 0 49 0.0992465 0
gene 3 5 22 -0.41864 0 146 -0.41864 1
gene 3 26 64 -1.22928 0 172 -1.22928 1
gene 3 64 22 -3.22055 0 173 -3.22055 1
genomeend 44

/* Organism #45 Fitness: 24 Error: 0 */
genomestart 45
trait 1 0.1 0 0 0 0 0 0 0 
trait 2 0.2 0 0 0 0 0 0 0 
trait 3 0.3 0 0 0 0 0 0 0 
node 1 2 1 1
node 2 3 1 1
node 3 3 1 1
node 4 3 1 1
node 5 1 1 1
node 6 1 1 1
node 7 3 1 3
node 8 3 0 2
node 11 1 0 0
node 15 1 0 0
node 22 1 0 0
node 26 1 0 0
node 64 1 0 0
gene 2 1 8 3.1156 0 1 3.1156 1
gene 3 2 8 4.70194 0 2 4.70194 0
gene 2 3 8 -2.33312 0 3 -2.33312 0
gene 1 4 8 -1.97874 0 4 -1.97874 1
gene 1 5 8 2.43565 0 5 2.43565 1
gene 1 6 8 2.89127 0 6 2.89127 1
gene 1 7 8 1.94849 0 7 1.94849 1
gene 3 3 11 5.79931 0 12 5.79931 1
gene 3 11 8 0.353527 0 13 0.353527 0
gene 3 11 15 3.08675 0 20 3.08675 1
gene 3 15 8 1.95869 0 21 1.95869 1
gene 3 2 22 -3.39261 0 38 -3.39261 0
gene 3 22 8 -0.603652 0 39 -0.603652 1
gene 3 2 26 -1.37694 0 48 -1.37694 1
gene 3 26 22 -1.47017 0 49 -1.47017 0
gene 3 5 22 0.231769 0 146 0.231769 1
gene 3 26 64 1 0 172 1 1
gene 3 64 22 -2.19123 0 173 -2.19123 1
genomeend 45

/* Organism #46 Fitness: 22 Error: 0 */
genomestart 46
trait 1 0.1 0 0 0 0 0 0 0 
trait 2 0.2 0 0 0 0 0 0 0 
trait 3 0.3 0 0 0 0 0 0 0 
node 1 2 1 1
node 2 3 1 1
node 3 3 1 1
node 4 3 1 1
node 5 1 1 1
node 6 1 1 1
node 7 3 1 3
node 8 3 0 2
node 11 1 0 0
node 15 1 0 0
node 22 1 0 0
node 26 1 0 0
node 64 1 0 0
gene 2 1 8 5.76882 0 1 5.76882 1
gene 3 2 8 4.29302 0 2 4.29302 1
gene 2 3 8 -0.916382 0 3 -0.916382 0
gene 1 4 8 -1.01056 0 4 -1.01056 1
gene 1 5 8 1.72751 0 5 1.72751 1
gene 1 6 8 0.152353 0 6 0.152353 1
gene 1 7 8 0.459661 0 7 0.459661 1
gene 3 3 11 3.58198 0 12 3.58198 1
gene 3 11 8 0.216868 0 13 0.216868 0
gene 3 11 15 1.10897 0 20 1.10897 1
gene 3 15 8 0.0319897 0 21 0.0319897 1
gene 3 2 22 -4.98119 0 38 -4.98119 1
gene 3 22 8 -1.39309 0 39 -1.39309 1
gene 3 2 26 1.77715 0 48 1.77715 1
gene 3 26 22 -2.51417 0 49 -2.51417 0
gene 3 5 22 1.86631 0 146 1.86631 1
gene 3 26 64 0.401898 0 172 0.401898 1
gene 3 64 22 -1.47017 0 173 -1.47017 1
genomeend 46

/* Species #7 : (Size 12) (AF 56.5) (Age 15)  */


/* Organism #47 Fitness: 188 Error: 0 */
genomestart 47
trait 1 0.1 0 0 0 0 0 0 0 
trait 2 0.2 0 0 0 0 0 0 0 
trait 3 0.3 0 0 0 0 0 0 0 
node 1 2 1 1
node 2 3 1 1
node 3 3 1 1
node 4 3 1 1
node 5 1 1 1
node 6 1 1 1
node 7 3 1 3
node 8 2 0 2
node 11 1 0 0
gene 2 1 8 -0.473467 0 1 -0.473467 1
gene 1 2 8 1.08188 0 2 1.08188 1
gene 3 3 8 0.726432 0 3 0.726432 0
gene 2 4 8 -0.703932 0 4 -0.703932 1
gene 1 5 8 2.10759 0 5 2.10759 1
gene 2 6 8 1.37339 0 6 1.37339 1
gene 1 7 8 -1.81433 0 7 -1.81433 1
gene 3 3 11 -0.186422 0 12 -0.186422 1
gene 3 11 8 1.81347 0 13 1.81347 1
gene 2 6 11 -0.405709 0 45 -0.405709 1
gene 1 4 11 -0.93692 0 56 -0.93692 1
genomeend 47

/* Organism #48 Fitness: 54 Error: 0 */
genomestart 48
trait 1 0.0875 0.0941193 0 0 0.0859075 0 0.124212 0 
trait 2 0.2 0 0 0 0 0 0 0 
trait 3 0.3 0 0 0 0 0 0 0 
node 1 2 1 1
node 2 3 1 1
node 3 3 1 1
node 4 3 1 1
node 5 1 1 1
node 6 1 1 1
node 7 3 1 3
node 8 2 0 2
node 11 1 0 0
gene 2 1 8 -1.18007 0 1 -1.18007 1
gene 3 2 8 3.14514 0 2 3.14514 1
gene 3 3 8 3.4657 0 3 3.4657 0
gene 2 4 8 -1.18872 0 4 -1.18872 1
gene 1 5 8 4.14785 0 5 4.14785 1
gene 2 6 8 4.71837 0 6 4.71837 1
gene 2 7 8 -1.6965 0 7 -1.6965 1
gene 3 3 11 -1.02308 0 12 -1.02308 1
gene 3 11 8 -0.0213151 0 13 -0.0213151 1
gene 2 6 11 0.213481 0 45 0.213481 1
gene 1 4 11 -0.528907 0 56 -0.528907 1
genomeend 48

/* Organism #49 Fitness: 37 Error: 0 */
genomestart 49
trait 1 0.075 0.188239 0 0 0.171815 0 0.248424 0 
trait 2 0.2 0 0 0 0 0 0 0 
trait 3 0.3 0 0 0 0 0 0 0 
node 1 2 1 1
node 2 3 1 1
node 3 3 1 1
node 4 3 1 1
node 5 1 1 1
node 6 1 1 1
node 7 3 1 3
node 8 2 0 2
node 11 1 0 0
gene 2 1 8 -1.46371 0 1 -1.46371 1
gene 3 2 8 0.589662 0 2 0.589662 1
gene 3 3 8 0.308967 0 3 0.308967 0
gene 2 4 8 -2.92159 0 4 -2.92159 1
gene 1 5 8 4.45956 0 5 4.45956 1
gene 1 6 8 2.18485 0 6 2.18485 1
gene 2 7 8 -4.52471 0 7 -4.52471 1
gene 3 3 11 -0.272376 0 12 -0.272376 1
gene 3 11 8 -0.271203 0 13 -0.271203 1
gene 2 6 11 -0.0385626 0 45 -0.0385626 1
gene 1 4 11 -0.93692 0 56 -0.93692 1
genomeend 49

/* Organism #50 Fitness: 39 Error: 0 */
genomestart 50
trait 1 0.1 0 0 0 0 0 0 0 
trait 2 0.2 0 0 0 0 0 0 0 
trait 3 0.3 0 0 0 0 0 0 0 
node 1 2 1 1
node 2 3 1 1
node 3 3 1 1
node 4 3 1 1
node 5 1 1 1
node 6 1 1 1
node 7 3 1 3
node 8 2 0 2
node 11 1 0 0
gene 2 1 8 0.670942 0 1 0.670942 1
gene 1 2 8 0.288872 0 2 0.288872 1
gene 3 3 8 0.726432 0 3 0.726432 0
gene 2 4 8 -0.219721 0 4 -0.219721 1
gene 1 5 8 1.08433 0 5 1.08433 1
gene 2 6 8 3.20737 0 6 3.20737 1
gene 1 7 8 -1.81433 0 7 -1.81433 1
gene 3 3 11 -0.186422 0 12 -0.186422 1
gene 3 11 8 2.54227 0 13 2.54227 1
gene 2 6 11 0.832671 0 45 0.832671 1
gene 1 4 11 -1.46793 0 56 -1.46793 1
genomeend 50

/* Organism #51 Fitness: 36 Error: 0 */
genomestart 51
trait 1 0.075 0.188239 0 0 0.171815 0 0.248424 0 
trait 2 0.2 0 0 0 0 0 0 0 
trait 3 0.3 0 0 0 0 0 0 0 
node 1 2 1 1
node 2 3 1 1
node 3 3 1 1
node 4 3 1 1
node 5 1 1 1
node 6 1 1 1
node 7 3 1 3
node 8 2 0 2
node 11 1 0 0
gene 2 1 8 2.13515 0 1 2.13515 1
gene 3 2 8 1.67326 0 2 1.67326 1
gene 3 3 8 0.953732 0 3 0.953732 0
gene 2 4 8 -0.744365 0 4 -0.744365 1
gene 1 5 8 2.69786 0 5 2.69786 1
gene 1 6 8 1.65781 0 6 1.65781 1
gene 2 7 8 -3.12338 0 7 -3.12338 1
gene 3 3 11 -1.91726 0 12 -1.91726 1
gene 3 11 8 -0.225222 0 13 -0.225222 1
gene 2 6 11 -0.0654427 0 45 -0.0654427 1
gene 1 4 11 -0.93692 0 56 -0.93692 1
genomeend 51

/* Organism #52 Fitness: 5 Error: 0 */
genomestart 52
trait 1 0.075 0.188239 0 0 0.171815 0 0.248424 0 
trait 2 0.2 0 0 0 0 0 0 0 
trait 3 0.3 0 0 0 0 0 0 0 
node 1 2 1 1
node 2 3 1 1
node 3 3 1 1
node 4 3 1 1
node 5 1 1 1
node 6 1 1 1
node 7 3 1 3
node 8 2 0 2
node 11 1 0 0
gene 2 1 8 1.55005 0 1 1.55005 1
gene 3 2 8 0.363583 0 2 0.363583 1
gene 3 3 8 0.999653 0 3 0.999653 0
gene 2 4 8 -3.02516 0 4 -3.02516 1
gene 1 5 8 4.81821 0 5 4.81821 1
gene 1 6 8 -0.314194 0 6 -0.314194 1
gene 2 7 8 -1.50511 0 7 -1.50511 1
gene 3 3 11 -2.59289 0 12 -2.59289 1
gene 3 11 8 1.86832 0 13 1.86832 1
gene 2 6 11 -2.75126 0 45 -2.75126 1
gene 1 4 11 -1.56173 0 56 -1.56173 1
genomeend 52

/* Organism #53 Fitness: 22 Error: 0 */
genomestart 53
trait 1 0.1 0 0 0 0 0 0 0 
trait 2 0 0 0.600302 0 0 0.438201 0.809294 0.599201 
trait 3 0.3 0 0 0 0 0 0 0 
node 1 2 1 1
node 2 3 1 1
node 3 3 1 1
node 4 3 1 1
node 5 1 1 1
node 6 1 1 1
node 7 3 1 3
node 8 2 0 2
node 11 1 0 0
gene 2 1 8 -1.53764 0 1 -1.53764 1
gene 1 2 8 0.294407 0 2 0.294407 1
gene 3 3 8 1.60354 0 3 1.60354 0
gene 2 4 8 0.30829 0 4 0.30829 1
gene 1 5 8 1.32739 0 5 1.32739 1
gene 2 6 8 2.46556 0 6 2.46556 1
gene 2 7 8 -3.81226 0 7 -3.81226 1
gene 3 3 11 -1.0896 0 12 -1.0896 1
gene 3 11 8 0.666842 0 13 0.666842 1
gene 2 6 11 -0.823892 0 45 -0.823892 1
gene 1 4 11 -2.94359 0 56 -2.94359 1
genomeend 53

/* Organism #54 Fitness: 77 Error: 0 */
genomestart 54
trait 1 0.0875 0.0941193 0 0 0.0859075 0 0.124212 0 
trait 2 0.2 0 0 0 0 0 0 0 
trait 3 0.3 0 0 0 0 0 0 0 
node 1 2 1 1
node 2 3 1 1
node 3 3 1 1
node 4 3 1 1
node 5 1 1 1
node 6 1 1 1
node 7 3 1 3
node 8 2 0 2
node 11 1 0 0
gene 2 1 8 -0.162613 0 1 -0.162613 1
gene 1 2 8 1.08188 0 2 1.08188 1
gene 3 3 8 0.726432 0 3 0.726432 0
gene 2 4 8 -0.703932 0 4 -0.703932 1
gene 1 5 8 2.69786 0 5 2.69786 1
gene 2 6 8 1.37339 0 6 1.37339 1
gene 1 7 8 -1.81433 0 7 -1.81433 1
gene 3 3 11 -0.186422 0 12 -0.186422 1
gene 3 11 8 1.81347 0 13 1.81347 1
gene 2 6 11 -0.405709 0 45 -0.405709 1
gene 1 4 11 -0.93692 0 56 -0.93692 1
genomeend 54

/* Organism #55 Fitness: 104 Error: 0 */
genomestart 55
trait 1 0.1 0 0 0 0 0 0 0 
trait 2 0.2 0 0 0 0 0 0 0 
trait 3 0.3 0 0 0 0 0 0 0 
node 1 2 1 1
node 2 3 1 1
node 3 3 1 1
node 4 3 1 1
node 5 1 1 1
node 6 1 1 1
node 7 3 1 3
node 8 2 0 2
node 11 1 0 0
gene 2 1 8 -0.473467 0 1 -0.473467 1
gene 1 2 8 1.08188 0 2 1.08188 1
gene 3 3 8 0.726432 0 3 0.726432 0
gene 2 4 8 -0.703932 0 4 -0.703932 1
gene 1 5 8 2.10759 0 5 2.10759 1
gene 2 6 8 1.37339 0 6 1.37339 1
gene 1 7 8 -1.81433 0 7 -1.81433 1
gene 3 3 11 -0.186422 0 12 -0.186422 1
gene 3 11 8 1.81347 0 13 1.81347 1
gene 2 6 11 -0.405709 0 45 -0.405709 1
gene 1 4 11 -0.93692 0 56 -0.93692 1
gene 1 2 11 -0.160033 0 214 -0.160033 1
genomeend 55

/* Organism #56 Fitness: 23 Error: 0 */
genomestart 56
trait 1 0.1 0 0 0 0 0 0 0 
trait 2 0.2 0 0 0 0 0 0 0 
trait 3 0.3 0 0 0 0 0 0 0 
node 1 2 1 1
node 2 3 1 1
node 3 3 1 1
node 4 3 1 1
node 5 1 1 1
node 6 1 1 1
node 7 3 1 3
node 8 2 0 2
node 11 1 0 0
gene 2 1 8 1.21228 0 1 1.21228 1
gene 1 2 8 0.533047 0 2 0.533047 1
gene 3 3 8 2.95417 0 3 2.95417 0
gene 2 4 8 0.613483 0 4 0.613483 1
gene 1 5 8 4.36346 0 5 4.36346 1
gene 2 6 8 1.37339 0 6 1.37339 1
gene 1 7 8 0.507905 0 7 0.507905 1
gene 1 3 11 1.10923 0 12 1.10923 1
gene 3 11 8 3.7089 0 13 3.7089 1
gene 2 6 11 -0.975671 0 45 -0.975671 1
gene 1 4 11 -3.3371 0 56 -3.3371 1
genomeend 56

/* Organism #57 Fitness: 83 Error: 0 */
genomestart 57
trait 1 0.0875 0.0941193 0 0 0.0859075 0 0.124212 0 
trait 2 0.2 0 0 0 0 0 0 0 
trait 3 0.3 0 0 0 0 0 0 0 
node 1 2 1 1
node 2 3 1 1
node 3 3 1 1
node 4 3 1 1
node 5 1 1 1
node 6 1 1 1
node 7 3 1 3
node 8 2 0 2
node 11 1 0 0
gene 2 1 8 0.254165 0 1 0.254165 1
gene 3 2 8 0.981064 0 2 0.981064 1
gene 3 3 8 1.14087 0 3 1.14087 0
gene 2 4 8 -1.53507 0 4 -1.53507 1
gene 1 5 8 1.89109 0 5 1.89109 1
gene 1 6 8 2.52256 0 6 2.52256 1
gene 2 7 8 -2.42094 0 7 -2.42094 1
gene 3 3 11 -1.01238 0 12 -1.01238 1
gene 3 11 8 2.2053 0 13 2.2053 1
gene 2 6 11 0.213481 0 45 0.213481 1
gene 1 4 11 -1.20243 0 56 -1.20243 1
genomeend 57

/* Organism #58 Fitness: 10 Error: 0 */
genomestart 58
trait 1 0.1 0 0 0 0 0 0 0 
trait 2 0.2 0 0 0 0 0 0 0 
trait 3 0.3 0 0 0 0 0 0 0 
node 1 2 1 1
node 2 3 1 1
node 3 3 1 1
node 4 3 1 1
node 5 1 1 1
node 6 1 1 1
node 7 3 1 3
node 8 2 0 2
node 11 1 0 0
gene 2 1 8 -1.16018 0 1 -1.16018 1
gene 1 2 8 1.23734 0 2 1.23734 1
gene 3 3 8 2.94081 0 3 2.94081 0
gene 2 4 8 -1.5021 0 4 -1.5021 1
gene 1 5 8 1.24884 0 5 1.24884 1
gene 2 6 8 1.46928 0 6 1.46928 1
gene 1 7 8 -0.00517836 0 7 -0.00517836 1
gene 3 3 11 1.15385 0 12 1.15385 1
gene 3 11 8 3.51956 0 13 3.51956 1
gene 2 6 11 -0.139749 0 45 -0.139749 1
gene 1 4 11 -0.93692 0 56 -0.93692 1
genomeend 58

/* Species #8 : (Size 7) (AF 45) (Age 15)  */


/* Organism #59 Fitness: 92 Error: 0 */
genomestart 59
trait 1 0.188921 0 0 0 0 0 0 0 
trait 2 0.2 0 0 0 0 0 0 0 
trait 3 0.3 0 0 0 0 0 0 0 
node 1 2 1 1
node 2 3 1 1
node 3 3 1 1
node 4 1 1 1
node 5 3 1 1
node 6 1 1 1
node 7 3 1 3
node 8 2 0 2
node 11 1 0 0
node 27 1 0 0
node 45 1 0 0
gene 2 1 8 3.98705 0 1 3.98705 1
gene 1 2 8 3.51886 0 2 3.51886 0
gene 3 3 8 -0.406507 0 3 -0.406507 0
gene 2 4 8 -1.55432 0 4 -1.55432 1
gene 1 5 8 2.90579 0 5 2.90579 1
gene 2 6 8 0.66119 0 6 0.66119 1
gene 1 7 8 -3.18576 0 7 -3.18576 1
gene 3 3 11 3.16258 0 12 3.16258 0
gene 3 11 8 0.198034 0 13 0.198034 1
gene 2 6 11 0.481109 0 45 0.481109 1
gene 1 2 27 1.06975 0 51 1.06975 1
gene 1 27 8 1.67734 0 52 1.67734 1
gene 3 3 45 2.40902 0 103 2.40902 1
gene 3 45 11 -0.958005 0 104 -0.958005 1
genomeend 59

/* Organism #60 Fitness: 21 Error: 0 */
genomestart 60
trait 1 0.188921 0 0 0 0 0 0 0 
trait 2 0.2 0 0 0 0 0 0 0 
trait 3 0.3 0 0 0 0 0 0 0 
node 1 2 1 1
node 2 3 1 1
node 3 3 1 1
node 4 1 1 1
node 5 3 1 1
node 6 1 1 1
node 7 3 1 3
node 8 2 0 2
node 11 1 0 0
node 27 1 0 0
node 45 1 0 0
gene 2 1 8 2.893 0 1 2.893 1
gene 1 2 8 4.91396 0 2 4.91396 0
gene 3 3 8 0.0110463 0 3 0.0110463 0
gene 2 4 8 -2.12493 0 4 -2.12493 1
gene 1 5 8 0.937013 0 5 0.937013 1
gene 2 6 8 1.16639 0 6 1.16639 1
gene 1 7 8 -3.90167 0 7 -3.90167 1
gene 3 3 11 2.19044 0 12 2.19044 0
gene 3 11 8 -0.258472 0 13 -0.258472 1
gene 2 6 11 2.56215 0 45 2.56215 1
gene 1 2 27 4.03781 0 51 4.03781 1
gene 1 27 8 4.16117 0 52 4.16117 1
gene 3 3 45 2.40902 0 103 2.40902 1
gene 3 45 11 1.20856 0 104 1.20856 1
genomeend 60

/* Organism #61 Fitness: 5 Error: 0 */
genomestart 61
trait 1 0.188921 0 0 0 0 0 0 0 
trait 2 0.2 0 0 0 0 0 0 0 
trait 3 0.3 0 0 0 0 0 0 0 
node 1 2 1 1
node 2 3 1 1
node 3 3 1 1
node 4 1 1 1
node 5 3 1 1
node 6 1 1 1
node 7 3 1 3
node 8 2 0 2
node 11 1 0 0
node 27 1 0 0
node 45 1 0 0
gene 2 1 8 2.70466 0 1 2.70466 1
gene 1 2 8 2.37832 0 2 2.37832 0
gene 3 3 8 -2.0134 0 3 -2.0134 0
gene 2 4 8 -1.24738 0 4 -1.24738 1
gene 1 5 8 3.29452 0 5 3.29452 1
gene 2 6 8 -0.331598 0 6 -0.331598 1
gene 1 7 8 -1.91849 0 7 -1.91849 1
gene 3 3 11 3.31776 0 12 3.31776 0
gene 3 11 8 0.074572 0 13 0.074572 1
gene 2 6 11 4.34564 0 45 4.34564 1
gene 1 2 27 0.843335 0 51 0.843335 1
gene 1 27 8 -0.532423 0 52 -0.532423 1
gene 3 3 45 -1.96783 0 103 -1.96783 1
gene 3 45 11 -0.661708 0 104 -0.661708 1
genomeend 61

/* Organism #62 Fitness: 43 Error: 0 */
genomestart 62
trait 1 0.188921 0 0 0 0 0 0 0 
trait 2 0.2 0 0 0 0 0 0 0 
trait 3 0.3 0 0 0 0 0 0 0 
node 1 2 1 1
node 2 3 1 1
node 3 3 1 1
node 4 1 1 1
node 5 3 1 1
node 6 1 1 1
node 7 3 1 3
node 8 2 0 2
node 11 1 0 0
node 27 1 0 0
node 45 1 0 0
gene 2 1 8 4.39339 0 1 4.39339 1
gene 1 2 8 5.16449 0 2 5.16449 0
gene 3 3 8 0.373547 0 3 0.373547 0
gene 2 4 8 -1.80894 0 4 -1.80894 1
gene 1 5 8 1.45258 0 5 1.45258 1
gene 2 6 8 3.98551 0 6 3.98551 1
gene 1 7 8 -0.615845 0 7 -0.615845 1
gene 3 3 11 4.90386 0 12 4.90386 1
gene 3 11 8 -0.80038 0 13 -0.80038 1
gene 2 6 11 1.83162 0 45 1.83162 1
gene 1 2 27 1.59053 0 51 1.59053 1
gene 1 27 8 0.574572 0 52 0.574572 1
gene 3 3 45 0.376402 0 103 0.376402 1
gene 3 45 11 0.290306 0 104 0.290306 1
genomeend 62

/* Organism #63 Fitness: 86 Error: 0 */
genomestart 63
trait 1 0.188921 0 0 0 0 0 0 0 
trait 2 0.2 0 0 0 0 0 0 0 
trait 3 0.3 0 0 0 0 0 0 0 
node 1 2 1 1
node 2 3 1 1
node 3 3 1 1
node 4 1 1 1
node 5 3 1 1
node 6 1 1 1
node 7 3 1 3
node 8 2 0 2
node 11 1 0 0
node 27 1 0 0
node 45 1 0 0
gene 2 1 8 3.64017 0 1 3.64017 1
gene 1 2 8 3.65837 0 2 3.65837 0
gene 3 3 8 0.395357 0 3 0.395357 0
gene 2 4 8 -2.33331 0 4 -2.33331 1
gene 1 5 8 2.38323 0 5 2.38323 1
gene 2 6 8 1.66457 0 6 1.66457 1
gene 1 7 8 -2.52048 0 7 -2.52048 1
gene 3 3 11 2.86327 0 12 2.86327 0
gene 3 11 8 -0.523341 0 13 -0.523341 1
gene 2 6 11 1.20146 0 45 1.20146 1
gene 1 2 27 1.44602 0 51 1.44602 1
gene 1 27 8 2.17177 0 52 2.17177 1
gene 3 3 45 2.29234 0 103 2.29234 1
gene 3 45 11 0.11787 0 104 0.11787 1
genomeend 63

/* Organism #64 Fitness: 26 Error: 0 */
genomestart 64
trait 1 0.188921 0 0 0 0 0 0 0 
trait 2 0.2 0 0 0 0 0 0 0 
trait 3 0.3 0 0 0 0 0 0 0 
node 1 2 1 1
node 2 3 1 1
node 3 2 1 1
node 4 1 1 1
node 5 3 1 1
node 6 1 1 1
node 7 3 1 3
node 8 2 0 2
node 11 1 0 0
node 27 1 0 0
node 45 1 0 0
gene 2 1 8 3.30709 0 1 3.30709 1
gene 1 2 8 2.49135 0 2 2.49135 0
gene 3 3 8 1.40312 0 3 1.40312 1
gene 2 4 8 -1.20225 0 4 -1.20225 1
gene 1 5 8 0.893257 0 5 0.893257 1
gene 2 6 8 0.883285 0 6 0.883285 1
gene 1 7 8 -0.0843144 0 7 -0.0843144 1
gene 3 3 11 2.32723 0 12 2.32723 0
gene 3 11 8 -0.00585373 0 13 -0.00585373 1
gene 2 6 11 1.87522 0 45 1.87522 1
gene 1 2 27 2.39429 0 51 2.39429 1
gene 1 27 8 1.30857 0 52 1.30857 1
gene 3 3 45 2.62168 0 103 2.62168 1
gene 3 45 11 0.0763865 0 104 0.0763865 1
genomeend 64

/* Organism #65 Fitness: 42 Error: 0 */
genomestart 65
trait 1 0.188921 0 0 0 0 0 0 0 
trait 2 0.2 0 0 0 0 0 0 0 
trait 3 0.3 0 0 0 0 0 0 0 
node 1 2 1 1
node 2 3 1 1
node 3 3 1 1
node 4 1 1 1
node 5 3 1 1
node 6 1 1 1
node 7 3 1 3
node 8 2 0 2
node 11 1 0 0
node 27 1 0 0
node 45 1 0 0
gene 2 1 8 2.78949 0 1 2.78949 1
gene 1 2 8 2.11868 0 2 2.11868 0
gene 3 3 8 -1.07943 0 3 -1.07943 1
gene 2 4 8 0.494521 0 4 0.494521 1
gene 1 5 8 1.15172 0 5 1.15172 1
gene 2 6 8 -0.300882 0 6 -0.300882 1
gene 1 7 8 -2.99485 0 7 -2.99485 1
gene 3 3 11 4.31932 0 12 4.31932 0
gene 3 11 8 2.39143 0 13 2.39143 1
gene 2 6 11 2.85031 0 45 2.85031 1
gene 1 2 27 2.07074 0 51 2.07074 1
gene 1 27 8 1.35989 0 52 1.35989 1
gene 3 3 45 2.17567 0 103 2.17567 1
gene 3 45 11 -1.38513 0 104 -1.38513 1
genomeend 65

/* Species #9 : (Size 8) (AF 53.875) (Age 13)  */


/* Organism #66 Fitness: 98 Error: 0 */
genomestart 66
trait 1 0.1 0 0 0 0 0 0 0 
trait 2 0.2 0 0 0 0 0 0 0 
trait 3 1 0.966379 0.17256 0 0 0.910484 0 0.928179 
node 1 2 1 1
node 2 3 1 1
node 3 3 1 1
node 4 2 1 1
node 5 1 1 1
node 6 1 1 1
node 7 3 1 3
node 8 2 0 2
node 11 1 0 0
node 36 1 0 0
gene 2 1 8 -0.629095 0 1 -0.629095 1
gene 3 2 8 7.42325 0 2 7.42325 0
gene 2 3 8 4.16767 0 3 4.16767 0
gene 2 4 8 -0.418765 0 4 -0.418765 1
gene 3 5 8 6.59042 0 5 6.59042 1
gene 1 6 8 1.55234 0 6 1.55234 1
gene 2 7 8 -1.4121 0 7 -1.4121 1
gene 1 3 11 -3.53542 0 12 -3.53542 1
gene 3 11 8 -0.573004 0 13 -0.573004 1
gene 2 2 36 2.35954 0 76 2.35954 1
gene 3 36 8 -0.266288 0 77 -0.266288 1
genomeend 66

/* Organism #67 Fitness: 32 Error: 0 */
genomestart 67
trait 1 0.1 0 0 0 0 0 0 0 
trait 2 0.2 0 0 0 0 0 0 0 
trait 3 1 0.966379 0.17256 0 0 0.910484 0 0.928179 
node 1 2 1 1
node 2 3 1 1
node 3 3 1 1
node 4 2 1 1
node 5 1 1 1
node 6 1 1 1
node 7 3 1 3
node 8 2 0 2
node 11 1 0 0
node 36 1 0 0
gene 2 1 8 -1.17212 0 1 -1.17212 1
gene 3 2 8 5.79343 0 2 5.79343 0
gene 2 3 8 4.16767 0 3 4.16767 0
gene 2 4 8 0.293538 0 4 0.293538 1
gene 3 5 8 4.66571 0 5 4.66571 1
gene 1 6 8 0.491575 0 6 0.491575 1
gene 2 7 8 0.564683 0 7 0.564683 1
gene 1 3 11 -3.26387 0 12 -3.26387 1
gene 3 11 8 -0.158984 0 13 -0.158984 1
gene 2 2 36 1.2312 0 76 1.2312 1
gene 3 36 8 0.726541 0 77 0.726541 1
genomeend 67

/* Organism #68 Fitness: 51 Error: 0 */
genomestart 68
trait 1 0.1 0 0 0 0 0 0 0 
trait 2 0.2 0 0 0 0 0 0 0 
trait 3 1 0.966379 0.17256 0 0 0.910484 0 0.928179 
node 1 2 1 1
node 2 3 1 1
node 3 3 1 1
node 4 3 1 1
node 5 1 1 1
node 6 1 1 1
node 7 3 1 3
node 8 2 0 2
node 11 1 0 0
node 36 1 0 0
gene 2 1 8 -2.37687 0 1 -2.37687 1
gene 3 2 8 8 0 2 8 0
gene 2 3 8 5.16381 0 3 5.16381 0
gene 2 4 8 1.42993 0 4 1.42993 1
gene 3 5 8 7.96701 0 5 7.96701 1
gene 1 6 8 1.55234 0 6 1.55234 1
gene 2 7 8 -1.20289 0 7 -1.20289 1
gene 1 3 11 1.59921 0 12 1.59921 1
gene 3 11 8 0.566347 0 13 0.566347 1
gene 3 2 36 0.0317193 0 76 0.0317193 1
gene 3 36 8 -0.908854 0 77 -0.908854 1
genomeend 68

/* Organism #69 Fitness: 60 Error: 0 */
genomestart 69
trait 1 0.1 0 0 0 0 0 0 0 
trait 2 0.2 0 0 0 0 0 0 0 
trait 3 1 1 0.17256 0 0 1 0 0.49545 
node 1 2 1 1
node 2 3 1 1
node 3 3 1 1
node 4 3 1 1
node 5 1 1 1
node 6 1 1 1
node 7 3 1 3
node 8 2 0 2
node 11 1 0 0
node 36 1 0 0
gene 2 1 8 -1.71584 0 1 -1.71584 1
gene 3 2 8 6.8706 0 2 6.8706 0
gene 2 3 8 1.81987 0 3 1.81987 0
gene 2 4 8 -2.00715 0 4 -2.00715 1
gene 3 5 8 6.89706 0 5 6.89706 1
gene 1 6 8 3.76165 0 6 3.76165 1
gene 2 7 8 -3.46146 0 7 -3.46146 1
gene 1 3 11 -3.78437 0 12 -3.78437 1
gene 3 11 8 -2.75353 0 13 -2.75353 1
gene 3 2 36 -0.452858 0 76 -0.452858 1
gene 3 36 8 1.83628 0 77 1.83628 1
genomeend 69

/* Organism #70 Fitness: 49 Error: 0 */
genomestart 70
trait 1 0.1 0 0 0 0 0 0 0 
trait 2 0.2 0 0 0 0 0 0 0 
trait 3 1 0.966379 0.17256 0 0 0.910484 0 0.928179 
node 1 2 1 1
node 2 3 1 1
node 3 3 1 1
node 4 2 1 1
node 5 1 1 1
node 6 1 1 1
node 7 3 1 3
node 8 2 0 2
node 11 1 0 0
node 36 1 0 0
gene 2 1 8 1.03411 0 1 1.03411 1
gene 3 2 8 7.59098 0 2 7.59098 1
gene 2 3 8 2.85811 0 3 2.85811 0
gene 2 4 8 -2.13377 0 4 -2.13377 1
gene 3 5 8 5.7721 0 5 5.7721 1
gene 1 6 8 1.55234 0 6 1.55234 1
gene 2 7 8 -2.20349 0 7 -2.20349 1
gene 1 3 11 -1.57349 0 12 -1.57349 1
gene 3 11 8 -2.34384 0 13 -2.34384 1
gene 2 2 36 2.35954 0 76 2.35954 1
gene 3 36 8 -0.678455 0 77 -0.678455 1
genomeend 70

/* Organism #71 Fitness: 58 Error: 0 */
genomestart 71
trait 1 0.1 0 0 0 0 0 0 0 
trait 2 0.2 0 0 0 0 0 0 0 
trait 3 1 0.966379 0.17256 0 0 0.910484 0 0.928179 
node 1 2 1 1
node 2 3 1 1
node 3 3 1 1
node 4 3 1 1
node 5 1 1 1
node 6 1 1 1
node 7 3 1 3
node 8 2 0 2
node 11 1 0 0
node 36 1 0 0
gene 2 1 8 -1.90616 0 1 -1.90616 1
gene 3 2 8 8 0 2 8 0
gene 2 3 8 2.30855 0 3 2.30855 0
gene 2 4 8 5.48351 0 4 5.48351 1
gene 3 5 8 8 0 5 8 1
gene 1 6 8 1.18028 0 6 1.18028 1
gene 2 7 8 -3.66369 0 7 -3.66369 1
gene 1 3 11 -4.73934 0 12 -4.73934 1
gene 3 11 8 4.1798 0 13 4.1798 1
gene 3 2 36 -3.51828 0 76 -3.51828 1
gene 3 36 8 1.81661 0 77 1.81661 1
genomeend 71

/* Organism #72 Fitness: 49 Error: 0 */
genomestart 72
trait 1 0.1 0 0 0 0 0 0 0 
trait 2 0.2 0 0 0 0 0 0 0 
trait 3 1 0.966379 0.17256 0 0 0.910484 0 0.928179 
node 1 2 1 1
node 2 3 1 1
node 3 3 1 1
node 4 3 1 1
node 5 1 1 1
node 6 3 1 1
node 7 3 1 3
node 8 2 0 2
node 11 1 0 0
node 36 1 0 0
gene 2 1 8 -1.41551 0 1 -1.41551 1
gene 3 2 8 6.49844 0 2 6.49844 0
gene 2 3 8 0.107663 0 3 0.107663 0
gene 2 4 8 4.25193 0 4 4.25193 1
gene 3 5 8 7.67199 0 5 7.67199 1
gene 1 6 8 0.616088 0 6 0.616088 1
gene 2 7 8 -4.9564 0 7 -4.9564 1
gene 1 3 11 -6.27184 0 12 -6.27184 1
gene 3 11 8 2.22618 0 13 2.22618 1
gene 3 2 36 -1.71353 0 76 -1.71353 1
gene 3 36 8 1.81474 0 77 1.81474 1
genomeend 72

/* Organism #73 Fitness: 34 Error: 0 */
genomestart 73
trait 1 0.1 0 0 0 0 0 0 0 
trait 2 0.2 0 0 0 0 0 0 0 
trait 3 1 0.966379 0.17256 0 0 0.910484 0 0.928179 
node 1 2 1 1
node 2 3 1 1
node 3 3 1 1
node 4 3 1 1
node 5 1 1 1
node 6 1 1 1
node 7 3 1 3
node 8 2 0 2
node 11 1 0 0
node 36 1 0 0
gene 2 1 8 -1.41551 0 1 -1.41551 1
gene 3 2 8 7.59501 0 2 7.59501 0
gene 2 3 8 0.107663 0 3 0.107663 0
gene 2 4 8 -0.231334 0 4 -0.231334 1
gene 3 5 8 5.34236 0 5 5.34236 1
gene 1 6 8 1.83262 0 6 1.83262 1
gene 2 7 8 -2.60457 0 7 -2.60457 1
gene 1 3 11 -0.333226 0 12 -0.333226 1
gene 3 11 8 1.32584 0 13 1.32584 1
gene 3 2 36 -2.73506 0 76 -2.73506 1
gene 3 36 8 3.54239 0 77 3.54239 1
genomeend 73

/* Species #10 : (Size 5) (AF 26.2) (Age 13)  */


/* Organism #74 Fitness: 32 Error: 0 */
genomestart 74
trait 1 0.1 0 0 0 0 0 0 0 
trait 2 0.554092 0 0 0 0 0 0 0.609083 
trait 3 0.3 0 0 0 0 0.014636 0.176774 0 
node 1 2 1 1
node 2 3 1 1
node 3 3 1 1
node 4 3 1 1
node 5 1 1 1
node 6 1 1 1
node 7 3 1 3
node 8 2 0 2
node 11 1 0 0
node 37 1 0 0
gene 2 1 8 -0.539244 0 1 -0.539244 1
gene 1 2 8 1.23388 0 2 1.23388 1
gene 3 3 8 -3.96819 0 3 -3.96819 0
gene 2 4 8 3.7764 0 4 3.7764 1
gene 1 5 8 6.25544 0 5 6.25544 1
gene 1 6 8 1.7152 0 6 1.7152 0
gene 1 7 8 -1.74681 0 7 -1.74681 1
gene 1 3 11 1.77695 0 12 1.77695 1
gene 3 11 8 -2.47392 0 13 -2.47392 1
gene 2 6 11 -0.0167968 0 45 -0.0167968 1
gene 1 6 37 0.031269 0 78 0.031269 1
gene 1 37 8 3.9936 0 79 3.9936 1
gene 1 3 37 1.6202 0 96 1.6202 1
genomeend 74

/* Organism #75 Fitness: 29 Error: 0 */
genomestart 75
trait 1 0.1 0 0 0 0 0 0 0 
trait 2 0.5836 0 0 0 0 0 0 0.65984 
trait 3 0.3 0 0 0 0 0.014636 0.176774 0 
node 1 2 1 1
node 2 3 1 1
node 3 3 1 1
node 4 3 1 1
node 5 1 1 1
node 6 1 1 1
node 7 3 1 3
node 8 2 0 2
node 11 1 0 0
node 37 1 0 0
gene 2 1 8 -0.124896 0 1 -0.124896 1
gene 1 2 8 0.789196 0 2 0.789196 1
gene 3 3 8 -1.84511 0 3 -1.84511 0
gene 2 4 8 4.72977 0 4 4.72977 1
gene 1 5 8 5.60725 0 5 5.60725 1
gene 1 6 8 0.0581422 0 6 0.0581422 0
gene 1 7 8 -2.41602 0 7 -2.41602 1
gene 1 3 11 3.61446 0 12 3.61446 1
gene 3 11 8 -1.92882 0 13 -1.92882 1
gene 2 6 11 1.25648 0 45 1.25648 1
gene 1 6 37 2.21342 0 78 2.21342 1
gene 1 37 8 4.09388 0 79 4.09388 1
gene 1 3 37 1.37774 0 96 1.37774 1
genomeend 75

/* Organism #76 Fitness: 8 Error: 0 */
genomestart 76
trait 1 0.1 0 0 0 0 0 0 0 
trait 2 0.554092 0 0 0 0 0 0 0.609083 
trait 3 0.3 0 0 0 0 0.014636 0.176774 0 
node 1 2 1 1
node 2 3 1 1
node 3 3 1 1
node 4 3 1 1
node 5 1 1 1
node 6 1 1 1
node 7 3 1 3
node 8 2 0 2
node 11 1 0 0
node 37 1 0 0
gene 2 1 8 0.384259 0 1 0.384259 1
gene 1 2 8 -1.1187 0 2 -1.1187 1
gene 2 3 8 -3.83497 0 3 -3.83497 0
gene 2 4 8 3.29179 0 4 3.29179 1
gene 1 5 8 8 0 5 8 1
gene 1 6 8 3.65248 0 6 3.65248 0
gene 1 7 8 0.0885737 0 7 0.0885737 1
gene 1 3 11 3.35701 0 12 3.35701 1
gene 3 11 8 -0.696476 0 13 -0.696476 1
gene 2 6 11 2.1304 0 45 2.1304 1
gene 1 6 37 -1.40537 0 78 -1.40537 1
gene 1 37 8 3.31607 0 79 3.31607 1
gene 1 3 37 1.6202 0 96 1.6202 1
genomeend 76

/* Organism #77 Fitness: 32 Error: 0 */
genomestart 77
trait 1 0.1 0 0 0 0 0 0 0 
trait 2 0.554092 0 0 0 0 0 0 0.609083 
trait 3 0.3 0 0 0 0 0.014636 0.176774 0 
node 1 2 1 1
node 2 3 1 1
node 3 3 1 1
node 4 3 1 1
node 5 1 1 1
node 6 1 1 1
node 7 3 1 3
node 8 2 0 2
node 11 1 0 0
node 37 1 0 0
gene 2 1 8 -0.539244 0 1 -0.539244 1
gene 1 2 8 1.23388 0 2 1.23388 1
gene 3 3 8 -3.96819 0 3 -3.96819 0
gene 2 4 8 3.7764 0 4 3.7764 1
gene 1 5 8 6.25544 0 5 6.25544 1
gene 1 6 8 1.7152 0 6 1.7152 0
gene 1 7 8 -1.74681 0 7 -1.74681 1
gene 1 3 11 1.77695 0 12 1.77695 1
gene 3 11 8 -2.47392 0 13 -2.47392 1
gene 2 6 11 -0.0167968 0 45 -0.0167968 1
gene 1 6 37 0.031269 0 78 0.031269 1
gene 1 37 8 3.9936 0 79 3.9936 1
gene 1 3 37 1.6202 0 96 1.6202 1
genomeend 77

/* Organism #78 Fitness: 30 Error: 0 */
genomestart 78
trait 1 0.1 0 0 0 0 0 0 0 
trait 2 0.5836 0 0 0 0 0 0 0.65984 
trait 3 0.3 0 0 0 0 0.014636 0.176774 0 
node 1 2 1 1
node 2 3 1 1
node 3 3 1 1
node 4 3 1 1
node 5 1 1 1
node 6 1 1 1
node 7 3 1 3
node 8 2 0 2
node 11 1 0 0
node 37 1 0 0
gene 2 1 8 -1.43051 0 1 -1.43051 1
gene 1 2 8 2.92703 0 2 2.92703 1
gene 3 3 8 -3.21257 0 3 -3.21257 0
gene 2 4 8 3.41242 0 4 3.41242 1
gene 1 5 8 5.17392 0 5 5.17392 1
gene 1 6 8 2.43548 0 6 2.43548 0
gene 1 7 8 -2.07485 0 7 -2.07485 1
gene 1 3 11 1.64758 0 12 1.64758 1
gene 3 11 8 -1.29656 0 13 -1.29656 1
gene 2 6 11 -1.15649 0 45 -1.15649 1
gene 1 6 37 2.59815 0 78 2.59815 1
gene 1 37 8 2.83733 0 79 2.83733 1
gene 1 3 37 1.37774 0 96 1.37774 1
gene 1 4 11 0.812844 0 215 0.812844 1
genomeend 78

/* Species #11 : (Size 11) (AF 35.9091) (Age 13)  */


/* Organism #79 Fitness: 119 Error: 0 */
genomestart 79
trait 1 0.1 0 0 0 0 0 0 0 
trait 2 0.2 0 0 0 0 0 0 0 
trait 3 0.3 0 0 0 0 0 0 0 
node 1 2 1 1
node 2 3 1 1
node 3 3 1 1
node 4 3 1 1
node 5 1 1 1
node 6 1 1 1
node 7 3 1 3
node 8 2 0 2
node 11 1 0 0
gene 2 1 8 1.24767 0 1 1.24767 1
gene 3 2 8 -0.702765 0 2 -0.702765 1
gene 2 3 8 -3.79057 0 3 -3.79057 0
gene 2 4 8 0.609403 0 4 0.609403 1
gene 3 5 8 8 0 5 8 1
gene 1 6 8 1.91459 0 6 1.91459 1
gene 2 7 8 -0.00349082 0 7 -0.00349082 1
gene 2 3 11 0.0629424 0 12 0.0629424 1
gene 3 11 8 -1.7374 0 13 -1.7374 1
gene 2 6 11 2.0247 0 72 2.0247 1
genomeend 79

/* Organism #80 Fitness: 36 Error: 0 */
genomestart 80
trait 1 0.1 0 0 0 0 0 0 0 
trait 2 0.2 0 0 0 0 0 0 0 
trait 3 0.3 0 0 0 0 0 0 0 
node 1 2 1 1
node 2 3 1 1
node 3 3 1 1
node 4 3 1 1
node 5 1 1 1
node 6 1 1 1
node 7 3 1 3
node 8 2 0 2
node 11 1 0 0
gene 2 1 8 3.87945 0 1 3.87945 1
gene 3 2 8 0.923462 0 2 0.923462 1
gene 2 3 8 -3.11283 0 3 -3.11283 1
gene 1 4 8 0.820716 0 4 0.820716 1
gene 3 5 8 8 0 5 8 1
gene 1 6 8 2.74093 0 6 2.74093 1
gene 2 7 8 0.127271 0 7 0.127271 1
gene 2 3 11 -2.0807 0 12 -2.0807 1
gene 3 11 8 1.71908 0 13 1.71908 1
gene 2 6 11 4.40411 0 72 4.40411 1
genomeend 80

/* Organism #81 Fitness: 36 Error: 0 */
genomestart 81
trait 1 0.1 0 0 0 0 0 0 0 
trait 2 0.2 0 0 0 0 0 0 0 
trait 3 0.3 0 0 0 0 0 0 0 
node 1 2 1 1
node 2 3 1 1
node 3 3 1 1
node 4 3 1 1
node 5 1 1 1
node 6 1 1 1
node 7 3 1 3
node 8 2 0 2
node 11 1 0 0
gene 2 1 8 -0.394474 0 1 -0.394474 1
gene 3 2 8 -2.5752 0 2 -2.5752 1
gene 2 3 8 -3.39693 0 3 -3.39693 0
gene 2 4 8 -1.46774 0 4 -1.46774 1
gene 3 5 8 8 0 5 8 1
gene 1 6 8 2.55421 0 6 2.55421 1
gene 2 7 8 2.31762 0 7 2.31762 1
gene 2 3 11 1.25938 0 12 1.25938 1
gene 3 11 8 -2.33759 0 13 -2.33759 1
gene 2 6 11 -0.949815 0 72 -0.949815 1
genomeend 81

/* Organism #82 Fitness: 13 Error: 0 */
genomestart 82
trait 1 0.1 0 0 0 0 0 0 0 
trait 2 0.2 0 0 0 0 0 0 0 
trait 3 0.3 0 0 0 0 0 0 0 
node 1 2 1 1
node 2 3 1 1
node 3 3 1 1
node 4 3 1 1
node 5 1 1 1
node 6 1 1 1
node 7 3 1 3
node 8 2 0 2
node 11 1 0 0
gene 2 1 8 1.44874 0 1 1.44874 1
gene 3 2 8 -0.324834 0 2 -0.324834 1
gene 2 3 8 -3.79057 0 3 -3.79057 0
gene 2 4 8 -1.11459 0 4 -1.11459 1
gene 3 5 8 6.19688 0 5 6.19688 1
gene 1 6 8 -0.194479 0 6 -0.194479 1
gene 2 7 8 -0.00349082 0 7 -0.00349082 1
gene 2 3 11 -1.17433 0 12 -1.17433 1
gene 3 11 8 -0.705983 0 13 -0.705983 1
gene 2 6 11 0.207767 0 72 0.207767 1
genomeend 82

/* Organism #83 Fitness: 28 Error: 0 */
genomestart 83
trait 1 0.1 0 0 0 0 0 0 0 
trait 2 0.2 0 0 0 0 0 0 0 
trait 3 0.3 0 0 0 0 0 0 0 
node 1 2 1 1
node 2 3 1 1
node 3 3 1 1
node 4 3 1 1
node 5 1 1 1
node 6 1 1 1
node 7 3 1 3
node 8 2 0 2
node 11 1 0 0
gene 2 1 8 1.56337 0 1 1.56337 1
gene 3 2 8 1.32998 0 2 1.32998 1
gene 2 3 8 -3.50841 0 3 -3.50841 0
gene 2 4 8 -0.647231 0 4 -0.647231 1
gene 3 5 8 7.16202 0 5 7.16202 1
gene 1 6 8 0.487767 0 6 0.487767 1
gene 2 7 8 -0.738723 0 7 -0.738723 1
gene 2 3 11 2.28896 0 12 2.28896 1
gene 3 11 8 -1.95592 0 13 -1.95592 1
gene 3 6 11 3.99298 0 72 3.99298 1
genomeend 83

/* Organism #84 Fitness: 42 Error: 0 */
genomestart 84
trait 1 0.1 0 0 0 0 0 0 0 
trait 2 0.2 0 0 0 0 0 0 0 
trait 3 0.3 0 0 0 0 0 0 0 
node 1 2 1 1
node 2 3 1 1
node 3 3 1 1
node 4 3 1 1
node 5 1 1 1
node 6 1 1 1
node 7 3 1 3
node 8 2 0 2
node 11 1 0 0
gene 2 1 8 -0.601028 0 1 -0.601028 1
gene 3 2 8 -0.205196 0 2 -0.205196 1
gene 2 3 8 -1.97008 0 3 -1.97008 0
gene 2 4 8 -0.896956 0 4 -0.896956 1
gene 3 5 8 8 0 5 8 1
gene 1 6 8 0.849827 0 6 0.849827 1
gene 2 7 8 -2.16184 0 7 -2.16184 1
gene 2 3 11 0.996715 0 12 0.996715 1
gene 3 11 8 -2.01643 0 13 -2.01643 1
gene 2 6 11 2.0247 0 72 2.0247 1
genomeend 84

/* Organism #85 Fitness: 34 Error: 0 */
genomestart 85
trait 1 0.1 0 0 0 0 0 0 0 
trait 2 0.2 0 0 0 0 0 0 0 
trait 3 0.3 0 0 0 0 0 0 0 
node 1 2 1 1
node 2 3 1 1
node 3 3 1 1
node 4 3 1 1
node 5 1 1 1
node 6 1 1 1
node 7 3 1 3
node 8 1 0 2
node 11 1 0 0
gene 2 1 8 3.62379 0 1 3.62379 1
gene 3 2 8 -0.986438 0 2 -0.986438 1
gene 2 3 8 -3.96205 0 3 -3.96205 1
gene 2 4 8 0.171741 0 4 0.171741 1
gene 3 5 8 6.74724 0 5 6.74724 1
gene 1 6 8 2.53695 0 6 2.53695 1
gene 2 7 8 -0.775736 0 7 -0.775736 1
gene 2 3 11 1.16653 0 12 1.16653 1
gene 3 11 8 -2.66409 0 13 -2.66409 1
gene 2 6 11 2.95045 0 72 2.95045 1
genomeend 85

/* Organism #86 Fitness: 16 Error: 0 */
genomestart 86
trait 1 0.1 0 0 0 0 0 0 0 
trait 2 0.2 0 0 0 0 0 0 0 
trait 3 0.3 0 0 0 0 0 0 0 
node 1 2 1 1
node 2 3 1 1
node 3 3 1 1
node 4 3 1 1
node 5 1 1 1
node 6 1 1 1
node 7 3 1 3
node 8 2 0 2
node 11 1 0 0
gene 2 1 8 0.0777196 0 1 0.0777196 1
gene 3 2 8 -1.32835 0 2 -1.32835 1
gene 2 3 8 -5.40737 0 3 -5.40737 0
gene 2 4 8 3.0451 0 4 3.0451 1
gene 3 5 8 0.419042 0 5 0.419042 1
gene 1 6 8 1.91459 0 6 1.91459 1
gene 2 7 8 1.32404 0 7 1.32404 1
gene 2 3 11 -1.39428 0 12 -1.39428 1
gene 3 11 8 -4.22531 0 13 -4.22531 1
gene 2 6 11 1.7386 0 72 1.7386 1
genomeend 86

/* Organism #87 Fitness: 7 Error: 0 */
genomestart 87
trait 1 0.1 0 0 0 0 0 0 0 
trait 2 0.2 0 0 0 0 0 0 0 
trait 3 0.3 0 0 0 0 0 0 0 
node 1 2 1 1
node 2 3 1 1
node 3 3 1 1
node 4 3 1 1
node 5 1 1 1
node 6 1 1 1
node 7 3 1 3
node 8 2 0 2
node 11 1 0 0
gene 2 1 8 -0.807025 0 1 -0.807025 1
gene 3 2 8 -1.90474 0 2 -1.90474 1
gene 2 3 8 -4.36492 0 3 -4.36492 1
gene 2 4 8 2.17943 0 4 2.17943 1
gene 3 5 8 -0.354502 0 5 -0.354502 1
gene 1 6 8 0.795225 0 6 0.795225 1
gene 2 7 8 0.306459 0 7 0.306459 1
gene 2 3 11 2.40276 0 12 2.40276 1
gene 3 11 8 -1.91019 0 13 -1.91019 1
gene 2 6 11 3.63007 0 72 3.63007 1
genomeend 87

/* Organism #88 Fitness: 35 Error: 0 */
genomestart 88
trait 1 0.1 0 0 0 0 0 0 0 
trait 2 0.2 0 0 0 0 0 0 0 
trait 3 0.3 0 0 0 0 0 0 0 
node 1 2 1 1
node 2 3 1 1
node 3 3 1 1
node 4 3 1 1
node 5 1 1 1
node 6 1 1 1
node 7 3 1 3
node 8 2 0 2
node 11 1 0 0
gene 2 1 8 -0.71064 0 1 -0.71064 1
gene 3 2 8 -1.02714 0 2 -1.02714 1
gene 2 3 8 -2.12252 0 3 -2.12252 1
gene 2 4 8 -0.0995321 0 4 -0.0995321 1
gene 3 5 8 7.42079 0 5 7.42079 1
gene 1 6 8 1.247 0 6 1.247 1
gene 2 7 8 1.40866 0 7 1.40866 1
gene 2 3 11 -0.949786 0 12 -0.949786 1
gene 3 11 8 0.0262394 0 13 0.0262394 1
gene 2 6 11 1.37499 0 72 1.37499 1
genomeend 88

/* Organism #89 Fitness: 29 Error: 0 */
genomestart 89
trait 1 0.1 0 0 0 0 0 0 0 
trait 2 0.2 0 0 0 0 0 0 0 
trait 3 0.3 0 0 0 0 0 0 0 
node 1 2 1 1
node 2 3 1 1
node 3 3 1 1
node 4 3 1 1
node 5 1 1 1
node 6 1 1 1
node 7 3 1 3
node 8 2 0 2
node 11 1 0 0
gene 2 1 8 -0.484718 0 1 -0.484718 1
gene 3 2 8 1.61315 0 2 1.61315 1
gene 2 3 8 2.34266 0 3 2.34266 0
gene 2 4 8 -1.64011 0 4 -1.64011 1
gene 3 5 8 5.8651 0 5 5.8651 1
gene 1 6 8 1.37975 0 6 1.37975 1
gene 2 7 8 1.87778 0 7 1.87778 1
gene 2 3 11 -2.28857 0 12 -2.28857 1
gene 3 11 8 2.36438 0 13 2.36438 1
gene 2 6 11 3.12384 0 72 3.12384 1
genomeend 89

/* Species #12 : (Size 3) (AF 19.6667) (Age 11)  */


/* Organism #90 Fitness: 30 Error: 0 */
genomestart 90
trait 1 0.1 0 0 0 0 0 0 0 
trait 2 0.2 0 0 0 0 0 0 0 
trait 3 0.3 0 0 0 0 0 0 0 
node 1 2 1 1
node 2 3 1 1
node 3 3 1 1
node 4 3 1 1
node 5 1 1 1
node 6 1 1 1
node 7 3 1 3
node 8 1 0 2
node 11 1 0 0
node 43 1 0 0
node 66 1 0 0
gene 2 1 8 -5.39143 0 1 -5.39143 1
gene 3 2 8 -8 0 2 -8 1
gene 2 3 8 7.86577 0 3 7.86577 0
gene 2 4 8 -0.347556 0 4 -0.347556 1
gene 3 5 8 4.85476 0 5 4.85476 0
gene 1 6 8 -1.152 0 6 -1.152 0
gene 2 7 8 -5.34524 0 7 -5.34524 1
gene 2 3 11 -3.95082 0 12 -3.95082 1
gene 3 11 8 -0.523165 0 13 -0.523165 1
gene 1 6 43 1.76104 0 97 1.76104 1
gene 1 43 8 1.61619 0 98 1.61619 1
gene 3 5 66 1.01542 0 176 1.01542 1
gene 3 66 8 5.84972 0 177 5.84972 1
genomeend 90

/* Organism #91 Fitness: 10 Error: 0 */
genomestart 91
trait 1 0.1 0 0 0 0 0 0 0 
trait 2 0.2 0 0 0 0 0 0 0 
trait 3 0.3 0 0 0 0 0 0 0 
node 1 2 1 1
node 2 3 1 1
node 3 3 1 1
node 4 3 1 1
node 5 1 1 1
node 6 1 1 1
node 7 3 1 3
node 8 1 0 2
node 11 1 0 0
node 43 1 0 0
node 66 1 0 0
gene 2 1 8 -1.10079 0 1 -1.10079 1
gene 3 2 8 -6.18437 0 2 -6.18437 1
gene 2 3 8 7.9255 0 3 7.9255 0
gene 2 4 8 1.56771 0 4 1.56771 1
gene 3 5 8 0.286224 0 5 0.286224 0
gene 1 6 8 -1.43782 0 6 -1.43782 0
gene 2 7 8 -2.80184 0 7 -2.80184 1
gene 2 3 11 -2.83078 0 12 -2.83078 1
gene 3 11 8 -1.25597 0 13 -1.25597 1
gene 1 6 43 -0.0428144 0 97 -0.0428144 1
gene 1 43 8 -0.837864 0 98 -0.837864 1
gene 3 5 66 0.231166 0 176 0.231166 1
gene 3 66 8 7.30616 0 177 7.30616 1
genomeend 91

/* Organism #92 Fitness: 19 Error: 0 */
genomestart 92
trait 1 0.1 0 0 0 0 0 0 0 
trait 2 0.2 0 0 0 0 0 0 0 
trait 3 0.3 0 0 0 0 0 0 0 
node 1 2 1 1
node 2 3 1 1
node 3 3 1 1
node 4 3 1 1
node 5 1 1 1
node 6 1 1 1
node 7 3 1 3
node 8 1 0 2
node 11 1 0 0
node 43 1 0 0
node 66 1 0 0
gene 2 1 8 -0.975244 0 1 -0.975244 1
gene 3 2 8 -6.55146 0 2 -6.55146 1
gene 2 3 8 7.6749 0 3 7.6749 0
gene 2 4 8 2.25311 0 4 2.25311 1
gene 3 5 8 -1.37283 0 5 -1.37283 0
gene 1 6 8 0.906321 0 6 0.906321 0
gene 2 7 8 -6.6281 0 7 -6.6281 1
gene 2 3 11 -1.53124 0 12 -1.53124 1
gene 3 11 8 -2.85577 0 13 -2.85577 1
gene 1 6 43 -1.96768 0 97 -1.96768 1
gene 1 43 8 0.0912315 0 98 0.0912315 1
gene 3 5 66 2.03841 0 176 2.03841 1
gene 3 66 8 5.3137 0 177 5.3137 1
genomeend 92

/* Species #13 : (Size 11) (AF 43.8182) (Age 11)  */


/* Organism #93 Fitness: 79 Error: 0 */
genomestart 93
trait 1 0.1 0 0 0 0 0 0 0 
trait 2 0.2 0 0 0 0 0 0 0 
trait 3 0.3 0 0 0 0 0 0 0 
node 1 2 1 1
node 2 2 1 1
node 3 3 1 1
node 4 3 1 1
node 5 1 1 1
node 6 1 1 1
node 7 3 1 3
node 8 3 0 2
node 11 1 0 0
node 15 1 0 0
node 22 1 0 0
node 26 1 0 0
node 44 1 0 0
node 73 1 0 0
gene 2 1 8 4.22644 0 1 4.22644 1
gene 3 2 8 -0.145272 0 2 -0.145272 0
gene 2 3 8 -2.47131 0 3 -2.47131 0
gene 1 4 8 -0.652035 0 4 -0.652035 1
gene 1 5 8 2.96812 0 5 2.96812 1
gene 1 6 8 8 0 6 8 1
gene 1 7 8 -1.00001 0 7 -1.00001 1
gene 3 3 11 7.06697 0 12 7.06697 1
gene 3 11 8 4.02788 0 13 4.02788 0
gene 3 11 15 2.27843 0 20 2.27843 1
gene 3 15 8 0.762035 0 21 0.762035 1
gene 3 2 22 -0.932449 0 38 -0.932449 0
gene 3 22 8 -3.55036 0 39 -3.55036 1
gene 3 2 26 4.70721 0 48 4.70721 1
gene 3 26 22 -1.42663 0 49 -1.42663 1
gene 2 4 15 6.1122 0 90 6.1122 0
gene 1 5 44 -1.59287 0 101 -1.59287 1
gene 1 44 8 1.1069 0 102 1.1069 1
gene 2 26 11 -0.978111 0 165 -0.978111 1
gene 2 4 73 1 0 201 0 1
gene 2 73 15 6.1122 0 202 0 1
genomeend 93

/* Organism #94 Fitness: 52 Error: 0 */
genomestart 94
trait 1 0.1 0 0 0 0 0 0 0 
trait 2 0.2 0 0 0 0 0 0 0 
trait 3 0.3 0 0 0 0 0 0 0 
node 1 2 1 1
node 2 2 1 1
node 3 3 1 1
node 4 3 1 1
node 5 1 1 1
node 6 1 1 1
node 7 3 1 3
node 8 3 0 2
node 11 1 0 0
node 15 1 0 0
node 22 1 0 0
node 26 1 0 0
node 44 1 0 0
gene 2 1 8 2.91214 0 1 2.91214 1
gene 3 2 8 -0.250404 0 2 -0.250404 0
gene 2 3 8 -4.70128 0 3 -4.70128 0
gene 1 4 8 -3.0609 0 4 -3.0609 1
gene 1 5 8 2.33657 0 5 2.33657 1
gene 1 6 8 8 0 6 8 1
gene 1 7 8 -1.36019 0 7 -1.36019 1
gene 3 3 11 7.06697 0 12 7.06697 1
gene 3 11 8 1.85833 0 13 1.85833 0
gene 3 11 15 2.1275 0 20 2.1275 1
gene 3 15 8 0.526279 0 21 0.526279 1
gene 3 2 22 -1.24268 0 38 -1.24268 0
gene 3 22 8 -0.677868 0 39 -0.677868 1
gene 3 2 26 4.01025 0 48 4.01025 1
gene 3 26 22 -0.725382 0 49 -0.725382 1
gene 2 4 15 0.152203 0 90 0.152203 1
gene 1 5 44 -2.51979 0 101 -2.51979 1
gene 1 44 8 1.1069 0 102 1.1069 1
gene 2 26 11 -2.18681 0 165 -2.18681 1
genomeend 94

/* Organism #95 Fitness: 6 Error: 0 */
genomestart 95
trait 1 0 0 0.709462 0.963876 0.763101 0 0 0 
trait 2 0.2 0 0 0 0 0 0 0 
trait 3 0.3 0 0 0 0 0 0 0 
node 1 2 1 1
node 2 2 1 1
node 3 3 1 1
node 4 3 1 1
node 5 1 1 1
node 6 1 1 1
node 7 3 1 3
node 8 3 0 2
node 11 1 0 0
node 15 1 0 0
node 22 1 0 0
node 26 1 0 0
node 44 1 0 0
node 73 1 0 0
gene 2 1 8 5.51724 0 1 5.51724 1
gene 3 2 8 0.677552 0 2 0.677552 0
gene 2 3 8 0.910509 0 3 0.910509 1
gene 1 4 8 -2.73398 0 4 -2.73398 1
gene 1 5 8 0.468446 0 5 0.468446 1
gene 1 6 8 -1.11803 0 6 -1.11803 1
gene 1 7 8 -0.349337 0 7 -0.349337 1
gene 3 3 11 6.41219 0 12 6.41219 1
gene 3 11 8 2.39618 0 13 2.39618 1
gene 3 11 15 0.402703 0 20 0.402703 1
gene 3 15 8 2.36501 0 21 2.36501 1
gene 3 2 22 -3.1852 0 38 -3.1852 0
gene 3 22 8 1.39527 0 39 1.39527 1
gene 3 2 26 2.52441 0 48 2.52441 1
gene 3 26 22 -1.19595 0 49 -1.19595 1
gene 2 4 15 -0.502065 0 90 -0.502065 0
gene 1 5 44 -2.19809 0 101 -2.19809 1
gene 1 44 8 2.02894 0 102 2.02894 1
gene 2 26 11 -0.978111 0 165 -0.978111 1
gene 2 4 73 2.49811 0 201 2.49811 1
gene 2 73 15 7.0525 0 202 7.0525 1
genomeend 95

/* Organism #96 Fitness: 14 Error: 0 */
genomestart 96
trait 1 0.1 0 0 0 0 0 0 0 
trait 2 0.2 0 0 0 0 0 0 0 
trait 3 0.3 0 0 0 0 0 0 0 
node 1 2 1 1
node 2 2 1 1
node 3 3 1 1
node 4 3 1 1
node 5 1 1 1
node 6 1 1 1
node 7 3 1 3
node 8 3 0 2
node 11 1 0 0
node 15 1 0 0
node 22 1 0 0
node 26 1 0 0
node 44 1 0 0
gene 2 1 8 2.94396 0 1 2.94396 1
gene 3 2 8 -0.171301 0 2 -0.171301 0
gene 2 3 8 -1.15433 0 3 -1.15433 0
gene 1 4 8 0.565073 0 4 0.565073 1
gene 1 5 8 0.54311 0 5 0.54311 1
gene 1 6 8 8 0 6 8 1
gene 1 7 8 -3.29958 0 7 -3.29958 1
gene 3 3 11 5.92295 0 12 5.92295 1
gene 3 11 8 3.11985 0 13 3.11985 0
gene 3 11 15 0.83123 0 20 0.83123 1
gene 3 15 8 -1.15797 0 21 -1.15797 1
gene 3 2 22 1.41262 0 38 1.41262 1
gene 3 22 8 -2.80281 0 39 -2.80281 1
gene 3 2 26 4.11826 0 48 4.11826 1
gene 3 26 22 0.811702 0 49 0.811702 1
gene 2 4 15 7.53458 0 90 7.53458 1
gene 1 5 44 2.29267 0 101 2.29267 1
gene 1 44 8 -2.26487 0 102 -2.26487 1
gene 2 26 11 -2.98047 0 165 -2.98047 1
genomeend 96

/* Organism #97 Fitness: 34 Error: 0 */
genomestart 97
trait 1 0.1 0 0 0 0 0 0 0 
trait 2 0.2 0 0 0 0 0 0 0 
trait 3 0.3 0 0 0 0 0 0 0 
node 1 2 1 1
node 2 2 1 1
node 3 3 1 1
node 4 3 1 1
node 5 1 1 1
node 6 1 1 1
node 7 3 1 3
node 8 3 0 2
node 11 1 0 0
node 15 1 0 0
node 22 1 0 0
node 26 1 0 0
node 44 1 0 0
node 73 1 0 0
node 78 1 0 0
gene 2 1 8 4.22644 0 1 4.22644 1
gene 3 2 8 -0.145272 0 2 -0.145272 0
gene 2 3 8 -2.47131 0 3 -2.47131 0
gene 1 4 8 -0.652035 0 4 -0.652035 1
gene 1 5 8 2.96812 0 5 2.96812 1
gene 1 6 8 8 0 6 8 1
gene 1 7 8 -1.00001 0 7 -1.00001 1
gene 3 3 11 7.06697 0 12 7.06697 1
gene 3 11 8 4.02788 0 13 4.02788 0
gene 3 11 15 2.27843 0 20 2.27843 1
gene 3 15 8 0.762035 0 21 0.762035 1
gene 3 2 22 -0.932449 0 38 -0.932449 0
gene 3 22 8 -3.55036 0 39 -3.55036 1
gene 3 2 26 4.70721 0 48 4.70721 1
gene 3 26 22 -1.42663 0 49 -1.42663 1
gene 2 4 15 6.1122 0 90 6.1122 0
gene 1 5 44 -1.59287 0 101 -1.59287 1
gene 1 44 8 1.1069 0 102 1.1069 0
gene 2 26 11 -0.978111 0 165 -0.978111 1
gene 2 4 73 1 0 201 0 1
gene 2 73 15 6.1122 0 202 0 1
gene 1 44 78 1 0 216 0 1
gene 1 78 8 1.1069 0 217 0 1
genomeend 97

/* Organism #98 Fitness: 47 Error: 0 */
genomestart 98
trait 1 0.1 0 0 0 0 0 0 0 
trait 2 0.2 0 0 0 0 0 0 0 
trait 3 0.3 0 0 0 0 0 0.161121 0.483671 
node 1 2 1 1
node 2 2 1 1
node 3 3 1 1
node 4 3 1 1
node 5 1 1 1
node 6 1 1 1
node 7 3 1 3
node 8 3 0 2
node 11 1 0 0
node 15 1 0 0
node 22 1 0 0
node 26 1 0 0
node 44 1 0 0
node 73 1 0 0
gene 2 1 8 2.37717 0 1 2.37717 1
gene 3 2 8 -0.835602 0 2 -0.835602 0
gene 2 3 8 -2.78441 0 3 -2.78441 0
gene 1 4 8 -2.24342 0 4 -2.24342 1
gene 1 5 8 5.30446 0 5 5.30446 1
gene 1 6 8 8 0 6 8 1
gene 2 7 8 -0.752022 0 7 -0.752022 1
gene 3 3 11 6.3093 0 12 6.3093 1
gene 3 11 8 5.70335 0 13 5.70335 0
gene 3 11 15 1.06868 0 20 1.06868 1
gene 3 15 8 -0.336759 0 21 -0.336759 1
gene 3 2 22 -0.398124 0 38 -0.398124 0
gene 3 22 8 -1.27324 0 39 -1.27324 1
gene 3 2 26 3.38053 0 48 3.38053 1
gene 3 26 22 0.898521 0 49 0.898521 1
gene 2 4 15 5.13803 0 90 5.13803 0
gene 1 5 44 -3.60396 0 101 -3.60396 1
gene 1 44 8 1.1069 0 102 1.1069 1
gene 2 26 11 -0.270978 0 165 -0.270978 1
gene 2 4 73 1.87535 0 201 1.87535 1
gene 2 73 15 -1.5515 0 202 -1.5515 1
genomeend 98

/* Organism #99 Fitness: 79 Error: 0 */
genomestart 99
trait 1 0.1 0 0 0 0 0 0 0 
trait 2 0.2 0 0 0 0 0 0 0 
trait 3 0.3 0 0 0 0 0 0 0 
node 1 2 1 1
node 2 2 1 1
node 3 3 1 1
node 4 3 1 1
node 5 1 1 1
node 6 1 1 1
node 7 3 1 3
node 8 3 0 2
node 11 1 0 0
node 15 1 0 0
node 22 1 0 0
node 26 1 0 0
node 44 1 0 0
node 73 1 0 0
gene 2 1 8 4.22644 0 1 4.22644 1
gene 3 2 8 -0.145272 0 2 -0.145272 0
gene 2 3 8 -2.47131 0 3 -2.47131 0
gene 1 4 8 -0.652035 0 4 -0.652035 1
gene 1 5 8 2.96812 0 5 2.96812 1
gene 1 6 8 8 0 6 8 1
gene 1 7 8 -1.00001 0 7 -1.00001 1
gene 3 3 11 7.06697 0 12 7.06697 1
gene 3 11 8 4.02788 0 13 4.02788 0
gene 3 11 15 2.27843 0 20 2.27843 1
gene 3 15 8 0.762035 0 21 0.762035 1
gene 3 2 22 -0.932449 0 38 -0.932449 0
gene 3 22 8 -3.55036 0 39 -3.55036 1
gene 3 2 26 4.70721 0 48 4.70721 1
gene 3 26 22 -1.42663 0 49 -1.42663 1
gene 2 4 15 6.1122 0 90 6.1122 0
gene 1 5 44 -1.59287 0 101 -1.59287 1
gene 1 44 8 1.1069 0 102 1.1069 1
gene 2 26 11 -0.978111 0 165 -0.978111 1
gene 2 4 73 1 0 201 0 1
gene 2 73 15 6.1122 0 202 0 1
genomeend 99

/* Organism #100 Fitness: 63 Error: 0 */
genomestart 100
trait 1 0.1 0 0 0 0 0 0 0 
trait 2 0.2 0 0 0 0 0 0 0 
trait 3 0.3 0 0 0 0 0 0 0 
node 1 2 1 1
node 2 2 1 1
node 3 3 1 1
node 4 3 1 1
node 5 1 1 1
node 6 1 1 1
node 7 3 1 3
node 8 3 0 2
node 11 1 0 0
node 15 1 0 0
node 22 1 0 0
node 26 1 0 0
node 44 1 0 0
node 73 1 0 0
gene 2 1 8 5.52849 0 1 5.52849 1
gene 3 2 8 -1.53624 0 2 -1.53624 0
gene 2 3 8 -1.31683 0 3 -1.31683 0
gene 1 4 8 -0.485372 0 4 -0.485372 1
gene 1 5 8 3.70029 0 5 3.70029 1
gene 1 6 8 8 0 6 8 1
gene 1 7 8 -0.545272 0 7 -0.545272 1
gene 1 3 11 6.92318 0 12 6.92318 1
gene 3 11 8 1.86132 0 13 1.86132 0
gene 3 11 15 2.06622 0 20 2.06622 1
gene 3 15 8 0.268536 0 21 0.268536 1
gene 3 2 22 -3.07243 0 38 -3.07243 0
gene 3 22 8 -4.97019 0 39 -4.97019 1
gene 3 2 26 6.03775 0 48 6.03775 1
gene 3 26 22 -0.987807 0 49 -0.987807 1
gene 2 4 15 6.61897 0 90 6.61897 0
gene 1 5 44 -2.74155 0 101 -2.74155 1
gene 1 44 8 2.80809 0 102 2.80809 1
gene 2 26 11 1.29204 0 165 1.29204 1
gene 2 4 73 1 0 201 1 1
gene 2 73 15 6.40651 0 202 6.40651 1
genomeend 100

/* Organism #101 Fitness: 35 Error: 0 */
genomestart 101
trait 1 0.1 0 0 0 0 0 0 0 
trait 2 0.2 0 0 0 0 0 0 0 
trait 3 0.3 0 0 0 0 0 0 0 
node 1 2 1 1
node 2 2 1 1
node 3 3 1 1
node 4 3 1 1
node 5 1 1 1
node 6 1 1 1
node 7 3 1 3
node 8 3 0 2
node 11 1 0 0
node 15 1 0 0
node 22 1 0 0
node 26 1 0 0
node 44 1 0 0
node 73 1 0 0
gene 2 1 8 2.54706 0 1 2.54706 1
gene 3 2 8 -0.598379 0 2 -0.598379 0
gene 2 3 8 -3.19382 0 3 -3.19382 0
gene 1 4 8 0.697389 0 4 0.697389 1
gene 1 5 8 2.17777 0 5 2.17777 1
gene 1 6 8 5.95078 0 6 5.95078 1
gene 1 7 8 -0.921963 0 7 -0.921963 1
gene 3 3 11 6.32283 0 12 6.32283 1
gene 3 11 8 3.73129 0 13 3.73129 0
gene 3 11 15 1.78668 0 20 1.78668 1
gene 3 15 8 2.1108 0 21 2.1108 1
gene 3 2 22 -3.13218 0 38 -3.13218 0
gene 3 22 8 -2.77936 0 39 -2.77936 1
gene 3 2 26 5.21469 0 48 5.21469 1
gene 3 26 22 -0.809179 0 49 -0.809179 1
gene 2 4 15 7.7155 0 90 7.7155 0
gene 1 5 44 -0.692094 0 101 -0.692094 1
gene 1 44 8 -0.739319 0 102 -0.739319 1
gene 2 26 11 -0.978111 0 165 -0.978111 1
gene 2 4 73 -0.174749 0 201 -0.174749 1
gene 2 73 15 0.205183 0 202 0.205183 1
genomeend 101

/* Organism #102 Fitness: 31 Error: 0 */
genomestart 102
trait 1 0.1 0 0 0 0 0 0 0 
trait 2 0.2 0 0 0 0 0 0 0 
trait 3 0.3 0 0 0 0 0 0 0 
node 1 2 1 1
node 2 2 1 1
node 3 3 1 1
node 4 3 1 1
node 5 1 1 1
node 6 1 1 1
node 7 3 1 3
node 8 3 0 2
node 11 1 0 0
node 15 1 0 0
node 22 1 0 0
node 26 1 0 0
node 44 1 0 0
node 73 1 0 0
gene 2 1 8 4.22644 0 1 4.22644 1
gene 3 2 8 -0.145272 0 2 -0.145272 0
gene 2 3 8 -2.47131 0 3 -2.47131 1
gene 1 4 8 -0.652035 0 4 -0.652035 1
gene 1 5 8 2.96812 0 5 2.96812 1
gene 1 6 8 8 0 6 8 1
gene 1 7 8 -1.00001 0 7 -1.00001 1
gene 3 3 11 7.06697 0 12 7.06697 1
gene 3 11 8 4.02788 0 13 4.02788 0
gene 3 11 15 2.27843 0 20 2.27843 1
gene 3 15 8 0.762035 0 21 0.762035 1
gene 3 2 22 -0.932449 0 38 -0.932449 0
gene 3 22 8 -3.55036 0 39 -3.55036 1
gene 3 2 26 4.70721 0 48 4.70721 1
gene 3 26 22 -1.42663 0 49 -1.42663 1
gene 2 4 15 6.1122 0 90 6.1122 0
gene 1 5 44 -1.59287 0 101 -1.59287 1
gene 1 44 8 1.1069 0 102 1.1069 1
gene 2 26 11 -0.978111 0 165 -0.978111 1
gene 2 4 73 1 0 201 0 1
gene 2 73 15 6.1122 0 202 0 1
genomeend 102

/* Organism #103 Fitness: 42 Error: 0 */
genomestart 103
trait 1 0.1 0 0 0 0 0 0 0 
trait 2 0.2 0 0 0 0 0 0 0 
trait 3 0.3 0 0 0 0 0 0 0 
node 1 2 1 1
node 2 2 1 1
node 3 3 1 1
node 4 3 1 1
node 5 1 1 1
node 6 1 1 1
node 7 3 1 3
node 8 3 0 2
node 11 1 0 0
node 15 1 0 0
node 22 1 0 0
node 26 1 0 0
node 44 1 0 0
node 73 1 0 0
gene 2 1 8 3.23916 0 1 3.23916 1
gene 3 2 8 -0.810702 0 2 -0.810702 0
gene 2 3 8 -0.57102 0 3 -0.57102 0
gene 1 4 8 -0.573889 0 4 -0.573889 1
gene 1 5 8 2.08828 0 5 2.08828 1
gene 1 6 8 8 0 6 8 1
gene 1 7 8 -2.1587 0 7 -2.1587 1
gene 3 3 11 5.97134 0 12 5.97134 1
gene 3 11 8 2.1319 0 13 2.1319 0
gene 3 11 15 0.977909 0 20 0.977909 1
gene 3 15 8 -0.119533 0 21 -0.119533 1
gene 3 2 22 0.0384418 0 38 0.0384418 0
gene 3 22 8 -3.30303 0 39 -3.30303 1
gene 3 2 26 7.16436 0 48 7.16436 1
gene 3 26 22 -2.36378 0 49 -2.36378 1
gene 2 4 15 6.41979 0 90 6.41979 0
gene 1 5 44 -0.612347 0 101 -0.612347 1
gene 1 44 8 0.78907 0 102 0.78907 1
gene 2 26 11 -0.0958047 0 165 -0.0958047 1
gene 2 4 73 -2.07168 0 201 -2.07168 1
gene 2 73 15 6.1122 0 202 6.1122 1
genomeend 103

/* Species #14 : (Size 9) (AF 46.4444) (Age 10)  */


/* Organism #104 Fitness: 80 Error: 0 */
genomestart 104
trait 1 0.1 0 0 0 0 0 0 0 
trait 2 0.2 0 0 0 0 0 0 0 
trait 3 0.3 0 0 0 0 0 0 0 
node 1 2 1 1
node 2 3 1 1
node 3 3 1 1
node 4 3 1 1
node 5 1 1 1
node 6 1 1 1
node 7 3 1 3
node 8 1 0 2
node 11 1 0 0
node 46 1 0 0
gene 2 1 8 -0.105657 0 1 -0.105657 1
gene 3 2 8 -1.65092 0 2 -1.65092 0
gene 2 3 8 -3.04798 0 3 -3.04798 0
gene 2 4 8 0.241882 0 4 0.241882 1
gene 3 5 8 8 0 5 8 1
gene 1 6 8 2.58644 0 6 2.58644 1
gene 1 7 8 -1.12863 0 7 -1.12863 1
gene 2 3 11 0.676877 0 12 0.676877 1
gene 3 11 8 -1.2217 0 13 -1.2217 1
gene 3 2 46 2.05159 0 106 2.05159 1
gene 3 46 8 0.944695 0 107 0.944695 1
genomeend 104

/* Organism #105 Fitness: 24 Error: 0 */
genomestart 105
trait 1 0.1 0 0 0 0 0 0 0 
trait 2 0.2 0 0 0 0 0 0 0 
trait 3 0.3 0 0 0 0 0 0 0 
node 1 2 1 1
node 2 3 1 1
node 3 3 1 1
node 4 3 1 1
node 5 1 1 1
node 6 1 1 1
node 7 3 1 3
node 8 1 0 2
node 11 1 0 0
node 46 1 0 0
gene 2 1 8 1.21738 0 1 1.21738 1
gene 3 2 8 5.84593 0 2 5.84593 0
gene 2 3 8 2.77219 0 3 2.77219 0
gene 2 4 8 4.29711 0 4 4.29711 1
gene 3 5 8 6.21883 0 5 6.21883 1
gene 1 6 8 2.27125 0 6 2.27125 1
gene 1 7 8 -1.25741 0 7 -1.25741 1
gene 2 3 11 2.21513 0 12 2.21513 1
gene 3 11 8 2.56833 0 13 2.56833 1
gene 3 2 46 -0.309524 0 106 -0.309524 1
gene 3 46 8 1.70809 0 107 1.70809 1
genomeend 105

/* Organism #106 Fitness: 80 Error: 0 */
genomestart 106
trait 1 0.1 0 0 0 0 0 0 0 
trait 2 0.2 0 0 0 0 0 0 0 
trait 3 0.3 0 0 0 0 0 0 0 
node 1 2 1 1
node 2 3 1 1
node 3 3 1 1
node 4 3 1 1
node 5 1 1 1
node 6 1 1 1
node 7 3 1 3
node 8 1 0 2
node 11 1 0 0
node 46 1 0 0
gene 2 1 8 -0.105657 0 1 -0.105657 1
gene 3 2 8 -1.65092 0 2 -1.65092 0
gene 2 3 8 -3.04798 0 3 -3.04798 0
gene 2 4 8 0.241882 0 4 0.241882 1
gene 3 5 8 8 0 5 8 1
gene 1 6 8 2.58644 0 6 2.58644 1
gene 1 7 8 -1.12863 0 7 -1.12863 1
gene 2 3 11 0.676877 0 12 0.676877 1
gene 3 11 8 -1.2217 0 13 -1.2217 1
gene 3 2 46 2.05159 0 106 2.05159 1
gene 3 46 8 0.944695 0 107 0.944695 1
genomeend 106

/* Organism #107 Fitness: 31 Error: 0 */
genomestart 107
trait 1 0.1 0 0 0 0 0 0 0 
trait 2 0.2 0 0 0 0 0 0 0 
trait 3 0.3 0 0 0 0 0 0 0 
node 1 2 1 1
node 2 3 1 1
node 3 3 1 1
node 4 3 1 1
node 5 1 1 1
node 6 1 1 1
node 7 3 1 3
node 8 2 0 2
node 11 1 0 0
node 46 1 0 0
gene 2 1 8 1.47446 0 1 1.47446 1
gene 3 2 8 5.00657 0 2 5.00657 0
gene 2 3 8 3.53833 0 3 3.53833 0
gene 2 4 8 3.95921 0 4 3.95921 1
gene 3 5 8 5.99503 0 5 5.99503 1
gene 1 6 8 0.65006 0 6 0.65006 1
gene 1 7 8 -2.32129 0 7 -2.32129 1
gene 2 3 11 -1.95779 0 12 -1.95779 1
gene 3 11 8 0.853675 0 13 0.853675 1
gene 3 2 46 1.41571 0 106 1.41571 1
gene 3 46 8 3.26473 0 107 3.26473 1
genomeend 107

/* Organism #108 Fitness: 40 Error: 0 */
genomestart 108
trait 1 0.1 0 0 0 0 0 0 0 
trait 2 0.2 0 0 0 0 0 0 0 
trait 3 0.3 0 0 0 0 0 0 0 
node 1 2 1 1
node 2 3 1 1
node 3 3 1 1
node 4 3 1 1
node 5 1 1 1
node 6 1 1 1
node 7 3 1 3
node 8 1 0 2
node 11 1 0 0
node 46 1 0 0
gene 2 1 8 -0.217829 0 1 -0.217829 1
gene 3 2 8 -2.86282 0 2 -2.86282 0
gene 2 3 8 -0.645194 0 3 -0.645194 0
gene 2 4 8 0.269292 0 4 0.269292 1
gene 3 5 8 8 0 5 8 1
gene 1 6 8 3.83334 0 6 3.83334 1
gene 1 7 8 -1.60108 0 7 -1.60108 1
gene 2 3 11 -0.987357 0 12 -0.987357 1
gene 3 11 8 -0.310469 0 13 -0.310469 1
gene 3 2 46 2.05159 0 106 2.05159 1
gene 3 46 8 1.095 0 107 1.095 1
genomeend 108

/* Organism #109 Fitness: 35 Error: 0 */
genomestart 109
trait 1 0.1 0 0 0 0 0 0 0 
trait 2 0.2 0 0 0 0 0 0 0 
trait 3 0.3 0 0 0 0 0 0 0 
node 1 2 1 1
node 2 3 1 1
node 3 3 1 1
node 4 3 1 1
node 5 1 1 1
node 6 1 1 1
node 7 3 1 3
node 8 1 0 2
node 11 1 0 0
node 46 1 0 0
gene 2 1 8 -1.49138 0 1 -1.49138 1
gene 3 2 8 -2.70534 0 2 -2.70534 0
gene 2 3 8 -1.25383 0 3 -1.25383 0
gene 2 4 8 1.53656 0 4 1.53656 1
gene 3 5 8 8 0 5 8 1
gene 1 6 8 0.887246 0 6 0.887246 1
gene 1 7 8 -1.1344 0 7 -1.1344 1
gene 2 3 11 2.68665 0 12 2.68665 1
gene 3 11 8 -0.765667 0 13 -0.765667 1
gene 3 2 46 -1.62657 0 106 -1.62657 1
gene 3 46 8 3.38763 0 107 3.38763 1
genomeend 109

/* Organism #110 Fitness: 58 Error: 0 */
genomestart 110
trait 1 0.1 0 0 0 0 0 0 0 
trait 2 0.2 0 0 0 0 0 0 0 
trait 3 0.3 0 0 0 0 0 0 0 
node 1 2 1 1
node 2 3 1 1
node 3 3 1 1
node 4 3 1 1
node 5 1 1 1
node 6 1 1 1
node 7 3 1 3
node 8 1 0 2
node 11 1 0 0
node 46 1 0 0
gene 2 1 8 -0.105657 0 1 -0.105657 1
gene 3 2 8 1.20918 0 2 1.20918 0
gene 2 3 8 -2.19244 0 3 -2.19244 0
gene 2 4 8 0.241882 0 4 0.241882 1
gene 3 5 8 -0.828404 0 5 -0.828404 1
gene 1 6 8 3.10417 0 6 3.10417 1
gene 1 7 8 -0.67263 0 7 -0.67263 1
gene 2 3 11 2.46442 0 12 2.46442 1
gene 3 11 8 1.01513 0 13 1.01513 1
gene 3 2 46 2.15583 0 106 2.15583 1
gene 3 46 8 0.574696 0 107 0.574696 1
genomeend 110

/* Organism #111 Fitness: 36 Error: 0 */
genomestart 111
trait 1 0.1 0 0 0 0 0 0 0 
trait 2 0.2 0 0 0 0 0 0 0 
trait 3 0.3 0 0 0 0 0 0 0 
node 1 2 1 1
node 2 3 1 1
node 3 3 1 1
node 4 3 1 1
node 5 1 1 1
node 6 1 1 1
node 7 3 1 3
node 8 2 0 2
node 11 1 0 0
node 46 1 0 0
gene 2 1 8 -0.782138 0 1 -0.782138 1
gene 3 2 8 -0.693715 0 2 -0.693715 1
gene 2 3 8 -2.08541 0 3 -2.08541 0
gene 2 4 8 3.92231 0 4 3.92231 1
gene 3 5 8 6.16317 0 5 6.16317 1
gene 1 6 8 0.745756 0 6 0.745756 1
gene 1 7 8 -0.24409 0 7 -0.24409 1
gene 2 3 11 -0.469864 0 12 -0.469864 1
gene 3 11 8 -1.58278 0 13 -1.58278 1
gene 3 2 46 0.178542 0 106 0.178542 1
gene 3 46 8 1.10954 0 107 1.10954 1
genomeend 111

/* Organism #112 Fitness: 34 Error: 0 */
genomestart 112
trait 1 0.1 0 0 0 0 0 0 0 
trait 2 0.2 0 0 0 0 0 0 0 
trait 3 0.3 0 0 0 0 0 0 0 
node 1 2 1 1
node 2 3 1 1
node 3 3 1 1
node 4 3 1 1
node 5 1 1 1
node 6 1 1 1
node 7 3 1 3
node 8 2 0 2
node 11 1 0 0
node 46 1 0 0
gene 2 1 8 0.93964 0 1 0.93964 1
gene 3 2 8 0.346015 0 2 0.346015 0
gene 2 3 8 -1.63803 0 3 -1.63803 0
gene 2 4 8 2.5903 0 4 2.5903 1
gene 3 5 8 5.64689 0 5 5.64689 1
gene 1 6 8 2.31149 0 6 2.31149 1
gene 1 7 8 -4.37534 0 7 -4.37534 1
gene 2 3 11 0.595958 0 12 0.595958 1
gene 3 11 8 -0.722647 0 13 -0.722647 1
gene 3 2 46 2.16649 0 106 2.16649 1
gene 3 46 8 0.210687 0 107 0.210687 1
genomeend 112

/* Species #15 : (Size 8) (AF 38.625) (Age 10)  */


/* Organism #113 Fitness: 85 Error: 0 */
genomestart 113
trait 1 0.1 0 0 0 0 0 0 0 
trait 2 0.2 0 0 0 0 0 0 0 
trait 3 0.3 0 0 0 0 0 0 0 
node 1 2 1 1
node 2 3 1 1
node 3 3 1 1
node 4 3 1 1
node 5 1 1 1
node 6 1 1 1
node 7 3 1 3
node 8 2 0 2
node 11 1 0 0
node 49 1 0 0
gene 2 1 8 2.59362 0 1 2.59362 1
gene 3 2 8 0.17131 0 2 0.17131 1
gene 2 3 8 -1.25388 0 3 -1.25388 0
gene 2 4 8 1.47027 0 4 1.47027 1
gene 3 5 8 7.82279 0 5 7.82279 1
gene 1 6 8 0.136418 0 6 0.136418 1
gene 2 7 8 -2.27003 0 7 -2.27003 1
gene 2 3 11 -2.01376 0 12 -2.01376 0
gene 3 11 8 0.485977 0 13 0.485977 1
gene 2 6 11 -2.92425 0 72 -2.92425 1
gene 2 5 11 -0.137792 0 105 -0.137792 1
gene 2 3 49 -1.10891 0 115 -1.10891 1
gene 2 49 11 1.95801 0 116 1.95801 1
genomeend 113

/* Organism #114 Fitness: 44 Error: 0 */
genomestart 114
trait 1 0.1 0 0 0 0 0 0 0 
trait 2 0.2 0 0 0 0 0 0 0 
trait 3 0.3 0 0 0 0 0 0 0 
node 1 2 1 1
node 2 3 1 1
node 3 3 1 1
node 4 3 1 1
node 5 1 1 1
node 6 1 1 1
node 7 3 1 3
node 8 2 0 2
node 11 1 0 0
node 49 1 0 0
gene 2 1 8 4.73689 0 1 4.73689 1
gene 3 2 8 -1.46329 0 2 -1.46329 1
gene 2 3 8 0.354138 0 3 0.354138 0
gene 2 4 8 1.79851 0 4 1.79851 1
gene 3 5 8 8 0 5 8 1
gene 1 6 8 2.50957 0 6 2.50957 1
gene 2 7 8 -3.81421 0 7 -3.81421 1
gene 2 3 11 -3.35602 0 12 -3.35602 0
gene 3 11 8 -1.26167 0 13 -1.26167 1
gene 2 6 11 -3.62941 0 72 -3.62941 1
gene 2 5 11 1.5364 0 105 1.5364 1
gene 2 3 49 -0.313585 0 115 -0.313585 1
gene 2 49 11 1.9374 0 116 1.9374 1
genomeend 114

/* Organism #115 Fitness: 5 Error: 0 */
genomestart 115
trait 1 0 0 0 0.397494 0 0 0 0 
trait 2 0.2 0 0 0 0 0 0 0 
trait 3 0.3 0 0 0 0 0 0 0 
node 1 2 1 1
node 2 3 1 1
node 3 3 1 1
node 4 3 1 1
node 5 1 1 1
node 6 1 1 1
node 7 3 1 3
node 8 2 0 2
node 11 1 0 0
node 49 1 0 0
gene 2 1 8 0.382916 0 1 0.382916 1
gene 3 2 8 1.15227 0 2 1.15227 1
gene 2 3 8 -2.8736 0 3 -2.8736 0
gene 2 4 8 -0.356727 0 4 -0.356727 1
gene 3 5 8 6.14208 0 5 6.14208 1
gene 1 6 8 -0.678398 0 6 -0.678398 1
gene 2 7 8 -3.87689 0 7 -3.87689 1
gene 2 3 11 0.430838 0 12 0.430838 0
gene 3 11 8 2.0708 0 13 2.0708 1
gene 2 6 11 1.86577 0 72 1.86577 1
gene 2 5 11 -0.551536 0 105 -0.551536 1
gene 2 3 49 -1.10891 0 115 -1.10891 1
gene 2 49 11 4.27554 0 116 4.27554 1
genomeend 115

/* Organism #116 Fitness: 5 Error: 0 */
genomestart 116
trait 1 0.1 0 0 0 0 0 0 0 
trait 2 0.2 0 0 0 0 0 0 0 
trait 3 0.3 0 0 0 0 0 0 0 
node 1 2 1 1
node 2 3 1 1
node 3 3 1 1
node 4 3 1 1
node 5 1 1 1
node 6 1 1 1
node 7 3 1 3
node 8 2 0 2
node 11 1 0 0
node 49 1 0 0
gene 2 1 8 3.02862 0 1 3.02862 1
gene 3 2 8 1.87705 0 2 1.87705 1
gene 2 3 8 0.83945 0 3 0.83945 0
gene 2 4 8 0.156855 0 4 0.156855 1
gene 3 5 8 5.69961 0 5 5.69961 1
gene 1 6 8 -2.18464 0 6 -2.18464 1
gene 2 7 8 -3.77064 0 7 -3.77064 1
gene 2 3 11 -0.360422 0 12 -0.360422 0
gene 3 11 8 2.75553 0 13 2.75553 1
gene 2 6 11 -1.95753 0 72 -1.95753 1
gene 2 5 11 -2.21903 0 105 -2.21903 1
gene 2 3 49 1.93109 0 115 1.93109 1
gene 2 49 11 -0.335164 0 116 -0.335164 1
genomeend 116

/* Organism #117 Fitness: 5 Error: 0 */
genomestart 117
trait 1 0.1 0 0 0 0 0 0 0 
trait 2 0.2 0 0 0 0 0 0 0 
trait 3 0.3 0 0 0 0 0 0 0 
node 1 2 1 1
node 2 3 1 1
node 3 3 1 1
node 4 3 1 1
node 5 1 1 1
node 6 1 1 1
node 7 3 1 3
node 8 2 0 2
node 11 1 0 0
node 49 1 0 0
gene 2 1 8 3.53527 0 1 3.53527 1
gene 3 2 8 -2.26401 0 2 -2.26401 1
gene 2 3 8 -0.558784 0 3 -0.558784 1
gene 2 4 8 -1.97639 0 4 -1.97639 1
gene 3 5 8 8 0 5 8 1
gene 1 6 8 -1.5641 0 6 -1.5641 1
gene 2 7 8 -1.865 0 7 -1.865 1
gene 2 3 11 -0.677654 0 12 -0.677654 0
gene 3 11 8 -0.484932 0 13 -0.484932 1
gene 2 6 11 -4.79781 0 72 -4.79781 1
gene 2 5 11 2.13336 0 105 2.13336 1
gene 2 3 49 0.0244226 0 115 0.0244226 1
gene 2 49 11 2.25255 0 116 2.25255 1
genomeend 117

/* Organism #118 Fitness: 46 Error: 0 */
genomestart 118
trait 1 0.1 0 0 0 0 0 0 0 
trait 2 0.2 0 0 0 0 0 0 0 
trait 3 0.3 0 0 0 0 0 0 0 
node 1 2 1 1
node 2 3 1 1
node 3 3 1 1
node 4 3 1 1
node 5 1 1 1
node 6 1 1 1
node 7 3 1 3
node 8 2 0 2
node 11 1 0 0
node 49 1 0 0
gene 2 1 8 3.50868 0 1 3.50868 1
gene 3 2 8 -0.108957 0 2 -0.108957 1
gene 2 3 8 -1.07774 0 3 -1.07774 1
gene 2 4 8 0.707589 0 4 0.707589 1
gene 3 5 8 7.84494 0 5 7.84494 1
gene 1 6 8 0.403836 0 6 0.403836 1
gene 2 7 8 -3.07346 0 7 -3.07346 1
gene 2 3 11 -2.12056 0 12 -2.12056 1
gene 3 11 8 1.05253 0 13 1.05253 1
gene 2 6 11 -2.72252 0 72 -2.72252 1
gene 2 5 11 -0.0859986 0 105 -0.0859986 1
gene 2 3 49 -1.32821 0 115 -1.32821 1
gene 2 49 11 1.90564 0 116 1.90564 1
genomeend 118

/* Organism #119 Fitness: 67 Error: 0 */
genomestart 119
trait 1 0.1 0 0 0 0 0 0 0 
trait 2 0.2 0 0 0 0 0 0 0 
trait 3 0.3 0 0 0 0 0 0 0 
node 1 2 1 1
node 2 3 1 1
node 3 3 1 1
node 4 3 1 1
node 5 1 1 1
node 6 1 1 1
node 7 3 1 3
node 8 2 0 2
node 11 1 0 0
node 49 1 0 0
gene 2 1 8 3.50868 0 1 3.50868 1
gene 3 2 8 -0.108957 0 2 -0.108957 1
gene 2 3 8 -1.07774 0 3 -1.07774 1
gene 2 4 8 0.707589 0 4 0.707589 1
gene 3 5 8 7.84494 0 5 7.84494 1
gene 1 6 8 0.403836 0 6 0.403836 1
gene 2 7 8 -3.07346 0 7 -3.07346 1
gene 2 3 11 -2.12056 0 12 -2.12056 0
gene 3 11 8 1.05253 0 13 1.05253 1
gene 2 6 11 -2.72252 0 72 -2.72252 1
gene 2 5 11 -0.0859986 0 105 -0.0859986 1
gene 2 3 49 -1.32821 0 115 -1.32821 1
gene 2 49 11 1.90564 0 116 1.90564 1
genomeend 119

/* Organism #120 Fitness: 52 Error: 0 */
genomestart 120
trait 1 0.1 0 0 0 0 0 0 0 
trait 2 0.2 0 0 0 0 0 0 0 
trait 3 0.3 0 0 0 0 0 0 0 
node 1 2 1 1
node 2 3 1 1
node 3 3 1 1
node 4 3 1 1
node 5 1 1 1
node 6 1 1 1
node 7 3 1 3
node 8 2 0 2
node 11 1 0 0
node 49 1 0 0
gene 2 1 8 3.58756 0 1 3.58756 1
gene 3 2 8 1.20748 0 2 1.20748 1
gene 2 3 8 1.39408 0 3 1.39408 1
gene 2 4 8 -0.939519 0 4 -0.939519 1
gene 3 5 8 6.66374 0 5 6.66374 1
gene 1 6 8 1.70407 0 6 1.70407 1
gene 2 7 8 -2.47847 0 7 -2.47847 1
gene 2 3 11 -1.07002 0 12 -1.07002 0
gene 3 11 8 -0.668259 0 13 -0.668259 1
gene 2 6 11 -0.61357 0 72 -0.61357 1
gene 2 5 11 -0.0342057 0 105 -0.0342057 1
gene 2 3 49 -1.75263 0 115 -1.75263 1
gene 2 49 11 4.29716 0 116 4.29716 1
genomeend 120

/* Species #16 : (Size 6) (AF 32.6667) (Age 9)  */


/* Organism #121 Fitness: 60 Error: 0 */
genomestart 121
trait 1 0.1 0 0 0 0 0 0 0 
trait 2 0.2 0 0 0 0 0 0 0 
trait 3 0.3 0 0 0 0 0 0 0 
node 1 2 1 1
node 2 2 1 1
node 3 3 1 1
node 4 3 1 1
node 5 1 1 1
node 6 1 1 1
node 7 3 1 3
node 8 3 0 2
node 11 1 0 0
node 15 1 0 0
node 22 1 0 0
node 26 1 0 0
node 41 1 0 0
gene 2 1 8 -0.542005 0 1 -0.542005 1
gene 3 2 8 0.957917 0 2 0.957917 0
gene 2 3 8 -0.519157 0 3 -0.519157 0
gene 1 4 8 2.44634 0 4 2.44634 1
gene 1 5 8 1.16891 0 5 1.16891 1
gene 1 6 8 3.47725 0 6 3.47725 1
gene 1 7 8 -1.69634 0 7 -1.69634 1
gene 3 3 11 3.55875 0 12 3.55875 1
gene 3 11 8 1.65522 0 13 1.65522 0
gene 3 11 15 2.29668 0 20 2.29668 1
gene 3 15 8 2.61843 0 21 2.61843 1
gene 3 2 22 -1.111 0 38 -1.111 0
gene 3 22 8 -1.98382 0 39 -1.98382 1
gene 3 2 26 1.20413 0 48 1.20413 1
gene 3 26 22 1 0 49 1 0
gene 3 26 41 -2.10381 0 88 -2.10381 1
gene 3 41 22 1 0 89 1 1
gene 2 22 15 -0.138072 0 127 -0.138072 1
genomeend 121

/* Organism #122 Fitness: 34 Error: 0 */
genomestart 122
trait 1 0.1 0 0 0 0 0 0 0 
trait 2 0.2 0 0 0 0 0 0 0 
trait 3 0.266313 0 0 0 0 0 0 0 
node 1 2 1 1
node 2 2 1 1
node 3 3 1 1
node 4 3 1 1
node 5 1 1 1
node 6 1 1 1
node 7 3 1 3
node 8 3 0 2
node 11 1 0 0
node 15 1 0 0
node 22 1 0 0
node 26 1 0 0
node 41 1 0 0
gene 2 1 8 4.51865 0 1 4.51865 1
gene 3 2 8 -0.602161 0 2 -0.602161 0
gene 2 3 8 1.66539 0 3 1.66539 0
gene 1 4 8 4.02669 0 4 4.02669 1
gene 1 5 8 2.29113 0 5 2.29113 1
gene 1 6 8 5.81124 0 6 5.81124 1
gene 1 7 8 0.336257 0 7 0.336257 1
gene 3 3 11 3.91107 0 12 3.91107 1
gene 3 11 8 0.431993 0 13 0.431993 0
gene 3 11 15 0.422461 0 20 0.422461 1
gene 3 15 8 -0.416667 0 21 -0.416667 1
gene 3 2 22 -3.32786 0 38 -3.32786 0
gene 3 22 8 -4.38215 0 39 -4.38215 1
gene 3 2 26 -2.12932 0 48 -2.12932 1
gene 3 26 22 0.915067 0 49 0.915067 0
gene 3 26 41 -2.21819 0 88 -2.21819 1
gene 3 41 22 0.50078 0 89 0.50078 1
gene 2 22 15 -2.60986 0 127 -2.60986 1
genomeend 122

/* Organism #123 Fitness: 41 Error: 0 */
genomestart 123
trait 1 0.1 0 0 0 0 0 0 0 
trait 2 0.2 0 0 0 0 0 0 0 
trait 3 0.266313 0 0 0 0 0 0 0 
node 1 2 1 1
node 2 2 1 1
node 3 3 1 1
node 4 3 1 1
node 5 1 1 1
node 6 1 1 1
node 7 3 1 3
node 8 3 0 2
node 11 1 0 0
node 15 1 0 0
node 22 1 0 0
node 26 1 0 0
node 41 1 0 0
node 79 1 0 0
gene 2 1 8 -0.542005 0 1 -0.542005 1
gene 3 2 8 0.957917 0 2 0.957917 0
gene 2 3 8 -2.14259 0 3 -2.14259 0
gene 1 4 8 2.44634 0 4 2.44634 1
gene 1 5 8 1.16891 0 5 1.16891 1
gene 1 6 8 3.47725 0 6 3.47725 1
gene 1 7 8 -0.362666 0 7 -0.362666 1
gene 3 3 11 3.55875 0 12 3.55875 1
gene 3 11 8 1.65522 0 13 1.65522 0
gene 3 11 15 2.6323 0 20 2.6323 1
gene 3 15 8 2.61843 0 21 2.61843 1
gene 3 2 22 -1.09504 0 38 -1.09504 0
gene 3 22 8 -4.00389 0 39 -4.00389 1
gene 3 2 26 1.20413 0 48 1.20413 1
gene 3 26 22 0.915067 0 49 0.915067 0
gene 3 26 41 -3.12213 0 88 -3.12213 1
gene 3 41 22 1 0 89 1 1
gene 2 22 15 -0.138072 0 127 -0.138072 0
gene 2 22 79 1 0 218 0 1
gene 2 79 15 -0.138072 0 219 0 1
genomeend 123

/* Organism #124 Fitness: 22 Error: 0 */
genomestart 124
trait 1 0.1 0 0 0 0 0 0 0 
trait 2 0.2 0 0 0 0 0 0 0 
trait 3 0.266313 0 0 0 0 0 0 0 
node 1 2 1 1
node 2 2 1 1
node 3 3 1 1
node 4 3 1 1
node 5 1 1 1
node 6 1 1 1
node 7 3 1 3
node 8 3 0 2
node 11 1 0 0
node 15 1 0 0
node 22 1 0 0
node 26 1 0 0
node 41 1 0 0
gene 2 1 8 1.84713 0 1 1.84713 1
gene 3 2 8 -0.739295 0 2 -0.739295 1
gene 2 3 8 -1.33088 0 3 -1.33088 0
gene 1 4 8 2.95421 0 4 2.95421 1
gene 1 5 8 0.75855 0 5 0.75855 1
gene 1 6 8 4.83111 0 6 4.83111 1
gene 1 7 8 -1.02951 0 7 -1.02951 1
gene 3 3 11 4.49344 0 12 4.49344 1
gene 3 11 8 2.43531 0 13 2.43531 0
gene 3 11 15 2.46449 0 20 2.46449 1
gene 3 15 8 1.8956 0 21 1.8956 1
gene 3 2 22 -1.10302 0 38 -1.10302 0
gene 3 22 8 -2.99385 0 39 -2.99385 1
gene 3 2 26 0.0671527 0 48 0.0671527 1
gene 3 26 22 0.957533 0 49 0.957533 1
gene 3 26 41 -2.61297 0 88 -2.61297 1
gene 3 41 22 1.80679 0 89 1.80679 1
gene 2 22 15 -1.22702 0 127 -1.22702 1
gene 2 4 22 -0.735047 0 220 -0.735047 1
genomeend 124

/* Organism #125 Fitness: 23 Error: 0 */
genomestart 125
trait 1 0.1 0 0 0.261747 0 0 0 0 
trait 2 0.2 0 0 0 0 0 0 0 
trait 3 0.232627 0 0 0 0 0 0 0 
node 1 2 1 1
node 2 2 1 1
node 3 3 1 1
node 4 3 1 1
node 5 1 1 1
node 6 1 1 1
node 7 3 1 3
node 8 3 0 2
node 11 1 0 0
node 15 1 0 0
node 22 1 0 0
node 26 1 0 0
node 41 1 0 0
gene 2 1 8 4.23626 0 1 4.23626 1
gene 3 2 8 -2.43651 0 2 -2.43651 0
gene 2 3 8 -0.401287 0 3 -0.401287 0
gene 1 4 8 1.52992 0 4 1.52992 1
gene 1 5 8 1.35467 0 5 1.35467 1
gene 1 6 8 5.80546 0 6 5.80546 1
gene 1 7 8 1.40228 0 7 1.40228 1
gene 3 3 11 5.84037 0 12 5.84037 1
gene 3 11 8 -0.624915 0 13 -0.624915 1
gene 3 11 15 -0.625953 0 20 -0.625953 1
gene 3 15 8 1.08743 0 21 1.08743 1
gene 3 2 22 -1.80054 0 38 -1.80054 1
gene 3 22 8 -6.46562 0 39 -6.46562 1
gene 3 2 26 -1.22984 0 48 -1.22984 1
gene 3 26 22 0.204239 0 49 0.204239 0
gene 3 26 41 -3.12213 0 88 -3.12213 1
gene 3 41 22 2.61357 0 89 2.61357 1
gene 2 22 15 -1.47606 0 127 -1.47606 1
genomeend 125

/* Organism #126 Fitness: 16 Error: 0 */
genomestart 126
trait 1 0.1 0 0 0 0 0 0 0 
trait 2 0.2 0 0 0 0 0 0 0 
trait 3 0.3 0 0 0 0 0 0 0 
node 1 2 1 1
node 2 2 1 1
node 3 3 1 1
node 4 3 1 1
node 5 1 1 1
node 6 1 1 1
node 7 3 1 3
node 8 3 0 2
node 11 1 0 0
node 15 1 0 0
node 22 1 0 0
node 26 1 0 0
node 41 1 0 0
gene 2 1 8 -0.355145 0 1 -0.355145 1
gene 3 2 8 0.461126 0 2 0.461126 0
gene 2 3 8 -1.33538 0 3 -1.33538 0
gene 1 4 8 4.6198 0 4 4.6198 1
gene 1 5 8 1.95765 0 5 1.95765 1
gene 1 6 8 4.61429 0 6 4.61429 1
gene 1 7 8 -1.50762 0 7 -1.50762 1
gene 3 3 11 2.09389 0 12 2.09389 1
gene 3 11 8 3.66819 0 13 3.66819 0
gene 3 11 15 0.0924057 0 20 0.0924057 1
gene 3 15 8 0.471119 0 21 0.471119 1
gene 3 2 22 -0.516305 0 38 -0.516305 0
gene 3 22 8 -4.36019 0 39 -4.36019 1
gene 3 2 26 -0.41601 0 48 -0.41601 1
gene 3 26 22 1.45924 0 49 1.45924 0
gene 3 26 41 -0.485274 0 88 -0.485274 1
gene 3 41 22 1.30549 0 89 1.30549 1
gene 2 22 15 -2.08133 0 127 -2.08133 1
genomeend 126

/* Species #17 : (Size 9) (AF 62.1111) (Age 9)  */


/* Organism #127 Fitness: 97 Error: 0 */
genomestart 127
trait 1 0.1 0 0 0 0 0 0 0 
trait 2 0.2 0 0 0 0 0 0 0 
trait 3 0.3 0 0 0 0 0 0 0 
node 1 2 1 1
node 2 3 1 1
node 3 3 1 1
node 4 3 1 1
node 5 1 1 1
node 6 1 1 1
node 7 3 1 3
node 8 2 0 2
node 11 1 0 0
node 36 1 0 0
node 52 1 0 0
gene 2 1 8 1.59195 0 1 1.59195 1
gene 3 2 8 1.6695 0 2 1.6695 0
gene 2 3 8 -0.707485 0 3 -0.707485 1
gene 2 4 8 -1.68707 0 4 -1.68707 1
gene 3 5 8 5.01846 0 5 5.01846 1
gene 1 6 8 1.82893 0 6 1.82893 1
gene 2 7 8 -1.18036 0 7 -1.18036 1
gene 2 3 11 0.157501 0 12 0.157501 0
gene 3 11 8 -0.0904572 0 13 -0.0904572 1
gene 3 2 36 -2.20535 0 76 -2.20535 1
gene 3 36 8 0.352602 0 77 0.352602 1
gene 2 3 52 1 0 128 1 1
gene 2 52 11 1.51011 0 129 1.51011 1
gene 2 4 11 -1.15311 0 142 -1.15311 1
genomeend 127

/* Organism #128 Fitness: 88 Error: 0 */
genomestart 128
trait 1 0.1 0 0 0 0 0 0 0 
trait 2 0.2 0 0 0 0 0 0 0 
trait 3 0.3 0 0 0 0 0 0 0 
node 1 2 1 1
node 2 3 1 1
node 3 3 1 1
node 4 3 1 1
node 5 1 1 1
node 6 1 1 1
node 7 3 1 3
node 8 2 0 2
node 11 1 0 0
node 36 1 0 0
node 52 1 0 0
gene 2 1 8 1.59195 0 1 1.59195 1
gene 3 2 8 1.6695 0 2 1.6695 1
gene 2 3 8 -0.707485 0 3 -0.707485 1
gene 2 4 8 -1.68707 0 4 -1.68707 1
gene 3 5 8 5.01846 0 5 5.01846 1
gene 1 6 8 1.82893 0 6 1.82893 1
gene 2 7 8 -1.18036 0 7 -1.18036 1
gene 2 3 11 0.157501 0 12 0.157501 1
gene 3 11 8 -0.0904572 0 13 -0.0904572 1
gene 3 2 36 -2.20535 0 76 -2.20535 1
gene 3 36 8 0.352602 0 77 0.352602 1
gene 2 3 52 1 0 128 1 1
gene 2 52 11 1.51011 0 129 1.51011 1
gene 2 4 11 -1.15311 0 142 -1.15311 1
genomeend 128

/* Organism #129 Fitness: 97 Error: 0 */
genomestart 129
trait 1 0.1 0 0 0 0 0 0 0 
trait 2 0.2 0 0 0 0 0 0 0 
trait 3 0.3 0 0 0 0 0 0 0 
node 1 2 1 1
node 2 3 1 1
node 3 3 1 1
node 4 3 1 1
node 5 1 1 1
node 6 1 1 1
node 7 3 1 3
node 8 2 0 2
node 11 1 0 0
node 36 1 0 0
node 52 1 0 0
gene 2 1 8 1.59195 0 1 1.59195 1
gene 3 2 8 1.6695 0 2 1.6695 0
gene 2 3 8 -0.707485 0 3 -0.707485 1
gene 2 4 8 -1.68707 0 4 -1.68707 1
gene 3 5 8 5.01846 0 5 5.01846 1
