
/* Species #1 : (Size 55) (AF 62.1636) (Age 13)  */


/* Organism #0 Fitness: 282 Error: 0 */
genomestart 0
trait 1 0.1 0 0 0 0 0 0 0 
trait 2 0.2 0 0 0 0 0 0 0 
trait 3 0.3 0 0 0 0 0 0 0 
node 1 3 1 1
node 2 3 1 1
node 3 2 1 1
node 4 3 1 1
node 5 2 1 1
node 6 2 1 1
node 7 2 1 3
node 8 2 0 2
gene 1 1 8 1.43443 0 1 1.43443 1
gene 1 2 8 -0.10397 0 2 -0.10397 1
gene 2 3 8 -2.31762 0 3 -2.31762 1
gene 2 4 8 -1.56656 0 4 -1.56656 1
gene 3 5 8 1.33974 0 5 1.33974 1
gene 2 6 8 0.548006 0 6 0.548006 1
gene 1 7 8 -0.15777 0 7 -0.15777 1
genomeend 0

/* Organism #1 Fitness: 49 Error: 0 */
genomestart 1
trait 1 0.0976562 0.00728754 0 0.0120687 0 0.0854517 0 0.156577 
trait 2 0.375 0.11147 0 0 0 0 0.0522209 0 
trait 3 0.271875 0 0.0924756 0 0.0594543 0.0678798 0 0 
node 1 1 1 1
node 2 3 1 1
node 3 1 1 1
node 4 3 1 1
node 5 2 1 1
node 6 3 1 1
node 7 1 1 3
node 8 1 0 2
gene 2 1 8 -0.784752 0 1 -0.784752 1
gene 1 2 8 -0.663881 0 2 -0.663881 1
gene 2 3 8 -0.702554 0 3 -0.702554 1
gene 1 4 8 -4.84012 0 4 -4.84012 1
gene 3 5 8 1.42891 0 5 1.42891 1
gene 2 6 8 2.96296 0 6 2.96296 1
gene 3 7 8 -0.383263 0 7 -0.383263 1
genomeend 1

/* Organism #2 Fitness: 141 Error: 0 */
genomestart 2
trait 1 0.0988281 0.00603038 0 0.00722132 0.00687986 0 0 0.0157451 
trait 2 0.261064 0.0656011 0 0 0 0 0.0111902 0 
trait 3 0.295312 0 0.0154126 0 0.00990905 0.0113133 0 0 
node 1 1 1 1
node 2 3 1 1
node 3 1 1 1
node 4 3 1 1
node 5 2 1 1
node 6 3 1 1
node 7 1 1 3
node 8 1 0 2
gene 3 1 8 0.435492 0 1 0.435492 1
gene 3 2 8 0.241799 0 2 0.241799 1
gene 2 3 8 -2.64196 0 3 -2.64196 1
gene 1 4 8 -2.8191 0 4 -2.8191 1
gene 3 5 8 2.07615 0 5 2.07615 1
gene 2 6 8 1.36221 0 6 1.36221 1
gene 3 7 8 0.125039 0 7 0.125039 1
genomeend 2

/* Organism #3 Fitness: 165 Error: 0 */
genomestart 3
trait 1 0.0984375 0.00485836 0 0.0080458 0 0.0569678 0 0.104384 
trait 2 0.325 0.0796213 0 0 0 0 0.0373006 0 
trait 3 0.28125 0 0.0616504 0 0.0396362 0.0452532 0 0 
node 1 1 1 1
node 2 3 1 1
node 3 1 1 1
node 4 3 1 1
node 5 2 1 1
node 6 3 1 1
node 7 1 1 3
node 8 1 0 2
gene 1 1 8 0.586343 0 1 0.586343 1
gene 1 2 8 0.861688 0 2 0.861688 1
gene 2 3 8 -3.9831 0 3 -3.9831 1
gene 1 4 8 -4.3129 0 4 -4.3129 1
gene 3 5 8 2.89658 0 5 2.89658 1
gene 2 6 8 2.04495 0 6 2.04495 1
gene 3 7 8 -0.54603 0 7 -0.54603 1
genomeend 3

/* Organism #4 Fitness: 50 Error: 0 */
genomestart 4
trait 1 0.0976562 0.00728754 0 0.0120687 0 0.0854517 0 0.156577 
trait 2 0.375 0.11147 0 0 0 0 0.0522209 0 
trait 3 0.271875 0 0.0924756 0 0.0594543 0.0678798 0 0 
node 1 1 1 1
node 2 3 1 1
node 3 1 1 1
node 4 3 1 1
node 5 2 1 1
node 6 3 1 1
node 7 1 1 3
node 8 1 0 2
gene 2 1 8 0.401425 0 1 0.401425 1
gene 1 2 8 2.10027 0 2 2.10027 1
gene 2 3 8 -2.40917 0 3 -2.40917 1
gene 1 4 8 -5.27387 0 4 -5.27387 1
gene 3 5 8 3.17113 0 5 3.17113 1
gene 2 6 8 5.01862 0 6 5.01862 1
gene 3 7 8 -0.827411 0 7 -0.827411 1
genomeend 4

/* Organism #5 Fitness: 5 Error: 0 */
genomestart 5
trait 1 0.096875 0 0 0 0 0 0 0.574138 
trait 2 0.231419 0.0556196 0 0 0 0 0 0 
trait 3 0.28125 0 0.0616504 0 0.0396362 0.0452532 0 0 
node 1 1 1 1
node 2 3 1 1
node 3 1 1 1
node 4 3 1 1
node 5 2 1 1
node 6 3 1 1
node 7 1 1 3
node 8 3 0 2
gene 3 1 8 2.06141 0 1 2.06141 1
gene 3 2 8 1.63529 0 2 1.63529 1
gene 2 3 8 -1.64518 0 3 -1.64518 1
gene 1 4 8 -3.10447 0 4 -3.10447 1
gene 1 5 8 2.14444 0 5 2.14444 1
gene 2 6 8 0.43516 0 6 0.43516 1
gene 2 7 8 -2.61359 0 7 -2.61359 1
genomeend 5

/* Organism #6 Fitness: 46 Error: 0 */
genomestart 6
trait 1 0.434052 0.379614 0 0.0080458 0 0 0 0.8352 
trait 2 0.340709 0.107431 0 0 0 0 0.0373006 0 
trait 3 0.271875 0 0.0924756 0 0.0594543 0.0678798 0 0 
node 1 1 1 1
node 2 3 1 1
node 3 1 1 1
node 4 3 1 1
node 5 2 1 1
node 6 3 1 1
node 7 1 1 3
node 8 3 0 2
gene 2 1 8 0.923526 0 1 0.923526 1
gene 1 2 8 -0.115049 0 2 -0.115049 1
gene 2 3 8 -0.0624505 0 3 -0.0624505 1
gene 1 4 8 -0.862042 0 4 -0.862042 1
gene 1 5 8 5.17774 0 5 5.17774 1
gene 1 6 8 1.06769 0 6 1.06769 1
gene 3 7 8 -2.86592 0 7 -2.86592 1
genomeend 6

/* Organism #7 Fitness: 75 Error: 0 */
genomestart 7
trait 1 0.266245 0.192236 0 0.0080458 0 0.0284839 0 0.469792 
trait 2 0.345355 0.101488 0 0 0 0 0.0410307 0 
trait 3 0.276562 0 0.077063 0 0.0495452 0.0565665 0 0 
node 1 1 1 1
node 2 3 1 1
node 3 1 1 1
node 4 3 1 1
node 5 2 1 1
node 6 3 1 1
node 7 2 1 3
node 8 1 0 2
gene 1 1 8 -0.364264 0 1 -0.364264 1
gene 1 2 8 -0.546413 0 2 -0.546413 1
gene 2 3 8 -4.65757 0 3 -4.65757 1
gene 1 4 8 -5.79325 0 4 -5.79325 1
gene 1 5 8 4.79583 0 5 4.79583 1
gene 2 6 8 1.57408 0 6 1.57408 1
gene 3 7 8 -2.49392 0 7 -2.49392 1
genomeend 7

/* Organism #8 Fitness: 35 Error: 0 */
genomestart 8
trait 1 0.0976562 0.00728754 0 0.0120687 0 0.0854517 0 0.156577 
trait 2 0.375 0.11147 0 0 0 0 0.0522209 0 
trait 3 0.271875 0 0.0924756 0 0.0594543 0.0678798 0 0 
node 1 1 1 1
node 2 3 1 1
node 3 1 1 1
node 4 3 1 1
node 5 2 1 1
node 6 3 1 1
node 7 1 1 3
node 8 1 0 2
gene 1 1 8 1.76827 0 1 1.76827 1
gene 1 2 8 -1.98803 0 2 -1.98803 1
gene 2 3 8 -5.84021 0 3 -5.84021 1
gene 1 4 8 0.59308 0 4 0.59308 1
gene 3 5 8 2.7154 0 5 2.7154 1
gene 2 6 8 0.746808 0 6 0.746808 1
gene 3 7 8 -0.306638 0 7 -0.306638 1
genomeend 8

/* Organism #9 Fitness: 5 Error: 0 */
genomestart 9
trait 1 0.0992188 0.00447485 0 0.0050403 0.00589703 0 0 0.0134958 
trait 2 0.228209 0.035772 0 0 0 0 0.00373006 0 
trait 3 0.295312 0 0.0154126 0 0.00990905 0.0113133 0 0 
node 1 1 1 1
node 2 3 1 1
node 3 1 1 1
node 4 3 1 1
node 5 2 1 1
node 6 3 1 1
node 7 1 1 3
node 8 1 0 2
gene 1 1 8 3.69773 0 1 3.69773 1
gene 1 2 8 -0.85955 0 2 -0.85955 1
gene 2 3 8 -0.546317 0 3 -0.546317 1
gene 2 4 8 -3.67194 0 4 -3.67194 1
gene 3 5 8 0.359008 0 5 0.359008 1
gene 2 6 8 -1.04671 0 6 -1.04671 1
gene 1 7 8 1.97941 0 7 1.97941 1
genomeend 9

/* Organism #10 Fitness: 46 Error: 0 */
genomestart 10
trait 1 0.0984375 0.00485836 0 0.0080458 0 0.0569678 0 0.104384 
trait 2 0.325 0.0796213 0 0 0 0 0.0373006 0 
trait 3 0.28125 0 0.0616504 0 0.0396362 0.0452532 0 0 
node 1 1 1 1
node 2 3 1 1
node 3 1 1 1
node 4 3 1 1
node 5 2 1 1
node 6 3 1 1
node 7 1 1 3
node 8 1 0 2
gene 1 1 8 -1.28864 0 1 -1.28864 1
gene 1 2 8 2.83884 0 2 2.83884 1
gene 2 3 8 -2.22742 0 3 -2.22742 1
gene 1 4 8 -3.6476 0 4 -3.6476 1
gene 3 5 8 3.71785 0 5 3.71785 1
gene 2 6 8 4.56254 0 6 4.56254 1
gene 3 7 8 -2.81806 0 7 -2.81806 1
genomeend 10

/* Organism #11 Fitness: 108 Error: 0 */
genomestart 11
trait 1 0.0980469 0.00641389 0 0.0102268 0.000982838 0.0712097 0 0.13273 
trait 2 0.357855 0.10945 0 0 0 0 0.0447607 0 
trait 3 0.276562 0 0.077063 0 0.0495452 0.0565665 0 0 
node 1 1 1 1
node 2 3 1 1
node 3 1 1 1
node 4 3 1 1
node 5 2 1 1
node 6 3 1 1
node 7 1 1 3
node 8 1 0 2
node 38 1 0 0
gene 2 1 8 0.0480694 0 1 0.0480694 0
gene 1 2 8 1.102 0 2 1.102 1
gene 2 3 8 -4.52922 0 3 -4.52922 1
gene 1 4 8 -3.21657 0 4 -3.21657 1
gene 3 5 8 3.61729 0 5 3.61729 1
gene 2 6 8 2.42267 0 6 2.42267 1
gene 3 7 8 -0.409594 0 7 -0.409594 1
gene 2 1 38 1 0 74 0 1
gene 2 38 8 0.0480694 0 75 0 1
genomeend 11

/* Organism #12 Fitness: 5 Error: 0 */
genomestart 12
trait 1 0.0984375 0.00485836 0 0.0080458 0 0.0569678 0 0.104384 
trait 2 0.35 0.0955456 0 0 0 0 0.0447607 0 
trait 3 0.28125 0 0.0616504 0 0.0396362 0.0452532 0 0 
node 1 1 1 1
node 2 3 1 1
node 3 1 1 1
node 4 3 1 1
node 5 2 1 1
node 6 3 1 1
node 7 2 1 3
node 8 1 0 2
gene 1 1 8 -0.260327 0 1 -0.260327 1
gene 1 2 8 1.9147 0 2 1.9147 1
gene 2 3 8 -2.53632 0 3 -2.53632 1
gene 1 4 8 -7.15948 0 4 -7.15948 1
gene 3 5 8 -1.92021 0 5 -1.92021 1
gene 2 6 8 -2.35901 0 6 -2.35901 1
gene 3 7 8 -2.2508 0 7 -2.2508 1
genomeend 12

/* Organism #13 Fitness: 142 Error: 0 */
genomestart 13
trait 1 0.1 0.00204567 0 0.0010174 0.00589703 0 0 0.0134958 
trait 2 0.272128 0.0993537 0 0 0 0 0.00746012 0 
trait 3 0.3 0 0 0 0 0 0 0 
node 1 1 1 1
node 2 3 1 1
node 3 1 1 1
node 4 3 1 1
node 5 2 1 1
node 6 3 1 1
node 7 1 1 3
node 8 1 0 2
gene 2 1 8 0.53721 0 1 0.53721 1
gene 3 2 8 0.971071 0 2 0.971071 1
gene 2 3 8 -4.48382 0 3 -4.48382 1
gene 1 4 8 -1.88192 0 4 -1.88192 1
gene 3 5 8 4.2226 0 5 4.2226 1
gene 2 6 8 1.9912 0 6 1.9912 1
gene 3 7 8 -0.249733 0 7 -0.249733 1
genomeend 13

/* Organism #14 Fitness: 105 Error: 0 */
genomestart 14
trait 1 0.266245 0.194623 0 0.00923277 0.00687986 0 0 0.433345 
trait 2 0.293919 0.0954303 0 0 0 0 0.0186503 0 
trait 3 0.28125 0 0.0616504 0 0.0396362 0.0452532 0 0 
node 1 1 1 1
node 2 3 1 1
node 3 1 1 1
node 4 3 1 1
node 5 2 1 1
node 6 3 1 1
node 7 1 1 3
node 8 1 0 2
gene 2 1 8 2.28069 0 1 2.28069 1
gene 1 2 8 -0.357628 0 2 -0.357628 1
gene 2 3 8 -2.1403 0 3 -2.1403 1
gene 1 4 8 -1.46657 0 4 -1.46657 1
gene 1 5 8 2.02701 0 5 2.02701 1
gene 1 6 8 1.08217 0 6 1.08217 1
gene 2 7 8 0.328822 0 7 0.328822 1
genomeend 14

/* Organism #15 Fitness: 44 Error: 0 */
genomestart 15
trait 1 0.0976562 0.00728754 0 0.0120687 0 0.0854517 0 0.156577 
trait 2 0.375 0.11147 0 0 0 0 0.0522209 0 
trait 3 0.271875 0 0.0924756 0 0.0594543 0.0678798 0 0 
node 1 1 1 1
node 2 3 1 1
node 3 1 1 1
node 4 3 1 1
node 5 2 1 1
node 6 3 1 1
node 7 1 1 3
node 8 1 0 2
gene 2 1 8 -1.32636 0 1 -1.32636 1
gene 1 2 8 0.264985 0 2 0.264985 1
gene 2 3 8 -3.22281 0 3 -3.22281 1
gene 1 4 8 -5.19821 0 4 -5.19821 1
gene 3 5 8 5.34615 0 5 5.34615 1
gene 2 6 8 4.97363 0 6 4.97363 1
gene 3 7 8 -2.71194 0 7 -2.71194 1
genomeend 15

/* Organism #16 Fitness: 114 Error: 0 */
genomestart 16
trait 1 0.0988281 0.0046666 0 0.00654305 0.00294851 0.0427258 0 0.0850362 
trait 2 0.323564 0.105412 0 0 0 0 0.0298405 0 
trait 3 0.285937 0 0.0462378 0 0.0297271 0.0339399 0 0 
node 1 1 1 1
node 2 3 1 1
node 3 1 1 1
node 4 3 1 1
node 5 2 1 1
node 6 3 1 1
node 7 1 1 3
node 8 1 0 2
gene 1 1 8 0.303648 0 1 0.303648 1
gene 1 2 8 1.18357 0 2 1.18357 1
gene 2 3 8 -4.79994 0 3 -4.79994 1
gene 1 4 8 -1.88192 0 4 -1.88192 1
gene 3 5 8 3.41552 0 5 3.41552 1
gene 2 6 8 1.9912 0 6 1.9912 1
gene 3 7 8 -0.249733 0 7 -0.249733 1
genomeend 16

/* Organism #17 Fitness: 35 Error: 0 */
genomestart 17
trait 1 0.1 0.00102283 0 0.000508699 0.00294851 0 0 0.00674792 
trait 2 0.236064 0.0496769 0 0 0 0 0.00373006 0 
trait 3 0.3 0 0 0 0 0 0 0 
node 1 1 1 1
node 2 3 1 1
node 3 1 1 1
node 4 3 1 1
node 5 2 1 1
node 6 3 1 1
node 7 1 1 3
node 8 1 0 2
gene 1 1 8 1.43443 0 1 1.43443 1
gene 1 2 8 -0.10397 0 2 -0.10397 1
gene 2 3 8 -4.48382 0 3 -4.48382 1
gene 2 4 8 -1.56656 0 4 -1.56656 1
gene 3 5 8 1.33974 0 5 1.33974 1
gene 2 6 8 1.9912 0 6 1.9912 1
gene 3 7 8 -0.249733 0 7 -0.249733 1
genomeend 17

/* Organism #18 Fitness: 33 Error: 0 */
genomestart 18
trait 1 0.0992188 0.00549768 0 0.005549 0.00884554 0 0 0.0202438 
trait 2 0.264274 0.0854488 0 0 0 0 0.00746012 0 
trait 3 0.295312 0 0.0154126 0 0.00990905 0.0113133 0 0 
node 1 1 1 1
node 2 3 1 1
node 3 1 1 1
node 4 3 1 1
node 5 2 1 1
node 6 3 1 1
node 7 1 1 3
node 8 1 0 2
gene 3 1 8 0.317571 0 1 0.317571 1
gene 3 2 8 1.0479 0 2 1.0479 1
gene 2 3 8 -3.51583 0 3 -3.51583 1
gene 1 4 8 -4.01457 0 4 -4.01457 1
gene 1 5 8 1.35281 0 5 1.35281 1
gene 2 6 8 2.76133 0 6 2.76133 1
gene 3 7 8 -1.47159 0 7 -1.47159 1
genomeend 18

/* Organism #19 Fitness: 110 Error: 0 */
genomestart 19
trait 1 0.0992188 0.00583863 0 0.00571857 0.00982838 0 0 0.0224931 
trait 2 0.259628 0.0913916 0 0 0 0 0.00373006 0 
trait 3 0.295312 0 0.0154126 0 0.00990905 0.0113133 0 0 
node 1 1 1 1
node 2 3 1 1
node 3 1 1 1
node 4 3 1 1
node 5 2 1 1
node 6 3 1 1
node 7 1 1 3
node 8 1 0 2
gene 2 1 8 0.53721 0 1 0.53721 1
gene 3 2 8 0.971071 0 2 0.971071 1
gene 2 3 8 -5.16358 0 3 -5.16358 1
gene 1 4 8 -1.88192 0 4 -1.88192 1
gene 3 5 8 3.28035 0 5 3.28035 1
gene 2 6 8 1.9912 0 6 1.9912 1
gene 3 7 8 -0.249733 0 7 -0.249733 1
genomeend 19

/* Organism #20 Fitness: 110 Error: 0 */
genomestart 20
trait 1 0.0996094 0.00121459 0 0.00201145 0 0.0142419 0 0.0260961 
trait 2 0.2375 0.0238864 0 0 0 0 0.0111902 0 
trait 3 0.295312 0 0.0154126 0 0.00990905 0.0113133 0 0 
node 1 3 1 1
node 2 3 1 1
node 3 2 1 1
node 4 3 1 1
node 5 2 1 1
node 6 2 1 1
node 7 2 1 3
node 8 2 0 2
gene 1 1 8 -1.5012 0 1 -1.5012 1
gene 1 2 8 0.950262 0 2 0.950262 1
gene 2 3 8 -2.34499 0 3 -2.34499 1
gene 2 4 8 -3.75663 0 4 -3.75663 1
gene 3 5 8 3.62742 0 5 3.62742 1
gene 2 6 8 2.66965 0 6 2.66965 1
gene 1 7 8 -0.117416 0 7 -0.117416 1
genomeend 20

/* Organism #21 Fitness: 82 Error: 0 */
genomestart 21
trait 1 0.096875 0.0165356 0 0.0194829 0.0196568 0 0 0.0449861 
trait 2 0.231419 0.0556196 0 0 0 0 0 0 
trait 3 0.28125 0 0.0616504 0 0.0396362 0.0452532 0 0 
node 1 1 1 1
node 2 3 1 1
node 3 1 1 1
node 4 3 1 1
node 5 2 1 1
node 6 3 1 1
node 7 1 1 3
node 8 3 0 2
gene 3 1 8 -0.91946 0 1 -0.91946 1
gene 3 2 8 1.60084 0 2 1.60084 1
gene 2 3 8 -4.88908 0 3 -4.88908 1
gene 1 4 8 -3.56787 0 4 -3.56787 1
gene 1 5 8 4.00164 0 5 4.00164 1
gene 2 6 8 0.736045 0 6 0.736045 1
gene 2 7 8 0.888006 0 7 0.888006 1
genomeend 21

/* Organism #22 Fitness: 40 Error: 0 */
genomestart 22
trait 1 0.0984375 0.00963158 0 0.0104197 0.0137597 0 0 0.0314903 
trait 2 0.247128 0.0834295 0 0 0 0 0 0 
trait 3 0.290625 0 0.0308252 0 0.0198181 0.0226266 0 0 
node 1 1 1 1
node 2 3 1 1
node 3 1 1 1
node 4 3 1 1
node 5 2 1 1
node 6 3 1 1
node 7 1 1 3
node 8 1 0 2
gene 2 1 8 3.22289 0 1 3.22289 1
gene 3 2 8 2.36974 0 2 2.36974 1
gene 2 3 8 -1.64235 0 3 -1.64235 1
gene 1 4 8 -4.88184 0 4 -4.88184 1
gene 3 5 8 1.58463 0 5 1.58463 1
gene 1 6 8 3.58266 0 6 3.58266 1
gene 2 7 8 -1.54745 0 7 -1.54745 1
genomeend 22

/* Organism #23 Fitness: 187 Error: 0 */
genomestart 23
trait 1 0.0992188 0.00447485 0 0.0050403 0.00589703 0 0 0.0134958 
trait 2 0.228209 0.035772 0 0 0 0 0.00373006 0 
trait 3 0.295312 0 0.0154126 0 0.00990905 0.0113133 0 0 
node 1 3 1 1
node 2 3 1 1
node 3 2 1 1
node 4 3 1 1
node 5 2 1 1
node 6 2 1 1
node 7 2 1 3
node 8 2 0 2
gene 1 1 8 1.2718 0 1 1.2718 1
gene 3 2 8 -0.295721 0 2 -0.295721 1
gene 2 3 8 -2.3107 0 3 -2.3107 1
gene 2 4 8 -2.66142 0 4 -2.66142 1
gene 3 5 8 1.23275 0 5 1.23275 1
gene 2 6 8 0.674438 0 6 0.674438 1
gene 1 7 8 0.0311573 0 7 0.0311573 1
genomeend 23

/* Organism #24 Fitness: 62 Error: 0 */
genomestart 24
trait 1 0.0984375 0.905241 0 0.0102502 0.0127769 0 0 0.736482 
trait 2 0.251774 0.0774867 0 0 0 0 0.00373006 0 
trait 3 0.290625 0 0.0308252 0 0.0198181 0.0226266 0 0 
node 1 1 1 1
node 2 3 1 1
node 3 1 1 1
node 4 3 1 1
node 5 2 1 1
node 6 3 1 1
node 7 1 1 3
node 8 1 0 2
gene 2 1 8 3.06235 0 1 3.06235 1
gene 3 2 8 2.36877 0 2 2.36877 1
gene 2 3 8 -1.65301 0 3 -1.65301 1
gene 1 4 8 -0.498575 0 4 -0.498575 1
gene 3 5 8 4.69553 0 5 4.69553 1
gene 2 6 8 1.16318 0 6 1.16318 1
gene 2 7 8 -2.0345 0 7 -2.0345 1
genomeend 24

/* Organism #25 Fitness: 43 Error: 0 */
genomestart 25
trait 1 0.0996094 0.00155553 0 0.00218102 0.000982838 0 0 0.00224931 
trait 2 0.232855 0.0298292 0 0 0 0 0.00746012 0 
trait 3 0.3 0 0 0 0 0 0 0 
node 1 3 1 1
node 2 3 1 1
node 3 2 1 1
node 4 3 1 1
node 5 2 1 1
node 6 2 1 1
node 7 2 1 3
node 8 2 0 2
gene 1 1 8 1.43443 0 1 1.43443 1
gene 1 2 8 -0.10397 0 2 -0.10397 1
gene 2 3 8 -2.31762 0 3 -2.31762 1
gene 1 4 8 -1.88192 0 4 -1.88192 1
gene 3 5 8 1.33974 0 5 1.33974 1
gene 2 6 8 1.92355 0 6 1.92355 1
gene 1 7 8 -0.15777 0 7 -0.15777 1
genomeend 25

/* Organism #26 Fitness: 179 Error: 0 */
genomestart 26
trait 1 0.1 0.00102283 0 0.000508699 0.00294851 0 0 0.00674792 
trait 2 0.236064 0.0496769 0 0 0 0 0.00373006 0 
trait 3 0.3 0 0 0 0 0 0 0 
node 1 1 1 1
node 2 3 1 1
node 3 1 1 1
node 4 3 1 1
node 5 2 1 1
node 6 3 1 1
node 7 1 1 3
node 8 1 0 2
gene 2 1 8 0.985819 0 1 0.985819 1
gene 3 2 8 0.43355 0 2 0.43355 1
gene 2 3 8 -3.40072 0 3 -3.40072 1
gene 2 4 8 -1.72424 0 4 -1.72424 1
gene 3 5 8 2.78117 0 5 2.78117 1
gene 2 6 8 1.26961 0 6 1.26961 1
gene 3 7 8 -0.203752 0 7 -0.203752 1
genomeend 26

/* Organism #27 Fitness: 81 Error: 0 */
genomestart 27
trait 1 0.0976562 0.00728754 0 0.0120687 0 0.0854517 0 0.156577 
trait 2 0.375 0.11147 0 0 0 0 0.0522209 0 
trait 3 0.271875 0 0.0924756 0 0.0594543 0.0678798 0 0 
node 1 1 1 1
node 2 3 1 1
node 3 1 1 1
node 4 3 1 1
node 5 2 1 1
node 6 3 1 1
node 7 1 1 3
node 8 1 0 2
gene 2 1 8 -1.31795 0 1 -1.31795 1
gene 1 2 8 -0.535348 0 2 -0.535348 1
gene 2 3 8 -2.36512 0 3 -2.36512 1
gene 1 4 8 -3.33025 0 4 -3.33025 1
gene 3 5 8 4.19629 0 5 4.19629 1
gene 2 6 8 4.04346 0 6 4.04346 1
gene 3 7 8 0.248209 0 7 0.248209 1
genomeend 27

/* Organism #28 Fitness: 6 Error: 0 */
genomestart 28
trait 1 0.0984375 0.00894969 0 0.0100806 0.0117941 0 0 0.0269917 
trait 2 0.256419 0.0715439 0 0 0 0 0.00746012 0 
trait 3 0.290625 0 0.0308252 0 0.0198181 0.0226266 0 0 
node 1 1 1 1
node 2 3 1 1
node 3 1 1 1
node 4 3 1 1
node 5 2 1 1
node 6 3 1 1
node 7 1 1 3
node 8 1 0 2
gene 3 1 8 -0.00680849 0 1 -0.00680849 1
gene 3 2 8 -0.769826 0 2 -0.769826 1
gene 2 3 8 -3.66562 0 3 -3.66562 1
gene 1 4 8 -2.59349 0 4 -2.59349 1
gene 1 5 8 -0.532194 0 5 -0.532194 1
gene 2 6 8 0.364962 0 6 0.364962 1
gene 3 7 8 0.107365 0 7 0.107365 1
genomeend 28

/* Organism #29 Fitness: 5 Error: 0 */
genomestart 29
trait 1 0.0976562 0.010697 0 0.0137644 0.00982838 0.0284839 0 0.0746853 
trait 2 0.290709 0.0755826 0 0 0 0 0.0223804 0 
trait 3 0.28125 0 0.0616504 0 0.0396362 0.0452532 0 0 
node 1 1 1 1
node 2 3 1 1
node 3 1 1 1
node 4 3 1 1
node 5 2 1 1
node 6 3 1 1
node 7 1 1 3
node 8 3 0 2
gene 3 1 8 3.11346 0 1 3.11346 1
gene 1 2 8 -0.959739 0 2 -0.959739 1
gene 2 3 8 0.419646 0 3 0.419646 1
gene 1 4 8 -5.18118 0 4 -5.18118 1
gene 3 5 8 4.6465 0 5 4.6465 1
gene 2 6 8 -0.715652 0 6 -0.715652 1
gene 3 7 8 -2.49392 0 7 -2.49392 1
genomeend 29

/* Organism #30 Fitness: 30 Error: 0 */
genomestart 30
trait 1 0.1 0.00204567 0 0.0010174 0.00589703 0 0 0.0134958 
trait 2 0.272128 0.0993537 0 0 0 0 0.00746012 0 
trait 3 0.438069 0 0 0.734123 0 0 0 0.827935 
node 1 1 1 1
node 2 3 1 1
node 3 1 1 1
node 4 3 1 1
node 5 2 1 1
node 6 3 1 1
node 7 1 1 3
node 8 1 0 2
gene 2 1 8 2.202 0 1 2.202 1
gene 3 2 8 2.88636 0 2 2.88636 1
gene 2 3 8 -2.5098 0 3 -2.5098 1
gene 1 4 8 -1.98925 0 4 -1.98925 1
gene 3 5 8 2.8024 0 5 2.8024 1
gene 2 6 8 2.70147 0 6 2.70147 1
gene 3 7 8 1.98347 0 7 1.98347 1
genomeend 30

/* Organism #31 Fitness: 5 Error: 0 */
genomestart 31
trait 1 0.0980469 0.00982334 0 0.0119225 0.0108112 0 0 0.0247424 
trait 2 0.248564 0.057639 0 0 0 0 0.00746012 0 
trait 3 0.290625 0 0.0308252 0 0.0198181 0.0226266 0 0 
node 1 1 1 1
node 2 3 1 1
node 3 1 1 1
node 4 3 1 1
node 5 2 1 1
node 6 3 1 1
node 7 1 1 3
node 8 1 0 2
gene 3 1 8 3.31827 0 1 3.31827 1
gene 3 2 8 -1.28926 0 2 -1.28926 1
gene 2 3 8 -4.02114 0 3 -4.02114 1
gene 1 4 8 -1.70021 0 4 -1.70021 1
gene 1 5 8 -0.721755 0 5 -0.721755 1
gene 2 6 8 -1.45078 0 6 -1.45078 1
gene 2 7 8 -1.85817 0 7 -1.85817 1
genomeend 31

/* Organism #32 Fitness: 5 Error: 0 */
genomestart 32
trait 1 0.0992188 0.00242918 0 0.0040229 0 0.0284839 0 0.0521922 
trait 2 0.275 0.0477728 0 0 0 0 0.0223804 0 
trait 3 0.290625 0 0.0308252 0 0.0198181 0.0226266 0 0 
node 1 1 1 1
node 2 3 1 1
node 3 1 1 1
node 4 3 1 1
node 5 2 1 1
node 6 3 1 1
node 7 2 1 3
node 8 1 0 2
gene 1 1 8 2.46295 0 1 2.46295 1
gene 1 2 8 -1.71313 0 2 -1.71313 1
gene 2 3 8 -1.60951 0 3 -1.60951 1
gene 2 4 8 -3.0823 0 4 -3.0823 1
gene 3 5 8 4.10091 0 5 4.10091 1
gene 2 6 8 -0.245328 0 6 -0.245328 1
gene 1 7 8 -1.90578 0 7 -1.90578 1
genomeend 32

/* Organism #33 Fitness: 43 Error: 0 */
genomestart 33
trait 1 0.0992188 0.00311107 0 0.00436203 0.00196568 0 0 0.00449861 
trait 2 0.265709 0.0596583 0 0 0 0 0.0149202 0 
trait 3 0.3 0 0 0 0 0 0 0 
node 1 1 1 1
node 2 3 1 1
node 3 1 1 1
node 4 3 1 1
node 5 2 1 1
node 6 3 1 1
node 7 1 1 3
node 8 1 0 2
gene 1 1 8 -1.95278 0 1 -1.95278 1
gene 3 2 8 2.24285 0 2 2.24285 1
gene 2 3 8 -1.21484 0 3 -1.21484 1
gene 1 4 8 -4.14519 0 4 -4.14519 1
gene 3 5 8 2.86131 0 5 2.86131 1
gene 2 6 8 1.40853 0 6 1.40853 1
gene 3 7 8 1.36952 0 7 1.36952 1
genomeend 33

/* Organism #34 Fitness: 306 Error: 0 */
genomestart 34
trait 1 0.0984375 0.00758592 0 0.00940233 0.0078627 0.0284839 0 0.0701867 
trait 2 0.293919 0.0954303 0 0 0 0 0.0186503 0 
trait 3 0.285938 0 0.0462378 0 0.0297271 0.0339399 0 0 
node 1 1 1 1
node 2 3 1 1
node 3 1 1 1
node 4 3 1 1
node 5 2 1 1
node 6 3 1 1
node 7 1 1 3
node 8 1 0 2
gene 2 1 8 0.766836 0 1 0.766836 1
gene 1 2 8 1.07481 0 2 1.07481 1
gene 2 3 8 -5.16358 0 3 -5.16358 1
gene 1 4 8 -2.54271 0 4 -2.54271 1
gene 3 5 8 3.62456 0 5 3.62456 1
gene 1 6 8 1.63904 0 6 1.63904 1
gene 3 7 8 -0.249733 0 7 -0.249733 1
genomeend 34

/* Organism #35 Fitness: 22 Error: 0 */
genomestart 35
trait 1 0.1 0 0 0 0 0 0 0 
trait 2 0.2 0 0 0 0 0 0 0 
trait 3 0.3 0 0 0 0 0 0 0 
node 1 3 1 1
node 2 3 1 1
node 3 2 1 1
node 4 3 1 1
node 5 2 1 1
node 6 2 1 1
node 7 2 1 3
node 8 2 0 2
gene 1 1 8 -0.367878 0 1 -0.367878 1
gene 1 2 8 0.841911 0 2 0.841911 1
gene 2 3 8 -4.05684 0 3 -4.05684 1
gene 2 4 8 -3.9137 0 4 -3.9137 1
gene 3 5 8 0.0414729 0 5 0.0414729 1
gene 2 6 8 0.834412 0 6 0.834412 1
gene 1 7 8 0.0239285 0 7 0.0239285 1
genomeend 35

/* Organism #36 Fitness: 114 Error: 0 */
genomestart 36
trait 1 0.0988281 0.00364377 0 0.00603435 0 0.0427258 0 0.0782883 
trait 2 0.3125 0.0716592 0 0 0 0 0.0335706 0 
trait 3 0.285938 0 0.0462378 0 0.0297271 0.0339399 0 0 
node 1 1 1 1
node 2 3 1 1
node 3 1 1 1
node 4 3 1 1
node 5 2 1 1
node 6 3 1 1
node 7 2 1 3
node 8 1 0 2
gene 1 1 8 0.252387 0 1 0.252387 1
gene 1 2 8 -0.209969 0 2 -0.209969 1
gene 2 3 8 -3.91192 0 3 -3.91192 1
gene 1 4 8 -4.20363 0 4 -4.20363 1
gene 3 5 8 2.44699 0 5 2.44699 1
gene 2 6 8 1.56002 0 6 1.56002 1
gene 3 7 8 -1.34927 0 7 -1.34927 1
genomeend 36

/* Organism #37 Fitness: 92 Error: 0 */
genomestart 37
trait 1 0.0996094 0.00121459 0 0.00201145 0 0.0142419 0 0.0260961 
trait 2 0.2375 0.0238864 0 0 0 0 0.0111902 0 
trait 3 0.295312 0 0.0154126 0 0.00990905 0.0113133 0 0 
node 1 1 1 1
node 2 3 1 1
node 3 1 1 1
node 4 3 1 1
node 5 2 1 1
node 6 3 1 1
node 7 1 1 3
node 8 1 0 2
gene 1 1 8 1.60816 0 1 1.60816 1
gene 1 2 8 0.999566 0 2 0.999566 1
gene 2 3 8 -3.49394 0 3 -3.49394 1
gene 1 4 8 -0.792098 0 4 -0.792098 1
gene 3 5 8 3.66967 0 5 3.66967 1
gene 2 6 8 0.597712 0 6 0.597712 1
gene 3 7 8 -0.768437 0 7 -0.768437 1
genomeend 37

/* Organism #38 Fitness: 6 Error: 0 */
genomestart 38
trait 1 0.0984375 0.0051993 0 0.00821537 0.000982838 0.0427258 0 0.0805376 
trait 2 0.320355 0.0855641 0 0 0 0 0.0335706 0 
trait 3 0.285937 0 0.0462378 0 0.0297271 0.0339399 0 0 
node 1 1 1 1
node 2 3 1 1
node 3 1 1 1
node 4 3 1 1
node 5 2 1 1
node 6 3 1 1
node 7 1 1 3
node 8 1 0 2
gene 2 1 8 1.07615 0 1 1.07615 1
gene 3 2 8 2.25564 0 2 2.25564 1
gene 2 3 8 -4.33535 0 3 -4.33535 1
gene 2 4 8 -6.63392 0 4 -6.63392 1
gene 3 5 8 -2.25743 0 5 -2.25743 1
gene 2 6 8 0.594294 0 6 0.594294 1
gene 3 7 8 0.778873 0 7 0.778873 1
genomeend 38

/* Organism #39 Fitness: 9 Error: 0 */
genomestart 39
trait 1 0.266636 0.191021 0 0.00603435 0 0.0142419 0 0.443696 
trait 2 0.307855 0.077602 0 0 0 0 0.0298405 0 
trait 3 0.28125 0 0.0616504 0 0.0396362 0.0452532 0 0 
node 1 1 1 1
node 2 3 1 1
node 3 1 1 1
node 4 3 1 1
node 5 2 1 1
node 6 3 1 1
node 7 1 1 3
node 8 2 0 2
gene 2 1 8 4.22451 0 1 4.22451 1
gene 1 2 8 -1.92845 0 2 -1.92845 1
gene 2 3 8 -0.525048 0 3 -0.525048 1
gene 1 4 8 -0.431694 0 4 -0.431694 1
gene 2 5 8 3.14758 0 5 3.14758 1
gene 1 6 8 -0.214187 0 6 -0.214187 1
gene 3 7 8 -0.794737 0 7 -0.794737 1
genomeend 39

/* Organism #40 Fitness: 31 Error: 0 */
genomestart 40
trait 1 0.0984375 0.00724497 0 0.00923277 0.00687986 0.0284839 0 0.0679374 
trait 2 0.298564 0.0894875 0 0 0 0 0.0223804 0 
trait 3 0.285938 0 0.0462378 0 0.0297271 0.0339399 0 0 
node 1 1 1 1
node 2 3 1 1
node 3 1 1 1
node 4 3 1 1
node 5 2 1 1
node 6 3 1 1
node 7 1 1 3
node 8 1 0 2
gene 3 1 8 -0.749288 0 1 -0.749288 1
gene 3 2 8 0.270672 0 2 0.270672 1
gene 2 3 8 -4.64938 0 3 -4.64938 1
gene 1 4 8 -2.69143 0 4 -2.69143 1
gene 3 5 8 1.94275 0 5 1.94275 1
gene 2 6 8 3.04861 0 6 3.04861 1
gene 3 7 8 1.97351 0 7 1.97351 1
genomeend 40

/* Organism #41 Fitness: 33 Error: 0 */
genomestart 41
trait 1 0.0988281 0.00364377 0 0.00603435 0 0.0427258 0 0.0782883 
trait 2 0.2875 0.0557349 0 0 0 0 0.0261104 0 
trait 3 0.285937 0 0.0462378 0 0.0297271 0.0339399 0 0 
node 1 3 1 1
node 2 3 1 1
node 3 2 1 1
node 4 3 1 1
node 5 2 1 1
node 6 2 1 1
node 7 2 1 3
node 8 2 0 2
gene 1 1 8 2.2609 0 1 2.2609 1
gene 1 2 8 -0.850452 0 2 -0.850452 1
gene 2 3 8 -4.58969 0 3 -4.58969 1
gene 2 4 8 0.764101 0 4 0.764101 1
gene 3 5 8 1.06655 0 5 1.06655 1
gene 2 6 8 0.914871 0 6 0.914871 1
gene 1 7 8 0.103747 0 7 0.103747 1
genomeend 41

/* Organism #42 Fitness: 36 Error: 0 */
genomestart 42
trait 1 0.0984375 0.00485836 0 0.0080458 0 0.0569678 0 0.104384 
trait 2 0.325 0.0796213 0 0 0 0 0.0373006 0 
trait 3 0.28125 0 0.0616504 0 0.0396362 0.0452532 0 0 
node 1 1 1 1
node 2 3 1 1
node 3 1 1 1
node 4 3 1 1
node 5 2 1 1
node 6 3 1 1
node 7 1 1 3
node 8 1 0 2
gene 1 1 8 2.7926 0 1 2.7926 1
gene 1 2 8 2.15866 0 2 2.15866 1
gene 2 3 8 -5.00615 0 3 -5.00615 1
gene 1 4 8 -2.09097 0 4 -2.09097 1
gene 3 5 8 0.269783 0 5 0.269783 1
gene 2 6 8 2.32341 0 6 2.32341 1
gene 3 7 8 0.733356 0 7 0.733356 1
genomeend 42

/* Organism #43 Fitness: 8 Error: 0 */
genomestart 43
trait 1 0.096875 0.0165356 0 0.0194829 0.0196568 0 0 0.0449861 
trait 2 0.231419 0.0556196 0 0 0 0 0 0 
trait 3 0.28125 0 0.0616504 0 0.0396362 0.0452532 0 0 
node 1 1 1 1
node 2 3 1 1
node 3 1 1 1
node 4 3 1 1
node 5 2 1 1
node 6 3 1 1
node 7 1 1 3
node 8 3 0 2
gene 3 1 8 2.58886 0 1 2.58886 1
gene 3 2 8 3.95065 0 2 3.95065 1
gene 2 3 8 -1.52572 0 3 -1.52572 1
gene 1 4 8 -1.53899 0 4 -1.53899 1
gene 1 5 8 3.177 0 5 3.177 1
gene 2 6 8 0.204118 0 6 0.204118 1
gene 2 7 8 -0.261497 0 7 -0.261497 1
genomeend 43

/* Organism #44 Fitness: 42 Error: 0 */
genomestart 44
trait 1 0.0976562 0.00728754 0 0.0120687 0 0.0854517 0 0.156577 
trait 2 0.375 0.11147 0 0 0 0 0.0522209 0 
trait 3 0.271875 0 0.0924756 0 0.0594543 0.0678798 0 0 
node 1 1 1 1
node 2 3 1 1
node 3 1 1 1
node 4 3 1 1
node 5 2 1 1
node 6 3 1 1
node 7 1 1 3
node 8 1 0 2
gene 2 1 8 0.4301 0 1 0.4301 1
gene 1 2 8 3.52906 0 2 3.52906 1
gene 2 3 8 -4.15987 0 3 -4.15987 1
gene 1 4 8 1.91694 0 4 1.91694 1
gene 3 5 8 5.43003 0 5 5.43003 1
gene 2 6 8 2.41317 0 6 2.41317 1
gene 3 7 8 1.50881 0 7 1.50881 1
genomeend 44

/* Organism #45 Fitness: 5 Error: 0 */
genomestart 45
trait 1 0.1 0 0 0 0 0 0 0 
trait 2 0.2 0 0 0 0 0 0 0 
trait 3 0.3 0 0 0 0 0 0 0 
node 1 3 1 1
node 2 3 1 1
node 3 2 1 1
node 4 3 1 1
node 5 2 1 1
node 6 2 1 1
node 7 2 1 3
node 8 2 0 2
gene 1 1 8 3.3738 0 1 3.3738 1
gene 1 2 8 -1.10244 0 2 -1.10244 1
gene 2 3 8 -1.46454 0 3 -1.46454 1
gene 2 4 8 -3.45098 0 4 -3.45098 1
gene 3 5 8 0.251643 0 5 0.251643 1
gene 2 6 8 -0.357391 0 6 -0.357391 1
gene 2 7 8 0.96281 0 7 0.96281 1
genomeend 45

/* Organism #46 Fitness: 31 Error: 0 */
genomestart 46
trait 1 0.0992188 0.622906 0 0 0 0 0.948083 0.0611894 
trait 2 0.306419 0.103392 0 0 0 0 0.0223804 0 
trait 3 0.290625 0 0.0308252 0 0.0198181 0.0226266 0 0 
node 1 1 1 1
node 2 3 1 1
node 3 1 1 1
node 4 3 1 1
node 5 2 1 1
node 6 3 1 1
node 7 1 1 3
node 8 1 0 2
gene 2 1 8 -1.23344 0 1 -1.23344 1
gene 3 2 8 1.1932 0 2 1.1932 1
gene 2 3 8 -4.48382 0 3 -4.48382 1
gene 1 4 8 -4.06001 0 4 -4.06001 1
gene 3 5 8 3.49625 0 5 3.49625 1
gene 2 6 8 0.651377 0 6 0.651377 1
gene 3 7 8 -0.0809878 0 7 -0.0809878 1
genomeend 46

/* Organism #47 Fitness: 5 Error: 0 */
genomestart 47
trait 1 0.0992188 0.00277012 0 0.00419247 0.000982838 0.0142419 0 0.0283454 
trait 2 0.270355 0.0537156 0 0 0 0 0.0186503 0 
trait 3 0.295312 0 0.0154126 0 0.00990905 0.0113133 0 0 
node 1 1 1 1
node 2 3 1 1
node 3 1 1 1
node 4 3 1 1
node 5 2 1 1
node 6 3 1 1
node 7 1 1 3
node 8 1 0 2
gene 1 1 8 0.441509 0 1 0.441509 1
gene 1 2 8 0.539802 0 2 0.539802 1
gene 2 3 8 -2.98014 0 3 -2.98014 1
gene 1 4 8 -3.70613 0 4 -3.70613 1
gene 3 5 8 4.29877 0 5 4.29877 1
gene 2 6 8 -0.924625 0 6 -0.924625 1
gene 3 7 8 1.23776 0 7 1.23776 1
genomeend 47

/* Organism #48 Fitness: 7 Error: 0 */
genomestart 48
trait 1 0.0980469 0.00607295 0 0.0100573 0 0.0712097 0 0.130481 
trait 2 0.3625 0.103508 0 0 0 0 0.0484908 0 
trait 3 0.276562 0 0.077063 0 0.0495452 0.0565665 0 0 
node 1 1 1 1
node 2 3 1 1
node 3 1 1 1
node 4 3 1 1
node 5 2 1 1
node 6 3 1 1
node 7 2 1 3
node 8 1 0 2
gene 1 1 8 2.53585 0 1 2.53585 1
gene 1 2 8 -0.422635 0 2 -0.422635 1
gene 2 3 8 -3.34079 0 3 -3.34079 1
gene 1 4 8 -6.27432 0 4 -6.27432 1
gene 3 5 8 0.611523 0 5 0.611523 1
gene 2 6 8 1.64686 0 6 1.64686 1
gene 3 7 8 -4.60995 0 7 -4.60995 1
genomeend 48

/* Organism #49 Fitness: 37 Error: 0 */
genomestart 49
trait 1 0.096875 0.0165356 0 0.0194829 0.0196568 0 0 0.0449861 
trait 2 0.231419 0.0556196 0 0 0 0 0 0 
trait 3 0.28125 0 0.0616504 0 0.0396362 0.0452532 0 0 
node 1 1 1 1
node 2 3 1 1
node 3 1 1 1
node 4 3 1 1
node 5 2 1 1
node 6 3 1 1
node 7 1 1 3
node 8 3 0 2
gene 3 1 8 0.967168 0 1 0.967168 1
gene 3 2 8 0.853279 0 2 0.853279 1
gene 2 3 8 -3.33297 0 3 -3.33297 1
gene 1 4 8 -1.23438 0 4 -1.23438 1
gene 1 5 8 2.61723 0 5 2.61723 1
gene 2 6 8 1.15599 0 6 1.15599 1
gene 2 7 8 -2.44502 0 7 -2.44502 1
genomeend 49

/* Organism #50 Fitness: 5 Error: 0 */
genomestart 50
trait 1 0.0984375 0.00963158 0 0.0104197 0.0137597 0 0 0.0314903 
trait 2 0.247128 0.0834295 0 0 0 0 0 0 
trait 3 0.290625 0 0.0308252 0 0.0198181 0.0226266 0 0 
node 1 1 1 1
node 2 3 1 1
node 3 1 1 1
node 4 3 1 1
node 5 2 1 1
node 6 3 1 1
node 7 1 1 3
node 8 1 0 2
gene 2 1 8 -0.292353 0 1 -0.292353 1
gene 3 2 8 1.14568 0 2 1.14568 1
gene 2 3 8 -3.74918 0 3 -3.74918 1
gene 1 4 8 -1.94135 0 4 -1.94135 1
gene 3 5 8 2.24705 0 5 2.24705 1
gene 1 6 8 -1.25785 0 6 -1.25785 1
gene 2 7 8 2.17568 0 7 2.17568 1
genomeend 50

/* Organism #51 Fitness: 50 Error: 0 */
genomestart 51
trait 1 0.1 0 0 0 0 0 0 0 
trait 2 0.710357 0.627394 0 0 0.265301 0.469847 0.119362 0 
trait 3 0.3 0 0 0 0 0 0 0 
node 1 1 1 1
node 2 1 1 1
node 3 1 1 1
node 4 3 1 1
node 5 2 1 1
node 6 3 1 1
node 7 1 1 3
node 8 1 0 2
node 30 1 0 0
gene 3 1 8 1.06299 0 1 1.06299 1
gene 1 2 8 -0.32096 0 2 -0.32096 1
gene 2 3 8 -3.85585 0 3 -3.85585 1
gene 1 4 8 -6.31963 0 4 -6.31963 0
gene 1 5 8 3.91671 0 5 3.91671 1
gene 1 6 8 7.08998 0 6 7.08998 1
gene 2 7 8 0.945094 0 7 0.945094 1
gene 1 4 30 -0.884865 0 51 -0.884865 1
gene 1 30 8 -2.8184 0 52 -2.8184 1
genomeend 51

/* Organism #52 Fitness: 10 Error: 0 */
genomestart 52
trait 1 0.1 0 0 0 0 0 0 0 
trait 2 0.8 0.356217 0 0 0 0 0.559681 0 
trait 3 0.3 0 0 0.486463 0.771447 0.916841 0 0 
node 1 1 1 1
node 2 3 1 1
node 3 1 1 1
node 4 3 1 1
node 5 2 1 1
node 6 3 1 1
node 7 1 1 3
node 8 1 0 2
node 30 1 0 0
gene 3 1 8 0.831919 0 1 0.831919 1
gene 1 2 8 -1.49193 0 2 -1.49193 1
gene 2 3 8 -1.51448 0 3 -1.51448 1
gene 1 4 8 -1.01004 0 4 -1.01004 0
gene 1 5 8 3.68057 0 5 3.68057 1
gene 1 6 8 -0.680536 0 6 -0.680536 1
gene 2 7 8 -0.0797964 0 7 -0.0797964 1
gene 1 4 30 3.45308 0 51 3.45308 1
gene 1 30 8 0.853392 0 52 0.853392 1
genomeend 52

/* Organism #53 Fitness: 51 Error: 0 */
genomestart 53
trait 1 0.1 0 0 0 0 0 0 0 
trait 2 0.820715 1 0 0 0.530601 0.939695 0.119362 0 
trait 3 0.0921607 0 0.649842 0.357159 0 0 0 0 
node 1 1 1 1
node 2 1 1 1
node 3 1 1 1
node 4 3 1 1
node 5 2 1 1
node 6 3 1 1
node 7 1 1 3
node 8 1 0 2
node 30 1 0 0
gene 3 1 8 1.41308 0 1 1.41308 1
gene 1 2 8 0.388537 0 2 0.388537 1
gene 2 3 8 -1.19759 0 3 -1.19759 1
gene 1 4 8 -5.90692 0 4 -5.90692 0
gene 1 5 8 8 0 5 8 1
gene 1 6 8 2.78863 0 6 2.78863 1
gene 2 7 8 2.29677 0 7 2.29677 1
gene 1 4 30 2.41301 0 51 2.41301 1
gene 1 30 8 -8 0 52 -8 1
genomeend 53

/* Organism #54 Fitness: 46 Error: 0 */
genomestart 54
trait 1 0.1 0 0 0 0 0 0 0 
trait 2 0.6 0.254788 0 0 0 0 0.119362 0 
trait 3 0.3 0 0 0 0 0 0 0 
node 1 1 1 1
node 2 3 1 1
node 3 1 1 1
node 4 3 1 1
node 5 2 1 1
node 6 3 1 1
node 7 1 1 3
node 8 1 0 2
node 30 1 0 0
gene 3 1 8 2.98387 0 1 2.98387 1
gene 1 2 8 0.950094 0 2 0.950094 1
gene 2 3 8 -1.0063 0 3 -1.0063 1
gene 1 4 8 -8 0 4 -8 0
gene 1 5 8 3.16909 0 5 3.16909 1
gene 1 6 8 4.40396 0 6 4.40396 1
gene 2 7 8 -0.32196 0 7 -0.32196 1
gene 1 4 30 1.8326 0 51 1.8326 1
gene 1 30 8 -1.89687 0 52 -1.89687 1
genomeend 54

/* Species #2 : (Size 66) (AF 1590.64) (Age 5)  */


/* Organism #55 Fitness: 645 Error: 0 */
genomestart 55
trait 1 0.1 0 0 0 0 0 0 0 
trait 2 0.2 0 0 0 0 0 0 0 
trait 3 0.3 0 0 0 0 0 0 0 
node 1 1 1 1
node 2 3 1 1
node 3 1 1 1
node 4 3 1 1
node 5 2 1 1
node 6 3 1 1
node 7 1 1 3
node 8 1 0 2
node 25 1 0 0
gene 1 1 8 -1.22894 0 1 -1.22894 1
gene 3 2 8 -1.29452 0 2 -1.29452 0
gene 2 3 8 -5.61736 0 3 -5.61736 1
gene 3 4 8 -4.15447 0 4 -4.15447 1
gene 3 5 8 3.74961 0 5 3.74961 1
gene 2 6 8 1.68712 0 6 1.68712 1
gene 3 7 8 -0.0671871 0 7 -0.0671871 1
gene 3 2 25 -0.021976 0 40 -0.021976 1
gene 3 25 8 -0.34158 0 41 -0.34158 1
gene 1 6 25 0.269565 0 46 0.269565 1
genomeend 55

/* Organism #56 Fitness: 123 Error: 0 */
genomestart 56
trait 1 0.1 0 0 0 0 0 0 0 
trait 2 0.2 0 0 0 0 0 0 0 
trait 3 0.3 0 0 0 0 0 0 0 
node 1 1 1 1
node 2 3 1 1
node 3 1 1 1
node 4 3 1 1
node 5 2 1 1
node 6 3 1 1
node 7 1 1 3
node 8 1 0 2
node 25 1 0 0
gene 1 1 8 -1.96424 0 1 -1.96424 1
gene 3 2 8 0.319994 0 2 0.319994 0
gene 2 3 8 -4.689 0 3 -4.689 1
gene 3 4 8 -5.7099 0 4 -5.7099 1
gene 1 5 8 2.5781 0 5 2.5781 1
gene 2 6 8 1.92355 0 6 1.92355 1
gene 3 7 8 1.41194 0 7 1.41194 1
gene 3 2 25 1.09076 0 40 1.09076 1
gene 3 25 8 -0.0590837 0 41 -0.0590837 1
gene 1 6 25 0.481028 0 46 0.481028 1
gene 3 3 25 -0.290434 0 76 -0.290434 1
genomeend 56

/* Organism #57 Fitness: 157 Error: 0 */
genomestart 57
trait 1 0.1 0 0 0 0 0 0 0 
trait 2 0.2 0 0 0 0 0 0 0 
trait 3 0.3 0 0 0 0 0 0 0 
node 1 1 1 1
node 2 3 1 1
node 3 1 1 1
node 4 3 1 1
node 5 2 1 1
node 6 3 1 1
node 7 1 1 3
node 8 1 0 2
node 25 1 0 0
node 36 1 0 0
gene 1 1 8 -2.13288 0 1 -2.13288 1
gene 3 2 8 -1.664 0 2 -1.664 0
gene 2 3 8 -4.5291 0 3 -4.5291 1
gene 3 4 8 -5.48656 0 4 -5.48656 1
gene 1 5 8 2.84918 0 5 2.84918 1
gene 2 6 8 1.91686 0 6 1.91686 1
gene 3 7 8 -0.792011 0 7 -0.792011 1
gene 3 2 25 1.03255 0 40 1.03255 1
gene 3 25 8 -0.161233 0 41 -0.161233 0
gene 1 6 25 -1.22569 0 46 -1.22569 1
gene 3 25 36 1 0 70 0 1
gene 3 36 8 -0.0590837 0 71 0 1
genomeend 57

/* Organism #58 Fitness: 41 Error: 0 */
genomestart 58
trait 1 0.1 0 0.735033 0.853372 0.476855 0 0 0 
trait 2 0.2 0 0 0 0 0 0 0 
trait 3 0.3 0 0 0 0 0 0 0 
node 1 1 1 1
node 2 3 1 1
node 3 1 1 1
node 4 3 1 1
node 5 2 1 1
node 6 3 1 1
node 7 1 1 3
node 8 1 0 2
node 25 1 0 0
gene 1 1 8 -1.60433 0 1 -1.60433 1
gene 3 2 8 1.97683 0 2 1.97683 0
gene 2 3 8 -5.53281 0 3 -5.53281 1
gene 3 4 8 -3.29521 0 4 -3.29521 1
gene 3 5 8 0.86622 0 5 0.86622 1
gene 2 6 8 3.28636 0 6 3.28636 1
gene 3 7 8 0.585931 0 7 0.585931 1
gene 3 2 25 -1.19051 0 40 -1.19051 1
gene 3 25 8 -2.74326 0 41 -2.74326 1
gene 1 6 25 -0.98367 0 46 -0.98367 1
genomeend 58

/* Organism #59 Fitness: 40 Error: 0 */
genomestart 59
trait 1 0.1 0 0 0 0 0 0 0 
trait 2 0.2 0 0 0 0 0 0 0 
trait 3 0.3 0 0 0 0 0 0 0 
node 1 1 1 1
node 2 3 1 1
node 3 1 1 1
node 4 3 1 1
node 5 2 1 1
node 6 3 1 1
node 7 1 1 3
node 8 1 0 2
node 25 1 0 0
gene 1 1 8 -1.41767 0 1 -1.41767 1
gene 3 2 8 -1.9501 0 2 -1.9501 0
gene 2 3 8 -0.885197 0 3 -0.885197 1
gene 3 4 8 -2.66413 0 4 -2.66413 1
gene 3 5 8 3.81718 0 5 3.81718 1
gene 2 6 8 2.80799 0 6 2.80799 1
gene 3 7 8 1.43346 0 7 1.43346 1
gene 3 2 25 2.19148 0 40 2.19148 1
gene 3 25 8 -0.580898 0 41 -0.580898 1
gene 1 6 25 -0.0390495 0 46 -0.0390495 1
genomeend 59

/* Organism #60 Fitness: 36 Error: 0 */
genomestart 60
trait 1 0.1 0 0 0 0 0 0 0 
trait 2 0.2 0 0 0 0 0 0 0 
trait 3 0.3 0 0 0 0 0 0 0 
node 1 1 1 1
node 2 3 1 1
node 3 1 1 1
node 4 3 1 1
node 5 2 1 1
node 6 3 1 1
node 7 1 1 3
node 8 1 0 2
node 25 1 0 0
gene 1 1 8 -2.53708 0 1 -2.53708 1
gene 3 2 8 0.186988 0 2 0.186988 0
gene 2 3 8 -2.29013 0 3 -2.29013 1
gene 3 4 8 -7.06892 0 4 -7.06892 1
gene 1 5 8 2.09804 0 5 2.09804 1
gene 2 6 8 4.40218 0 6 4.40218 1
gene 3 7 8 0.00849546 0 7 0.00849546 1
gene 3 2 25 2.66293 0 40 2.66293 1
gene 3 25 8 -2.22966 0 41 -2.22966 1
gene 1 6 25 0.589702 0 46 0.589702 1
gene 1 3 25 -1.18721 0 62 -1.18721 1
genomeend 60

/* Organism #61 Fitness: 31 Error: 0 */
genomestart 61
trait 1 0.1 0 0 0 0 0 0 0 
trait 2 0.2 0 0 0 0 0 0 0 
trait 3 0.3 0 0 0 0 0 0 0 
node 1 1 1 1
node 2 3 1 1
node 3 1 1 1
node 4 3 1 1
node 5 2 1 1
node 6 3 1 1
node 7 1 1 3
node 8 1 0 2
node 25 1 0 0
gene 1 1 8 -0.888904 0 1 -0.888904 1
gene 3 2 8 0.0798229 0 2 0.0798229 0
gene 2 3 8 -5.38188 0 3 -5.38188 1
gene 2 4 8 -2.09563 0 4 -2.09563 1
gene 1 5 8 0.290668 0 5 0.290668 1
gene 2 6 8 3.1017 0 6 3.1017 1
gene 3 7 8 -1.69466 0 7 -1.69466 1
gene 3 2 25 2.15722 0 40 2.15722 1
gene 3 25 8 2.17893 0 41 2.17893 1
gene 1 6 25 -1.16824 0 46 -1.16824 1
genomeend 61

/* Organism #62 Fitness: 17 Error: 0 */
genomestart 62
trait 1 0.1 0 0 0 0 0 0 0 
trait 2 0.2 0 0 0 0 0 0 0 
trait 3 0.3 0 0 0 0 0 0 0 
node 1 1 1 1
node 2 3 1 1
node 3 1 1 1
node 4 3 1 1
node 5 2 1 1
node 6 3 1 1
node 7 1 1 3
node 8 1 0 2
node 25 1 0 0
gene 1 1 8 0.608942 0 1 0.608942 1
gene 3 2 8 2.54757 0 2 2.54757 0
gene 2 3 8 -4.32467 0 3 -4.32467 1
gene 3 4 8 -5.25567 0 4 -5.25567 1
gene 1 5 8 -1.75242 0 5 -1.75242 1
gene 2 6 8 3.00837 0 6 3.00837 1
gene 3 7 8 1.42891 0 7 1.42891 1
gene 3 2 25 1.93672 0 40 1.93672 1
gene 3 25 8 -1.855 0 41 -1.855 1
gene 1 6 25 0.654442 0 46 0.654442 1
genomeend 62

/* Organism #63 Fitness: 41 Error: 0 */
genomestart 63
trait 1 0.1 0 0 0 0 0 0 0 
trait 2 0.2 0 0 0 0 0 0 0 
trait 3 0.3 0 0 0 0 0 0 0 
node 1 1 1 1
node 2 3 1 1
node 3 1 1 1
node 4 3 1 1
node 5 2 1 1
node 6 3 1 1
node 7 1 1 3
node 8 1 0 2
node 25 1 0 0
gene 1 1 8 -3.575 0 1 -3.575 1
gene 3 2 8 1.88867 0 2 1.88867 0
gene 2 3 8 -8 0 3 -8 1
gene 3 4 8 -3.532 0 4 -3.532 1
gene 1 5 8 3.18259 0 5 3.18259 1
gene 2 6 8 3.75948 0 6 3.75948 1
gene 3 7 8 1.90372 0 7 1.90372 1
gene 3 2 25 1.45763 0 40 1.45763 1
gene 3 25 8 -2.51354 0 41 -2.51354 1
gene 1 6 25 -0.21732 0 46 -0.21732 1
genomeend 63

/* Organism #64 Fitness: 35 Error: 0 */
genomestart 64
trait 1 0.1 0 0 0 0 0 0 0 
trait 2 0.2 0 0 0 0 0 0 0 
trait 3 0.3 0 0 0 0 0 0 0 
node 1 1 1 1
node 2 3 1 1
node 3 1 1 1
node 4 3 1 1
node 5 2 1 1
node 6 3 1 1
node 7 1 1 3
node 8 1 0 2
node 25 1 0 0
gene 1 1 8 -2.26692 0 1 -2.26692 1
gene 3 2 8 -1.48334 0 2 -1.48334 0
gene 2 3 8 -1.46626 0 3 -1.46626 1
gene 3 4 8 -3.99428 0 4 -3.99428 1
gene 1 5 8 1.15516 0 5 1.15516 1
gene 2 6 8 3.43117 0 6 3.43117 1
gene 3 7 8 0.040054 0 7 0.040054 1
gene 3 2 25 0.112384 0 40 0.112384 1
gene 3 25 8 -0.808261 0 41 -0.808261 1
gene 1 6 25 0.204304 0 46 0.204304 1
genomeend 64

/* Organism #65 Fitness: 51 Error: 0 */
genomestart 65
trait 1 0.1 0 0 0 0 0 0 0 
trait 2 0.2 0 0 0 0 0 0 0 
trait 3 0.3 0 0 0 0 0 0 0 
node 1 1 1 1
node 2 3 1 1
node 3 1 1 1
node 4 3 1 1
node 5 2 1 1
node 6 3 1 1
node 7 1 1 3
node 8 1 0 2
node 25 1 0 0
gene 1 1 8 0.212963 0 1 0.212963 1
gene 3 2 8 0.00233087 0 2 0.00233087 0
gene 2 3 8 -6.12456 0 3 -6.12456 1
gene 3 4 8 -6.36371 0 4 -6.36371 1
gene 1 5 8 4.87675 0 5 4.87675 1
gene 2 6 8 5.07791 0 6 5.07791 1
gene 3 7 8 -0.0844786 0 7 -0.0844786 1
gene 3 2 25 -1.78416 0 40 -1.78416 1
gene 3 25 8 -0.389515 0 41 -0.389515 1
gene 1 6 25 -0.199529 0 46 -0.199529 1
genomeend 65

/* Organism #66 Fitness: 34 Error: 0 */
genomestart 66
trait 1 0.1 0 0 0 0 0 0 0 
trait 2 0.2 0 0 0 0 0 0 0 
trait 3 0.3 0 0 0 0 0 0 0 
node 1 1 1 1
node 2 3 1 1
node 3 1 1 1
node 4 3 1 1
node 5 2 1 1
node 6 3 1 1
node 7 1 1 3
node 8 1 0 2
node 25 1 0 0
node 36 3 0 0
gene 1 1 8 -1.01962 0 1 -1.01962 1
gene 3 2 8 0.215949 0 2 0.215949 0
gene 2 3 8 -2.73895 0 3 -2.73895 1
gene 3 4 8 -5.43305 0 4 -5.43305 1
gene 1 5 8 2.71349 0 5 2.71349 1
gene 2 6 8 2.67418 0 6 2.67418 1
gene 3 7 8 -1.11487 0 7 -1.11487 1
gene 3 2 25 -1.03661 0 40 -1.03661 1
gene 3 25 8 -1.1582 0 41 -1.1582 0
gene 1 6 25 0.574868 0 46 0.574868 1
gene 3 25 36 0.705275 0 70 0.705275 1
gene 3 36 8 2.18695 0 71 2.18695 1
genomeend 66

/* Organism #67 Fitness: 9 Error: 0 */
genomestart 67
trait 1 0.217134 0 0 0.235414 0.0753246 0.817465 0 0 
trait 2 0.2 0 0 0 0 0 0 0 
trait 3 0.3 0 0 0 0 0 0 0 
node 1 1 1 1
node 2 3 1 1
node 3 1 1 1
node 4 3 1 1
node 5 2 1 1
node 6 3 1 1
node 7 1 1 3
node 8 1 0 2
node 25 1 0 0
gene 1 1 8 1.26245 0 1 1.26245 1
gene 3 2 8 0.949384 0 2 0.949384 0
gene 2 3 8 -0.646496 0 3 -0.646496 1
gene 3 4 8 -7.01649 0 4 -7.01649 1
gene 1 5 8 -1.886 0 5 -1.886 1
gene 2 6 8 1.35384 0 6 1.35384 1
gene 3 7 8 0.674873 0 7 0.674873 1
gene 3 2 25 5.22124 0 40 5.22124 1
gene 3 25 8 0.94308 0 41 0.94308 1
gene 1 6 25 -4.10458 0 46 -4.10458 1
genomeend 67

/* Organism #68 Fitness: 5 Error: 0 */
genomestart 68
trait 1 0.1 0 0 0 0 0 0 0 
trait 2 0.2 0 0 0 0 0 0 0 
trait 3 0.248261 0 0.126027 0 0 0 0 0 
node 1 1 1 1
node 2 3 1 1
node 3 1 1 1
node 4 3 1 1
node 5 2 1 1
node 6 3 1 1
node 7 1 1 3
node 8 1 0 2
node 25 1 0 0
gene 1 1 8 -0.327503 0 1 -0.327503 1
gene 3 2 8 0.907984 0 2 0.907984 1
gene 2 3 8 -2.06767 0 3 -2.06767 1
gene 3 4 8 -4.35915 0 4 -4.35915 1
gene 1 5 8 4.4878 0 5 4.4878 1
gene 2 6 8 -0.764124 0 6 -0.764124 1
gene 3 7 8 -2.45656 0 7 -2.45656 1
gene 3 2 25 -0.00653832 0 40 -0.00653832 1
gene 3 25 8 -2.36158 0 41 -2.36158 1
gene 1 6 25 -0.961899 0 46 -0.961899 1
genomeend 68

/* Organism #69 Fitness: 126 Error: 0 */
genomestart 69
trait 1 0.1 0 0 0 0 0 0 0 
trait 2 0.2 0 0 0 0 0 0 0 
trait 3 0.248261 0 0.126027 0 0 0 0 0 
node 1 1 1 1
node 2 3 1 1
node 3 1 1 1
node 4 3 1 1
node 5 2 1 1
node 6 2 1 1
node 7 1 1 3
node 8 1 0 2
node 25 1 0 0
gene 1 1 8 -1.96424 0 1 -1.96424 1
gene 3 2 8 -0.106992 0 2 -0.106992 0
gene 2 3 8 -4.55109 0 3 -4.55109 1
gene 3 4 8 -5.7099 0 4 -5.7099 1
gene 1 5 8 2.69167 0 5 2.69167 1
gene 2 6 8 1.92355 0 6 1.92355 1
gene 3 7 8 1.41194 0 7 1.41194 1
gene 3 2 25 -2.28182 0 40 -2.28182 1
gene 3 25 8 -0.0590837 0 41 -0.0590837 1
gene 1 6 25 0.481028 0 46 0.481028 1
gene 1 3 25 0.892844 0 62 0.892844 1
genomeend 69

/* Organism #70 Fitness: 34 Error: 0 */
genomestart 70
trait 1 0.1 0 0 0 0 0 0 0 
trait 2 0.2 0 0 0 0 0 0 0 
trait 3 0.3 0 0 0 0 0 0 0 
node 1 1 1 1
node 2 3 1 1
node 3 1 1 1
node 4 3 1 1
node 5 2 1 1
node 6 3 1 1
node 7 1 1 3
node 8 1 0 2
node 25 1 0 0
gene 1 1 8 -0.519417 0 1 -0.519417 1
gene 3 2 8 -4.99433 0 2 -4.99433 0
gene 2 3 8 -7.07761 0 3 -7.07761 1
gene 3 4 8 -0.174575 0 4 -0.174575 1
gene 1 5 8 4.51265 0 5 4.51265 1
gene 2 6 8 2.52904 0 6 2.52904 1
gene 3 7 8 -2.66751 0 7 -2.66751 1
gene 3 2 25 0.85359 0 40 0.85359 1
gene 3 25 8 0.22585 0 41 0.22585 1
gene 1 6 25 -1.79276 0 46 -1.79276 1
genomeend 70

/* Organism #71 Fitness: 8 Error: 0 */
genomestart 71
trait 1 0.1 0 0 0 0 0 0 0 
trait 2 0.2 0 0 0 0 0 0 0 
trait 3 0.3 0 0 0 0 0 0 0 
node 1 1 1 1
node 2 3 1 1
node 3 1 1 1
node 4 3 1 1
node 5 2 1 1
node 6 3 1 1
node 7 1 1 3
node 8 1 0 2
node 25 1 0 0
gene 1 1 8 -0.863645 0 1 -0.863645 1
gene 3 2 8 2.56816 0 2 2.56816 0
gene 2 3 8 -5.50007 0 3 -5.50007 1
gene 3 4 8 -6.50083 0 4 -6.50083 1
gene 1 5 8 3.08589 0 5 3.08589 1
gene 2 6 8 0.600405 0 6 0.600405 1
gene 3 7 8 3.22664 0 7 3.22664 1
gene 3 2 25 0.20927 0 40 0.20927 1
gene 3 25 8 -0.389994 0 41 -0.389994 1
gene 1 6 25 1.79799 0 46 1.79799 1
gene 1 3 25 1.78219 0 62 1.78219 1
genomeend 71

/* Organism #72 Fitness: 175 Error: 0 */
genomestart 72
trait 1 0.1 0 0 0 0 0 0 0 
trait 2 0.2 0 0 0 0 0 0 0 
trait 3 0.3 0 0 0 0 0 0 0 
node 1 1 1 1
node 2 3 1 1
node 3 1 1 1
node 4 3 1 1
node 5 2 1 1
node 6 3 1 1
node 7 1 1 3
node 8 1 0 2
node 25 1 0 0
node 39 1 0 0
gene 1 1 8 -0.836621 0 1 -0.836621 1
gene 3 2 8 -0.313318 0 2 -0.313318 0
gene 2 3 8 -1.89846 0 3 -1.89846 1
gene 3 4 8 -5.53209 0 4 -5.53209 1
gene 1 5 8 2.56958 0 5 2.56958 1
gene 2 6 8 1.46014 0 6 1.46014 1
gene 3 7 8 0.238269 0 7 0.238269 1
gene 3 2 25 3.78166 0 40 3.78166 0
gene 3 25 8 -0.350224 0 41 -0.350224 1
gene 1 6 25 -1.74241 0 46 -1.74241 1
gene 3 2 39 1 0 77 0 1
gene 3 39 25 3.78166 0 78 0 1
genomeend 72

/* Organism #73 Fitness: 35 Error: 0 */
genomestart 73
trait 1 0.1 0 0 0 0 0 0 0 
trait 2 0.2 0 0 0 0 0 0 0 
trait 3 0.3 0 0 0 0 0 0 0 
node 1 1 1 1
node 2 3 1 1
node 3 1 1 1
node 4 3 1 1
node 5 2 1 1
node 6 3 1 1
node 7 1 1 3
node 8 1 0 2
node 25 1 0 0
gene 1 1 8 0.814301 0 1 0.814301 1
gene 3 2 8 -2.24101 0 2 -2.24101 0
gene 2 3 8 -4.80581 0 3 -4.80581 1
gene 3 4 8 -4.26691 0 4 -4.26691 1
gene 1 5 8 0.722543 0 5 0.722543 1
gene 2 6 8 0.86547 0 6 0.86547 1
gene 3 7 8 0.990052 0 7 0.990052 1
gene 3 2 25 -0.418779 0 40 -0.418779 1
gene 3 25 8 -0.116255 0 41 -0.116255 1
gene 1 6 25 -0.150089 0 46 -0.150089 1
genomeend 73

/* Organism #74 Fitness: 215 Error: 0 */
genomestart 74
trait 1 0.1 0 0 0 0 0 0 0 
trait 2 0.2 0 0 0 0 0 0 0 
trait 3 0.3 0 0 0 0 0 0 0 
node 1 1 1 1
node 2 3 1 1
node 3 1 1 1
node 4 3 1 1
node 5 2 1 1
node 6 3 1 1
node 7 1 1 3
node 8 1 0 2
node 25 1 0 0
gene 1 1 8 2.14734 0 1 2.14734 1
gene 3 2 8 -0.629968 0 2 -0.629968 0
gene 2 3 8 -2.61811 0 3 -2.61811 1
gene 3 4 8 -5.30055 0 4 -5.30055 1
gene 1 5 8 4.54091 0 5 4.54091 1
gene 2 6 8 3.46562 0 6 3.46562 1
gene 3 7 8 -0.756533 0 7 -0.756533 1
gene 3 2 25 2.66998 0 40 2.66998 1
gene 3 25 8 1.46347 0 41 1.46347 1
gene 1 6 25 -1.82182 0 46 -1.82182 1
genomeend 74

/* Organism #75 Fitness: 5 Error: 0 */
genomestart 75
trait 1 0.1 0 0 0 0 0 0.0072729 0 
trait 2 0.2 0 0 0 0 0 0 0 
trait 3 0.3 0 0 0 0 0 0 0 
node 1 1 1 1
node 2 3 1 1
node 3 1 1 1
node 4 3 1 1
node 5 2 1 1
node 6 3 1 1
node 7 1 1 3
node 8 1 0 2
node 25 1 0 0
node 36 1 0 0
gene 1 1 8 0.581379 0 1 0.581379 1
gene 3 2 8 1.04612 0 2 1.04612 0
gene 2 3 8 -3.13725 0 3 -3.13725 1
gene 3 4 8 -6.24087 0 4 -6.24087 1
gene 1 5 8 1.90265 0 5 1.90265 1
gene 2 6 8 0.289591 0 6 0.289591 1
gene 3 7 8 -1.24955 0 7 -1.24955 1
gene 3 2 25 -0.446299 0 40 -0.446299 1
gene 3 25 8 -1.76655 0 41 -1.76655 0
gene 1 6 25 -3.87753 0 46 -3.87753 1
gene 3 25 36 1.98005 0 70 1.98005 1
gene 3 36 8 -0.0590837 0 71 -0.0590837 1
genomeend 75

/* Organism #76 Fitness: 5 Error: 0 */
genomestart 76
trait 1 0.1 0 0 0 0 0 0 0 
trait 2 0.2 0 0 0 0 0 0 0 
trait 3 0.3 0 0 0 0 0 0 0 
node 1 1 1 1
node 2 3 1 1
node 3 1 1 1
node 4 3 1 1
node 5 2 1 1
node 6 3 1 1
node 7 1 1 3
node 8 1 0 2
node 25 1 0 0
gene 1 1 8 -4.01322 0 1 -4.01322 1
gene 3 2 8 -1.09478 0 2 -1.09478 0
gene 2 3 8 -6.67777 0 3 -6.67777 1
gene 3 4 8 -3.03014 0 4 -3.03014 1
gene 1 5 8 4.59503 0 5 4.59503 1
gene 2 6 8 0.00380808 0 6 0.00380808 1
gene 3 7 8 -1.5592 0 7 -1.5592 1
gene 3 2 25 -0.49431 0 40 -0.49431 1
gene 3 25 8 -2.69902 0 41 -2.69902 1
gene 1 6 25 -1.75495 0 46 -1.75495 1
genomeend 76

/* Organism #77 Fitness: 47 Error: 0 */
genomestart 77
trait 1 0.1 0 0 0 0 0 0 0 
trait 2 0.2 0 0 0 0 0 0 0 
trait 3 0.3 0 0 0 0 0 0 0 
node 1 1 1 1
node 2 3 1 1
node 3 1 1 1
node 4 3 1 1
node 5 2 1 1
node 6 3 1 1
node 7 1 1 3
node 8 1 0 2
node 25 1 0 0
gene 1 1 8 -3.36591 0 1 -3.36591 1
gene 3 2 8 0.419151 0 2 0.419151 0
gene 2 3 8 -3.88476 0 3 -3.88476 1
gene 3 4 8 0.78171 0 4 0.78171 1
gene 3 5 8 3.74961 0 5 3.74961 1
gene 2 6 8 2.45055 0 6 2.45055 1
gene 3 7 8 -0.0671871 0 7 -0.0671871 1
gene 3 2 25 -0.021976 0 40 -0.021976 1
gene 3 25 8 -0.484917 0 41 -0.484917 1
gene 1 6 25 -0.569371 0 46 -0.569371 1
genomeend 77

/* Organism #78 Fitness: 43 Error: 0 */
genomestart 78
trait 1 0.1 0 0 0 0 0 0 0 
trait 2 0.2 0 0 0 0 0 0 0 
trait 3 0.248261 0 0.126027 0 0 0 0 0 
node 1 1 1 1
node 2 3 1 1
node 3 1 1 1
node 4 3 1 1
node 5 2 1 1
node 6 3 1 1
node 7 1 1 3
node 8 1 0 2
node 25 1 0 0
gene 1 1 8 -0.549964 0 1 -0.549964 1
gene 3 2 8 0.366885 0 2 0.366885 1
gene 2 3 8 -1.733 0 3 -1.733 1
gene 3 4 8 -5.32937 0 4 -5.32937 1
gene 1 5 8 1.79845 0 5 1.79845 1
gene 2 6 8 2.89609 0 6 2.89609 1
gene 3 7 8 -1.42482 0 7 -1.42482 1
gene 3 2 25 0.994186 0 40 0.994186 1
gene 3 25 8 0.951759 0 41 0.951759 1
gene 1 6 25 -1.37402 0 46 -1.37402 1
genomeend 78

/* Organism #79 Fitness: 30 Error: 0 */
genomestart 79
trait 1 0.1 0 0 0 0 0 0 0 
trait 2 0.2 0 0 0 0 0 0 0 
trait 3 0.248261 0 0.126027 0 0 0 0 0 
node 1 1 1 1
node 2 3 1 1
node 3 1 1 1
node 4 3 1 1
node 5 2 1 1
node 6 3 1 1
node 7 1 1 3
node 8 1 0 2
node 25 1 0 0
gene 1 1 8 -1.72268 0 1 -1.72268 1
gene 3 2 8 -0.277012 0 2 -0.277012 0
gene 2 3 8 -4.36258 0 3 -4.36258 1
gene 3 4 8 -0.415199 0 4 -0.415199 1
gene 1 5 8 0.73023 0 5 0.73023 1
gene 2 6 8 2.98207 0 6 2.98207 1
gene 3 7 8 -1.57656 0 7 -1.57656 1
gene 3 2 25 -4.75127 0 40 -4.75127 1
gene 3 25 8 -0.367651 0 41 -0.367651 1
gene 1 6 25 -0.634294 0 46 -0.634294 1
genomeend 79

/* Organism #80 Fitness: 37 Error: 0 */
genomestart 80
trait 1 0.1 0 0 0 0 0 0 0 
trait 2 0.2 0 0 0 0 0 0 0 
trait 3 0.3 0 0 0 0 0 0 0 
node 1 1 1 1
node 2 3 1 1
node 3 1 1 1
node 4 3 1 1
node 5 2 1 1
node 6 3 1 1
node 7 1 1 3
node 8 1 0 2
node 25 1 0 0
gene 1 1 8 2.40349 0 1 2.40349 1
gene 3 2 8 -1.05063 0 2 -1.05063 0
gene 2 3 8 -5.03947 0 3 -5.03947 1
gene 3 4 8 -5.44081 0 4 -5.44081 1
gene 1 5 8 1.95178 0 5 1.95178 1
gene 2 6 8 3.96928 0 6 3.96928 1
gene 3 7 8 -0.392536 0 7 -0.392536 1
gene 1 2 25 -0.451146 0 40 -0.451146 1
gene 3 25 8 -0.60999 0 41 -0.60999 1
gene 1 6 25 -2.20074 0 46 -2.20074 1
genomeend 80

/* Organism #81 Fitness: 124 Error: 0 */
genomestart 81
trait 1 0.1 0 0 0 0 0 0 0 
trait 2 0.2 0 0 0 0 0 0 0 
trait 3 0.3 0 0 0 0 0 0 0 
node 1 1 1 1
node 2 3 1 1
node 3 1 1 1
node 4 3 1 1
node 5 2 1 1
node 6 3 1 1
node 7 1 1 3
node 8 1 0 2
node 25 1 0 0
gene 1 1 8 -1.96424 0 1 -1.96424 1
gene 3 2 8 0.319994 0 2 0.319994 0
gene 2 3 8 -4.689 0 3 -4.689 1
gene 3 4 8 -5.7099 0 4 -5.7099 1
gene 1 5 8 2.5781 0 5 2.5781 1
gene 2 6 8 1.92355 0 6 1.92355 1
gene 3 7 8 1.41194 0 7 1.41194 1
gene 3 2 25 1.09076 0 40 1.09076 1
gene 3 25 8 -0.0590837 0 41 -0.0590837 1
gene 1 6 25 0.481028 0 46 0.481028 1
gene 1 3 25 0.892844 0 62 0.892844 1
genomeend 81

/* Organism #82 Fitness: 46 Error: 0 */
genomestart 82
trait 1 0.1 0 0 0 0 0 0 0 
trait 2 0.2 0 0 0 0 0 0 0 
trait 3 0.3 0 0 0 0 0 0 0 
node 1 1 1 1
node 2 3 1 1
node 3 1 1 1
node 4 3 1 1
node 5 2 1 1
node 6 3 1 1
node 7 1 1 3
node 8 1 0 2
node 25 1 0 0
gene 1 1 8 -0.174013 0 1 -0.174013 1
gene 3 2 8 -0.986641 0 2 -0.986641 0
gene 2 3 8 -0.687547 0 3 -0.687547 1
gene 3 4 8 -0.684769 0 4 -0.684769 1
gene 1 5 8 1.33858 0 5 1.33858 1
gene 2 6 8 3.6071 0 6 3.6071 1
gene 3 7 8 -0.83904 0 7 -0.83904 1
gene 3 2 25 -0.75025 0 40 -0.75025 1
gene 3 25 8 4.11052 0 41 4.11052 1
gene 1 6 25 -3.40959 0 46 -3.40959 1
genomeend 82

/* Organism #83 Fitness: 33 Error: 0 */
genomestart 83
trait 1 0.1 0 0 0 0 0 0 0 
trait 2 0.2 0 0 0 0 0 0 0 
trait 3 0.3 0 0 0 0 0 0 0 
node 1 1 1 1
node 2 3 1 1
node 3 1 1 1
node 4 3 1 1
node 5 2 1 1
node 6 3 1 1
node 7 1 1 3
node 8 1 0 2
node 25 1 0 0
gene 1 1 8 0.182357 0 1 0.182357 1
gene 3 2 8 1.40496 0 2 1.40496 0
gene 2 3 8 0.989645 0 3 0.989645 1
gene 3 4 8 -2.00975 0 4 -2.00975 1
gene 1 5 8 0.137955 0 5 0.137955 1
gene 2 6 8 1.00636 0 6 1.00636 1
gene 3 7 8 1.71894 0 7 1.71894 1
gene 3 2 25 2.56246 0 40 2.56246 1
gene 3 25 8 -2.84378 0 41 -2.84378 1
gene 1 6 25 -0.340517 0 46 -0.340517 1
genomeend 83

/* Organism #84 Fitness: 37 Error: 0 */
genomestart 84
trait 1 0.1 0 0 0 0 0 0 0 
trait 2 0.2 0 0 0 0 0 0 0 
trait 3 0.3 0 0 0 0 0 0 0 
node 1 1 1 1
node 2 3 1 1
node 3 1 1 1
node 4 3 1 1
node 5 2 1 1
node 6 3 1 1
node 7 1 1 3
node 8 1 0 2
node 25 1 0 0
gene 1 1 8 -1.97587 0 1 -1.97587 1
gene 3 2 8 -2.09692 0 2 -2.09692 0
gene 2 3 8 -7.58889 0 3 -7.58889 1
gene 3 4 8 -5.52114 0 4 -5.52114 1
gene 3 5 8 2.17401 0 5 2.17401 1
gene 2 6 8 3.90555 0 6 3.90555 1
gene 3 7 8 -0.342114 0 7 -0.342114 1
gene 3 2 25 0.0696839 0 40 0.0696839 1
gene 3 25 8 -2.52814 0 41 -2.52814 1
gene 1 6 25 -0.719539 0 46 -0.719539 1
genomeend 84

/* Organism #85 Fitness: 12 Error: 0 */
genomestart 85
trait 1 0.1 0 0 0 0 0 0 0 
trait 2 0.2 0 0 0 0 0 0 0 
trait 3 0.3 0 0 0 0 0 0 0 
node 1 1 1 1
node 2 3 1 1
node 3 1 1 1
node 4 3 1 1
node 5 2 1 1
node 6 3 1 1
node 7 1 1 3
node 8 1 0 2
node 25 1 0 0
gene 1 1 8 -0.959308 0 1 -0.959308 1
gene 3 2 8 -2.3916 0 2 -2.3916 0
gene 2 3 8 -4.64534 0 3 -4.64534 1
gene 3 4 8 -6.1134 0 4 -6.1134 1
gene 1 5 8 1.98444 0 5 1.98444 1
gene 2 6 8 1.39056 0 6 1.39056 1
gene 3 7 8 -0.160801 0 7 -0.160801 1
gene 3 2 25 2.67671 0 40 2.67671 1
gene 3 25 8 -3.09746 0 41 -3.09746 1
gene 1 6 25 -4.42491 0 46 -4.42491 1
genomeend 85

/* Organism #86 Fitness: 96 Error: 0 */
genomestart 86
trait 1 0.1 0 0 0 0 0 0 0 
trait 2 0.2 0 0 0 0 0 0 0 
trait 3 0.3 0 0 0 0 0 0 0 
node 1 1 1 1
node 2 3 1 1
node 3 1 1 1
node 4 3 1 1
node 5 2 1 1
node 6 3 1 1
node 7 1 1 3
node 8 1 0 2
node 25 1 0 0
node 36 1 0 0
gene 1 1 8 -1.63912 0 1 -1.63912 1
gene 3 2 8 -2.73445 0 2 -2.73445 0
gene 2 3 8 -5.34478 0 3 -5.34478 1
gene 3 4 8 -4.16616 0 4 -4.16616 1
gene 1 5 8 3.64071 0 5 3.64071 1
gene 2 6 8 1.80179 0 6 1.80179 1
gene 3 7 8 -1.7811 0 7 -1.7811 1
gene 3 2 25 0.616001 0 40 0.616001 1
gene 3 25 8 1.26921 0 41 1.26921 0
gene 1 6 25 -1.34046 0 46 -1.34046 1
gene 3 25 36 1 0 70 0 1
gene 3 36 8 -0.0590837 0 71 0 1
genomeend 86

/* Organism #87 Fitness: 5 Error: 0 */
genomestart 87
trait 1 0.1 0 0 0 0 0 0 0 
trait 2 0.2 0 0 0 0 0 0 0 
trait 3 0.3 0 0 0 0 0 0 0 
node 1 1 1 1
node 2 3 1 1
node 3 1 1 1
node 4 3 1 1
node 5 2 1 1
node 6 3 1 1
node 7 1 1 3
node 8 1 0 2
node 25 1 0 0
gene 1 1 8 0.1156 0 1 0.1156 1
gene 3 2 8 -0.147577 0 2 -0.147577 0
gene 2 3 8 -5.03466 0 3 -5.03466 1
gene 3 4 8 -4.85068 0 4 -4.85068 1
gene 1 5 8 2.5436 0 5 2.5436 1
gene 2 6 8 -0.269962 0 6 -0.269962 1
gene 3 7 8 -1.63593 0 7 -1.63593 1
gene 3 2 25 0.471265 0 40 0.471265 1
gene 3 25 8 1.90013 0 41 1.90013 1
gene 1 6 25 -0.961316 0 46 -0.961316 1
genomeend 87

/* Organism #88 Fitness: 147 Error: 0 */
genomestart 88
trait 1 0.1 0 0 0 0 0 0 0 
trait 2 0.2 0 0 0 0 0 0 0 
trait 3 0.248261 0 0.126027 0 0 0 0 0 
node 1 1 1 1
node 2 3 1 1
node 3 1 1 1
node 4 3 1 1
node 5 2 1 1
node 6 3 1 1
node 7 1 1 3
node 8 1 0 2
node 25 1 0 0
gene 1 1 8 -1.14315 0 1 -1.14315 1
gene 3 2 8 1.04612 0 2 1.04612 0
gene 2 3 8 -4.02551 0 3 -4.02551 1
gene 3 4 8 -5.52727 0 4 -5.52727 1
gene 1 5 8 1.39833 0 5 1.39833 1
gene 2 6 8 1.32278 0 6 1.32278 1
gene 3 7 8 -0.890554 0 7 -0.890554 1
gene 3 2 25 2.05383 0 40 2.05383 1
gene 3 25 8 -0.367651 0 41 -0.367651 1
gene 1 6 25 -0.455187 0 46 -0.455187 1
genomeend 88

/* Organism #89 Fitness: 62 Error: 0 */
genomestart 89
trait 1 0.1 0 0 0 0 0 0 0 
trait 2 0.2 0 0 0 0 0 0 0 
trait 3 0.3 0 0 0 0 0 0 0 
node 1 1 1 1
node 2 3 1 1
node 3 1 1 1
node 4 3 1 1
node 5 2 1 1
node 6 3 1 1
node 7 1 1 3
node 8 1 0 2
node 25 1 0 0
gene 1 1 8 2.40614 0 1 2.40614 1
gene 3 2 8 0.868582 0 2 0.868582 0
gene 2 3 8 -4.54 0 3 -4.54 1
gene 3 4 8 -8 0 4 -8 1
gene 1 5 8 2.50881 0 5 2.50881 1
gene 2 6 8 2.84471 0 6 2.84471 1
gene 3 7 8 0.398287 0 7 0.398287 1
gene 3 2 25 5.31237 0 40 5.31237 1
gene 3 25 8 -1.09725 0 41 -1.09725 1
gene 3 6 25 0.184313 0 46 0.184313 1
genomeend 89

/* Organism #90 Fitness: 16 Error: 0 */
genomestart 90
trait 1 0.1 0 0 0 0 0 0 0 
trait 2 0.598478 0 0.141129 0.724009 0 0.271563 0 0 
trait 3 0.3 0 0 0 0 0 0 0 
node 1 1 1 1
node 2 3 1 1
node 3 1 1 1
node 4 3 1 1
node 5 2 1 1
node 6 3 1 1
node 7 1 1 3
node 8 1 0 2
node 25 1 0 0
gene 1 1 8 0.604528 0 1 0.604528 1
gene 3 2 8 -5.60336 0 2 -5.60336 0
gene 2 3 8 -8 0 3 -8 1
gene 3 4 8 -4.99194 0 4 -4.99194 1
gene 1 5 8 2.6639 0 5 2.6639 1
gene 2 6 8 0.607703 0 6 0.607703 1
gene 3 7 8 -0.880167 0 7 -0.880167 1
gene 3 2 25 0.0688502 0 40 0.0688502 1
gene 3 25 8 0.885186 0 41 0.885186 1
gene 1 6 25 1.2772 0 46 1.2772 1
genomeend 90

/* Organism #91 Fitness: 29 Error: 0 */
genomestart 91
trait 1 0.1 0 0 0 0 0 0 0 
trait 2 0.2 0 0 0 0 0 0 0 
trait 3 0.3 0 0 0 0 0 0 0 
node 1 1 1 1
node 2 3 1 1
node 3 1 1 1
node 4 3 1 1
node 5 2 1 1
node 6 3 1 1
node 7 1 1 3
node 8 1 0 2
node 25 1 0 0
gene 1 1 8 0.334896 0 1 0.334896 1
gene 3 2 8 -1.74633 0 2 -1.74633 0
gene 2 3 8 -4.08032 0 3 -4.08032 1
gene 3 4 8 -0.157848 0 4 -0.157848 1
gene 1 5 8 -0.190622 0 5 -0.190622 1
gene 2 6 8 1.46194 0 6 1.46194 1
gene 3 7 8 -0.563775 0 7 -0.563775 1
gene 3 2 25 1.5775 0 40 1.5775 1
gene 3 25 8 0.489 0 41 0.489 1
gene 1 6 25 -0.0498825 0 46 -0.0498825 1
genomeend 91

/* Organism #92 Fitness: 645 Error: 0 */
genomestart 92
trait 1 0.1 0 0 0 0 0 0 0 
trait 2 0.2 0 0 0 0 0 0 0 
trait 3 0.3 0 0 0 0 0 0 0 
node 1 1 1 1
node 2 2 1 1
node 3 1 1 1
node 4 3 1 1
node 5 2 1 1
node 6 3 1 1
node 7 1 1 3
node 8 1 0 2
node 25 1 0 0
gene 1 1 8 -1.22894 0 1 -1.22894 1
gene 3 2 8 -1.29452 0 2 -1.29452 0
gene 2 3 8 -5.61736 0 3 -5.61736 1
gene 3 4 8 -4.15447 0 4 -4.15447 1
gene 3 5 8 3.74961 0 5 3.74961 1
gene 2 6 8 1.68712 0 6 1.68712 1
gene 3 7 8 -0.0671871 0 7 -0.0671871 1
gene 3 2 25 -0.021976 0 40 -0.021976 1
gene 3 25 8 -0.34158 0 41 -0.34158 1
gene 1 6 25 0.269565 0 46 0.269565 1
genomeend 92

/* Organism #93 Fitness: 187 Error: 0 */
genomestart 93
trait 1 0.1 0 0 0 0 0 0 0 
trait 2 0.2 0 0 0 0 0 0 0 
trait 3 0.3 0 0 0 0 0 0 0 
node 1 1 1 1
node 2 3 1 1
node 3 1 1 1
node 4 3 1 1
node 5 2 1 1
node 6 3 1 1
node 7 1 1 3
node 8 1 0 2
node 25 1 0 0
gene 1 1 8 -0.44258 0 1 -0.44258 1
gene 3 2 8 0.772998 0 2 0.772998 0
gene 2 3 8 -4.42588 0 3 -4.42588 1
gene 3 4 8 -6.07074 0 4 -6.07074 1
gene 1 5 8 4.59661 0 5 4.59661 1
gene 2 6 8 2.63101 0 6 2.63101 1
gene 3 7 8 -0.0433729 0 7 -0.0433729 1
gene 3 2 25 3.69502 0 40 3.69502 1
gene 3 25 8 -0.150409 0 41 -0.150409 1
gene 1 6 25 1.86606 0 46 1.86606 1
genomeend 93

/* Organism #94 Fitness: 141 Error: 0 */
genomestart 94
trait 1 0.1 0 0 0 0 0 0 0 
trait 2 0.2 0 0 0 0 0 0 0 
trait 3 0.3 0 0 0 0 0 0 0 
node 1 1 1 1
node 2 3 1 1
node 3 1 1 1
node 4 3 1 1
node 5 2 1 1
node 6 3 1 1
node 7 1 1 3
node 8 1 0 2
node 25 1 0 0
node 41 1 0 0
gene 1 1 8 -2.13288 0 1 -2.13288 1
gene 3 2 8 -1.664 0 2 -1.664 0
gene 2 3 8 -4.5291 0 3 -4.5291 1
gene 3 4 8 -5.48656 0 4 -5.48656 1
gene 1 5 8 2.84918 0 5 2.84918 1
gene 2 6 8 1.91686 0 6 1.91686 1
gene 3 7 8 -0.792011 0 7 -0.792011 1
gene 3 2 25 1.03255 0 40 1.03255 1
gene 3 25 8 -0.161233 0 41 -0.161233 0
gene 1 6 25 -1.22569 0 46 -1.22569 1
gene 3 25 41 1 0 81 0 1
gene 3 41 8 -0.161233 0 82 0 1
genomeend 94

/* Organism #95 Fitness: 28 Error: 0 */
genomestart 95
trait 1 0.1 0 0 0 0 0 0 0 
trait 2 0.2 0 0 0 0 0 0 0 
trait 3 0.248261 0 0.126027 0 0 0 0 0 
node 1 1 1 1
node 2 3 1 1
node 3 1 1 1
node 4 3 1 1
node 5 2 1 1
node 6 2 1 1
node 7 1 1 3
node 8 1 0 2
node 25 1 0 0
gene 1 1 8 -2.59101 0 1 -2.59101 1
gene 3 2 8 -3.40686 0 2 -3.40686 0
gene 2 3 8 -5.28738 0 3 -5.28738 1
gene 3 4 8 -2.55439 0 4 -2.55439 1
gene 1 5 8 4.54715 0 5 4.54715 1
gene 2 6 8 0.447035 0 6 0.447035 1
gene 3 7 8 0.280973 0 7 0.280973 1
gene 3 2 25 0.0938548 0 40 0.0938548 1
gene 3 25 8 0.676645 0 41 0.676645 1
gene 1 6 25 -2.00817 0 46 -2.00817 1
genomeend 95

/* Organism #96 Fitness: 29 Error: 0 */
genomestart 96
trait 1 0.1 0 0 0 0 0 0 0 
trait 2 0.2 0 0 0 0 0 0 0 
trait 3 0.3 0 0 0 0 0 0 0 
node 1 1 1 1
node 2 3 1 1
node 3 1 1 1
node 4 3 1 1
node 5 1 1 1
node 6 3 1 1
node 7 1 1 3
node 8 1 0 2
node 25 1 0 0
gene 1 1 8 -3.00849 0 1 -3.00849 1
gene 3 2 8 1.86239 0 2 1.86239 0
gene 2 3 8 -2.42759 0 3 -2.42759 1
gene 3 4 8 -5.91123 0 4 -5.91123 1
gene 1 5 8 1.26757 0 5 1.26757 1
gene 2 6 8 2.30747 0 6 2.30747 1
gene 3 7 8 1.41885 0 7 1.41885 1
gene 3 2 25 2.56591 0 40 2.56591 1
gene 3 25 8 1.42489 0 41 1.42489 1
gene 1 6 25 1.43919 0 46 1.43919 1
genomeend 96

/* Organism #97 Fitness: 67 Error: 0 */
genomestart 97
trait 1 0.1 0 0 0 0 0 0 0 
trait 2 0.2 0 0 0 0 0 0 0 
trait 3 0.3 0 0 0 0 0 0 0 
node 1 1 1 1
node 2 3 1 1
node 3 1 1 1
node 4 3 1 1
node 5 2 1 1
node 6 3 1 1
node 7 1 1 3
node 8 1 0 2
node 25 1 0 0
gene 1 1 8 1.37021 0 1 1.37021 1
gene 3 2 8 -1.42547 0 2 -1.42547 0
gene 2 3 8 -1.94712 0 3 -1.94712 1
gene 3 4 8 -8 0 4 -8 1
gene 1 5 8 4.0028 0 5 4.0028 1
gene 2 6 8 1.76205 0 6 1.76205 1
gene 3 7 8 0.813885 0 7 0.813885 1
gene 3 2 25 -0.983299 0 40 -0.983299 1
gene 3 25 8 0.399682 0 41 0.399682 1
gene 1 6 25 0.506012 0 46 0.506012 1
genomeend 97

/* Organism #98 Fitness: 5 Error: 0 */
genomestart 98
trait 1 0.1 0 0 0 0 0 0 0 
trait 2 0.2 0 0 0 0 0 0 0 
trait 3 0.3 0 0 0 0 0 0 0 
node 1 1 1 1
node 2 3 1 1
node 3 1 1 1
node 4 3 1 1
node 5 2 1 1
node 6 3 1 1
node 7 1 1 3
node 8 1 0 2
node 25 1 0 0
gene 1 1 8 -3.04345 0 1 -3.04345 1
gene 3 2 8 0.751846 0 2 0.751846 0
gene 2 3 8 -6.08604 0 3 -6.08604 1
gene 3 4 8 -4.63977 0 4 -4.63977 1
gene 1 5 8 3.23339 0 5 3.23339 1
gene 2 6 8 -1.11888 0 6 -1.11888 1
gene 3 7 8 -2.27051 0 7 -2.27051 1
gene 3 2 25 3.07772 0 40 3.07772 1
gene 3 25 8 -0.593077 0 41 -0.593077 1
gene 1 6 25 -3.27333 0 46 -3.27333 1
genomeend 98

/* Organism #99 Fitness: 30 Error: 0 */
genomestart 99
trait 1 0.1 0 0 0 0 0 0 0 
trait 2 0.2 0 0 0 0 0 0 0 
trait 3 0.3 0 0 0 0 0 0 0 
node 1 1 1 1
node 2 3 1 1
node 3 1 1 1
node 4 3 1 1
node 5 2 1 1
node 6 3 1 1
node 7 1 1 3
node 8 1 0 2
node 25 1 0 0
gene 1 1 8 0.239508 0 1 0.239508 1
gene 3 2 8 1.7829 0 2 1.7829 0
gene 2 3 8 -0.932965 0 3 -0.932965 1
gene 3 4 8 -5.16932 0 4 -5.16932 1
gene 1 5 8 -0.945983 0 5 -0.945983 1
gene 2 6 8 3.55994 0 6 3.55994 1
gene 3 7 8 -0.884822 0 7 -0.884822 1
gene 3 2 25 2.13632 0 40 2.13632 1
gene 3 25 8 -0.905016 0 41 -0.905016 1
gene 1 6 25 0.843133 0 46 0.843133 1
genomeend 99

/* Organism #100 Fitness: 88 Error: 0 */
genomestart 100
trait 1 0.1 0 0 0 0 0 0 0 
trait 2 0.2 0 0 0 0 0 0 0 
trait 3 0.3 0 0 0 0 0 0 0 
node 1 1 1 1
node 2 3 1 1
node 3 1 1 1
node 4 3 1 1
node 5 2 1 1
node 6 3 1 1
node 7 1 1 3
node 8 1 0 2
node 25 1 0 0
gene 1 1 8 -1.78019 0 1 -1.78019 1
gene 3 2 8 1.12912 0 2 1.12912 0
gene 2 3 8 -0.652937 0 3 -0.652937 1
gene 3 4 8 -6.84078 0 4 -6.84078 1
gene 1 5 8 1.07923 0 5 1.07923 1
gene 2 6 8 1.40808 0 6 1.40808 1
gene 3 7 8 2.34982 0 7 2.34982 1
gene 3 2 25 0.592286 0 40 0.592286 1
gene 3 25 8 -2.62984 0 41 -2.62984 1
gene 1 6 25 -1.03304 0 46 -1.03304 1
genomeend 100

/* Organism #101 Fitness: 100001 Error: 0 */
/* ##------$ WINNER 101 SPECIES #2 $------## */
genomestart 101
trait 1 0.1 0 0 0 0 0 0 0 
trait 2 0.2 0 0 0 0 0 0 0 
trait 3 0.3 0 0 0 0 0 0 0 
node 1 1 1 1
node 2 3 1 1
node 3 1 1 1
node 4 3 1 1
node 5 2 1 1
node 6 3 1 1
node 7 1 1 3
node 8 1 0 2
node 25 1 0 0
gene 1 1 8 -1.45134 0 1 -1.45134 1
gene 3 2 8 -1.35573 0 2 -1.35573 1
gene 2 3 8 -4.37575 0 3 -4.37575 1
gene 3 4 8 -3.92025 0 4 -3.92025 1
gene 1 5 8 2.85286 0 5 2.85286 1
gene 2 6 8 1.44302 0 6 1.44302 1
gene 3 7 8 -1.45032 0 7 -1.45032 1
gene 3 2 25 0.890218 0 40 0.890218 1
gene 3 25 8 1.1445 0 41 1.1445 1
gene 1 6 25 -0.551691 0 46 -0.551691 1
gene 3 3 25 -0.290434 0 76 0 1
genomeend 101

/* Organism #102 Fitness: 5 Error: 0 */
genomestart 102
trait 1 0.1 0 0 0 0 0 0 0 
trait 2 0.2 0 0 0 0 0 0 0 
trait 3 0.196522 0 0.252053 0 0 0 0 0 
node 1 1 1 1
node 2 3 1 1
node 3 1 1 1
node 4 3 1 1
node 5 2 1 1
node 6 2 1 1
node 7 1 1 3
node 8 1 0 2
node 25 1 0 0
gene 1 1 8 1.10258 0 1 1.10258 1
gene 3 2 8 2.3804 0 2 2.3804 0
gene 2 3 8 -6.76489 0 3 -6.76489 1
gene 3 4 8 -4.42004 0 4 -4.42004 1
gene 1 5 8 0.366594 0 5 0.366594 1
gene 2 6 8 -0.363436 0 6 -0.363436 1
gene 3 7 8 -2.98161 0 7 -2.98161 1
gene 3 2 25 -3.76757 0 40 -3.76757 1
gene 3 25 8 -0.823719 0 41 -0.823719 1
gene 1 6 25 -1.83595 0 46 -1.83595 1
gene 1 3 25 -1.81632 0 62 -1.81632 1
genomeend 102

/* Organism #103 Fitness: 169 Error: 0 */
genomestart 103
trait 1 0.1 0 0 0 0 0 0 0 
trait 2 0.2 0 0 0 0 0 0 0 
trait 3 0.3 0 0 0 0 0 0 0 
node 1 1 1 1
node 2 3 1 1
node 3 1 1 1
node 4 3 1 1
node 5 2 1 1
node 6 3 1 1
node 7 1 1 3
node 8 1 0 2
node 25 1 0 0
gene 1 1 8 -2.59511 0 1 -2.59511 1
gene 3 2 8 -0.537851 0 2 -0.537851 0
gene 2 3 8 -1.5266 0 3 -1.5266 1
gene 3 4 8 -4.63289 0 4 -4.63289 1
gene 1 5 8 1.81637 0 5 1.81637 1
gene 2 6 8 1.28833 0 6 1.28833 1
gene 3 7 8 -0.164259 0 7 -0.164259 1
gene 3 2 25 2.47666 0 40 2.47666 1
gene 3 25 8 0.0441525 0 41 0.0441525 1
gene 1 6 25 -0.759247 0 46 -0.759247 1
genomeend 103

/* Organism #104 Fitness: 31 Error: 0 */
genomestart 104
trait 1 0.1 0 0 0 0 0 0 0 
trait 2 0.2 0 0 0 0 0 0 0 
trait 3 0.3 0 0 0 0 0 0 0 
node 1 1 1 1
node 2 3 1 1
node 3 1 1 1
node 4 3 1 1
node 5 2 1 1
node 6 3 1 1
node 7 1 1 3
node 8 1 0 2
node 25 1 0 0
gene 2 1 8 -1.74343 0 1 -1.74343 1
gene 3 2 8 -1.66355 0 2 -1.66355 0
gene 2 3 8 -6.22516 0 3 -6.22516 1
gene 3 4 8 -5.26323 0 4 -5.26323 1
gene 1 5 8 -0.253055 0 5 -0.253055 1
gene 2 6 8 2.41554 0 6 2.41554 1
gene 3 7 8 -0.93841 0 7 -0.93841 1
gene 3 2 25 2.45451 0 40 2.45451 1
gene 3 25 8 1.12485 0 41 1.12485 1
gene 1 6 25 0.669975 0 46 0.669975 1
genomeend 104

/* Organism #105 Fitness: 8 Error: 0 */
genomestart 105
trait 1 0.1 0 0 0 0 0 0 0 
trait 2 0.2 0 0 0 0 0 0 0 
trait 3 0.3 0 0 0 0 0 0 0 
node 1 1 1 1
node 2 3 1 1
node 3 1 1 1
node 4 3 1 1
node 5 2 1 1
node 6 3 1 1
node 7 1 1 3
node 8 1 0 2
node 25 1 0 0
gene 1 1 8 -2.42355 0 1 -2.42355 1
gene 3 2 8 1.8369 0 2 1.8369 0
gene 2 3 8 -3.98899 0 3 -3.98899 1
gene 3 4 8 -6.28981 0 4 -6.28981 1
gene 1 5 8 0.33185 0 5 0.33185 1
gene 2 6 8 0.502786 0 6 0.502786 1
gene 3 7 8 1.04653 0 7 1.04653 1
gene 3 2 25 3.26898 0 40 3.26898 1
gene 3 25 8 0.0445243 0 41 0.0445243 1
gene 1 6 25 -1.1935 0 46 -1.1935 1
genomeend 105

/* Organism #106 Fitness: 90 Error: 0 */
genomestart 106
trait 1 0.1 0 0 0 0 0 0 0 
trait 2 0.2 0 0 0 0 0 0 0 
trait 3 0.3 0 0 0 0 0 0 0 
node 1 1 1 1
node 2 3 1 1
node 3 1 1 1
node 4 3 1 1
node 5 2 1 1
node 6 3 1 1
node 7 1 1 3
node 8 1 0 2
node 25 1 0 0
gene 1 1 8 1.62358 0 1 1.62358 1
gene 3 2 8 2.04636 0 2 2.04636 0
gene 2 3 8 -1.8029 0 3 -1.8029 1
gene 3 4 8 -6.08128 0 4 -6.08128 1
gene 1 5 8 5.36046 0 5 5.36046 1
gene 2 6 8 2.60614 0 6 2.60614 1
gene 3 7 8 1.71131 0 7 1.71131 1
gene 3 2 25 -0.0431621 0 40 -0.0431621 1
gene 3 25 8 -1.92324 0 41 -1.92324 1
gene 1 6 25 0.654442 0 46 0.654442 1
genomeend 106

/* Organism #107 Fitness: 162 Error: 0 */
genomestart 107
trait 1 0.1 0 0 0 0 0 0 0 
trait 2 0.2 0 0 0 0 0 0 0 
trait 3 0.248261 0 0.126027 0 0 0 0 0 
node 1 1 1 1
node 2 3 1 1
node 3 1 1 1
node 4 3 1 1
node 5 2 1 1
node 6 3 1 1
node 7 1 1 3
node 8 1 0 2
node 25 1 0 0
gene 1 1 8 -1.32601 0 1 -1.32601 1
gene 3 2 8 1.04612 0 2 1.04612 0
gene 2 3 8 -4.02551 0 3 -4.02551 1
gene 3 4 8 -5.52727 0 4 -5.52727 1
gene 1 5 8 1.39833 0 5 1.39833 1
gene 2 6 8 1.25654 0 6 1.25654 1
gene 3 7 8 -0.890554 0 7 -0.890554 1
gene 3 2 25 2.05383 0 40 2.05383 1
gene 3 25 8 -0.152106 0 41 -0.152106 1
gene 1 6 25 -0.455187 0 46 -0.455187 1
genomeend 107

/* Organism #108 Fitness: 101 Error: 0 */
genomestart 108
trait 1 0.1 0 0 0 0 0 0 0 
trait 2 0.2 0 0 0 0 0 0 0 
trait 3 0.3 0 0 0 0 0 0 0 
node 1 1 1 1
node 2 3 1 1
node 3 1 1 1
node 4 3 1 1
node 5 2 1 1
node 6 3 1 1
node 7 1 1 3
node 8 1 0 2
node 25 1 0 0
gene 1 1 8 -2.14678 0 1 -2.14678 1
gene 3 2 8 -2.23322 0 2 -2.23322 0
gene 2 3 8 -1.46142 0 3 -1.46142 1
gene 3 4 8 -5.21808 0 4 -5.21808 1
gene 1 5 8 2.5781 0 5 2.5781 1
gene 2 6 8 1.11472 0 6 1.11472 1
gene 3 7 8 -0.538668 0 7 -0.538668 1
gene 3 2 25 1.09076 0 40 1.09076 1
gene 3 25 8 -0.308502 0 41 -0.308502 1
gene 1 6 25 -0.0498825 0 46 -0.0498825 1
genomeend 108

/* Organism #109 Fitness: 45 Error: 0 */
genomestart 109
trait 1 0.1 0 0 0 0 0 0 0 
trait 2 0.2 0 0 0 0 0 0 0 
trait 3 0.3 0 0 0 0 0 0 0 
node 1 1 1 1
node 2 3 1 1
node 3 1 1 1
node 4 3 1 1
node 5 2 1 1
node 6 3 1 1
node 7 1 1 3
node 8 1 0 2
node 25 1 0 0
gene 1 1 8 -0.755912 0 1 -0.755912 1
gene 3 2 8 0.973283 0 2 0.973283 0
gene 2 3 8 -2.20514 0 3 -2.20514 1
gene 3 4 8 -7.01649 0 4 -7.01649 1
gene 1 5 8 4.70332 0 5 4.70332 1
gene 2 6 8 1.45834 0 6 1.45834 1
gene 3 7 8 -3.02353 0 7 -3.02353 1
gene 3 2 25 4.24919 0 40 4.24919 1
gene 3 25 8 -1.09725 0 41 -1.09725 1
gene 1 6 25 -2.01622 0 46 -2.01622 1
genomeend 109

/* Organism #110 Fitness: 45 Error: 0 */
genomestart 110
trait 1 0.1 0 0 0 0 0 0 0 
trait 2 0.2 0 0 0 0 0 0 0 
trait 3 0.3 0 0 0 0 0 0 0 
node 1 1 1 1
node 2 3 1 1
node 3 1 1 1
node 4 3 1 1
node 5 2 1 1
node 6 3 1 1
node 7 1 1 3
node 8 1 0 2
node 25 1 0 0
gene 1 1 8 -1.32601 0 1 -1.32601 1
gene 3 2 8 1.04612 0 2 1.04612 0
gene 2 3 8 -3.74166 0 3 -3.74166 1
gene 3 4 8 -5.52727 0 4 -5.52727 1
gene 1 5 8 5.62541 0 5 5.62541 1
gene 2 6 8 4.22227 0 6 4.22227 1
gene 3 7 8 -1.24955 0 7 -1.24955 1
gene 3 2 25 2.05383 0 40 2.05383 1
gene 3 25 8 -1.05985 0 41 -1.05985 1
gene 1 6 25 0.654442 0 46 0.654442 1
genomeend 110

/* Organism #111 Fitness: 31 Error: 0 */
genomestart 111
trait 1 0.1 0 0 0 0 0 0 0 
trait 2 0.2 0 0 0 0 0 0 0 
trait 3 0.3 0 0 0 0 0 0 0 
node 1 1 1 1
node 2 3 1 1
node 3 1 1 1
node 4 3 1 1
node 5 2 1 1
node 6 3 1 1
node 7 1 1 3
node 8 1 0 2
node 25 1 0 0
gene 1 1 8 -1.27606 0 1 -1.27606 1
gene 3 2 8 -3.7477 0 2 -3.7477 0
gene 2 3 8 -6.12129 0 3 -6.12129 1
gene 3 4 8 -4.19573 0 4 -4.19573 1
gene 3 5 8 3.15959 0 5 3.15959 1
gene 2 6 8 0.674908 0 6 0.674908 1
gene 3 7 8 0.513068 0 7 0.513068 1
gene 3 2 25 0.861357 0 40 0.861357 1
gene 3 25 8 -2.05525 0 41 -2.05525 1
gene 1 6 25 -0.291616 0 46 -0.291616 1
genomeend 111

/* Organism #112 Fitness: 133 Error: 0 */
genomestart 112
trait 1 0.1 0 0 0 0 0 0 0 
trait 2 0.2 0 0 0 0 0 0 0 
trait 3 0.3 0 0 0 0 0 0 0 
node 1 1 1 1
node 2 3 1 1
node 3 1 1 1
node 4 3 1 1
node 5 2 1 1
node 6 3 1 1
node 7 1 1 3
node 8 1 0 2
node 25 1 0 0
gene 1 1 8 -2.50385 0 1 -2.50385 1
gene 3 2 8 -0.639963 0 2 -0.639963 0
gene 2 3 8 -3.14039 0 3 -3.14039 1
gene 3 4 8 -4.87879 0 4 -4.87879 1
gene 1 5 8 2.60422 0 5 2.60422 1
gene 2 6 8 1.69274 0 6 1.69274 1
gene 3 7 8 0.480263 0 7 0.480263 1
gene 3 2 25 2.20245 0 40 2.20245 1
gene 3 25 8 0.168862 0 41 0.168862 1
gene 1 6 25 -0.493792 0 46 -0.493792 1
gene 3 7 25 0.19166 0 83 0.19166 1
genomeend 112

/* Organism #113 Fitness: 29 Error: 0 */
genomestart 113
trait 1 0.1 0 0 0 0 0 0 0 
trait 2 0.2 0 0 0 0 0 0 0 
trait 3 0.3 0 0 0 0 0 0 0 
node 1 1 1 1
node 2 3 1 1
node 3 1 1 1
node 4 3 1 1
node 5 2 1 1
node 6 3 1 1
node 7 1 1 3
node 8 1 0 2
node 25 1 0 0
gene 1 1 8 1.96959 0 1 1.96959 1
gene 3 2 8 -4.40443 0 2 -4.40443 0
gene 2 3 8 -4.44796 0 3 -4.44796 1
gene 3 4 8 -4.88407 0 4 -4.88407 1
gene 1 5 8 1.75664 0 5 1.75664 1
gene 2 6 8 1.79197 0 6 1.79197 1
gene 3 7 8 -0.277344 0 7 -0.277344 1
gene 3 2 25 0.395379 0 40 0.395379 1
gene 3 25 8 -1.87914 0 41 -1.87914 1
gene 1 6 25 -1.98422 0 46 -1.98422 1
genomeend 113

/* Organism #114 Fitness: 26 Error: 0 */
genomestart 114
trait 1 0.1 0 0 0 0 0 0 0 
trait 2 0.2 0 0 0 0 0 0 0 
trait 3 0.3 0 0 0 0 0 0 0 
node 1 1 1 1
node 2 3 1 1
node 3 1 1 1
node 4 3 1 1
node 5 2 1 1
node 6 3 1 1
node 7 1 1 3
node 8 1 0 2
node 25 1 0 0
gene 1 1 8 -1.22894 0 1 -1.22894 1
gene 3 2 8 0.524217 0 2 0.524217 0
gene 2 3 8 -5.61736 0 3 -5.61736 1
gene 3 4 8 -5.21808 0 4 -5.21808 1
gene 1 5 8 1.0024 0 5 1.0024 1
gene 2 6 8 1.68712 0 6 1.68712 1
gene 3 7 8 -0.0671871 0 7 -0.0671871 1
gene 3 2 25 1.63919 0 40 1.63919 1
gene 3 25 8 -0.34158 0 41 -0.34158 1
gene 1 6 25 -0.0498825 0 46 -0.0498825 1
genomeend 114

/* Organism #115 Fitness: 5 Error: 0 */
genomestart 115
trait 1 0.1 0 0 0 0 0 0 0 
trait 2 0.2 0 0 0 0 0 0 0 
trait 3 0.3 0 0 0 0 0 0 0 
node 1 1 1 1
node 2 3 1 1
node 3 1 1 1
node 4 3 1 1
node 5 2 1 1
node 6 3 1 1
node 7 1 1 3
node 8 1 0 2
node 25 1 0 0
gene 1 1 8 -3.90498 0 1 -3.90498 1
gene 3 2 8 -2.15401 0 2 -2.15401 0
gene 2 3 8 -6.49978 0 3 -6.49978 1
gene 3 4 8 -6.55791 0 4 -6.55791 1
gene 1 5 8 0.637827 0 5 0.637827 1
gene 2 6 8 0.291094 0 6 0.291094 1
gene 3 7 8 -1.43481 0 7 -1.43481 1
gene 3 2 25 2.63268 0 40 2.63268 1
gene 3 25 8 0.929316 0 41 0.929316 1
gene 1 6 25 -2.01282 0 46 -2.01282 1
genomeend 115

/* Organism #116 Fitness: 122 Error: 0 */
genomestart 116
trait 1 0.1 0 0 0 0 0 0 0 
trait 2 0.2 0 0 0 0 0 0 0 
trait 3 0.3 0 0 0 0 0 0 0 
node 1 1 1 1
node 2 3 1 1
node 3 1 1 1
node 4 3 1 1
node 5 2 1 1
node 6 3 1 1
node 7 1 1 3
node 8 1 0 2
node 25 1 0 0
node 36 1 0 0
gene 1 1 8 -1.32601 0 1 -1.32601 1
gene 3 2 8 -2.23322 0 2 -2.23322 0
gene 2 3 8 -3.39948 0 3 -3.39948 1
gene 3 4 8 -5.7099 0 4 -5.7099 1
gene 1 5 8 2.5781 0 5 2.5781 1
gene 2 6 8 1.32278 0 6 1.32278 1
gene 3 7 8 -1.24955 0 7 -1.24955 1
gene 3 2 25 2.05383 0 40 2.05383 1
gene 3 25 8 -0.0590837 0 41 -0.0590837 0
gene 1 6 25 -2.23691 0 46 -2.23691 1
gene 3 25 36 1 0 70 0 1
gene 3 36 8 -0.0590837 0 71 0 1
genomeend 116

/* Organism #117 Fitness: 7 Error: 0 */
genomestart 117
trait 1 0.1 0 0 0 0 0 0 0 
trait 2 0.2 0 0 0 0 0 0 0 
trait 3 0.3 0 0 0 0 0 0 0 
node 1 1 1 1
node 2 3 1 1
node 3 1 1 1
node 4 3 1 1
node 5 2 1 1
node 6 3 1 1
node 7 3 1 3
node 8 1 0 2
node 25 1 0 0
gene 1 1 8 -2.34084 0 1 -2.34084 1
gene 3 2 8 0.36224 0 2 0.36224 0
gene 2 3 8 -8 0 3 -8 1
gene 3 4 8 -7.49901 0 4 -7.49901 1
gene 1 5 8 3.25582 0 5 3.25582 1
gene 2 6 8 2.53823 0 6 2.53823 1
gene 3 7 8 -4.6925 0 7 -4.6925 1
gene 3 2 25 2.5768 0 40 2.5768 1
gene 3 25 8 -1.76457 0 41 -1.76457 1
gene 1 6 25 0.961415 0 46 0.961415 1
genomeend 117

/* Organism #118 Fitness: 5 Error: 0 */
genomestart 118
trait 1 0.1 0 0 0 0 0 0 0 
trait 2 0.2 0 0 0 0 0 0 0 
trait 3 0.3 0 0 0 0 0 0 0 
node 1 1 1 1
node 2 3 1 1
node 3 1 1 1
node 4 3 1 1
node 5 1 1 1
node 6 3 1 1
node 7 1 1 3
node 8 1 0 2
node 25 1 0 0
gene 1 1 8 -1.34532 0 1 -1.34532 1
gene 3 2 8 0.22407 0 2 0.22407 0
gene 2 3 8 -7.09348 0 3 -7.09348 1
gene 3 4 8 -6.49453 0 4 -6.49453 1
gene 3 5 8 2.05754 0 5 2.05754 1
gene 2 6 8 -0.349262 0 6 -0.349262 1
gene 3 7 8 -2.24072 0 7 -2.24072 1
gene 3 2 25 -1.77007 0 40 -1.77007 1
gene 3 25 8 -2.10604 0 41 -2.10604 1
gene 1 6 25 -1.96502 0 46 -1.96502 1
genomeend 118

/* Organism #119 Fitness: 6 Error: 0 */
genomestart 119
trait 1 0.1 0 0 0 0 0 0 0 
trait 2 0.2 0 0 0 0 0 0 0 
trait 3 0.248261 0 0.126027 0 0 0 0 0 
node 1 1 1 1
node 2 3 1 1
node 3 1 1 1
node 4 3 1 1
node 5 2 1 1
node 6 3 1 1
node 7 1 1 3
node 8 1 0 2
node 25 1 0 0
gene 1 1 8 -1.84495 0 1 -1.84495 1
gene 3 2 8 -2.02592 0 2 -2.02592 0
gene 2 3 8 -7.56052 0 3 -7.56052 1
gene 3 4 8 -4.31866 0 4 -4.31866 1
gene 1 5 8 3.98941 0 5 3.98941 1
gene 2 6 8 0.563026 0 6 0.563026 1
gene 3 7 8 -1.57082 0 7 -1.57082 1
gene 3 2 25 -2.24634 0 40 -2.24634 1
gene 3 25 8 -0.258642 0 41 -0.258642 1
gene 1 6 25 0.847417 0 46 0.847417 1
genomeend 119

/* Organism #120 Fitness: 109 Error: 0 */
genomestart 120
trait 1 0.1 0 0 0 0 0 0 0 
trait 2 0.2 0 0 0 0 0 0 0 
trait 3 0.3 0 0 0 0 0 0 0 
node 1 1 1 1
node 2 3 1 1
node 3 1 1 1
node 4 3 1 1
node 5 2 1 1
node 6 3 1 1
node 7 1 1 3
node 8 1 0 2
node 25 1 0 0
gene 1 1 8 -0.297018 0 1 -0.297018 1
gene 3 2 8 0.646639 0 2 0.646639 1
gene 2 3 8 -3.44707 0 3 -3.44707 1
gene 3 4 8 -6.36319 0 4 -6.36319 1
gene 1 5 8 2.54346 0 5 2.54346 1
gene 2 6 8 1.69094 0 6 1.69094 1
gene 3 7 8 1.16994 0 7 1.16994 1
gene 3 2 25 2.66998 0 40 2.66998 1
gene 3 25 8 -0.578169 0 41 -0.578169 1
gene 1 6 25 -0.767594 0 46 -0.767594 1
genomeend 120

/* Species #3 : (Size 27) (AF 43.7778) (Age 4)  */


/* Organism #121 Fitness: 62 Error: 0 */
genomestart 121
trait 1 0.1 0 0 0 0 0 0 0 
trait 2 1 0.457646 0 0 0 0 1 0 
trait 3 0.3 0 0 0 0 0 0 0 
node 1 1 1 1
node 2 3 1 1
node 3 1 1 1
node 4 3 1 1
node 5 2 1 1
node 6 3 1 1
node 7 1 1 3
node 8 1 0 2
node 30 1 0 0
gene 3 1 8 2.98447 0 1 2.98447 1
gene 1 2 8 -0.490937 0 2 -0.490937 1
gene 2 3 8 -0.129913 0 3 -0.129913 1
gene 1 4 8 -7.1422 0 4 -7.1422 0
gene 1 5 8 6.23534 0 5 6.23534 1
gene 1 6 8 5.06203 0 6 5.06203 1
gene 2 7 8 1.95417 0 7 1.95417 1
gene 1 4 30 -1.34025 0 51 -1.34025 1
gene 1 30 8 -8 0 52 -8 1
genomeend 121

/* Organism #122 Fitness: 33 Error: 0 */
genomestart 122
trait 1 0.075 0.0703125 0 0.23839 0 0 0.0281494 0 
trait 2 0.710357 0.627394 0 0 0.265301 0.469847 0.119362 0 
trait 3 0.3 0 0 0 0 0 0 0 
node 1 1 1 1
node 2 3 1 1
node 3 1 1 1
node 4 3 1 1
node 5 2 1 1
node 6 3 1 1
node 7 1 1 3
node 8 1 0 2
node 30 1 0 0
gene 3 1 8 3.66417 0 1 3.66417 1
gene 1 2 8 -3.21693 0 2 -3.21693 1
gene 2 3 8 0.867518 0 3 0.867518 1
gene 1 4 8 -7.91989 0 4 -7.91989 0
gene 1 5 8 8 0 5 8 1
gene 1 6 8 8 0 6 8 1
gene 2 7 8 5.81515 0 7 5.81515 1
gene 1 4 30 2.50485 0 51 2.50485 1
gene 1 30 8 -8 0 52 -8 1
genomeend 122

/* Organism #123 Fitness: 47 Error: 0 */
genomestart 123
trait 1 0.075 0.0703125 0 0.23839 0 0 0.0281494 0 
trait 2 0.710357 0.627394 0 0 0.265301 0.469847 0.119362 0 
trait 3 0.3 0 0 0 0 0 0 0 
node 1 1 1 1
node 2 3 1 1
node 3 1 1 1
node 4 3 1 1
node 5 2 1 1
node 6 3 1 1
node 7 1 1 3
node 8 1 0 2
node 30 1 0 0
gene 3 1 8 1.39871 0 1 1.39871 1
gene 1 2 8 -1.40316 0 2 -1.40316 1
gene 2 3 8 -0.638648 0 3 -0.638648 1
gene 1 4 8 -8 0 4 -8 1
gene 1 5 8 5.79246 0 5 5.79246 1
gene 1 6 8 6.62448 0 6 6.62448 1
gene 2 7 8 2.59739 0 7 2.59739 1
gene 1 4 30 0.121271 0 51 0.121271 1
gene 1 30 8 -7.26542 0 52 -7.26542 1
gene 2 2 30 -0.152799 0 84 -0.152799 1
genomeend 123

/* Organism #124 Fitness: 34 Error: 0 */
genomestart 124
trait 1 0.1 0 0 0 0 0 0 0 
trait 2 0.6 0.254788 0 0 0 0 0.119362 0 
trait 3 0.3 0 0 0 0 0 0 0 
node 1 1 1 1
node 2 3 1 1
node 3 1 1 1
node 4 3 1 1
node 5 2 1 1
node 6 3 1 1
node 7 1 1 3
node 8 1 0 2
node 30 1 0 0
gene 3 1 8 4.56187 0 1 4.56187 1
gene 1 2 8 -3.41619 0 2 -3.41619 1
gene 2 3 8 -0.966012 0 3 -0.966012 1
gene 1 4 8 -8 0 4 -8 0
gene 1 5 8 3.93753 0 5 3.93753 1
gene 1 6 8 4.45776 0 6 4.45776 1
gene 2 7 8 1.50585 0 7 1.50585 1
gene 1 4 30 1.70979 0 51 1.70979 1
gene 1 30 8 -2.96732 0 52 -2.96732 1
genomeend 124

/* Organism #125 Fitness: 44 Error: 0 */
genomestart 125
trait 1 0.1 0 0 0 0 0 0 0 
trait 2 0.710357 0.627394 0 0 0.265301 0.469847 0.119362 0 
trait 3 0.3 0 0 0 0 0 0 0 
node 1 1 1 1
node 2 3 1 1
node 3 1 1 1
node 4 3 1 1
node 5 2 1 1
node 6 3 1 1
node 7 1 1 3
node 8 1 0 2
node 30 1 0 0
gene 3 1 8 8 0 1 8 1
gene 1 2 8 1.07035 0 2 1.07035 1
gene 2 3 8 1.37592 0 3 1.37592 1
gene 1 4 8 -8 0 4 -8 0
gene 1 5 8 6.67698 0 5 6.67698 1
gene 1 6 8 8 0 6 8 1
gene 2 7 8 0.411531 0 7 0.411531 1
gene 1 4 30 2.33768 0 51 2.33768 1
gene 1 30 8 -8 0 52 -8 1
genomeend 125

/* Organism #126 Fitness: 34 Error: 0 */
genomestart 126
trait 1 0.1 0 0 0 0 0 0 0 
trait 2 0.6 0.254788 0 0 0 0 0.119362 0 
trait 3 0.3 0 0 0 0 0 0 0 
node 1 1 1 1
node 2 3 1 1
node 3 1 1 1
node 4 3 1 1
node 5 2 1 1
node 6 3 1 1
node 7 1 1 3
node 8 1 0 2
node 30 1 0 0
gene 3 1 8 4.65842 0 1 4.65842 1
gene 1 2 8 -2.08602 0 2 -2.08602 1
gene 2 3 8 -3.85115 0 3 -3.85115 1
gene 1 4 8 -8 0 4 -8 0
gene 1 5 8 1.82114 0 5 1.82114 1
gene 1 6 8 4.72216 0 6 4.72216 1
gene 2 7 8 1.30692 0 7 1.30692 1
gene 1 4 30 0.218782 0 51 0.218782 1
gene 1 30 8 -1.19879 0 52 -1.19879 1
genomeend 126

/* Organism #127 Fitness: 29 Error: 0 */
genomestart 127
trait 1 0.1 0 0 0 0 0 0 0 
trait 2 0.6 0.254788 0 0 0 0 0.119362 0 
trait 3 0.3 0 0 0 0 0 0 0 
node 1 1 1 1
node 2 3 1 1
node 3 1 1 1
node 4 3 1 1
node 5 2 1 1
node 6 3 1 1
node 7 1 1 3
node 8 1 0 2
node 30 1 0 0
gene 3 1 8 2.78855 0 1 2.78855 1
gene 1 2 8 -2.4017 0 2 -2.4017 1
gene 2 3 8 -0.626167 0 3 -0.626167 1
gene 1 4 8 -5.81921 0 4 -5.81921 0
gene 1 5 8 5.74173 0 5 5.74173 1
gene 1 6 8 8 0 6 8 1
gene 2 7 8 2.2099 0 7 2.2099 1
gene 1 4 30 1.90636 0 51 1.90636 1
gene 1 30 8 -0.709699 0 52 -0.709699 1
genomeend 127

/* Organism #128 Fitness: 43 Error: 0 */
genomestart 128
trait 1 0.1 0 0 0 0 0 0 0 
trait 2 0.820715 1 0 0 0.530601 0.939695 0.119362 0 
trait 3 0.3 0 0 0 0 0 0 0 
node 1 1 1 1
node 2 1 1 1
node 3 1 1 1
node 4 3 1 1
node 5 2 1 1
node 6 3 1 1
node 7 1 1 3
node 8 1 0 2
node 30 1 0 0
gene 3 1 8 4.37558 0 1 4.37558 1
gene 1 2 8 -2.74646 0 2 -2.74646 1
gene 2 3 8 -2.33764 0 3 -2.33764 1
gene 1 4 8 -8 0 4 -8 0
gene 1 5 8 6.57701 0 5 6.57701 1
gene 1 6 8 5.16045 0 6 5.16045 1
gene 2 7 8 0.974946 0 7 0.974946 1
gene 1 4 30 1.22288 0 51 1.22288 1
gene 1 30 8 -8 0 52 -8 1
genomeend 128

/* Organism #129 Fitness: 52 Error: 0 */
genomestart 129
trait 1 0.1 0 0 0 0 0 0 0 
trait 2 0.820715 1 0 0 0.530601 0.939695 0.119362 0 
trait 3 0.3 0 0 0 0 0 0 0 
node 1 1 1 1
node 2 3 1 1
node 3 1 1 1
node 4 3 1 1
node 5 2 1 1
node 6 3 1 1
node 7 1 1 3
node 8 1 0 2
node 30 1 0 0
gene 3 1 8 4.16364 0 1 4.16364 1
gene 1 2 8 -1.13509 0 2 -1.13509 1
gene 2 3 8 1.77437 0 3 1.77437 1
gene 1 4 8 -8 0 4 -8 0
gene 1 5 8 8 0 5 8 1
gene 1 6 8 8 0 6 8 1
gene 2 7 8 1.42385 0 7 1.42385 1
gene 1 4 30 4.2596 0 51 4.2596 1
gene 1 30 8 -5.33967 0 52 -5.33967 1
genomeend 129

/* Organism #130 Fitness: 43 Error: 0 */
genomestart 130
trait 1 0.05 0.140625 0 0.47678 0 0 0.0562988 0 
trait 2 0.6 0.254788 0 0 0 0 0.119362 0 
trait 3 0.3 0 0 0 0 0 0 0 
node 1 1 1 1
node 2 3 1 1
node 3 1 1 1
node 4 3 1 1
node 5 2 1 1
node 6 3 1 1
node 7 1 1 3
node 8 1 0 2
node 30 1 0 0
gene 3 1 8 1.26497 0 1 1.26497 1
gene 1 2 8 -2.66144 0 2 -2.66144 1
gene 2 3 8 2.42242 0 3 2.42242 1
gene 1 4 8 -6.59255 0 4 -6.59255 0
gene 2 5 8 4.39912 0 5 4.39912 1
gene 1 6 8 7.57043 0 6 7.57043 1
gene 2 7 8 2.59704 0 7 2.59704 1
gene 1 4 30 -1.96608 0 51 -1.96608 1
gene 1 30 8 -8 0 52 -8 1
genomeend 130

/* Organism #131 Fitness: 49 Error: 0 */
genomestart 131
trait 1 0.075 0.0703125 0 0.23839 0 0 0.0281494 0 
trait 2 0.8 0.356217 0 0 0 0 0.559681 0 
trait 3 0.3 0 0 0 0 0 0 0 
node 1 1 1 1
node 2 3 1 1
node 3 1 1 1
node 4 3 1 1
node 5 2 1 1
node 6 3 1 1
node 7 1 1 3
node 8 1 0 2
node 30 1 0 0
gene 3 1 8 1.80841 0 1 1.80841 1
gene 1 2 8 -1.43309 0 2 -1.43309 1
gene 2 3 8 0.283073 0 3 0.283073 1
gene 1 4 8 -7.5711 0 4 -7.5711 0
gene 1 5 8 5.62162 0 5 5.62162 1
gene 1 6 8 6.53102 0 6 6.53102 1
gene 2 7 8 3.087 0 7 3.087 1
gene 1 4 30 -1.15109 0 51 -1.15109 1
gene 1 30 8 -7.26542 0 52 -7.26542 1
genomeend 131

/* Organism #132 Fitness: 43 Error: 0 */
genomestart 132
trait 1 0.1 0 0 0 0 0 0 0 
trait 2 0.710357 0.627394 0 0 0.265301 0.469847 0.119362 0 
trait 3 0.3 0 0 0 0.241813 0 0.0145987 0 
node 1 1 1 1
node 2 3 1 1
node 3 1 1 1
node 4 3 1 1
node 5 2 1 1
node 6 3 1 1
node 7 1 1 3
node 8 1 0 2
node 30 1 0 0
gene 3 1 8 3.33698 0 1 3.33698 1
gene 1 2 8 1.85201 0 2 1.85201 1
gene 2 3 8 -0.837409 0 3 -0.837409 1
gene 1 4 8 -7.21295 0 4 -7.21295 0
gene 1 5 8 8 0 5 8 1
gene 1 6 8 8 0 6 8 1
gene 2 7 8 4.2287 0 7 4.2287 1
gene 1 4 30 1.28057 0 51 1.28057 1
gene 1 30 8 -3.42368 0 52 -3.42368 1
genomeend 132

/* Organism #133 Fitness: 33 Error: 0 */
genomestart 133
trait 1 0.1 0 0 0 0 0 0 0 
trait 2 0.910357 0.728823 0 0 0.265301 0.469847 0.559681 0 
trait 3 0.3 0 0 0 0 0 0 0 
node 1 1 1 1
node 2 3 1 1
node 3 1 1 1
node 4 3 1 1
node 5 2 1 1
node 6 3 1 1
node 7 1 1 3
node 8 1 0 2
node 30 1 0 0
gene 3 1 8 3.8757 0 1 3.8757 1
gene 1 2 8 0.173932 0 2 0.173932 1
gene 2 3 8 -2.04352 0 3 -2.04352 1
gene 1 4 8 -5.95895 0 4 -5.95895 0
gene 1 5 8 5.12682 0 5 5.12682 1
gene 1 6 8 6.6195 0 6 6.6195 1
gene 2 7 8 0.974946 0 7 0.974946 1
gene 1 4 30 0.552449 0 51 0.552449 1
gene 1 30 8 -8 0 52 -8 1
genomeend 133

/* Organism #134 Fitness: 62 Error: 0 */
genomestart 134
trait 1 0.1 0 0 0 0 0 0 0 
trait 2 1 0.457646 0 0 0 0 1 0 
trait 3 0.3 0 0 0 0 0 0 0 
node 1 1 1 1
node 2 3 1 1
node 3 1 1 1
node 4 3 1 1
node 5 2 1 1
node 6 3 1 1
node 7 1 1 3
node 8 1 0 2
node 30 1 0 0
gene 3 1 8 2.98447 0 1 2.98447 1
gene 1 2 8 -0.490937 0 2 -0.490937 1
gene 2 3 8 -0.129913 0 3 -0.129913 1
gene 1 4 8 -7.1422 0 4 -7.1422 0
gene 1 5 8 6.23534 0 5 6.23534 1
gene 1 6 8 5.06203 0 6 5.06203 1
gene 2 7 8 1.95417 0 7 1.95417 1
gene 1 4 30 -1.34025 0 51 -1.34025 1
gene 1 30 8 -8 0 52 -8 1
genomeend 134

/* Organism #135 Fitness: 34 Error: 0 */
genomestart 135
trait 1 0.075 0.0703125 0 0.23839 0 0 0.0281494 0 
trait 2 0.710357 0.627394 0 0 0.265301 0.469847 0.119362 0 
trait 3 0 0.61125 0 0 0 0 0 0 
node 1 1 1 1
node 2 3 1 1
node 3 1 1 1
node 4 3 1 1
node 5 2 1 1
node 6 3 1 1
node 7 1 1 3
node 8 1 0 2
node 30 1 0 0
gene 3 1 8 2.8427 0 1 2.8427 1
gene 1 2 8 -2.04955 0 2 -2.04955 1
gene 2 3 8 -1.96271 0 3 -1.96271 1
gene 1 4 8 -8 0 4 -8 0
gene 1 5 8 6.62606 0 5 6.62606 1
gene 1 6 8 8 0 6 8 1
gene 2 7 8 5.47555 0 7 5.47555 1
gene 1 4 30 4.45515 0 51 4.45515 1
gene 1 30 8 -6.56383 0 52 -6.56383 1
genomeend 135

/* Organism #136 Fitness: 37 Error: 0 */
genomestart 136
trait 1 0.1 0 0 0 0 0 0 0 
trait 2 0.710357 0.627394 0 0 0.265301 0.469847 0.119362 0 
trait 3 0.3 0 0 0 0 0 0 0 
node 1 1 1 1
node 2 3 1 1
node 3 1 1 1
node 4 3 1 1
node 5 2 1 1
node 6 3 1 1
node 7 1 1 3
node 8 1 0 2
node 30 1 0 0
gene 3 1 8 2.35575 0 1 2.35575 1
gene 1 2 8 -1.17186 0 2 -1.17186 1
gene 2 3 8 0.223671 0 3 0.223671 1
gene 1 4 8 -8 0 4 -8 0
gene 1 5 8 5.0079 0 5 5.0079 1
gene 1 6 8 5.98395 0 6 5.98395 1
gene 2 7 8 0.626839 0 7 0.626839 1
gene 1 4 30 1.63469 0 51 1.63469 1
gene 1 30 8 -7.51566 0 52 -7.51566 1
genomeend 136

/* Organism #137 Fitness: 44 Error: 0 */
genomestart 137
trait 1 0.075 0.0703125 0 0.23839 0 0 0.0281494 0 
trait 2 0.710357 0.627394 0 0 0.265301 0.469847 0.119362 0 
trait 3 0.3 0 0 0 0 0 0 0 
node 1 1 1 1
node 2 1 1 1
node 3 1 1 1
node 4 3 1 1
node 5 2 1 1
node 6 3 1 1
node 7 1 1 3
node 8 1 0 2
node 30 1 0 0
gene 3 1 8 0.632361 0 1 0.632361 1
gene 1 2 8 -0.431077 0 2 -0.431077 1
gene 2 3 8 0.696059 0 3 0.696059 1
gene 1 4 8 -8 0 4 -8 0
gene 1 5 8 5.0079 0 5 5.0079 1
gene 1 6 8 5.24896 0 6 5.24896 1
gene 2 7 8 4.21983 0 7 4.21983 1
gene 1 4 30 1.20447 0 51 1.20447 1
gene 1 30 8 -6.53084 0 52 -6.53084 1
gene 1 7 30 0.638835 0 85 0.638835 1
genomeend 137

/* Organism #138 Fitness: 49 Error: 0 */
genomestart 138
trait 1 0.1 0 0 0 0 0 0 0 
trait 2 0.710357 0.627394 0 0 0.265301 0.469847 0.119362 0 
trait 3 0.3 0 0 0 0 0 0 0 
node 1 1 1 1
node 2 3 1 1
node 3 1 1 1
node 4 3 1 1
node 5 2 1 1
node 6 3 1 1
node 7 1 1 3
node 8 1 0 2
node 30 1 0 0
gene 3 1 8 2.65329 0 1 2.65329 1
gene 1 2 8 1.14345 0 2 1.14345 1
gene 2 3 8 -1.57884 0 3 -1.57884 1
gene 1 4 8 -6.70846 0 4 -6.70846 0
gene 1 5 8 5.81487 0 5 5.81487 1
gene 1 6 8 6.48783 0 6 6.48783 1
gene 2 7 8 1.66111 0 7 1.66111 1
gene 1 4 30 3.2734 0 51 3.2734 1
gene 1 30 8 -6.09409 0 52 -6.09409 1
genomeend 138

/* Organism #139 Fitness: 45 Error: 0 */
genomestart 139
trait 1 0.1 0 0 0 0 0 0 0 
trait 2 0.710357 0.627394 0 0 0.265301 0.469847 0.119362 0 
trait 3 0.3 0 0 0 0 0 0 0 
node 1 1 1 1
node 2 3 1 1
node 3 1 1 1
node 4 3 1 1
node 5 2 1 1
node 6 3 1 1
node 7 1 1 3
node 8 1 0 2
node 30 1 0 0
gene 3 1 8 0.10802 0 1 0.10802 1
gene 1 2 8 -0.873778 0 2 -0.873778 1
gene 2 3 8 0.327838 0 3 0.327838 1
gene 1 4 8 -8 0 4 -8 0
gene 1 5 8 8 0 5 8 1
gene 1 6 8 6.88159 0 6 6.88159 1
gene 2 7 8 1.77033 0 7 1.77033 1
gene 1 4 30 2.40411 0 51 2.40411 1
gene 1 30 8 -6.9188 0 52 -6.9188 1
genomeend 139

/* Organism #140 Fitness: 40 Error: 0 */
genomestart 140
trait 1 0.1 0 0 0 0 0 0 0 
trait 2 0.6 0.254788 0 0 0 0 0.119362 0 
trait 3 0.3 0 0 0 0 0 0 0 
node 1 1 1 1
node 2 3 1 1
node 3 1 1 1
node 4 3 1 1
node 5 2 1 1
node 6 3 1 1
node 7 1 1 3
node 8 1 0 2
node 30 1 0 0
gene 3 1 8 2.58785 0 1 2.58785 1
gene 1 2 8 -1.05013 0 2 -1.05013 1
gene 2 3 8 0.574262 0 3 0.574262 1
gene 1 4 8 -3.96412 0 4 -3.96412 0
gene 1 5 8 5.48414 0 5 5.48414 1
gene 1 6 8 5.00535 0 6 5.00535 1
gene 2 7 8 1.83136 0 7 1.83136 1
gene 1 4 30 1.67325 0 51 1.67325 1
gene 1 30 8 -7.67095 0 52 -7.67095 1
genomeend 140

/* Organism #141 Fitness: 29 Error: 0 */
genomestart 141
trait 1 0.1 0 0 0 0 0 0 0 
trait 2 1 0.457646 0 0 0 0 1 0 
trait 3 0.3 0 0 0 0 0 0 0 
node 1 1 1 1
node 2 3 1 1
node 3 1 1 1
node 4 3 1 1
node 5 2 1 1
node 6 2 1 1
node 7 1 1 3
node 8 1 0 2
node 30 1 0 0
gene 3 1 8 2.98447 0 1 2.98447 1
gene 1 2 8 -2.31427 0 2 -2.31427 1
gene 2 3 8 1.65548 0 3 1.65548 1
gene 1 4 8 -8 0 4 -8 0
gene 1 5 8 5.16857 0 5 5.16857 1
gene 1 6 8 2.98752 0 6 2.98752 1
gene 2 7 8 2.92868 0 7 2.92868 1
gene 1 4 30 -1.34025 0 51 -1.34025 1
gene 1 30 8 -1.40049 0 52 -1.40049 1
genomeend 141

/* Organism #142 Fitness: 45 Error: 0 */
genomestart 142
trait 1 0.1 0 0 0 0 0 0 0 
trait 2 0.710357 0.627394 0 0 0.265301 0.469847 0.119362 0 
trait 3 0.3 0 0 0 0 0 0 0 
node 1 1 1 1
node 2 1 1 1
node 3 1 1 1
node 4 3 1 1
node 5 2 1 1
node 6 3 1 1
node 7 1 1 3
node 8 1 0 2
node 30 3 0 0
gene 3 1 8 3.25044 0 1 3.25044 1
gene 1 2 8 0.94227 0 2 0.94227 1
gene 2 3 8 -3.18352 0 3 -3.18352 1
gene 1 4 8 -5.18463 0 4 -5.18463 1
gene 1 5 8 5.28764 0 5 5.28764 1
gene 1 6 8 6.46424 0 6 6.46424 1
gene 2 7 8 2.74244 0 7 2.74244 1
gene 1 4 30 0.0118724 0 51 0.0118724 1
gene 1 30 8 -5.3795 0 52 -5.3795 1
genomeend 142

/* Organism #143 Fitness: 107 Error: 0 */
genomestart 143
trait 1 0.1 0 0 0 0 0 0 0 
trait 2 0.6 0.254788 0 0 0 0 0.119362 0 
trait 3 0.3 0 0 0 0 0 0 0 
node 1 1 1 1
node 2 3 1 1
node 3 1 1 1
node 4 3 1 1
node 5 2 1 1
node 6 3 1 1
node 7 1 1 3
node 8 1 0 2
node 30 1 0 0
gene 3 1 8 2.35575 0 1 2.35575 1
gene 1 2 8 -1.17186 0 2 -1.17186 1
gene 2 3 8 -1.51448 0 3 -1.51448 1
gene 1 4 8 -8 0 4 -8 1
gene 1 5 8 5.0079 0 5 5.0079 1
gene 1 6 8 5.98395 0 6 5.98395 1
gene 2 7 8 0.626839 0 7 0.626839 1
gene 1 4 30 1.63469 0 51 1.63469 1
gene 1 30 8 -1.19879 0 52 -1.19879 1
genomeend 143

/* Organism #144 Fitness: 40 Error: 0 */
genomestart 144
trait 1 0.1 0 0 0 0 0 0 0 
trait 2 0.710357 0.627394 0 0 0.265301 0.469847 0.119362 0 
trait 3 0.3 0 0 0 0 0 0 0 
node 1 1 1 1
node 2 1 1 1
node 3 1 1 1
node 4 3 1 1
node 5 2 1 1
node 6 3 1 1
node 7 1 1 3
node 8 1 0 2
node 30 1 0 0
gene 3 1 8 2.52453 0 1 2.52453 1
gene 1 2 8 -0.216545 0 2 -0.216545 1
gene 2 3 8 -2.61796 0 3 -2.61796 1
gene 1 4 8 -6.77079 0 4 -6.77079 0
gene 1 5 8 7.79812 0 5 7.79812 1
gene 1 6 8 7.7256 0 6 7.7256 1
gene 2 7 8 1.60486 0 7 1.60486 1
gene 1 4 30 1.40321 0 51 1.40321 1
gene 1 30 8 -7.16886 0 52 -7.16886 1
genomeend 144

/* Organism #145 Fitness: 26 Error: 0 */
genomestart 145
trait 1 0.05 0.140625 0 0.47678 0 0 0.0562988 0 
trait 2 0.6 0.254788 0 0 0 0 0.119362 0 
trait 3 0.3 0 0 0 0 0 0 0 
node 1 1 1 1
node 2 3 1 1
node 3 1 1 1
node 4 3 1 1
node 5 2 1 1
node 6 3 1 1
node 7 1 1 3
node 8 1 0 2
node 30 1 0 0
gene 3 1 8 -2.14305 0 1 -2.14305 1
gene 1 2 8 -2.37524 0 2 -2.37524 1
gene 2 3 8 1.07454 0 3 1.07454 1
gene 1 4 8 -8 0 4 -8 0
gene 1 5 8 2.71473 0 5 2.71473 1
gene 1 6 8 8 0 6 8 1
gene 2 7 8 3.68501 0 7 3.68501 1
gene 1 4 30 1.17952 0 51 1.17952 1
gene 1 30 8 -8 0 52 -8 1
genomeend 145

/* Organism #146 Fitness: 40 Error: 0 */
genomestart 146
trait 1 0.1 0 0 0 0 0 0 0 
trait 2 0.820715 1 0 0 0.530601 0.939695 0.119362 0 
trait 3 0.3 0 0 0 0 0 0 0 
node 1 2 1 1
node 2 1 1 1
node 3 1 1 1
node 4 3 1 1
node 5 2 1 1
node 6 3 1 1
node 7 1 1 3
node 8 1 0 2
node 30 1 0 0
gene 3 1 8 0.347792 0 1 0.347792 1
gene 1 2 8 -0.249629 0 2 -0.249629 1
gene 2 3 8 -1.97335 0 3 -1.97335 1
gene 1 4 8 -8 0 4 -8 0
gene 1 5 8 6.57701 0 5 6.57701 1
gene 1 6 8 6.91934 0 6 6.91934 1
gene 2 7 8 1.59185 0 7 1.59185 1
gene 1 4 30 -0.59307 0 51 -0.59307 1
gene 1 30 8 -8 0 52 -8 1
genomeend 146

/* Organism #147 Fitness: 38 Error: 0 */
genomestart 147
trait 1 0.1 0 0 0 0 0 0 0 
trait 2 0.6 0.254788 0 0 0 0 0.119362 0 
trait 3 0.3 0 0 0 0 0 0 0 
node 1 1 1 1
node 2 3 1 1
node 3 1 1 1
node 4 3 1 1
node 5 2 1 1
node 6 3 1 1
node 7 1 1 3
node 8 1 0 2
node 30 1 0 0
gene 3 1 8 3.42655 0 1 3.42655 1
gene 1 2 8 -1.80516 0 2 -1.80516 1
gene 2 3 8 1.22332 0 3 1.22332 1
gene 1 4 8 -8 0 4 -8 0
gene 1 5 8 6.60744 0 5 6.60744 1
gene 1 6 8 6.8499 0 6 6.8499 1
gene 2 7 8 -2.05871 0 7 -2.05871 1
gene 1 4 30 -0.0015845 0 51 -0.0015845 1
gene 1 30 8 0.940596 0 52 0.940596 1
genomeend 147

/* Species #4 : (Size 1) (AF 31) (Age 1)  */


/* Organism #148 Fitness: 31 Error: 0 */
genomestart 148
trait 1 0.1 0 0 0 0 0 0 0 
trait 2 0.2 0 0 0 0 0 0 0 
trait 3 0.3 0 0 0 0 0 0 0 
node 1 1 1 1
node 2 3 1 1
node 3 1 1 1
node 4 3 1 1
node 5 2 1 1
node 6 3 1 1
node 7 1 1 3
node 8 1 0 2
node 25 1 0 0
node 36 1 0 0
gene 1 1 8 -1.95605 0 1 -1.95605 1
gene 3 2 8 0.701679 0 2 0.701679 0
gene 2 3 8 0.652431 0 3 0.652431 1
gene 3 4 8 2.2479 0 4 2.2479 1
gene 1 5 8 0.327888 0 5 0.327888 1
gene 2 6 8 3.72829 0 6 3.72829 1
gene 3 7 8 3.08874 0 7 3.08874 1
gene 3 2 25 2.48916 0 40 2.48916 1
gene 3 25 8 -1.45459 0 41 -1.45459 1
gene 1 6 25 -0.523386 0 46 -0.523386 1
gene 3 25 36 1.45334 0 70 1.45334 1
gene 3 36 8 -2.4073 0 71 -2.4073 1
genomeend 148

/* Species #5 : (Size 1) (AF 7) (Age 1)  */


/* Organism #149 Fitness: 7 Error: 0 */
genomestart 149
trait 1 0.1 0 0 0 0 0 0 0 
trait 2 0.2 0 0 0 0 0 0 0 
trait 3 0.3 0 0 0 0 0 0 0 
node 1 1 1 1
node 2 3 1 1
node 3 1 1 1
node 4 3 1 1
node 5 2 1 1
node 6 3 1 1
node 7 1 1 3
node 8 1 0 2
node 25 1 0 0
node 36 1 0 0
node 40 1 0 0
gene 1 1 8 -2.52234 0 1 -2.52234 1
gene 3 2 8 -2.23322 0 2 -2.23322 0
gene 2 3 8 -4.02551 0 3 -4.02551 1
gene 3 4 8 -5.52727 0 4 -5.52727 0
gene 1 5 8 1.39833 0 5 1.39833 1
gene 2 6 8 1.83226 0 6 1.83226 1
gene 3 7 8 -1.24955 0 7 -1.24955 1
gene 3 2 25 1.09076 0 40 1.09076 1
gene 3 25 8 -0.152106 0 41 -0.152106 0
gene 1 6 25 -1.62743 0 46 -1.62743 1
gene 3 25 36 1 0 70 0 1
gene 3 36 8 -0.0590837 0 71 0 1
gene 3 4 40 1 0 79 0 1
gene 3 40 8 -5.52727 0 80 0 1
genomeend 149
